{"W1": [[0.459852397441864, 0.15885639190673828, -0.38935306668281555, -0.06205771118402481, 0.6402530670166016, 0.529604971408844, -0.4876784086227417, -0.31655919551849365, 0.20504237711429596, -0.28301289677619934, 0.289456844329834, 0.4612378776073456, -0.07058308273553848, -0.38233572244644165, 0.04249134287238121, -0.5834872126579285, -0.3936254680156708, -0.2296900749206543, -0.3265893757343292, 0.3051947355270386, 0.07516057044267654, 0.08048538118600845, 0.048589035868644714, -0.21682795882225037, 0.01752534508705139, -0.3367059826850891, 0.2408459186553955, -0.211692214012146, 0.45255687832832336, 0.49661487340927124, -0.44270214438438416, 0.02193743735551834, 0.5087600946426392, -0.2012229561805725, 0.2846662700176239, -0.0768120288848877, -0.046178363263607025, 0.5615572929382324, 0.1604004204273224, 0.5769601464271545, -0.8471154570579529, -0.41013291478157043, -0.4203736484050751, -0.1891765594482422, 0.40676435828208923, -0.4138709306716919, 0.11583231389522552, -0.4297890067100525, 0.03361375257372856, -0.354473739862442, 0.7564796209335327, -0.3811279237270355, 0.42214253544807434, 0.4357210397720337, 0.6007037162780762, -0.381122887134552, -0.1405620574951172, 0.08550379425287247, 0.3206753134727478, -0.36479881405830383, 0.5288906097412109, -0.14136607944965363, -0.029984261840581894, 0.11793909966945648], [0.09385666251182556, 0.21071133017539978, 0.16716524958610535, -0.29912498593330383, 0.5766512155532837, 0.12172728031873703, -0.26483866572380066, -0.05539625138044357, 0.10533033311367035, -0.11731776595115662, 0.0590132474899292, 0.3543298840522766, -0.33513733744621277, -0.14359933137893677, 0.010024361312389374, 0.5502163767814636, -0.6756808757781982, -0.41178902983665466, -0.11385048180818558, 0.6257101893424988, -0.2749929428100586, 0.13746216893196106, -0.5367333292961121, 0.37243086099624634, 0.07232151925563812, -0.3660805821418762, -0.5195751786231995, 0.343626469373703, -0.36197808384895325, -0.38183942437171936, 0.1236657053232193, -0.0033010111656039953, -0.32990506291389465, -0.29072269797325134, -0.5297113656997681, -0.16983605921268463, 0.24683016538619995, -0.23659883439540863, -0.2580909729003906, -0.1739993542432785, -0.786723256111145, -0.04828602075576782, -0.24138064682483673, -0.18475289642810822, -0.1042058989405632, -0.29206064343452454, 0.44957199692726135, 0.006544370669871569, -0.5481293201446533, -0.289703905582428, -0.16726955771446228, 0.3900556266307831, 0.3461318016052246, 0.34561973810195923, -0.363670289516449, -0.15603920817375183, 0.34833917021751404, 0.1362471729516983, -0.5272189378738403, 0.12254465371370316, 0.3884640336036682, -0.17952269315719604, -0.228913813829422, 0.7411973476409912], [0.2577250897884369, 0.3061733841896057, -0.08468583971261978, 0.05631308630108833, -0.10977266728878021, -0.08044163882732391, 0.02472112886607647, -0.10052643716335297, 0.28054898977279663, 0.05694106966257095, -0.3309534788131714, -0.3700941503047943, -0.31172916293144226, 0.018157074227929115, 0.42869237065315247, -0.8673683404922485, -0.33547869324684143, -0.03602028638124466, -0.04166650027036667, 0.361526757478714, 0.07472304254770279, -0.05139647051692009, 0.4242470860481262, 0.15623214840888977, -0.09804332256317139, 0.013153213076293468, -0.1579221785068512, -0.01000144612044096, -0.10985398292541504, 0.6650161147117615, 0.27576935291290283, -0.1712605506181717, 0.13360244035720825, -0.08598726987838745, 0.3780559301376343, -0.2095390111207962, 0.430656373500824, 0.4009952247142792, -0.2738799750804901, 0.16663752496242523, 0.4202343821525574, 0.0941370278596878, 0.2796761989593506, 0.023294543847441673, -0.16219425201416016, -0.037754181772470474, 0.2926155626773834, 0.07272917777299881, -0.3242828845977783, 0.047019112855196, 0.12153758108615875, 0.07757442444562912, -0.26879528164863586, 0.4547700881958008, 0.4553513824939728, 0.11485502868890762, 0.0077638146467506886, -0.09772331267595291, -0.09315253049135208, 0.23601491749286652, 0.7109869718551636, -0.01289549469947815, -0.09564043581485748, 0.1969659924507141], [-0.015151518397033215, 0.23709698021411896, 0.1581270396709442, 0.3138045072555542, 0.003662911243736744, -0.20080670714378357, 0.30597740411758423, 0.8258218765258789, 0.10128021240234375, 0.12817735970020294, 0.23436883091926575, 0.11011050641536713, 0.34148070216178894, 0.27299803495407104, 0.1566341370344162, 0.12452404946088791, 0.045579660683870316, -0.32304733991622925, 0.450693279504776, -0.34393906593322754, 0.543150782585144, 0.04954124614596367, 0.1837785542011261, 0.5256056189537048, 0.6830986738204956, 0.009963796474039555, 0.15058524906635284, 0.23357705771923065, -0.05460969731211662, -0.11535836011171341, 0.06092541292309761, 0.0278092660009861, -0.060327667742967606, 0.1429864466190338, 0.3463402986526489, -0.4550923705101013, 0.15749476850032806, 0.11068955063819885, -0.2770456373691559, -0.05817105621099472, -0.20245295763015747, 0.14828471839427948, 0.22839823365211487, -0.018525762483477592, -0.0479249469935894, 0.6260002851486206, 0.17355194687843323, -0.23904064297676086, -0.09623927623033524, -0.5728969573974609, -0.12056754529476166, 0.26655590534210205, 0.1234402135014534, 0.1284189224243164, 0.007520204409956932, 0.15820464491844177, -0.2777097225189209, -0.046171776950359344, 0.28270718455314636, -0.13241204619407654, -0.21038135886192322, -0.22617585957050323, -0.3012140095233917, 0.05976908281445503], [0.09233555197715759, 0.014546583406627178, -0.04261045530438423, -0.15050947666168213, -0.2411264181137085, -0.21991755068302155, 0.36725905537605286, 0.4320697784423828, -0.013182230293750763, -0.47097140550613403, -0.028104007244110107, 0.06199021264910698, -0.20335383713245392, 0.2927987277507782, -0.2508467435836792, 0.03434108570218086, 0.10788165032863617, -0.641102135181427, 0.3430817723274231, 0.2037624716758728, -0.046158380806446075, 0.2378755658864975, -0.07584432512521744, 0.1462830901145935, 0.10750464349985123, -0.374362051486969, -0.0007332391105592251, 0.5036393404006958, -0.003657739842310548, -0.11577100306749344, -0.06344166398048401, 0.0058531430549919605, 0.09026093780994415, -0.17576278746128082, -0.06907809525728226, -0.36118945479393005, -0.058191850781440735, 0.0341840423643589, -0.3205961585044861, 0.2254294455051422, 0.18507075309753418, 0.23081444203853607, 0.048232752829790115, 0.056086570024490356, 0.07434201240539551, 0.27636680006980896, -0.10574682801961899, -0.16645556688308716, 0.0760345607995987, -0.5616637468338013, 0.08993224054574966, 0.5717108845710754, -0.19327501952648163, 0.06868346780538559, 0.14703847467899323, -0.501555323600769, 0.5461009740829468, 0.17821460962295532, 0.035402700304985046, 0.26022201776504517, -0.09427912533283234, -0.3001827895641327, 0.029798733070492744, 0.02176019363105297], [0.05346501246094704, 0.1328812837600708, 0.01024689245969057, -0.17165011167526245, -0.0451788529753685, -0.10387635231018066, -0.1884896606206894, -0.14895634353160858, -0.003818622324615717, -0.18081974983215332, 0.059179794043302536, -0.004937177058309317, 0.05254487693309784, -0.09836560487747192, -0.18868869543075562, -0.0019917800091207027, -0.020437948405742645, -0.22229893505573273, -0.05151990428566933, 0.04759176820516586, -0.19175934791564941, -0.22047381103038788, 0.12312383949756622, 0.38278061151504517, 0.09832332283258438, 0.3133319616317749, -0.09084589779376984, 0.20933011174201965, -0.007990325801074505, -0.30349090695381165, 0.24729874730110168, -0.11105595529079437, 0.018120568245649338, -0.05926811322569847, 0.10095648467540741, 0.05802939087152481, -0.026861809194087982, 0.17266590893268585, -0.10838575661182404, 0.0529259592294693, -0.09340965002775192, -0.010937275364995003, 0.21698296070098877, -0.23773962259292603, -0.006132493726909161, 0.029633039608597755, -0.02749517560005188, 0.16633740067481995, -0.22203411161899567, -0.14343570172786713, -0.02679440751671791, 0.2816167175769806, 0.024548819288611412, 0.2054806351661682, 0.04564224183559418, -0.15969422459602356, 0.24744223058223724, -0.10856470465660095, -0.20283566415309906, 0.024196797981858253, -0.17115375399589539, -0.16891546547412872, 0.0019938996993005276, 0.013476332649588585]], "b1": [0.122601717710495, 0.5481512546539307, 0.3390202820301056, 0.5363669395446777, 0.4582356810569763, 0.5047885775566101, -0.6285770535469055, -0.6539328694343567, 0.5009056925773621, -0.6068856120109558, 0.5314400792121887, -0.38021329045295715, -0.5243176817893982, -0.6125788688659668, 0.4881785809993744, -0.25916045904159546, -0.45184624195098877, -0.5410088300704956, -0.6442865133285522, 0.39905017614364624, 0.5255510807037354, -0.6658031940460205, 0.4722042977809906, -0.5787994861602783, -0.6116294264793396, -0.44761696457862854, 0.5155354142189026, -0.6032105684280396, 0.5018750429153442, 0.5012863278388977, -0.5773912072181702, 0.5087107419967651, 0.42300477623939514, 0.510586678981781, 0.5223847031593323, -0.6056094765663147, 0.43423500657081604, 0.39093470573425293, -0.6985087990760803, 0.42308667302131653, -0.06997358798980713, -0.5577346086502075, -0.4710412621498108, -0.6416329741477966, 0.18595072627067566, -0.5308141112327576, 0.4236661195755005, -0.4627467691898346, -0.6211647391319275, -0.5290892720222473, -0.006907425355166197, -0.5611366629600525, 0.5198641419410706, 0.4408947229385376, 0.47224676609039307, -0.5920392274856567, -0.47202759981155396, -0.6755857467651367, 0.5727242231369019, -0.6044950485229492, 0.39526695013046265, -0.6181236505508423, 0.5389333367347717, 0.32090088725090027], "W2": [[-0.12319427728652954, 0.12678860127925873, -0.04779302328824997, -0.18807530403137207, 0.020676355808973312, 0.2416161298751831, 0.32477718591690063, -0.12146884948015213, -0.047291193157434464, -0.0644221305847168, 0.07521897554397583, -0.11374440044164658, -0.06838379800319672, -0.10060226172208786, -0.01834920048713684, 0.28500479459762573], [0.15699680149555206, 0.26261410117149353, 0.11221908032894135, -0.10080865025520325, -0.4337383508682251, 0.16747745871543884, 0.039193421602249146, 0.23183420300483704, -0.4178931415081024, -0.19472797214984894, 0.26388558745384216, -0.02654586359858513, -0.22891411185264587, -0.031944554299116135, 0.018131917342543602, 0.19051209092140198], [0.2583561837673187, 0.11111399531364441, -0.24189041554927826, -0.2927354574203491, -0.08834151178598404, -0.0824260264635086, 0.14216601848602295, 0.061219487339258194, -0.6412785053253174, 0.20383965969085693, -0.028316941112279892, 0.17411045730113983, 0.1789681315422058, -0.20579774677753448, -0.22273220121860504, -0.3047437369823456], [0.2904018461704254, -0.26383447647094727, 0.1852640062570572, 0.23728448152542114, -0.022731833159923553, 0.1260834038257599, 0.21571964025497437, 0.33068451285362244, -0.31438517570495605, -0.06703250855207443, -0.1915508210659027, 0.008866501972079277, 0.06428181380033493, 0.2003019154071808, 0.255256712436676, 0.06701537221670151], [0.24666155874729156, 0.026315195485949516, 0.21540503203868866, 0.12965083122253418, -0.08349604904651642, -0.09787526726722717, 0.40096527338027954, -0.06436748802661896, 0.0746799036860466, 0.1270616054534912, 0.213384747505188, -0.009333482943475246, 0.16972437500953674, -0.031789422035217285, 0.0147534916177392, 0.5313730239868164], [0.029717296361923218, 0.24069583415985107, 0.2591036856174469, 0.10496985912322998, 0.038699936121702194, -0.043238576501607895, 0.44607797265052795, 0.06185447424650192, 0.027859559282660484, -0.1260107010602951, -0.19693294167518616, 0.17907239496707916, 0.19363683462142944, 0.2403430938720703, -0.1725429743528366, 0.4647360146045685], [-0.07554101198911667, -0.09964711219072342, 0.16727611422538757, -0.0021816580556333065, 0.20395232737064362, 0.06215742602944374, -0.4586588144302368, -0.5021704435348511, -0.043121203780174255, -0.12249472737312317, 0.19551467895507812, -0.21453975141048431, -0.6699548363685608, -0.3559093177318573, -0.2832905948162079, -0.4710327982902527], [0.057450082153081894, -0.45864930748939514, -0.03004560060799122, 0.04338226094841957, -0.011440694332122803, -0.2357974648475647, -0.5712132453918457, 0.009509174153208733, -0.10907185077667236, -0.3322807848453522, 0.23197972774505615, -0.2876541018486023, -0.40218091011047363, 0.040361348539590836, 0.10366220027208328, -0.6425102949142456], [0.1249023899435997, -0.03077157959342003, -0.05978706479072571, -0.2227509617805481, -0.054731521755456924, 0.146235853433609, 0.18377213180065155, -0.11457496136426926, -0.19099582731723785, 0.2739695906639099, 0.1267712265253067, 0.05655525624752045, 0.26751458644866943, -0.006786608602851629, 0.13500194251537323, 0.04928896948695183], [-0.5277178287506104, -0.36915284395217896, -0.799282431602478, -0.5319103598594666, 0.35341060161590576, -0.6484284996986389, -0.1469910591840744, -0.40996232628822327, 0.014185674488544464, -0.35906603932380676, 0.019344458356499672, -0.24279910326004028, -0.20751237869262695, -0.2613987326622009, -0.2541939914226532, -0.10878147929906845], [0.16077116131782532, 0.07585574686527252, 0.1505492776632309, -0.11670393496751785, -0.6032168865203857, 0.19786149263381958, 0.28740862011909485, -0.10346892476081848, -0.5970529913902283, 0.3389323055744171, -0.050688713788986206, 0.1739204227924347, 0.20100563764572144, -0.026629164814949036, 0.07490846514701843, -0.08738282322883606], [-0.21251071989536285, 0.01935482956469059, -0.07134214788675308, -0.19327455759048462, -0.2205032855272293, 0.23598283529281616, 0.15947777032852173, 0.13216079771518707, 0.6972057223320007, 0.015525934286415577, 0.3674253821372986, -0.24590393900871277, 0.12234476953744888, -0.3123934864997864, 0.13589243590831757, 0.20440521836280823], [0.20914168655872345, -0.19814112782478333, -0.24399086833000183, -0.21906164288520813, -0.22789673507213593, -0.2239990532398224, -0.20806102454662323, -0.029235772788524628, 0.41103047132492065, -0.20015348494052887, -0.2349107414484024, -0.034818135201931, -0.33528321981430054, 0.20621363818645477, -0.017339246347546577, -0.13531185686588287], [-0.13044297695159912, -0.06606071442365646, 0.14312918484210968, -0.13793349266052246, 0.014619015157222748, -0.1266304850578308, -0.6119477152824402, -0.4867103695869446, 0.176682248711586, -0.17278367280960083, 0.23485788702964783, -0.42860960960388184, -0.6127615571022034, -0.14534366130828857, -0.19592779874801636, -0.4121570885181427], [0.10217174887657166, 0.028215080499649048, 0.3470192849636078, -0.11073987931013107, 0.005799541715532541, 0.04523339867591858, 0.0036504045128822327, 0.4458664655685425, -0.12562842667102814, -0.05701654776930809, -0.35274168848991394, 0.38892045617103577, 0.26832008361816406, 0.455026775598526, 0.12622301280498505, 0.17502275109291077], [-0.05873127654194832, 0.3989810347557068, -0.06595370173454285, 0.3460926413536072, -0.721912682056427, 0.06479919701814651, 0.19223308563232422, -0.0464445985853672, -0.6700119376182556, 0.019227419048547745, 0.08473694324493408, 0.0200334545224905, 0.2844671607017517, 0.3293233811855316, 0.21816110610961914, 0.30705833435058594], [0.010208843275904655, 0.15164083242416382, -0.0255639236420393, 0.20654000341892242, -0.13754011690616608, 0.17503738403320312, -0.2548491656780243, 0.08646704256534576, 0.32252299785614014, 0.12115424871444702, -0.019347533583641052, 0.10734868049621582, -0.4654488265514374, 0.22691069543361664, 0.12475224584341049, -0.3301534950733185], [-0.1987459361553192, -0.6331865191459656, -0.4320809543132782, -0.7068444490432739, 0.35064032673835754, -0.7046056389808655, -0.03359728306531906, -0.3935275673866272, -0.04152897745370865, -0.5711633563041687, -0.34287598729133606, -0.44394445419311523, -0.05598223954439163, -0.49274852871894836, -0.7124302983283997, -0.011326702311635017], [-0.3696296513080597, -0.39437493681907654, 0.18758711218833923, -0.3203654885292053, 0.17844729125499725, -0.33408141136169434, -0.31691908836364746, -0.3910508453845978, 0.24428948760032654, -0.03130117431282997, 0.19022613763809204, -0.16145916283130646, -0.3523799777030945, 0.029555344954133034, -0.04925663024187088, -0.6861845254898071], [-0.2392115443944931, 0.21263161301612854, 0.2235308587551117, 0.00598902627825737, -0.1967579871416092, 0.21614021062850952, 0.19786716997623444, -0.10815727710723877, -0.2008519172668457, -0.20454084873199463, 0.24355241656303406, -0.24061334133148193, 0.04570937529206276, 0.20137929916381836, 0.06260181963443756, 0.31016454100608826], [0.022418588399887085, -0.03343814238905907, 0.29665103554725647, -0.0034669034648686647, -0.13519074022769928, -0.07445749640464783, 0.032082654535770416, 0.29143810272216797, 0.14533014595508575, 0.28091728687286377, -0.09261805564165115, 0.3008140027523041, -0.1416219025850296, 0.23589952290058136, 0.2750779986381531, 0.062337957322597504], [-0.12582586705684662, -0.4286692142486572, -0.12420762330293655, -0.13313592970371246, 0.12272220849990845, -0.1261177510023117, -0.22166728973388672, -0.3859685957431793, 0.2989409267902374, 0.038496095687150955, 0.23418766260147095, -0.35828736424446106, -0.19688107073307037, -0.34503254294395447, -0.20574568212032318, 0.0629601702094078], [0.30820488929748535, 0.10173757374286652, 0.2215212732553482, 0.16654257476329803, -0.12416204810142517, -0.08096440881490707, 0.05447988957166672, -0.04277936741709709, -0.07020696997642517, -0.002284067217260599, 0.033553216606378555, 0.0998750850558281, 0.001472845091484487, 0.13132315874099731, 0.012625208124518394, -0.3382700979709625], [-0.20554876327514648, -0.1594683825969696, -0.3104257583618164, -0.4176509380340576, -0.04161414876580238, -0.0022000556346029043, -0.3305487334728241, -0.015032990835607052, 0.14214114844799042, -0.3654395043849945, 0.42009252309799194, -0.3025268316268921, 0.12490619719028473, -0.46903225779533386, -0.2360958456993103, -0.3465234041213989], [-0.32755252718925476, -0.1171870231628418, -0.11808605492115021, -0.23739586770534515, -0.22558870911598206, -0.2932317554950714, -0.34141385555267334, -0.029016386717557907, 0.3705996572971344, -0.06294075399637222, 0.21254269778728485, -0.4031640291213989, -0.33369436860084534, 0.06396529078483582, 0.17108206450939178, -0.09020047634840012], [-0.3189714550971985, -0.46645763516426086, -0.36975976824760437, -0.4330240786075592, 0.11641114205121994, -0.2944866418838501, -0.20369425415992737, -0.1439841091632843, -0.14907342195510864, -0.12867428362369537, 0.10516277700662613, -0.4395361542701721, 0.052700433880090714, -0.30165937542915344, -0.5976925492286682, -0.34803804755210876], [0.4016336500644684, 0.3044564425945282, 0.1881403774023056, -0.04420391842722893, -0.11954803019762039, -0.0013858170714229345, -0.007283232640475035, -0.011761847883462906, -0.302903950214386, 0.38591939210891724, -0.24651376903057098, -0.08888744562864304, -0.053134333342313766, 0.33340945839881897, -0.042939964681863785, -0.03099404089152813], [-0.6617448925971985, -0.3859943747520447, -0.34207841753959656, -0.09812861680984497, -0.004868072457611561, -0.28039103746414185, -0.42009642720222473, -0.414926141500473, 0.07943783700466156, -0.19593019783496857, 0.23704087734222412, -0.6249532103538513, -0.4590258300304413, -0.4867646098136902, -0.28150972723960876, -0.6439415812492371], [-0.04764246940612793, 0.13378684222698212, 0.3310665488243103, -0.09395447373390198, 0.10085944086313248, 0.3076017498970032, -0.29819393157958984, 0.2323852777481079, 0.035133060067892075, 0.15939383208751678, 0.1696668118238449, -0.04413973540067673, -0.02817552536725998, -0.016313068568706512, 0.05350557342171669, -0.15163035690784454], [0.08333156257867813, 0.2027856707572937, 0.44947588443756104, 0.25644105672836304, 0.634313702583313, 0.17453940212726593, 0.27851995825767517, 0.37468448281288147, -0.15172232687473297, -0.03517262637615204, -0.22913488745689392, 0.44956478476524353, 0.21847501397132874, 0.04147927463054657, -0.012135716155171394, 0.2589268684387207], [-0.21937553584575653, -0.1499602347612381, -0.5685544610023499, -0.16047441959381104, -0.20901966094970703, -0.37678152322769165, -0.43227866291999817, 0.02682250365614891, 0.3954503834247589, -0.3506852090358734, 0.30078259110450745, -0.10655674338340759, -0.25879785418510437, -0.2543967068195343, -0.5604016184806824, 0.061075836420059204], [0.2300262302160263, -0.0222251508384943, -0.22474583983421326, 0.22966399788856506, 0.15583258867263794, 0.0035138882230967283, 0.33424535393714905, 0.11070720106363297, -0.9692277312278748, 0.06425706297159195, -0.2578350901603699, 0.003860541619360447, 0.2729302644729614, 0.1834673285484314, 0.0935361459851265, 0.27902477979660034], [-0.19392336905002594, 0.26542776823043823, 0.3839961290359497, 0.27695098519325256, -0.0009757285588420928, 0.00185964978300035, -0.15143106877803802, -0.06167071685194969, -0.16037285327911377, -0.05782740190625191, 0.09072805941104889, -0.037305913865566254, 0.2702954411506653, -0.11999598145484924, 0.14908334612846375, 0.020433003082871437], [0.179947629570961, -0.31008318066596985, 0.07906115800142288, 0.0816359743475914, -0.0754210576415062, -0.12434390932321548, 0.21800120174884796, -0.0819937139749527, -0.8565131425857544, 0.24002479016780853, -0.3590213358402252, 0.12713992595672607, -0.16215947270393372, 0.3331492841243744, -0.11104634404182434, 0.14315538108348846], [0.2449161559343338, 0.18233510851860046, 0.16710686683654785, 0.25802499055862427, -0.16085457801818848, 0.0676291361451149, -0.04127758741378784, 0.12350085377693176, -0.29953134059906006, 0.2530069947242737, 0.13704583048820496, -0.06248024106025696, -0.2775367796421051, 0.07340726256370544, 0.3711759150028229, 0.06222943961620331], [-0.4509819746017456, -0.4688785970211029, -0.38066309690475464, -0.1398623138666153, -0.1087074801325798, -0.5079492330551147, 0.16780349612236023, -0.418612539768219, 0.16697630286216736, -0.4610460102558136, 0.10958468168973923, -0.02727181650698185, -0.25980037450790405, -0.06542639434337616, -0.1504729986190796, 0.22487354278564453], [-0.1675584763288498, 0.16427351534366608, -0.21489477157592773, 0.17059554159641266, -0.027783352881669998, 0.10996134579181671, -0.04073503986001015, -0.27221009135246277, -0.5267584919929504, 0.02323516272008419, -0.04784046486020088, 0.13618019223213196, 0.2703491747379303, -0.22421494126319885, -0.10793612897396088, 0.1453898847103119], [0.3552541434764862, -0.08268800377845764, 0.3311750590801239, 0.3931393325328827, 0.19930985569953918, 0.28791749477386475, -0.039296939969062805, 0.3114728629589081, -0.2435435950756073, 0.16556909680366516, 0.10248042643070221, -0.01857348531484604, 0.28661420941352844, -0.07391399145126343, 0.2951981723308563, -0.048865579068660736], [-0.13017688691616058, -0.2250806838274002, -0.5977314710617065, -0.5412656664848328, 0.24218100309371948, -0.549407422542572, -0.2705407440662384, -0.4068450331687927, 0.46729588508605957, -0.5572309494018555, 0.14069652557373047, -0.505063533782959, -0.08342624455690384, -0.16436097025871277, -0.484356552362442, -0.32717278599739075], [0.1735907644033432, 0.47804513573646545, 0.41484811902046204, 0.1730099618434906, 0.23346082866191864, 0.4170491695404053, 0.16476143896579742, 0.0270695760846138, -0.402837336063385, -0.004273081198334694, 0.14732348918914795, 0.38768041133880615, 0.27685365080833435, 0.3801923990249634, 0.47959813475608826, 0.09266645461320877], [-0.2907618284225464, 0.029162470251321793, 0.14216749370098114, -0.2585131824016571, 0.17977239191532135, -0.064056895673275, -0.019180957227945328, -0.36783111095428467, -0.36666348576545715, -0.10809125006198883, -0.5242374539375305, 0.11012154072523117, -0.35320061445236206, -0.09613874554634094, -0.33393099904060364, -0.5983823537826538], [-0.10066812485456467, -0.30344298481941223, -0.14113105833530426, -0.15506984293460846, -0.02548319287598133, -0.12824641168117523, -0.5331505537033081, -0.05847972258925438, 0.3304584324359894, -0.0612015575170517, -0.06404373049736023, -0.049323491752147675, -0.6723741888999939, -0.30363157391548157, -0.3201877474784851, -0.4659098982810974], [0.14921997487545013, -0.29442498087882996, 0.017511889338493347, -0.049195945262908936, -0.023515120148658752, -0.19143222272396088, -0.391706645488739, -0.0020229679066687822, 0.053695276379585266, -0.11266686767339706, -0.16238677501678467, -0.20502407848834991, -0.5463632941246033, -0.2590462863445282, 0.07643947750329971, -0.2726272940635681], [-0.30821317434310913, -0.3135659992694855, -0.29225587844848633, 0.06486517935991287, 0.20398499071598053, -0.21627065539360046, -0.5033778548240662, 0.046126920729875565, 0.04064081236720085, -0.3364861011505127, -0.11223527789115906, -0.16997255384922028, -0.3727082908153534, -0.26686620712280273, -0.2741434574127197, -0.2586921453475952], [-0.05627819895744324, -0.21769651770591736, 0.20108264684677124, -0.02606130763888359, 0.046901557594537735, 0.2467791736125946, 0.16913101077079773, -0.07066506147384644, -0.010005460120737553, 0.025771381333470345, 0.2319963276386261, -0.0594283789396286, 0.0520193874835968, -0.0375458225607872, 0.10125172883272171, -0.027532782405614853], [0.17040835320949554, 0.1275252252817154, -0.10206446051597595, 0.1465945541858673, 0.03456491976976395, 0.1270047277212143, -0.12393061071634293, -0.24928998947143555, 0.2780728340148926, -0.08242905139923096, 0.27090984582901, -0.3639792501926422, -0.6444417238235474, 0.0683787614107132, -0.020038358867168427, -0.5967821478843689], [0.03507746011018753, 0.02501811645925045, -0.20556241273880005, 0.06020829454064369, -0.10331448167562485, 0.11153518408536911, 0.03863336518406868, 0.21822302043437958, -0.09211312979459763, -0.14712472259998322, 0.01553150825202465, -0.13655683398246765, 0.18543416261672974, 0.18957063555717468, -0.19933779537677765, 0.42663460969924927], [0.1489836871623993, -0.2205711156129837, -0.34150734543800354, -0.38203325867652893, -0.441224604845047, -0.382700651884079, -0.2540472745895386, 0.09394615143537521, 0.0755508691072464, -0.3074573874473572, -0.19251301884651184, -0.09868297725915909, -0.10033166408538818, -0.2205488681793213, -0.12276086956262589, 0.09718527644872665], [-0.18304547667503357, 0.03870309516787529, 0.28047049045562744, 0.031913816928863525, 0.20416565239429474, -0.2847243547439575, -0.2808229923248291, -0.3384720981121063, 0.07514234632253647, -0.06768398731946945, 0.035092342644929886, -0.18816182017326355, -0.514106810092926, -0.09407761693000793, 0.13405969738960266, -0.038082338869571686], [-0.47496360540390015, -0.5649974942207336, -0.716984748840332, -0.29021546244621277, 0.18882811069488525, -0.5962851047515869, 0.0710357204079628, -0.31954193115234375, 0.21183931827545166, -0.3924613893032074, -0.2675751745700836, -0.048818230628967285, -0.14629805088043213, -0.16514314711093903, -0.42972272634506226, -0.025460606440901756], [-0.0322907492518425, 0.13223212957382202, 0.16496826708316803, 0.15700320899486542, 0.49577346444129944, 0.11414789408445358, 0.0820564553141594, -0.025937648490071297, 0.4500811994075775, -0.08330769091844559, 0.28455281257629395, -0.28999823331832886, 0.2656940817832947, -0.08991408348083496, 0.3129662573337555, 0.06159600242972374], [-0.5415357947349548, -0.17854444682598114, -0.0784272700548172, -0.1773556023836136, 0.13442952930927277, -0.09466429054737091, -0.3021025061607361, -0.7527629137039185, 0.20823125541210175, -0.20065052807331085, 0.28799018263816833, -0.7339063286781311, -0.4002358019351959, -0.6535078287124634, -0.3122063875198364, -0.7339013814926147], [0.3325962722301483, -0.025402918457984924, -0.09245586395263672, 0.36135202646255493, -0.4037708044052124, 0.14877192676067352, 0.05578360706567764, 0.21915984153747559, -0.12755058705806732, 0.23790180683135986, 0.3952435851097107, 0.3377467691898346, 0.18078935146331787, 0.32759812474250793, -0.11762131750583649, -0.020641330629587173], [0.19076032936573029, 0.41284602880477905, 0.3710523843765259, 0.09675022959709167, -0.4953722655773163, 0.24397525191307068, 0.018782831728458405, 0.40810713171958923, -0.28627750277519226, 0.01647055894136429, 0.2621854245662689, 0.011686066165566444, 0.39964956045150757, 0.2596246600151062, -0.024732142686843872, 0.11217765510082245], [-0.19434082508087158, 0.22455531358718872, 0.07871371507644653, 0.28907424211502075, 0.0798921287059784, 0.29589247703552246, 0.0334477461874485, 0.14893700182437897, -0.17898911237716675, -0.1270032525062561, 0.18473058938980103, 0.15463829040527344, -0.0221704114228487, 0.026345616206526756, 0.3101057708263397, 0.2546488046646118], [-0.3851170837879181, -0.26380375027656555, -0.8217422366142273, -0.592018187046051, 0.4458080530166626, -0.4889658987522125, -0.3063042461872101, -0.18413491547107697, -0.03577365726232529, -0.6724898815155029, 0.3641871213912964, -0.34748777747154236, 0.10972665250301361, -0.2965514063835144, -0.7190693020820618, -0.41611531376838684], [-0.521591305732727, 0.022395236417651176, -0.24745890498161316, 0.03839575871825218, -0.15228399634361267, -0.45299482345581055, -0.20055752992630005, -0.2969110310077667, -0.22831352055072784, -0.32647567987442017, 0.013249736279249191, -0.5903961062431335, -0.11178871244192123, -0.3349165618419647, -0.3187900185585022, -0.19413001835346222], [-0.23180542886257172, -0.3202868402004242, -0.07011749595403671, -0.19007347524166107, 0.22102127969264984, -0.3382050395011902, -0.3508577048778534, -0.42086777091026306, 0.3641258776187897, -0.21962107717990875, 0.2904951274394989, -0.3346553146839142, 0.0388207845389843, -0.007091124076396227, -0.3343466818332672, -0.14845094084739685], [0.37864211201667786, -0.10775426030158997, 0.40049120783805847, 0.3587642014026642, 0.2291773557662964, 0.1883476972579956, -0.09734238684177399, -0.12510409951210022, -0.3365843594074249, 0.39690470695495605, -0.23664258420467377, 0.3988262414932251, -0.2435656189918518, -0.061173733323812485, 0.3932376503944397, 0.015039286576211452], [-0.3158477246761322, -0.03882603719830513, -0.2765369117259979, -0.38918980956077576, 0.0365530289709568, -0.42751646041870117, -0.08501913398504257, -0.5391075015068054, 0.4173969328403473, -0.3027585446834564, 0.17908726632595062, -0.16680802404880524, -0.45612260699272156, -0.33669304847717285, -0.38440191745758057, -0.46728768944740295], [0.06661555171012878, 0.000532994803506881, -0.05126800760626793, -0.18973660469055176, 0.3329446613788605, -0.10010683536529541, 0.1258619874715805, 0.41595062613487244, 0.2522907555103302, 0.2967434823513031, -0.34946465492248535, -0.03497450053691864, 0.3607617914676666, -0.19621442258358002, 0.3081494867801666, 0.4890367388725281], [-0.23022980988025665, -0.04574182629585266, -0.41856130957603455, -0.25270286202430725, 0.16904181241989136, -0.48072800040245056, -0.3261226713657379, -0.06305846571922302, 0.31467780470848083, -0.4616253077983856, -0.15836109220981598, -0.18765370547771454, -0.2777700424194336, -0.23165278136730194, -0.5338884592056274, 0.14497970044612885], [-0.03133944794535637, -0.15485195815563202, 0.025894775986671448, 0.20848481357097626, 0.039256662130355835, -0.14207260310649872, 0.07773273438215256, 0.08888113498687744, -1.0343960523605347, -0.19110994040966034, -0.3362911343574524, 0.2269224375486374, 0.2681865096092224, 0.09604735672473907, 0.25698840618133545, -0.35102638602256775], [0.2911731004714966, 0.1644897609949112, -0.2892046272754669, -0.19662447273731232, -0.30599477887153625, 0.2514624297618866, 0.07552355527877808, -0.1891990453004837, -0.03443191200494766, -0.05154156684875488, 0.4541735053062439, 0.0012613958679139614, 0.21181166172027588, -0.07207506150007248, -0.12689700722694397, -0.0023218754213303328]], "b2": [0.49585697054862976, 0.4569602310657501, 0.44564467668533325, 0.532807469367981, -0.5060619115829468, 0.5168211460113525, 0.5000854134559631, 0.5148612260818481, -1.093108057975769, 0.555869996547699, -0.38610997796058655, 0.5051100254058838, 0.4624996781349182, 0.5456214547157288, 0.4823399782180786, 0.4433386027812958], "W3": [[-0.7575389742851257], [-0.5740664601325989], [-0.7978361248970032], [-0.21868857741355896], [0.8754864931106567], [-0.439309686422348], [-0.21983426809310913], [-0.25361931324005127], [0.5534557700157166], [-0.19870905578136444], [0.7184212803840637], [-0.844750702381134], [-0.8422894477844238], [-0.2644334137439728], [-0.49347707629203796], [-0.6654015183448792]], "b3": [-0.5818812847137451]}