{"W1": [[-0.3422076106071472, 0.34189483523368835, -0.3249284327030182, -0.019704708829522133, -0.0018960770685225725, -0.35005685687065125, -0.3123248219490051, 0.5492581129074097, -0.1799546331167221, 0.35513368248939514, 0.017703671008348465, 0.16813677549362183, -0.18680423498153687, -0.033980727195739746, 0.3484049439430237, -0.01123058795928955, -0.15584540367126465, -0.25367727875709534, 0.1911994069814682, 0.3580508828163147, 0.3338289260864258, 0.2372312843799591, 0.06277965754270554, -0.10018379986286163, -0.28332802653312683, -0.2798497676849365, -0.3782569468021393, -0.23643308877944946, -0.14750519394874573, -0.4264221489429474, 0.34943440556526184, -0.2852388322353363, -0.11579880118370056, 0.48967444896698, 0.3220469355583191, -0.13872267305850983, 0.2111394703388214, 0.35995450615882874, 0.005331817083060741, 0.24785521626472473, 0.4899636507034302, 0.16097024083137512, -0.2395244836807251, 0.28252431750297546, 0.046162188053131104, 0.44526025652885437, -0.12066492438316345, -0.0001289913197979331, -0.3976539969444275, 0.4878518879413605, 0.1939011812210083, -0.06011667847633362, 0.2361869364976883, 0.4030330777168274, 0.4117252826690674, -0.10599984228610992, -0.03018609620630741, 0.04990852624177933, -0.20567122101783752, 0.3801925480365753, 0.09426923841238022, 0.05097733065485954, -0.008478403091430664, -0.021748105064034462], [0.31948474049568176, -0.09134510159492493, -0.37612465023994446, -0.3731670677661896, -0.13942113518714905, -0.03706732392311096, -0.0585477314889431, 0.42923232913017273, 0.10787057876586914, 0.03573628142476082, -0.4192526936531067, 0.29390692710876465, -0.039448320865631104, -0.39052900671958923, -0.40062955021858215, 0.18791329860687256, -0.08474703133106232, -0.3440510630607605, -0.12782512605190277, -0.10817280411720276, -0.3316054344177246, -0.15868981182575226, -0.10304134339094162, 0.2673386037349701, 0.4057106673717499, -0.38434839248657227, 0.19914510846138, 0.19222211837768555, -0.030685335397720337, 0.0418536551296711, 0.11016616970300674, 0.13443149626255035, 0.36139819025993347, 0.08188239485025406, -0.6179565191268921, -0.06993585079908371, -0.09512224793434143, 0.08810881525278091, 0.0270079355686903, -0.26707595586776733, 0.3257693648338318, -0.008606893941760063, -0.1474057286977768, -0.016968874260783195, -0.2561790645122528, 0.252358078956604, 0.05300946161150932, 0.47922128438949585, -0.1429395079612732, 0.2152182012796402, -0.617021918296814, -0.03145137056708336, 0.3847728371620178, -0.19468346238136292, 0.18397873640060425, -0.16114142537117004, 0.1455039083957672, 0.09326007962226868, -0.2616487741470337, 0.33309802412986755, -0.40599408745765686, 0.3233048617839813, -0.05240326747298241, 0.03524677827954292], [0.1966172158718109, 0.18268796801567078, -0.10308235883712769, -0.09087312966585159, -0.10484512895345688, 0.1031748428940773, 0.12350001186132431, 0.2884920537471771, 0.028589630499482155, -0.05784910172224045, 0.3582843244075775, 0.28908461332321167, 0.1381170004606247, 0.017176518216729164, 0.05681390315294266, -0.23472552001476288, -0.06586076319217682, 0.07711215317249298, -0.056675564497709274, 0.21709471940994263, -0.1580410748720169, 0.17308096587657928, -0.08225185424089432, -0.14861567318439484, -0.1028929129242897, 0.0010347167262807488, 0.24832747876644135, -0.0935763418674469, -0.04154468700289726, 0.20575150847434998, 0.35393524169921875, 0.18520452082157135, -0.040557313710451126, 0.39603596925735474, 0.191141277551651, -0.0024483264423906803, -0.24794675409793854, 0.0028013677801936865, -0.31661370396614075, 0.26498961448669434, 0.4271124303340912, -0.03281254693865776, 0.0909552276134491, 0.29956257343292236, 0.2496662139892578, 0.4174606502056122, -0.06692857295274734, -0.1980057656764984, 0.008297953754663467, -0.06908723711967468, 0.23791931569576263, 0.42313316464424133, -0.14595717191696167, -0.09078320860862732, 0.18516002595424652, -0.06770956516265869, -0.14224708080291748, 0.14309073984622955, 0.14310480654239655, 0.21329179406166077, 0.007227218244224787, -0.09336470812559128, 0.24192985892295837, -0.0966980829834938], [0.058190811425447464, -0.1802188903093338, 0.3551468551158905, -0.1370345652103424, -0.06839359551668167, -0.14572513103485107, -0.03714509680867195, -0.023526260629296303, -0.40649789571762085, -0.015924900770187378, 0.49893084168434143, -0.3726092278957367, -0.15377177298069, -0.3128841817378998, 0.04514313116669655, 0.018714310601353645, -0.03997446224093437, -0.28817111253738403, -0.019349560141563416, 0.13526491820812225, 0.026887420564889908, -0.054366737604141235, 0.4319186210632324, -0.21015405654907227, -0.3534078598022461, -0.3378927409648895, -0.3045506775379181, -0.05694780498743057, -0.14679406583309174, 0.07241595536470413, -0.14964529871940613, 0.23219439387321472, 0.3952430188655853, 0.28456544876098633, 0.06235871464014053, -0.1747300773859024, -0.04341260343790054, 0.0015834138030186296, 0.10568982362747192, 0.19051723182201385, -0.30022111535072327, -0.23824122548103333, -0.29499518871307373, -0.04230986535549164, -0.18568864464759827, -0.12696272134780884, -0.34595978260040283, 0.2524537146091461, -0.07168971002101898, -0.2749808728694916, 0.3351709544658661, -0.25691425800323486, 0.08779187500476837, 0.18898163735866547, -0.07720135152339935, -0.08548044413328171, 0.29528817534446716, 0.09328935295343399, -0.40388789772987366, 0.06159524247050285, 0.04807503893971443, 0.3697318136692047, -0.010490375570952892, 0.19994264841079712], [0.44324490427970886, -0.05557597056031227, -0.02246551588177681, -0.3916778266429901, -0.16725507378578186, -0.1668340414762497, 0.2993965446949005, -0.22721613943576813, -0.2731751799583435, 0.1761281043291092, 0.02135377563536167, 0.07446169853210449, 0.15930840373039246, -0.14908882975578308, 0.25008681416511536, 0.3885413110256195, -0.19788770377635956, -0.5092167258262634, -0.03542420640587807, -0.20751415193080902, 0.18389837443828583, -0.08420108258724213, 0.07410372048616409, -0.3830384314060211, -0.0368368960916996, -0.3722197115421295, -0.4189372658729553, 0.44365349411964417, -0.27194860577583313, 0.2630995213985443, -0.25886034965515137, 0.13858391344547272, 0.13752608001232147, -0.27691707015037537, 0.22329233586788177, -0.3712552487850189, 0.12234965711832047, 0.08061470836400986, 0.04551295191049576, 0.093686543405056, -0.15038737654685974, 0.21063770353794098, 0.3429533839225769, -0.026942331343889236, -0.12682846188545227, -0.051312487572431564, -0.4281099736690521, 0.5257526636123657, 0.3313901424407959, -0.11947599798440933, 0.08682966977357864, 0.11747605353593826, 0.155028834939003, -0.017667917534708977, 0.12528812885284424, -0.34073182940483093, 0.1812489777803421, 0.019832929596304893, -0.08618883788585663, -0.11239691078662872, 0.15531499683856964, 0.20652718842029572, 0.007976415567100048, 0.028181657195091248], [0.13469931483268738, -0.21125027537345886, -0.1334799826145172, -0.146372452378273, -0.01769925095140934, 0.16252851486206055, 0.00012484908802434802, 0.030626650899648666, 0.013940108008682728, -0.07146479934453964, -0.2006700485944748, 0.24777205288410187, -0.015832187607884407, -0.22929741442203522, 0.06858903914690018, -0.053525958210229874, 0.23471984267234802, -0.09000585228204727, 0.11478885263204575, -0.11674404889345169, 0.20417730510234833, -0.17086739838123322, -0.07300794124603271, 0.21017597615718842, 0.19843332469463348, -0.24566443264484406, 0.0727938860654831, -0.23587846755981445, 0.18988753855228424, 0.07274210453033447, -0.14302104711532593, 0.13821068406105042, 0.2100062221288681, -0.17423243820667267, -0.014004378579556942, 0.2389514446258545, -0.2014329731464386, -0.09692706912755966, -0.25898081064224243, -0.04614247381687164, -0.030692528933286667, 0.12772773206233978, 0.019349420443177223, 0.10933757573366165, -0.13468079268932343, -0.12042553722858429, 0.16965270042419434, 0.18412257730960846, -0.2077503651380539, -0.03477040305733681, -0.09794574975967407, 0.20277421176433563, 0.1128813624382019, -0.224758118391037, -0.005507717840373516, -0.2572687268257141, 0.02111930400133133, -0.09595278650522232, -0.28427043557167053, -0.03389177843928337, 0.11957409977912903, 0.10187239944934845, 0.12784196436405182, 0.18891063332557678]], "b1": [-0.4515821635723114, 0.2921951711177826, 0.30783170461654663, -0.5242969989776611, -0.5724550485610962, -0.5518794655799866, -0.41432979702949524, 0.48112842440605164, -0.4674149453639984, 0.4895957112312317, 0.3765014708042145, 0.3781140446662903, -0.4975394904613495, -0.4629862308502197, 0.4525788426399231, -0.5011470913887024, -0.5434914827346802, -0.5076757073402405, 0.48424839973449707, 0.25153177976608276, 0.49871590733528137, 0.4209592044353485, -0.5869269967079163, -0.4818834960460663, 0.5473160147666931, -0.47439563274383545, -0.5454732179641724, -0.4667625427246094, -0.5262157320976257, -0.48217102885246277, 0.4656234383583069, -0.6123873591423035, -0.5782874822616577, 0.35941559076309204, 0.44751766324043274, -0.45328855514526367, -0.46430477499961853, 0.4243672490119934, -0.3769983947277069, 0.3667922616004944, 0.39784863591194153, 0.49227356910705566, -0.4420703947544098, 0.3977522850036621, 0.47554752230644226, 0.3015245795249939, -0.5083062052726746, -0.5371138453483582, -0.4557704031467438, 0.3765719532966614, 0.43068957328796387, 0.3657563328742981, -0.4957760274410248, 0.46766433119773865, 0.3990557789802551, -0.4238148033618927, -0.5098145008087158, 0.41474226117134094, -0.4287985563278198, 0.3789449632167816, 0.44722530245780945, -0.5337513089179993, 0.4757126569747925, -0.565608024597168], "W2": [[0.16531303524971008, 0.09445494413375854, -0.590018093585968, -0.28143730759620667, 0.011051861569285393, -0.6068266034126282, 0.5311066508293152, -0.6714783906936646, 0.5169411897659302, -0.6045215725898743, 0.5255751013755798, -0.3181430399417877, 0.5141135454177856, -0.43434610962867737, -0.035885848104953766, 0.47209829092025757], [0.17872744798660278, 0.027949485927820206, 0.23038098216056824, 0.06508255749940872, 0.5583381652832031, 0.03762393817305565, 0.11982230097055435, 0.19016551971435547, -0.32245856523513794, -0.07060801237821579, -0.19832764565944672, -0.11304331570863724, 0.0840899869799614, 0.38026535511016846, 0.3184592127799988, -0.19481047987937927], [-0.21129900217056274, -0.12009083479642868, -0.12839275598526, 0.2965090274810791, -0.1603221595287323, -0.10882937163114548, -0.22878366708755493, -0.16233377158641815, -0.2603677213191986, -0.16649019718170166, -0.07316302508115768, 0.2185407429933548, -0.05975089594721794, -0.10451745986938477, 0.36163100600242615, -0.39331379532814026], [0.18171977996826172, 0.5133424401283264, -0.10448844730854034, -0.5250137448310852, 0.2636292278766632, -0.2451825886964798, -0.05555098503828049, -0.3552764058113098, -0.23182198405265808, -0.5589765906333923, 0.1267237365245819, -0.38044458627700806, 0.09226348996162415, -0.5534372329711914, -0.24664445221424103, 0.5544262528419495], [0.15915270149707794, 0.29880669713020325, -0.3212825059890747, -0.3156690299510956, 0.19726015627384186, 0.13855400681495667, 0.33195313811302185, -0.28489986062049866, 0.23885342478752136, -0.0032323095947504044, 0.23056398332118988, -0.19601941108703613, 0.10213020443916321, -0.23209847509860992, -0.0804418995976448, 0.1631418913602829], [0.08182232826948166, 0.42153340578079224, -0.22331972420215607, -0.4893377721309662, -0.0426335372030735, -0.08659357577562332, 0.04716051369905472, 0.07156328856945038, 0.3182547986507416, -0.3113643527030945, 0.12336285412311554, -0.4416584372520447, 0.22614693641662598, -0.24449847638607025, -0.531424343585968, 0.583637535572052], [0.46701234579086304, 0.11652666330337524, -0.14319969713687897, -0.4636092782020569, 0.19164714217185974, -0.6352007389068604, 0.2164836823940277, -0.3719389736652374, 0.47445443272590637, -0.5434272885322571, 0.0867253914475441, -0.3430469334125519, 0.5261793732643127, -0.16919668018817902, -0.46459269523620605, 0.4787185490131378], [-0.6798501014709473, -0.04762976989150047, 0.3518659770488739, 0.31475621461868286, 0.24105606973171234, 0.21367572247982025, -0.31679996848106384, 0.027929605916142464, -0.2730938494205475, 0.35756734013557434, -0.08843441307544708, 0.26872551441192627, -0.27543699741363525, 0.10663725435733795, 0.40724602341651917, -0.37450557947158813], [0.31842049956321716, 0.25969329476356506, -0.2631986737251282, 0.0321759432554245, 0.06987233459949493, -0.08992398530244827, 0.3010885715484619, 0.15193672478199005, -0.16228067874908447, -0.2332964390516281, 0.1478959172964096, -0.40013277530670166, -0.03373882174491882, -0.4144245386123657, -0.4397510290145874, 0.2634773552417755], [0.16040803492069244, -0.22011278569698334, -0.021711604669690132, 0.20392704010009766, 0.06740467250347137, -0.16033563017845154, -0.06568602472543716, -0.12967979907989502, 0.3130612075328827, 0.2557079792022705, -0.39251095056533813, 0.30074119567871094, -0.2502148449420929, 0.13238446414470673, 0.19763992726802826, -0.25414547324180603], [-0.14557115733623505, 0.03472088649868965, 0.08804906159639359, 0.399116188287735, -0.18676285445690155, 0.06962496787309647, -0.08738403767347336, 0.30827486515045166, 0.11420474946498871, 0.2920980453491211, -0.0584321990609169, 0.17788563668727875, -0.2542842626571655, 0.106626495718956, 0.09857043623924255, -0.18537637591362], [-0.10765668004751205, -0.15631906688213348, 0.011963349767029285, 0.41652923822402954, -0.3174561858177185, 0.3038574159145355, 0.023212622851133347, 0.3261777460575104, 0.007570452522486448, 0.4630093574523926, -0.30820029973983765, 0.04394597187638283, -0.49256405234336853, -0.03308810666203499, 0.44776302576065063, -0.40281057357788086], [0.155660942196846, 0.6647443175315857, -0.5847244262695312, -0.20563682913780212, -0.05386895686388016, -0.14342358708381653, 0.286408394575119, -0.23641429841518402, 0.2402978390455246, -0.18072760105133057, 0.42420706152915955, 0.07147689908742905, 0.492611289024353, -0.2223406583070755, -0.40386053919792175, 0.47762739658355713], [-0.13109725713729858, 0.5822280645370483, -0.3632645010948181, -0.010504310950636864, 0.3015570044517517, -0.1145036444067955, -0.050465237349271774, -0.05344967916607857, -0.23580536246299744, -0.04803304374217987, 0.40263617038726807, -0.2808544933795929, 0.10597336292266846, -0.1152607798576355, -0.2676021158695221, 0.17261718213558197], [0.016339218243956566, -0.3025888502597809, -0.12919782102108002, 0.42702731490135193, -0.3553449809551239, -0.026422584429383278, -0.2635897994041443, -0.14265696704387665, -0.10363298654556274, 0.1454724818468094, -0.5957383513450623, 0.29897835850715637, -0.03751680999994278, 0.29975220561027527, 0.42285436391830444, -0.30835917592048645], [0.47497472167015076, -0.12330254912376404, -0.34298622608184814, -0.2921621799468994, 0.26514849066734314, -0.32463717460632324, 0.3387225270271301, -0.5807211399078369, 0.4850355088710785, -0.4822671413421631, 0.10077639669179916, -0.45120003819465637, 0.16497312486171722, 0.03376225382089615, -0.08134312182664871, 0.20034432411193848], [0.197530597448349, 0.06446176767349243, -0.28769025206565857, -0.3619745373725891, -0.13507616519927979, -0.21469545364379883, -0.04444818198680878, -0.07206512242555618, 0.24780146777629852, -0.3092091977596283, 0.04556852579116821, -0.4743381440639496, 0.24962152540683746, -0.39858293533325195, -0.07799752801656723, 0.05038151890039444], [-0.015266329050064087, 0.04568272829055786, -0.3362051546573639, -0.41604799032211304, 0.6080960631370544, -0.40814825892448425, 0.22381800413131714, -0.5883035063743591, 0.28671008348464966, -0.22904998064041138, 0.28516972064971924, -0.6323172450065613, 0.2210528403520584, -0.488739937543869, -0.6032592058181763, 0.3704334795475006], [-0.37315675616264343, -0.6860735416412354, 0.2934623062610626, 0.13566288352012634, -0.024664228782057762, 0.2540004551410675, -0.22983044385910034, 0.146698459982872, -0.22705243527889252, 0.18415533006191254, -0.14639079570770264, 0.45269110798835754, -0.7122058272361755, 0.018300427123904228, -0.020768454298377037, -0.6247439980506897], [-0.027871720492839813, 0.09150427579879761, 0.03195089474320412, 0.009128909558057785, 0.20866833627223969, 0.12185908854007721, -0.3242172300815582, 0.30437225103378296, -0.13786768913269043, 0.08414039015769958, 0.0703125149011612, 0.18753404915332794, 0.16396518051624298, 0.158207967877388, -0.21109899878501892, 0.05108039453625679], [-0.12431036680936813, -0.36012059450149536, 0.17472022771835327, 0.18841147422790527, -0.21728898584842682, 0.09698300063610077, -0.09066729247570038, 0.28829461336135864, -0.09064288437366486, 0.3883899748325348, -0.5295396447181702, 0.48943233489990234, -0.7178006768226624, 0.14215241372585297, 0.07033581286668777, -0.45709648728370667], [0.08934260159730911, -0.3186454176902771, 0.24920105934143066, 0.0463617667555809, 0.2474564015865326, 0.1312197893857956, -0.2652727961540222, 0.09637001901865005, 0.0742434710264206, 0.37317174673080444, -0.12512902915477753, 0.41251230239868164, -0.350870817899704, 0.40897539258003235, 0.19801078736782074, -0.3783961236476898], [-0.029882116243243217, 0.08573921769857407, -0.02175385318696499, -0.1002236157655716, 0.09766290336847305, 0.0363771915435791, 0.06827781349420547, -0.0234694704413414, -0.10765238106250763, -0.13201852142810822, 0.2927827835083008, -0.04739261791110039, 0.4189382493495941, 0.13398635387420654, -0.11189055442810059, 0.3241508901119232], [-0.16693437099456787, -0.012839707545936108, -0.3853863775730133, -0.18347881734371185, -0.01840399205684662, 0.09412726014852524, -0.07112851738929749, -0.3746193051338196, -0.2858807444572449, -0.17560356855392456, -0.24732325971126556, -0.45022863149642944, -0.013881933875381947, -0.2509487271308899, -0.45928704738616943, 0.04253937304019928], [-0.3903028070926666, -0.3412882089614868, 0.2741374969482422, 0.13734780251979828, -0.17968617379665375, 0.03899606317281723, -0.20873010158538818, -0.11685843020677567, -0.2232109159231186, 0.14118599891662598, -0.37206026911735535, 0.13167095184326172, -0.5517810583114624, 0.1436585783958435, -0.04838339611887932, -0.406503289937973], [0.01609707996249199, 0.2975802421569824, -0.4765360653400421, -0.3795721232891083, 0.23771801590919495, -0.28306838870048523, -0.13077951967716217, -0.3039635717868805, -0.4356836974620819, -0.5505818724632263, 0.3269924521446228, -0.5031802654266357, 0.13967902958393097, -0.21678940951824188, -0.3503980040550232, 0.14750312268733978], [0.14044375717639923, 0.21794654428958893, -0.35877254605293274, -0.3805679380893707, 0.022606907412409782, 0.011991354636847973, 0.15077067911624908, -0.006852727849036455, -0.00455889105796814, -0.06327792257070541, -0.12960326671600342, -0.018468612805008888, 0.22811691462993622, -0.3737982213497162, -0.3434123992919922, 0.11094178259372711], [0.35593295097351074, -0.12821204960346222, -0.5105411410331726, -0.14468933641910553, 0.40722739696502686, -0.5342521071434021, 0.52536940574646, -0.4244060516357422, 0.11553596705198288, -0.4840638041496277, 0.13800963759422302, 0.022239280864596367, 0.19235751032829285, -0.12602455914020538, -0.0138469273224473, -0.2066977322101593], [-0.09139484167098999, 0.18149644136428833, -0.13172917068004608, -0.08390570431947708, 0.2555398643016815, -0.3411184847354889, 0.195977121591568, -0.23588711023330688, 0.2092505693435669, -0.3371065557003021, -0.03824056312441826, -0.1327059417963028, 0.3095649182796478, -0.13012652099132538, -0.5503689050674438, 0.0806666910648346], [-0.12767350673675537, 0.5056315660476685, -0.5157606601715088, -0.019946090877056122, -0.14326970279216766, -0.36741968989372253, 0.15641504526138306, -0.45891547203063965, -0.05317040532827377, -0.5260236859321594, 0.1621585637331009, -0.14181122183799744, 0.5380186438560486, -0.07760506868362427, -0.26406824588775635, 0.3915221691131592], [-0.40457883477211, -0.14572674036026, 0.12621855735778809, 0.2441692054271698, 0.4410853385925293, 0.24482841789722443, -0.49322062730789185, 0.4431248605251312, -0.685947597026825, 0.17579983174800873, 0.0727275088429451, 0.10734731703996658, -0.29430586099624634, -0.07369014620780945, -0.024399349465966225, -0.12749207019805908], [0.22301533818244934, 0.6654543876647949, -0.3787563741207123, -0.3099156320095062, -0.027450699359178543, -0.5324529409408569, 0.25332069396972656, -0.44761860370635986, 0.1349634975194931, -0.18470969796180725, 0.6113836765289307, -0.13799996674060822, 0.3826727271080017, -0.49948495626449585, -0.108866386115551, 0.6368513107299805], [0.35148733854293823, 0.5196128487586975, -0.40018442273139954, -0.20717796683311462, -0.30194544792175293, -0.21521441638469696, 0.07196655124425888, -0.4530480206012726, 0.11150270700454712, -0.17387627065181732, 0.08323397487401962, -0.3010983169078827, 0.4384629428386688, -0.5654845237731934, -0.4524931311607361, 0.640688955783844], [0.052654996514320374, 0.15460671484470367, 0.19799938797950745, 0.2968560755252838, 0.2719457447528839, 0.32919901609420776, -0.17986935377120972, 0.18625687062740326, -0.2609442472457886, 0.17283889651298523, -0.05992081016302109, -0.007099550683051348, 0.0014282988850027323, 0.4209565818309784, 0.18792130053043365, -0.04212643578648567], [0.12316174805164337, -0.43938568234443665, -0.11291316896677017, 0.22995930910110474, -0.26122671365737915, 0.2766832113265991, -0.008847086690366268, -0.15181639790534973, -0.12959891557693481, -0.16665057837963104, -0.3354277014732361, 0.16363714635372162, -0.35637474060058594, 0.013264631852507591, 0.3941820561885834, -0.3027532994747162], [0.35450223088264465, -0.18300539255142212, 0.08870574831962585, -0.5114456415176392, 0.16252663731575012, 0.013504601083695889, -0.016388315707445145, -0.3341233432292938, -0.21225713193416595, -0.388104110956192, 0.04029696434736252, -0.39133143424987793, 0.12925709784030914, -0.22033794224262238, -0.13396112620830536, -0.05286160111427307], [0.13076461851596832, 0.37528195977211, -0.2866241931915283, 0.16929985582828522, -0.17850486934185028, 0.21517950296401978, 0.41264310479164124, -0.12058919668197632, 0.3452625274658203, -0.3541063964366913, -0.17927630245685577, -0.14466165006160736, 0.35568639636039734, 0.19395217299461365, -0.13603046536445618, 0.38849738240242004], [0.07729783654212952, -0.38044506311416626, -0.16013045608997345, 0.3952959477901459, -0.009766411036252975, 0.38176506757736206, -0.09629137814044952, 0.4094681143760681, 0.1833195984363556, 0.30398231744766235, -0.4969269633293152, 0.22774329781532288, -0.4355642795562744, 0.29113253951072693, 0.4030187427997589, -0.5159050226211548], [-0.028585797175765038, -0.01308701653033495, -0.12190870195627213, -0.3261812925338745, -0.13587383925914764, 0.07959769666194916, -0.07065126299858093, -0.3809950053691864, 0.20940528810024261, -0.17272071540355682, 0.16633957624435425, 0.0746767595410347, -0.1331978291273117, 0.12871775031089783, -0.12834268808364868, 0.07111239433288574], [0.028827309608459473, -0.16933099925518036, 0.23365074396133423, 0.421637624502182, 0.0709725171327591, 0.04047999158501625, 0.11436878144741058, 0.055527519434690475, 0.23053154349327087, -0.06813084334135056, -0.10295183211565018, 0.23373961448669434, -0.03469586744904518, -0.03938441351056099, 0.057999659329652786, -0.26525256037712097], [-0.3176271915435791, -0.16755478084087372, 0.4112904965877533, -0.08097121119499207, 0.27417340874671936, 0.028347939252853394, 0.11358154565095901, 0.37633103132247925, -0.2359619140625, 0.41159799695014954, 0.040498316287994385, 0.13557946681976318, -0.026661083102226257, -0.14684098958969116, 0.27433496713638306, 0.09178698062896729], [0.12944847345352173, -0.6767798662185669, 0.37780454754829407, 0.17500847578048706, -0.14285454154014587, -0.04923969879746437, -0.04447026178240776, 0.362710565328598, 0.12217533588409424, 0.4883885681629181, -0.5689611434936523, 0.5564475655555725, -0.5610844492912292, 0.04557761549949646, 0.43826231360435486, -0.588248074054718], [0.4083244502544403, 0.2472737729549408, -0.3405495285987854, -0.32100483775138855, 0.2810308039188385, -0.5700452327728271, 0.16811074316501617, -0.10640640556812286, 0.12986549735069275, -0.5367586612701416, 0.2513047456741333, -0.25841930508613586, -0.042982179671525955, -0.11424145847558975, -0.2860184609889984, 0.1846880316734314], [-0.07947541028261185, -0.07265446335077286, 0.4123947322368622, 0.37649792432785034, 0.0890013724565506, 0.369912713766098, -0.046904392540454865, -0.042699020355939865, 0.1272968202829361, 0.4498823583126068, 0.1798386424779892, 0.030046997591853142, 0.00279616960324347, 0.04754333198070526, 0.4354001581668854, -0.43404000997543335], [-0.06038372591137886, -0.44978684186935425, 0.1918322741985321, 0.0949244499206543, 0.371127724647522, -0.041051361709833145, -0.5935361385345459, 0.028039924800395966, -0.6794003844261169, 0.12969624996185303, -0.23931631445884705, 0.3816320598125458, -0.4528340995311737, 0.17158052325248718, -0.07548573613166809, -0.29419857263565063], [0.052507687360048294, 0.022757353261113167, 0.3975366950035095, 0.3675156831741333, 0.42206689715385437, 0.008559133857488632, 0.2838360667228699, 0.1402062028646469, 0.21355323493480682, 0.2979733943939209, -0.04352300241589546, 0.3017582297325134, 0.1087661013007164, -0.0031511152628809214, -0.00040188239654526114, 0.1873238980770111], [0.24194790422916412, 0.0010921293869614601, -0.09430121630430222, -0.5535696744918823, 0.2527228593826294, 0.05273040384054184, -0.18164262175559998, -0.007812140043824911, 0.2537681758403778, -0.2604319155216217, 0.29562142491340637, -0.33640965819358826, -0.11729086935520172, -0.2256452739238739, -0.3427335321903229, 0.09639383107423782], [0.07964635640382767, 0.3584226965904236, -0.6814529895782471, -0.2289004623889923, 0.06198418140411377, -0.404610276222229, 0.37021300196647644, -0.36094120144844055, 0.6012583374977112, -0.7108727693557739, 0.17946065962314606, -0.36395394802093506, 0.27384111285209656, -0.4817630350589752, -0.5838518142700195, -0.04414559528231621], [0.24472907185554504, 0.18338118493556976, -0.22175149619579315, -0.021424366161227226, 0.3172643184661865, -0.4135449528694153, 0.19994822144508362, -0.49226948618888855, 0.19308926165103912, -0.5729300379753113, -0.09636913239955902, -0.1521858423948288, 0.06571264564990997, -0.1320829689502716, -0.08501915633678436, 0.23618057370185852], [-0.032887302339076996, -0.24558401107788086, 0.06899556517601013, 0.3589613139629364, 0.24119487404823303, 0.19551484286785126, 0.003811417380347848, 0.2617703378200531, 0.08558988571166992, 0.3052639365196228, -0.1919906884431839, 0.04262758046388626, -0.06615488231182098, 0.07166386395692825, 0.2672095000743866, -0.08244860917329788], [0.06250578165054321, -0.25578078627586365, 0.26707810163497925, 0.04365810751914978, -0.17924688756465912, 0.17478886246681213, 0.20318342745304108, 0.07242660224437714, 0.08137419819831848, 0.04399038851261139, 0.04917839914560318, 0.009582877159118652, 0.052685678005218506, 0.21077270805835724, 0.13945546746253967, -0.3903025984764099], [-0.1669725626707077, -0.15507711470127106, 0.22700098156929016, 0.21427807211875916, 0.16392505168914795, -0.1411561518907547, -0.11392423510551453, 0.20706415176391602, -0.05105630308389664, -0.16920121014118195, 0.2185067981481552, 0.16055427491664886, -0.4489266276359558, -0.0229145847260952, 0.2885145843029022, -0.22113832831382751], [-0.05140974000096321, 0.17876775562763214, -0.2252374142408371, 0.18794788420200348, -0.024426527321338654, 0.1692897230386734, 0.21074621379375458, 0.030917886644601822, 0.2941667139530182, -0.2419322431087494, 0.0007924696546979249, -0.14996986091136932, 0.328418105840683, 0.0685710534453392, -0.1959661841392517, 0.26405662298202515], [0.09956872463226318, -0.480296790599823, 0.30301111936569214, 0.40992769598960876, 0.17805957794189453, 0.1676470786333084, 0.2554510831832886, 0.3341533839702606, 0.060444653034210205, -0.07669830322265625, -0.4878297448158264, -0.10420601069927216, -0.16887570917606354, 0.33373695611953735, 0.2004455327987671, -0.12715698778629303], [0.03863183781504631, -0.13333044946193695, 0.35004493594169617, 0.3708062171936035, -0.1476566642522812, 0.17208419740200043, 0.2018449902534485, 0.12196418642997742, 0.21108953654766083, 0.12447347491979599, -0.4135452210903168, 0.40915223956108093, -0.1651732176542282, -0.012262953445315361, 0.25712716579437256, -0.28623709082603455], [-0.30397358536720276, 0.4697047173976898, -0.39134469628334045, -0.4845852851867676, 0.29122981429100037, -0.23026910424232483, -0.09515708684921265, -0.3709762394428253, -0.41194021701812744, -0.3856218159198761, 0.14031751453876495, 0.037390340119600296, 0.049603044986724854, -0.16580718755722046, -0.10833718627691269, 0.3768446445465088], [0.05822770297527313, 0.5682520270347595, -0.18113112449645996, -0.008739919401705265, -0.11877802014350891, -0.4064493775367737, 0.41887980699539185, -0.2886492908000946, 0.34454140067100525, -0.47564539313316345, 0.2126767635345459, -0.19571897387504578, 0.22528859972953796, -0.20992016792297363, 0.04634198546409607, 0.42528101801872253], [0.22551077604293823, -0.6197969913482666, 0.33590778708457947, 0.04995523765683174, -0.11166549474000931, 0.35914793610572815, -0.1380215734243393, -0.07010375708341599, 0.1765194684267044, 0.21702268719673157, -0.2610235810279846, 0.3244638741016388, -0.16664890944957733, -0.0655108317732811, 0.2152346521615982, -0.2666667699813843], [0.286396861076355, 0.15974605083465576, -0.20140911638736725, -0.11020944267511368, 0.515892744064331, -0.26675906777381897, 0.1464286595582962, -0.29876455664634705, -0.17359988391399384, -0.5345214009284973, 0.06809747219085693, -0.17790675163269043, 0.45411041378974915, -0.3246690630912781, -0.4606283903121948, 0.09783627837896347], [0.12241413444280624, -0.34530672430992126, 0.279915452003479, 0.0795951783657074, 0.05412161722779274, 0.2805716097354889, 0.1523793488740921, 0.07672178000211716, 0.23571239411830902, 0.3557871878147125, 0.13609017431735992, -0.09183629602193832, 0.003032528795301914, 0.16642281413078308, 0.29458677768707275, -0.17394259572029114], [0.16317307949066162, -0.3150968551635742, -0.09250165522098541, 0.41981494426727295, -0.38676750659942627, -0.16838841140270233, -0.28184470534324646, -0.09775080531835556, -0.12857355177402496, 0.3064025640487671, -0.4077351987361908, 0.15625055134296417, -0.3630501329898834, 0.27470898628234863, 0.24945220351219177, -0.24912682175636292], [0.1797051578760147, 0.6706622242927551, -0.21631409227848053, -0.2171735167503357, -0.06035861372947693, -0.2875109314918518, 0.46909788250923157, -0.6064818501472473, 0.7608773112297058, -0.4350365698337555, 0.43239256739616394, -0.361941933631897, 0.6217092275619507, -0.28377798199653625, -0.508540689945221, 0.4672352373600006], [0.048248425126075745, -0.5111798048019409, 0.44604459404945374, 0.1772855669260025, -0.15032429993152618, 0.014038557186722755, -0.3020188510417938, 0.00490545341745019, -0.012709585949778557, 0.2966126799583435, -0.19933244585990906, 0.121741384267807, -0.7577992677688599, 0.3142319917678833, 0.26057717204093933, -0.44921809434890747], [-0.056242842227220535, 0.4628409147262573, -0.1735566258430481, -0.3944169878959656, -0.02029414102435112, -0.21314670145511627, -0.020221246406435966, -0.23723822832107544, 0.06068071350455284, 0.14221510291099548, 0.0045216623693704605, -0.09020186215639114, 0.17551013827323914, -0.3885160982608795, -0.3238578140735626, 0.4637334942817688]], "b2": [-0.28218621015548706, -0.7800441980361938, 0.3744538128376007, 0.3884477913379669, -0.25951531529426575, 0.3986223638057709, -0.37214261293411255, 0.36558040976524353, -0.2609327435493469, 0.34861788153648376, -0.7062119841575623, 0.3913237750530243, -0.8176755309104919, 0.4069790542125702, 0.3824869394302368, -0.9606150984764099], "W3": [[0.3692958950996399], [0.8872001767158508], [-0.7137033343315125], [-0.49261245131492615], [0.8827666640281677], [-0.43278974294662476], [0.5608855485916138], [-0.7081391215324402], [0.7059828639030457], [-0.8491615056991577], [0.5588604211807251], [-0.6087897419929504], [0.5883549451828003], [-0.3439847230911255], [-0.8129326105117798], [0.3976766765117645]], "b3": [-0.42161044478416443]}