{"W1": [[-0.5578080415725708, -0.1928856372833252, 0.5885825157165527, -0.16197535395622253, 0.149873286485672, -0.33807432651519775, 0.5047587752342224, -0.33694586157798767, 0.4393066465854645, -0.5548264384269714, 0.2753121554851532, -0.16889715194702148, -0.0858747810125351, -0.348336786031723, 0.6875849366188049, 0.035097088664770126, -0.4095897376537323, -0.39940494298934937, 0.18514807522296906, -0.14951260387897491, 0.17219410836696625, 0.548456609249115, 0.20376114547252655, 0.35360994935035706, 0.7383207082748413, 0.022084740921854973, -0.004372493363916874, -0.43841755390167236, -0.31661534309387207, -0.5465289950370789, 0.3681778013706207, 0.09434226155281067, -0.2532162070274353, -0.5557706952095032, -0.41992053389549255, -0.6088337302207947, 1.0694504976272583, 0.7454668879508972, -0.3480560779571533, -0.11444855481386185, 0.37554651498794556, -0.5298765301704407, 0.025571012869477272, 0.04071947932243347, -0.24851512908935547, -0.30871647596359253, -0.3129822313785553, -0.15190556645393372, -0.317109078168869, -0.3568823039531708, 0.047607649117708206, 0.5546538829803467, 0.18208685517311096, 0.5350169539451599, -0.058426786214113235, -0.30083978176116943, -0.2456633448600769, 0.289995014667511, 0.13745461404323578, -0.09943114221096039, -0.17292378842830658, 0.5691046118736267, -0.6551764011383057, 0.03348434716463089], [-0.1060495674610138, -0.3200511932373047, -0.1533399224281311, 0.4203583300113678, 0.5934231281280518, -0.12197373807430267, -0.3090432584285736, 0.18066228926181793, 0.10455228388309479, -0.5847174525260925, 0.01497904397547245, 0.7512766718864441, -0.24443896114826202, 0.22214527428150177, -0.012013831175863743, -0.3979252576828003, -0.19118338823318481, 0.011786715127527714, -0.23755985498428345, 0.14845851063728333, -0.3171733617782593, 0.24946828186511993, -0.3850633502006531, 0.04767359420657158, 0.14990289509296417, 0.09679950773715973, -0.5816131830215454, -0.05232803151011467, -0.0465598963201046, 0.17772360146045685, 0.4322548806667328, 0.07662864774465561, 0.22602656483650208, -0.05206458643078804, -0.08510150015354156, -0.21176837384700775, -0.39002957940101624, -0.3418230414390564, -0.7716745138168335, 0.4437294900417328, 0.07726220041513443, 0.5449522733688354, -0.2948550283908844, -0.5517136454582214, -0.0056673758663237095, -0.1514248102903366, 0.0032249917276203632, -0.2487325519323349, -0.04984266310930252, -0.2238110452890396, -0.15796330571174622, 0.11974352598190308, 0.31186267733573914, -0.4618767499923706, 0.20196080207824707, 0.13526472449302673, -0.17462950944900513, 0.07930577546358109, 0.12172640860080719, -0.3357918858528137, 0.04409745708107948, 0.039269112050533295, 0.3336062431335449, -0.8834591507911682], [0.008228551596403122, 0.07685044407844543, 0.5072936415672302, 0.09577885270118713, -0.21911273896694183, 0.16213461756706238, -0.2541647255420685, 0.07554635405540466, -0.05739205330610275, -0.5209397673606873, 0.7622376084327698, 0.1673458069562912, -0.07695512473583221, 0.26569661498069763, 0.7757626175880432, 0.2611127495765686, 0.10039790719747543, 0.1764254868030548, 0.1372898370027542, 0.11027032136917114, 0.24491910636425018, 0.3081022799015045, -0.07931679487228394, -0.13703852891921997, 0.8413025140762329, 0.08174208551645279, 0.018370183184742928, 0.033582817763090134, 0.06803643703460693, 0.05530362203717232, 0.07766858488321304, 0.1564655601978302, -0.019606245681643486, 0.09696252644062042, 0.19702649116516113, 0.3311135768890381, 0.5723385810852051, 0.6701509356498718, 0.24812015891075134, 0.30845969915390015, 0.5417765974998474, -0.6627368330955505, -0.2669943571090698, -0.11264713108539581, 0.022452641278505325, -0.11460709571838379, 0.04347417876124382, 0.03558701276779175, -0.06641226261854172, 0.23668593168258667, -0.00480906805023551, 0.5518248081207275, -0.03125188872218132, 0.12016873806715012, -0.00419575534760952, 0.10147979110479355, 0.11932243406772614, -0.14176441729068756, 0.11536747962236404, -0.3456111550331116, 0.11660437285900116, 0.3962138295173645, 0.1380910873413086, 0.052437178790569305], [0.37598827481269836, 0.11677264422178268, -0.009914569556713104, -0.21895933151245117, -0.5764991641044617, -0.32262545824050903, -0.016032753512263298, 0.08693301677703857, 0.303829550743103, 0.5277141332626343, -0.32853204011917114, -0.3588423430919647, -0.1259109377861023, 0.6335158944129944, -0.07848364114761353, -0.006931720767170191, -0.6035319566726685, -0.8369137048721313, 0.2852838337421417, -0.11514484882354736, -0.30415454506874084, -0.2896767854690552, -0.029610902070999146, -0.014898204244673252, -0.21753422915935516, 0.31421926617622375, 0.13548529148101807, -0.04611114040017128, -0.746637225151062, 0.6508379578590393, -0.11807890981435776, 0.26745671033859253, -0.5021887421607971, 0.6151346564292908, 0.1415931135416031, -0.6155060529708862, -0.013281294144690037, -0.15170438587665558, 0.1907472312450409, -0.017380671575665474, 0.32133620977401733, -0.3244294822216034, 0.15005750954151154, -0.36907193064689636, -0.42298081517219543, 0.5146629810333252, 0.0985463485121727, -0.13587045669555664, -0.47854095697402954, -0.15818659961223602, 0.06304789334535599, 0.008503812365233898, 0.07947671413421631, 0.2195647805929184, 0.32007575035095215, 0.08645984530448914, -0.09509243071079254, -0.08303690701723099, 0.15720124542713165, 1.1002682447433472, -0.11222760379314423, -0.1888934224843979, 0.28122127056121826, -0.5071800351142883], [0.4171789288520813, -0.521772027015686, 0.007804336957633495, 0.5158562660217285, -0.1595766246318817, -0.28394633531570435, 0.024765511974692345, 0.5961968898773193, 0.01413143053650856, -0.15830732882022858, 0.23717865347862244, 0.09869321435689926, -0.48905789852142334, 0.3828918933868408, -0.22273394465446472, 0.021381007507443428, -0.3569784462451935, -0.31490999460220337, -0.10575035959482193, 0.34062880277633667, 0.21286042034626007, 0.3561968505382538, 0.004478721879422665, -0.03942067176103592, 0.39805132150650024, 0.013020660728216171, -0.10145006328821182, 0.2942660450935364, -0.40691879391670227, 0.4579298794269562, -0.17117513716220856, -0.22708435356616974, -0.0347733348608017, 0.41213181614875793, -0.24125906825065613, -0.32768118381500244, -0.20905856788158417, -0.04620300233364105, -0.24380236864089966, 0.00446423701941967, -0.32372117042541504, -0.019761843606829643, -0.20821356773376465, 0.042765095829963684, -0.18374381959438324, 0.21807417273521423, -0.5241153240203857, -0.2158808410167694, 0.08367907255887985, -0.029395293444395065, -0.2882564067840576, 0.13524319231510162, -0.07226821035146713, 0.048913273960351944, 0.3974578380584717, 0.6033287644386292, -0.348195880651474, 0.024449465796351433, -0.06065448001027107, 0.24999326467514038, -0.2874707281589508, 0.059734977781772614, -0.14799176156520844, -0.09547757357358932], [-0.15035511553287506, -0.18814516067504883, -0.10997015237808228, 0.1358782798051834, 0.14609688520431519, 0.06370373070240021, 0.29083171486854553, 0.193606898188591, -0.001322774332948029, -0.17034508287906647, 0.2772494852542877, -0.11659624427556992, -0.1742606908082962, 0.25298789143562317, -0.19680464267730713, 0.17348931729793549, -0.020497778430581093, 0.03849334642291069, -0.15103083848953247, 0.0670802965760231, 0.09909070283174515, 0.1553581804037094, 0.16638511419296265, 0.14002114534378052, 0.20451703667640686, 0.23905447125434875, -0.08035330474376678, -0.32237088680267334, 0.13509176671504974, -0.052522528916597366, -0.1285126656293869, -0.11968469619750977, -0.28949135541915894, -0.15844421088695526, 0.2303648293018341, -0.023367321118712425, 0.019514774903655052, -0.13260193169116974, -0.1462002992630005, -0.16167382895946503, -0.20817887783050537, 0.1135258898139, -0.07009045779705048, 0.035805799067020416, 0.10167483240365982, 0.01742800883948803, -0.19704973697662354, -0.21519571542739868, -0.40417829155921936, -0.2282470017671585, -0.06645502895116806, 0.22668123245239258, 0.07089035958051682, 0.08873774111270905, 0.2262623906135559, 0.21693658828735352, 0.2745656371116638, 0.10196703672409058, -0.04984895884990692, 0.009275678545236588, 0.2347065508365631, -0.09756005555391312, -0.15557636320590973, 0.16596382856369019]], "b1": [-0.5379312634468079, -0.5702873468399048, 0.36069455742836, -0.5421218276023865, 0.4617292284965515, -0.548654317855835, -0.5172455310821533, -0.6796770095825195, -0.30955585837364197, 0.35729894042015076, 0.4272221624851227, 0.5251067876815796, -0.6200952529907227, -0.6823281049728394, 0.2751368582248688, 0.5413749814033508, -0.5602518916130066, -0.5028855204582214, 0.45126375555992126, -0.5275903344154358, 0.5625918507575989, 0.46786579489707947, 0.5494934320449829, 0.5469035506248474, 0.357867032289505, -0.7013559937477112, 0.5001850128173828, -0.458274245262146, -0.5857535600662231, -0.5219303965568542, 0.49130821228027344, 0.4394340217113495, -0.4760685861110687, -0.4733717143535614, -0.6606571078300476, -0.5329867601394653, 0.10625061392784119, 0.23280468583106995, 0.5679711103439331, 0.4559093117713928, 0.43276548385620117, 0.26507025957107544, 0.5082928538322449, -0.6258044242858887, -0.6408843994140625, -0.653104305267334, -0.5355136394500732, -0.5723776817321777, -0.531294047832489, -0.6658719182014465, -0.5968919992446899, 0.2846451699733734, 0.42507311701774597, 0.375793993473053, -0.5836741328239441, -0.6541856527328491, -0.6397576332092285, 0.45488083362579346, 0.4317868947982788, -0.6418527960777283, -0.6213258504867554, 0.28211650252342224, 0.18838077783584595, 0.565937876701355], "W2": [[-0.19000108540058136, 0.18140462040901184, -0.37197574973106384, -0.013700917363166809, -0.007069985847920179, 0.44344544410705566, -0.745800793170929, 0.2546914517879486, -0.3406941592693329, -0.5960795283317566, 0.4184017777442932, 0.26409927010536194, 0.09301871806383133, -0.020375877618789673, -0.5473837852478027, -0.3172990381717682], [-0.16518016159534454, -0.0605660006403923, -0.3771078288555145, 0.1524663269519806, -0.5795667767524719, -0.1479031890630722, -0.4257541000843048, 0.22957634925842285, -0.03925606608390808, -0.5010513663291931, 0.21448880434036255, -0.22168372571468353, -0.335214763879776, -0.22698353230953217, -0.43392738699913025, 0.03749924525618553], [-0.10791268199682236, 0.09164401888847351, 0.10153961181640625, 0.0718754231929779, 0.27089792490005493, 0.08258266001939774, 0.1379816085100174, 0.21803413331508636, 0.4088556170463562, -0.05177026614546776, -0.2221115231513977, 0.20429019629955292, -0.09989010542631149, 0.46375539898872375, 0.25370919704437256, 0.09233399480581284], [-0.3593631982803345, 0.27063021063804626, -0.014308040961623192, 0.24178189039230347, -0.29601699113845825, -0.16605189442634583, -0.26229774951934814, -0.12282802164554596, -0.3472628891468048, -0.14425010979175568, -0.28549253940582275, -0.14577768743038177, -0.4332023859024048, -0.2981027364730835, -0.010566620156168938, -0.40552759170532227], [0.10422021895647049, -0.3639252781867981, 0.31606048345565796, -0.4880158007144928, 0.31287917494773865, -0.005999383050948381, 0.3652684986591339, -0.20118814706802368, 0.010895555838942528, 0.13252386450767517, 0.3037673532962799, 0.0046593546867370605, -0.15354172885417938, -0.04115183651447296, 0.372549444437027, 0.3390364944934845], [-0.2718833386898041, 0.15262474119663239, -0.4111071527004242, 0.20781822502613068, -0.5050069689750671, 0.14189834892749786, -0.2879851460456848, -0.15060199797153473, -0.6154349446296692, -0.24008646607398987, 0.26075440645217896, -0.05323832109570503, -0.35445576906204224, -0.6298443078994751, -0.19818393886089325, -0.2678573727607727], [-0.3791157901287079, 0.6690803170204163, -0.5265528559684753, 0.12453117966651917, -0.16338497400283813, 0.3914271891117096, -0.21012629568576813, 0.03149817883968353, 0.34765109419822693, -0.2304866909980774, 0.4324343502521515, 0.17282694578170776, 0.3577272295951843, 0.246429443359375, -0.03297198936343193, -0.259845107793808], [-0.7859359979629517, 0.48418205976486206, -0.41836708784103394, 0.01625918410718441, -0.6235731840133667, 0.4447667598724365, -0.4612022638320923, 0.42351555824279785, -0.22896765172481537, -0.40560805797576904, 0.4728768467903137, 0.4873591661453247, -0.5220358967781067, -0.43301883339881897, -0.7920304536819458, -0.6379097104072571], [0.271864116191864, 0.36626356840133667, 0.4116989076137543, 0.4670696258544922, -0.17934313416481018, -0.13075387477874756, 0.05936272442340851, -0.015938563272356987, -0.16243737936019897, 0.4030615985393524, 0.41223472356796265, 0.1704874336719513, -0.2695603370666504, -0.19620023667812347, 0.22902174293994904, -0.1371482014656067], [0.07317093014717102, -0.6225464344024658, 0.22971013188362122, -0.9059159755706787, 0.08389679342508316, -0.532516360282898, -0.05762864276766777, -0.4724362790584564, 0.4263586699962616, -0.09340902417898178, -0.45671284198760986, -0.1558997929096222, -0.007480032276362181, 0.24428990483283997, -0.2627861797809601, -0.02516777627170086], [0.04866741597652435, 0.2874673008918762, 0.025831326842308044, -0.10117001831531525, 0.24258847534656525, -0.2546660304069519, 0.452892005443573, 0.07449465990066528, 0.24557435512542725, 0.4591226577758789, 0.024499591439962387, -0.12517236173152924, 0.3044487535953522, 0.4677894115447998, 0.25637754797935486, -0.03394265100359917], [0.20689012110233307, -0.4645281434059143, 0.28246745467185974, -0.49632132053375244, 0.17433097958564758, 0.1228574886918068, 0.17827917635440826, -0.2657221555709839, -0.4414374828338623, 0.0940144956111908, -0.26740148663520813, 0.49196186661720276, -0.19135849177837372, -0.2648668885231018, 0.2780722975730896, 0.006340326741337776], [-0.5484908223152161, 0.1964867115020752, -0.2529996335506439, 0.1745055466890335, -0.46463850140571594, 0.33291056752204895, -0.5620812177658081, 0.3625029921531677, -0.23980659246444702, -0.2996346354484558, 0.1750083565711975, 0.1813754141330719, -0.586944043636322, -0.648429274559021, -0.058852169662714005, -0.12971997261047363], [-0.45972391963005066, 0.5926605463027954, -0.30537888407707214, 0.557185709476471, -0.6888864636421204, 0.10037153959274292, -0.6769444346427917, 0.00992768444120884, -0.4931703209877014, -0.6653933525085449, 0.4069150984287262, -0.016760528087615967, -0.09100881218910217, -0.40630078315734863, -0.6007958650588989, -0.6871312856674194], [0.2597671449184418, -0.3483877182006836, -0.06110663712024689, -0.1511998027563095, 0.44948461651802063, -0.10670304298400879, 0.30911996960639954, -0.09322839230298996, 0.45743927359580994, 0.3900827467441559, 0.4979589581489563, -0.0938514694571495, 0.2560424208641052, 0.25812652707099915, 0.2256218045949936, 0.5511376857757568], [-0.17198306322097778, 0.2646017372608185, -0.008932629600167274, -0.308579683303833, 0.1346365064382553, -0.18793271481990814, -0.02564304694533348, -0.44788265228271484, 0.3496430814266205, -0.05139898881316185, -0.37117287516593933, -0.4660031497478485, 0.3536965250968933, -0.11521082371473312, -0.20053723454475403, 0.1244647353887558], [-0.41822248697280884, -0.23828919231891632, 0.08186421543359756, 0.34602078795433044, -0.5533909797668457, -0.13193950057029724, 0.1560998558998108, 0.010566982440650463, -0.442101389169693, -0.0339665524661541, -0.01998637244105339, -0.017464596778154373, -0.6406790614128113, -0.4005293846130371, -0.240146666765213, -0.47129809856414795], [-0.2112458497285843, 0.052467066794633865, -0.0075132520869374275, 0.005749665666371584, -0.31095650792121887, 0.14178933203220367, -0.17763720452785492, -0.16657809913158417, -0.5733621716499329, -0.05633682385087013, 0.03682754561305046, -0.07925041019916534, -0.24516861140727997, -0.48581451177597046, -0.06690740585327148, 0.13068370521068573], [0.09568705409765244, -0.2566576600074768, -0.23594516515731812, -0.23435887694358826, 0.3393116593360901, -0.10752028226852417, 0.12615323066711426, -0.19300806522369385, -0.050918787717819214, -0.2690768241882324, -0.28700149059295654, 0.18836747109889984, 0.017490405589342117, 0.27928128838539124, 0.1975449174642563, 0.35022732615470886], [-0.4754130244255066, 0.24060095846652985, -0.14614053070545197, 0.13857711851596832, 0.0055755022913217545, 0.2537098228931427, 0.17713017761707306, 0.3364463746547699, 0.04243065044283867, 0.07063378393650055, -0.3432154357433319, -0.3150642514228821, -0.2810571789741516, -0.27182647585868835, -0.29865342378616333, -0.12907230854034424], [-0.19108299911022186, 0.17174039781093597, 0.0316569022834301, -0.4483056366443634, 0.4814791679382324, -0.3738207519054413, -0.10913441330194473, -0.062102604657411575, 0.3771173655986786, -0.036888521164655685, -0.6778228282928467, -0.35678932070732117, 0.2808239459991455, 0.12557455897331238, 0.29729387164115906, 0.1904178112745285], [0.12596052885055542, 0.38906919956207275, 0.3582783341407776, -0.3918725848197937, 0.15746314823627472, -0.38716357946395874, 0.272195428609848, -0.21453909575939178, 0.2766243517398834, 0.42520105838775635, -0.41920703649520874, -0.18030156195163727, 0.19691088795661926, 0.013169657438993454, 0.368897944688797, -0.058679379522800446], [-0.12023353576660156, 0.24613498151302338, -0.17148607969284058, -0.4315013289451599, 0.06480953097343445, -0.6748088598251343, -0.14191579818725586, -0.3489246964454651, 0.56083083152771, -0.1872732788324356, -0.27661028504371643, -0.5668736696243286, 0.3657972812652588, 0.09284453094005585, -0.0757405012845993, 0.09823673963546753], [0.09624436497688293, -0.04034403711557388, 0.05829291418194771, -0.4509675204753876, 0.2764372229576111, -0.12507571280002594, 0.3898395597934723, -0.17867203056812286, 0.3807675540447235, -0.05845142528414726, 0.20569221675395966, -0.3247862756252289, -0.0055572823621332645, 0.1347447633743286, 0.2383650690317154, 0.1963638961315155], [0.35960492491722107, 0.5295932292938232, 0.47924140095710754, 0.05232292413711548, 0.3175290822982788, -0.03438951447606087, 0.5264942049980164, -0.028331587091088295, 0.031464651226997375, 0.19703371822834015, -0.42238104343414307, -0.23476208746433258, 0.3270248472690582, 0.3556611239910126, 0.5875490307807922, 0.10630352050065994], [-0.30011653900146484, 0.32451045513153076, -0.28278738260269165, 0.4469776451587677, -0.12972018122673035, 0.0359233021736145, -0.01852959580719471, 0.2123406082391739, -0.1897922307252884, -0.1326509565114975, 0.62540203332901, 0.3157106339931488, -0.25885123014450073, -0.22579923272132874, -0.15850770473480225, -0.2955334484577179], [-0.1286393254995346, 0.17125064134597778, 0.06339644640684128, -0.06884590536355972, 0.30654028058052063, -0.5198380947113037, -0.3495742976665497, -0.3014955222606659, 0.41346806287765503, -0.24484507739543915, -0.34261730313301086, 0.030148278921842575, 0.04409997537732124, 0.27233585715293884, 0.009175954386591911, 0.24431756138801575], [-0.5335934162139893, 0.10717069357633591, -0.5329400300979614, -0.16848474740982056, -0.21235831081867218, -0.035025157034397125, -0.4551817774772644, 0.09069184213876724, 0.19755519926548004, -0.7915308475494385, 0.255319207906723, 0.30436941981315613, -0.1696668267250061, -0.02110781893134117, -0.735412061214447, -0.11330375075340271], [-0.33348342776298523, -0.3407042324542999, -0.3404475450515747, -0.054058413952589035, -0.321746289730072, -0.15463046729564667, -0.17460723221302032, 0.2668766379356384, -0.47539016604423523, 0.15273718535900116, -0.0977339819073677, -0.03192077949643135, -0.2562980353832245, -0.5002837181091309, -0.05138595029711723, -0.3824979066848755], [-0.6449787020683289, 0.3526792824268341, -0.3126660883426666, 0.177325040102005, -0.1694931536912918, 0.18136389553546906, -0.54228276014328, 0.3005419373512268, -0.05294433981180191, -0.5812833905220032, 0.17640379071235657, 0.09111125022172928, -0.24542471766471863, -0.3265113830566406, -0.6135971546173096, -0.5206819772720337], [0.22821253538131714, -0.7531926035881042, 0.18747349083423615, -0.16881299018859863, -0.04209476336836815, -0.03294621780514717, 0.3215267062187195, 0.08654755353927612, -0.22130687534809113, 0.2344222515821457, -0.04097956418991089, 0.04973967373371124, -0.23746547102928162, -0.049048881977796555, 0.35954704880714417, 0.37870118021965027], [0.1527727097272873, -1.013003945350647, 0.07429242879152298, -0.3036304712295532, 0.16258572041988373, -0.06813610345125198, 0.2704814672470093, -0.29022708535194397, -0.03533236309885979, 0.19392211735248566, 0.14783725142478943, -0.09442931413650513, -0.169992595911026, 0.2296544462442398, -0.06335229426622391, 0.15918849408626556], [-0.23437616229057312, 0.12338650971651077, -0.020690210163593292, 0.5425699353218079, -0.07023944705724716, 0.27323654294013977, -0.24641764163970947, 0.06967318803071976, -0.6139096021652222, -0.2427864819765091, -0.1419440507888794, -0.09017855674028397, -0.893841028213501, -0.4383032023906708, 0.20258593559265137, -0.18905340135097504], [-0.32586580514907837, 0.09283772855997086, -0.6314703226089478, 0.13064533472061157, -0.09947468340396881, 0.5265471935272217, -0.7805613875389099, 0.5255287289619446, -0.1547204852104187, -0.4712018072605133, 0.22529436647891998, 0.3343646228313446, 0.09674996137619019, -0.3137241005897522, -0.44039636850357056, -0.2628988027572632], [-0.5871810913085938, -0.11208150535821915, 0.08878874778747559, 0.1278262734413147, -0.6270134449005127, 0.23062948882579803, -0.27006322145462036, 0.33973732590675354, -0.6423279643058777, 0.04830951988697052, 0.10037864744663239, -0.2116421014070511, -0.4335496425628662, -0.6123418807983398, -0.2169620543718338, -0.4185742437839508], [-0.49097609519958496, 0.15559810400009155, -0.060017623007297516, 0.2026132047176361, -0.6251739859580994, 0.060023486614227295, 0.040502600371837616, 0.23341895639896393, -0.6818452477455139, 0.011390721425414085, -0.20484308898448944, 0.2230355143547058, -0.7860064506530762, -0.6032779812812805, -0.3751179873943329, -0.12528495490550995], [0.017024492844939232, 0.07680024951696396, -0.17770995199680328, 0.03410394862294197, -0.07326716184616089, 0.046113621443510056, 0.051091428846120834, -0.058054424822330475, 0.5652103424072266, -0.2021511048078537, -0.03885198384523392, -0.31353503465652466, 0.5859071612358093, 0.32578831911087036, -0.2597023844718933, 0.16359542310237885], [0.10307757556438446, 0.0835418552160263, 0.013206117786467075, -0.14298023283481598, 0.20084276795387268, 0.028710821643471718, 0.057621411979198456, 0.03149985894560814, 0.4874842166900635, 0.23130710422992706, 0.18753580749034882, 0.15100501477718353, 0.40718308091163635, 0.4899139404296875, 0.1666317880153656, 0.1502310186624527], [0.11761177331209183, -0.36697956919670105, 0.28570321202278137, -0.34109577536582947, 0.08348670601844788, -0.7692071795463562, -0.36444443464279175, -0.6342025399208069, 0.12719085812568665, -0.324381560087204, -0.587908923625946, 0.04023110121488571, 0.08490154892206192, 0.3953745365142822, -0.3527456223964691, 0.1333324909210205], [0.20234811305999756, -0.5161728858947754, 0.04183432087302208, -0.46150046586990356, 0.10916052013635635, -0.003947039134800434, -0.08802846819162369, 0.15199601650238037, -0.1889030635356903, 0.23960568010807037, -0.3357033133506775, 0.33347946405410767, -0.21149903535842896, -0.08589472621679306, 0.3442763388156891, 0.17442715167999268], [0.33046063780784607, -0.6340292692184448, 0.25579628348350525, -0.5721381902694702, 0.18651939928531647, -0.2349970042705536, 0.12040145695209503, -0.24381579458713531, 0.23638640344142914, -0.09803352504968643, 0.03484508767724037, 0.34671294689178467, -0.09365352243185043, 0.30531930923461914, 0.022967098280787468, 0.41088733077049255], [-0.16668187081813812, -0.5635377764701843, 0.0552983321249485, -0.7625432014465332, 0.1232932060956955, -0.25418373942375183, 0.37126651406288147, -0.24718497693538666, 0.020924651995301247, 0.09229116886854172, -0.17052267491817474, -0.14665348827838898, -0.30050504207611084, 0.16309544444084167, 0.017727050930261612, 0.19529958069324493], [0.37889426946640015, -0.28543952107429504, 0.054610688239336014, -0.6775715351104736, 0.06313430517911911, -0.35468384623527527, -0.07719430327415466, -0.2097472846508026, 0.1794125884771347, -0.0872340276837349, -0.2518656551837921, -0.07158971577882767, -0.03796255216002464, 0.05296792834997177, -0.22188876569271088, 0.12575802206993103], [-0.2142922282218933, 0.3739396333694458, -0.12345899641513824, 0.9564520120620728, -0.2692852318286896, 0.576174259185791, -0.4950316846370697, 0.5758985280990601, 0.37315165996551514, -0.4487870931625366, 0.28200364112854004, -0.10100146383047104, 0.1485806703567505, -0.19815963506698608, -0.4476734399795532, -0.19178922474384308], [-0.04526521638035774, 0.03773360326886177, -0.2811813950538635, 0.17325975000858307, -0.18262702226638794, -0.08749442547559738, -0.09320414811372757, 0.3298180103302002, -0.5015291571617126, -0.10063436627388, 0.10934586822986603, 0.1402367353439331, -0.4754447340965271, -0.05995987355709076, 0.1809733808040619, -0.2512529194355011], [-0.274216890335083, -0.03237878158688545, -0.23517782986164093, 0.37617865204811096, -0.043891556560993195, 0.4165838062763214, -0.12470152229070663, 0.4544738829135895, -0.10993663221597672, -0.3459618389606476, 0.435049444437027, 0.3346840739250183, 0.25848257541656494, -0.0980716347694397, -0.40010496973991394, -0.37267443537712097], [-0.41338542103767395, 0.10551944375038147, -0.4099554717540741, 0.01811068132519722, -0.7015857100486755, 0.22722986340522766, -0.21506483852863312, 0.47652631998062134, -0.8636366128921509, -0.15909980237483978, 0.5234320163726807, 0.1691754013299942, -0.737423300743103, -0.411495566368103, -0.06789438426494598, -0.032752323895692825], [-0.19637896120548248, 0.01229011733084917, -0.08808990567922592, 0.15195441246032715, -0.23925834894180298, 0.043741561472415924, -0.4367840886116028, -0.17611360549926758, -0.05128812417387962, -0.5466556549072266, -0.2391706109046936, -0.0249983798712492, -0.25420475006103516, -0.10762684047222137, -0.11368779093027115, -0.29256671667099], [-0.35465919971466064, 0.07371389865875244, -0.48651251196861267, 0.059954579919576645, -0.06416778266429901, 0.13013970851898193, -0.6854144930839539, -0.019113628193736076, -0.2792622447013855, -0.4352515935897827, 0.3144873380661011, -0.046818532049655914, -0.4076811373233795, 0.09131307899951935, -0.6347329020500183, -0.49618789553642273], [0.12268799543380737, 0.17973898351192474, -0.47635403275489807, 0.38566938042640686, -0.4423518776893616, 0.06377089023590088, -0.37673109769821167, 0.3042508661746979, -0.006028443109244108, -0.5713199377059937, 0.40092945098876953, 0.1800909787416458, -0.01621273159980774, 0.025368275120854378, -0.4030593931674957, -0.16787873208522797], [-0.19147227704524994, 0.17964453995227814, -0.4757860004901886, 0.5821657180786133, -0.5386735200881958, 0.5691384077072144, -0.34611308574676514, 0.05293221399188042, 0.05367859825491905, -0.4972662925720215, 0.34617048501968384, 0.38535115122795105, -0.2471836358308792, 0.0975596085190773, -0.3018794357776642, -0.1694115847349167], [0.02948109433054924, 0.23957456648349762, 0.2175421565771103, 0.31557363271713257, 0.12463431060314178, -0.18063026666641235, 0.3583882749080658, -0.22106926143169403, 0.3073321282863617, -0.08064677566289902, 0.17524854838848114, -0.1533176749944687, 0.17290222644805908, 0.3454643487930298, -0.04432766139507294, 0.030055765062570572], [0.17683404684066772, -0.055594898760318756, 0.11891095340251923, -0.7420858144760132, -0.07617361843585968, -0.004840839188545942, 0.3018128275871277, -0.479566752910614, -0.2234249860048294, 0.27043402194976807, -0.05006050691008568, 0.06954572349786758, 0.2037423849105835, -0.016021188348531723, 0.2664027214050293, 0.17708627879619598], [0.16564823687076569, 0.12765297293663025, 0.11399421095848083, 0.31416696310043335, 0.2052607387304306, -0.018460506573319435, 0.13563469052314758, 0.3452709913253784, 0.32460838556289673, -0.2944655120372772, 0.21165388822555542, -0.1403365582227707, 0.5215189456939697, 0.07427402585744858, -0.20704425871372223, 0.14023759961128235], [-0.28385812044143677, 0.6124098300933838, -0.5429736971855164, 0.37831050157546997, -0.35759708285331726, -0.1781727373600006, -0.1787477284669876, 0.027467528358101845, -0.13811391592025757, -0.1614864617586136, 0.07792696356773376, -0.05659453943371773, -0.20106931030750275, -0.37575358152389526, -0.22467036545276642, -0.4244058132171631], [-0.8670362830162048, 0.6087815761566162, -0.5852973461151123, 0.44376081228256226, -0.31614160537719727, 0.08668812364339828, -0.43938592076301575, 0.47055408358573914, -0.3326478600502014, -0.31006327271461487, 0.4046846330165863, -0.03580490127205849, -0.45920079946517944, -0.6609639525413513, -0.6069809794425964, -0.7962577939033508], [-0.5520040392875671, 0.1690969467163086, -0.10659883171319962, -0.0653349831700325, -0.09639479964971542, 0.29637497663497925, -0.09047073125839233, 0.03662344068288803, -0.575086772441864, -0.03535471856594086, 0.1957300752401352, 0.12182625383138657, -0.4772953391075134, -0.5462453961372375, -0.09052645415067673, -0.3279838263988495], [-0.165396586060524, 0.2970743775367737, 0.08705267310142517, -0.7606529593467712, 0.11898832768201828, -0.31848475337028503, 0.14893290400505066, -0.114223413169384, -0.03408318758010864, 0.3230864405632019, 0.05633608624339104, -0.1918821483850479, 0.17939049005508423, 0.006231050007045269, -0.22297613322734833, 0.025221681222319603], [0.1593639850616455, 0.01679026149213314, -0.15553243458271027, -0.18576869368553162, 0.1260128915309906, -0.11785458028316498, -0.17915810644626617, -0.0168839730322361, -0.1119137853384018, 0.21730506420135498, -0.04522259905934334, -0.05331452190876007, -0.2413138598203659, 0.12417694181203842, 0.35037893056869507, -0.020459022372961044], [-0.11808812618255615, 0.3111346364021301, -0.3923662006855011, -0.15583674609661102, -0.2016744464635849, -0.004823843017220497, -0.5351892113685608, 0.05653027817606926, 0.21837125718593597, -0.14989328384399414, 0.5593270063400269, 0.07142432779073715, 0.3122641444206238, 0.06140541657805443, -0.5066853761672974, -0.22834761440753937], [-0.41264042258262634, 0.10261927545070648, -0.01577543094754219, 0.22793930768966675, -0.4557216167449951, 0.3255669176578522, -0.36288949847221375, 0.09399275481700897, -0.5249813199043274, -0.24056120216846466, 0.3852713406085968, 0.07054229825735092, -0.06513845920562744, -0.35351449251174927, -0.04796341806650162, -0.17636831104755402], [0.38747158646583557, 0.22074472904205322, 0.20748409628868103, -0.23703435063362122, 0.33307844400405884, 0.16712087392807007, -0.013238554820418358, 0.19294092059135437, 0.15144741535186768, -0.03975801542401314, 0.04342539981007576, 0.2893451750278473, 0.032558340579271317, 0.024568889290094376, 0.045463621616363525, 0.3923628330230713], [0.2661818265914917, -0.5322937965393066, 0.1635543704032898, -0.8993074893951416, -0.28402960300445557, -0.11429312825202942, 0.18953841924667358, -0.7167907953262329, -0.2468014657497406, -0.1374931037425995, -0.1337224841117859, 0.1969360113143921, -0.1253235638141632, -0.1430739313364029, -0.09585670381784439, -0.038787052035331726], [0.06692452728748322, 0.5518736839294434, 0.07890349626541138, 0.03973119333386421, -0.050500113517045975, -0.313526451587677, -0.2779797315597534, -0.4734085202217102, 0.024045925587415695, -0.3360500633716583, -0.32009053230285645, -0.40613484382629395, 0.2278377115726471, 0.11637518554925919, -0.08248885720968246, 0.1226625069975853]], "b2": [0.417880654335022, -0.48296085000038147, 0.4158017337322235, -0.970464289188385, 0.4817165434360504, -0.6484565734863281, 0.3956850469112396, -0.5232275128364563, 0.4623648226261139, 0.4051026999950409, -0.777807891368866, -0.3648667633533478, 0.40951067209243774, 0.45710909366607666, 0.40413498878479004, 0.49923238158226013], "W3": [[-0.46856674551963806], [0.918806791305542], [-0.587912380695343], [0.7745212316513062], [-0.7221763134002686], [0.6926349401473999], [-0.4589391350746155], [0.10534358769655228], [-0.429671049118042], [-0.6116124987602234], [0.5537465214729309], [0.6636455655097961], [-0.7393506169319153], [-0.4780157804489136], [-0.47786879539489746], [-0.19065819680690765]], "b3": [-0.5697678327560425]}