{"W1": [[-0.5642983317375183, 0.6341257691383362, -0.5022490620613098, -0.5975038409233093, 0.8312352299690247, -0.33611589670181274, 0.4282045066356659, 0.095995232462883, 0.41919824481010437, -0.04528858885169029, 0.05165041983127594, -0.38324517011642456], [0.7540388703346252, -0.4614809453487396, 0.08830172568559647, -0.04872546344995499, -0.33615291118621826, 0.22927270829677582, 0.3299269676208496, 0.08344902098178864, -0.5261856317520142, 0.9110880494117737, -0.165156751871109, -0.33417508006095886], [-0.4766216278076172, 0.46222150325775146, 0.3734937608242035, -0.2595173716545105, 0.1683986783027649, 0.8325831294059753, 0.1468898206949234, 0.5343418121337891, -0.2252180278301239, -0.27593305706977844, 0.03302445635199547, -0.3399639427661896], [0.4105028510093689, 0.13693788647651672, -0.4182596802711487, 0.443065881729126, 0.2790625989437103, 0.1119227260351181, -0.648270845413208, -0.622823178768158, -0.1259860396385193, -0.1301061362028122, 0.3635079562664032, -0.3060234785079956], [-0.2162596434354782, 0.2984641194343567, 0.07192075252532959, 0.4568513333797455, 0.31427332758903503, 0.13186044991016388, -0.4339831471443176, 0.0918324887752533, 0.8324722647666931, -0.6228293776512146, 0.4344416856765747, -0.4197815954685211], [-0.2966504693031311, -0.6407139897346497, -0.23346355557441711, 0.4401174783706665, -0.7400688529014587, -0.3059554100036621, 0.3372638523578644, 0.5173748731613159, -0.4379022717475891, 0.465047687292099, 0.09299985319375992, -0.5499762296676636]], "b1": [-0.041583433747291565, 0.21435773372650146, -0.32764095067977905, -0.1080089658498764, 0.22184479236602783, -0.11802822351455688, 0.3958113193511963, 0.013378715142607689, 0.5750064253807068, 0.5799816846847534, -0.1955483853816986, -0.13648326694965363], "W2": [[-0.4980303943157196, -0.1753120869398117, 0.3525027334690094], [0.7334487438201904, -0.11816821992397308, -0.14210250973701477], [-0.2921074628829956, 0.04187895357608795, -0.46987104415893555], [-0.2839704751968384, 0.608537495136261, -0.09747094660997391], [0.3313606083393097, -0.6409503817558289, -0.8207889795303345], [0.5436180233955383, 0.09547355026006699, -0.38817328214645386], [-0.15943290293216705, -0.06966163218021393, 1.1433480978012085], [-0.5165620446205139, 0.40806251764297485, 0.7245686054229736], [0.9068809151649475, 0.18452800810337067, -0.26860928535461426], [-1.0573322772979736, 0.11527939140796661, 0.9460830092430115], [0.2777637243270874, 0.5797338485717773, 0.09599395096302032], [0.5890935659408569, -0.4369659423828125, -0.10001710802316666]], "b2": [0.10719829797744751, -0.30743393301963806, 0.16286234557628632]}