{"W1": [[0.57662433385849, -0.4855811595916748, -0.19846762716770172, 0.7725213766098022, 0.21189656853675842, 0.0716070830821991, 0.3975863456726074, 0.3794596493244171, 0.24374261498451233, -0.6968804001808167, 0.3673378825187683, -0.06387423723936081], [-0.03927098587155342, -0.12318798899650574, 0.3411705195903778, -0.3606964945793152, 0.03489004820585251, -0.1166604608297348, -0.10205163806676865, -0.5653416514396667, -0.05899199843406677, -0.3537136912345886, 0.7727844715118408, -0.05711192265152931], [0.3456781208515167, -0.2467789351940155, -0.49156779050827026, -0.09695707261562347, 0.5870795249938965, -0.6079372763633728, 0.46601057052612305, -0.0914185419678688, -0.4360736310482025, 0.3134167492389679, -0.2687409520149231, -0.2681783437728882], [-0.032665424048900604, -0.1706448644399643, 0.2862546443939209, 0.5000660419464111, -0.009020565077662468, 0.0846356749534607, 0.2338014394044876, 0.34802624583244324, 0.5273151993751526, -0.43286043405532837, -0.8052353262901306, 0.5291322469711304], [0.09804802387952805, 0.25088343024253845, 0.4964087903499603, 0.18280191719532013, -1.012932300567627, -0.48877182602882385, -0.03745773062109947, 0.03803848847746849, 0.39489826560020447, -0.17083251476287842, -0.14184649288654327, 0.4323708117008209], [0.5737600922584534, -0.3229401111602783, 0.3585173487663269, -0.5985012650489807, 0.11552952975034714, -0.15894068777561188, -0.5260453820228577, -0.4422544240951538, 0.14901112020015717, -0.006368823815137148, 0.4902486801147461, -0.7431466579437256]], "b1": [0.22377412021160126, 0.03960680216550827, -0.12857769429683685, 0.1979348510503769, 0.45345109701156616, 0.057146117091178894, -0.15645745396614075, 0.15924568474292755, -0.053137898445129395, -0.47599291801452637, 0.4661056101322174, 0.31426766514778137], "W2": [[-0.4826072156429291, -0.5377592444419861, 0.01768992841243744], [-0.041655607521533966, -0.6146627068519592, -0.12863357365131378], [0.44022873044013977, 0.5284620523452759, -0.06565341353416443], [0.6206381320953369, -0.1126183569431305, -0.6695126295089722], [-0.5737036466598511, -0.5155316591262817, 0.27103129029273987], [0.2919752895832062, 0.2631511986255646, 0.5712807774543762], [0.02079029753804207, 0.07104086130857468, -0.5670126676559448], [0.755751371383667, -0.43465590476989746, 0.11086057871580124], [0.05296255275607109, 0.41589346528053284, -0.5132313370704651], [-0.049604013562202454, -0.2023952603340149, -0.21340738236904144], [-0.80409175157547, -0.2298089563846588, 0.5597843527793884], [0.8228078484535217, -0.27370086312294006, -0.11242574453353882]], "b2": [-0.06373274326324463, -0.22479209303855896, 0.27936527132987976]}