{"W1": [[-0.6530894041061401, 0.8175944685935974, -0.5834792852401733, 0.0633775070309639, 0.2919090986251831, 0.32815083861351013, 0.21010062098503113, -0.13000109791755676, 0.32149553298950195, -0.6302411556243896, -0.06758487969636917, 0.2524537444114685], [-0.20818020403385162, 0.462351530790329, 0.31404420733451843, 0.02398393303155899, 0.23713600635528564, 0.468728244304657, -0.49861714243888855, -0.15672726929187775, 0.2374071478843689, 0.21895051002502441, -0.2508142590522766, -0.4740677773952484], [-0.3566122055053711, 0.31637129187583923, 0.38136276602745056, -0.4443628191947937, 0.46867266297340393, -0.024757755920290947, 0.07085389643907547, 0.7920883893966675, -0.7755671739578247, 0.23557426035404205, -0.18920162320137024, 0.3549639582633972], [-0.46864748001098633, 0.3075198233127594, 0.7544657588005066, 0.2955065369606018, -0.10150707513093948, -0.38367000222206116, 0.28886258602142334, -0.1649145483970642, 0.20677325129508972, -0.26957303285598755, 0.5652506947517395, -0.0036357222124934196], [0.40428927540779114, -0.07033183425664902, 0.5795318484306335, -0.2504333257675171, -0.5801218748092651, -0.6957143545150757, 0.19028203189373016, -0.6561729907989502, 0.9391627311706543, 0.6568547487258911, 0.6358890533447266, -0.6216268539428711], [-0.25416120886802673, 0.2873441278934479, 0.12654663622379303, -0.1336398869752884, 0.5315614342689514, 0.35116466879844666, -0.8584949374198914, 0.5114429593086243, 0.6137591004371643, 0.3666822612285614, -0.7003576755523682, 0.07828886806964874]], "b1": [0.25880831480026245, 0.24183981120586395, 0.4620082378387451, -0.302684485912323, 0.19416199624538422, 0.36226576566696167, 0.32268449664115906, 0.2447466254234314, 0.18526335060596466, -0.09311681240797043, 0.525657057762146, -0.03682081028819084], "W2": [[0.23213905096054077, -0.5000700950622559, -0.5614895820617676], [0.3731364607810974, -0.8194571733474731, 0.5732666850090027], [0.6106921434402466, -0.5957385897636414, 0.16166675090789795], [-0.06492561101913452, 0.5531697273254395, 0.1938076913356781], [-0.5357168316841125, -0.15539610385894775, 0.6289519667625427], [-0.8780145645141602, -0.8245987892150879, 0.07821153104305267], [0.4396533668041229, -0.7233943343162537, -0.786522388458252], [-0.3333742022514343, -0.9163083434104919, 0.015530336648225784], [0.015289047732949257, -0.7394932508468628, -0.7563416361808777], [-0.3833364248275757, -0.28058961033821106, -0.7256158590316772], [0.9487249255180359, -0.2851927876472473, -0.646779477596283], [-0.33500635623931885, -0.25597235560417175, -0.1923254281282425]], "b2": [0.22473618388175964, -0.42584460973739624, 0.022373035550117493]}