{"W1": [[0.256998211145401, -0.3718878924846649, -0.007265102583914995, 0.5172716379165649, 0.20021261274814606, -0.23050330579280853, 0.05069264397025108, -0.14039789140224457, -0.11101124435663223, -0.663844108581543, 0.4111402928829193, -0.051773060113191605], [-0.6335142254829407, 0.18730905652046204, -0.09068398177623749, -0.28057369589805603, -0.3768278658390045, 0.3389182388782501, -0.518013060092926, -0.5057728886604309, 0.7038493752479553, 0.40003079175949097, 0.3156322240829468, 0.351752370595932], [-0.4052026569843292, 0.6700820922851562, -0.8771396279335022, 0.8219418525695801, -0.5154879093170166, 0.7786684632301331, 0.22533205151557922, -0.3490681052207947, 0.5773414373397827, -0.2108110785484314, -0.6154294013977051, 0.056297667324543], [-0.15048420429229736, 0.002435437636449933, -0.40421396493911743, 0.623503565788269, -0.6009052991867065, 0.7622506618499756, -0.4185510277748108, -0.6904734373092651, 0.14587919414043427, -0.6598149538040161, -0.6384626030921936, 0.5909212231636047], [-0.19132831692695618, 0.41130125522613525, -0.016967713832855225, -0.4594883620738983, -0.37683236598968506, -0.13706010580062866, -0.020167231559753418, 0.17197996377944946, 0.447182297706604, 0.10059493780136108, -0.09897369146347046, 0.4067035913467407], [0.4084905982017517, -0.4007810354232788, 0.30739277601242065, 0.24676287174224854, -0.4352262616157532, 0.1342948079109192, -0.2087940275669098, -0.4688853621482849, -0.07860246300697327, 0.21803122758865356, 0.3806855082511902, 0.27532172203063965]], "b1": [-0.02719876728951931, 0.04285737872123718, 0.019673442468047142, -0.061821822077035904, 0.05179237201809883, 0.05762897804379463, 0.11009138077497482, 0.018325988203287125, 0.07999740540981293, -0.0161728598177433, 0.1972438544034958, 0.04366600513458252], "W2": [[0.45029300451278687, -0.18146324157714844, -0.10378876328468323, -0.3455086946487427, -0.14729228615760803, 0.028677955269813538, -0.31232887506484985, -0.5364241600036621, -0.6142878532409668, 0.5668511986732483, 0.0006312212208285928, -0.09152737259864807], [-0.301541268825531, 0.3813427984714508, -0.28826630115509033, 0.17720334231853485, -0.19544407725334167, 0.22027845680713654, -0.12419457733631134, 0.2940497100353241, 0.12546806037425995, -0.07809808850288391, 0.024579916149377823, -0.1570308655500412], [-0.19587057828903198, -0.15117697417736053, 0.5808801651000977, 0.19513604044914246, 0.4251375198364258, -0.07725624740123749, -0.07285312563180923, -0.5727723240852356, -0.5193833112716675, -0.1851908564567566, 0.6277449131011963, -0.3132014274597168], [0.43245646357536316, 0.6252058148384094, -0.023159479722380638, 0.10042829066514969, -0.6393163204193115, -0.21053411066532135, 0.4179440140724182, 0.42656999826431274, -0.004357459954917431, 0.027656245976686478, 0.3005819618701935, 0.24990713596343994], [-0.017832335084676743, -0.23830947279930115, 0.6968520879745483, 0.366797536611557, 0.5308822393417358, -0.5082699060440063, 0.06006043404340744, -0.6156025528907776, -0.23864085972309113, 0.28412237763404846, 0.12812040746212006, -0.29290691018104553], [-0.5944624543190002, 0.5956862568855286, -0.20904666185379028, -0.1750342696905136, -0.29229503870010376, -0.28432032465934753, 0.6175776720046997, 0.40362289547920227, -0.0018541152821853757, -0.5607696175575256, -0.06159526854753494, 0.303131103515625], [0.2532735764980316, -0.41495510935783386, 0.1115502342581749, 0.49107953906059265, 0.4994535446166992, 0.21805304288864136, -0.4290032386779785, -0.224822998046875, 0.03465941175818443, 0.590756356716156, -0.13492007553577423, 0.2638322710990906], [-0.14205524325370789, -0.6017723679542542, 0.4715457260608673, 0.1623508334159851, 0.7545554637908936, -0.36704131960868835, 0.1599653661251068, -0.45886456966400146, -0.3037242591381073, 0.5489760041236877, 0.35168567299842834, -0.5365249514579773], [0.10059862583875656, 0.47232067584991455, 0.0015518356813117862, -0.08345868438482285, -0.10134801268577576, 0.5065178871154785, 0.17409595847129822, 0.5799171924591064, 0.19635848701000214, -0.3026619851589203, 0.3040633797645569, 0.4633494019508362], [-0.13290934264659882, -0.5099142789840698, 0.5285777449607849, -0.055244866758584976, 0.41666170954704285, 0.43916040658950806, 0.1275862753391266, -0.48697686195373535, -0.5421706438064575, 0.14197306334972382, 0.30219539999961853, 0.11186333745718002], [-0.2242327481508255, 0.19535887241363525, 0.12872691452503204, -0.03198444843292236, 0.04657934978604317, -0.08450537174940109, 0.32736924290657043, 0.32001927495002747, -0.25555774569511414, 0.3933493196964264, 0.31008386611938477, 0.2603381872177124], [-0.414594441652298, 0.25391945242881775, -0.38046330213546753, -0.2656860649585724, 0.07303431630134583, 0.4633972942829132, 0.6426795721054077, 0.34573179483413696, 0.22705335915088654, -0.7106574773788452, -0.6994980573654175, 0.5564169883728027]], "b2": [0.09941939264535904, 0.05021252855658531, 0.04666880890727043, -0.008079620078206062, 0.01181602943688631, -0.023935141041874886, 0.0051534781232476234, 0.061334483325481415, 0.014942880719900131, 0.06950591504573822, 0.01755739189684391, 0.02608935348689556], "W3": [[0.00025368324713781476, -0.2542079985141754, 0.6735270619392395], [-0.740196168422699, 0.27226558327674866, -0.27649620175361633], [0.3032197952270508, -0.5300630331039429, 0.21149294078350067], [0.6099058985710144, -0.5475209951400757, -0.2050083726644516], [0.2911578416824341, -0.901543140411377, -0.21089819073677063], [-0.033532511442899704, 0.5562919974327087, -0.6876911520957947], [-0.6670286059379578, 0.48654478788375854, -0.4480249285697937], [-0.6194089651107788, 0.8841258883476257, 0.38771650195121765], [-0.47762107849121094, 0.20757468044757843, -0.5992960929870605], [0.4148162305355072, -0.6888588070869446, -0.39893826842308044], [0.40262025594711304, -0.5176235437393188, 0.1450600028038025], [-0.939892053604126, 0.7993903756141663, 0.566582441329956]], "b3": [-0.018221167847514153, -0.021100765094161034, 0.027278786525130272]}