{"W1": [[-0.09070664644241333, 0.06826236099004745, 0.028498239815235138, -0.14418481290340424, -0.16882894933223724, 0.030310053378343582, 0.2056298851966858, -0.08033336699008942, 0.032868679612874985, -0.14000436663627625, 0.21446968615055084, -0.11566091328859329, 0.041030917316675186, -0.16308364272117615, 0.009201440028846264, -0.3223697245121002, 0.3855586647987366, -0.37912753224372864, 0.05791459232568741, 0.027105093002319336, 0.11595804989337921, 0.04757252335548401, 0.2463712990283966, 0.18657609820365906, -0.10702425241470337, -0.08373217284679413, 0.05997254699468613, -0.11409448832273483, -0.00296324142254889, -0.11548036336898804, 0.14948663115501404, -0.292497843503952, 0.17599086463451385, 0.02468082122504711, -0.09012126177549362, 0.05346271023154259, 0.2675335705280304, -0.2384313941001892, -0.0530843511223793, -0.15739917755126953, 0.4168960154056549, -0.010651051998138428, 0.15856461226940155, 0.2900397777557373, 0.21717827022075653, -0.22951936721801758, 0.09161289781332016, -0.1514996737241745, -0.23114867508411407, -0.12240038812160492, -0.29197758436203003, 0.4196033477783203, 0.18441501259803772, 0.0029409409034997225, -0.17101526260375977, -0.008764553815126419, -0.1627276986837387, -0.060512710362672806, -0.21628229320049286, -0.036919064819812775, -0.06954395025968552, -0.08248929679393768, -0.22043028473854065, 0.07039880752563477], [-0.441637247800827, -0.12595196068286896, -0.022293608635663986, 0.06583596020936966, -0.3096427917480469, -0.09297523647546768, -0.3402625024318695, -0.22439676523208618, 0.19904309511184692, -0.5208173990249634, -0.24905921518802643, 0.016355078667402267, -0.03532075509428978, -0.015430604107677937, 0.2814455032348633, -0.15050166845321655, -0.35433098673820496, -0.10697109252214432, 0.055615779012441635, 0.5658826231956482, -0.17334964871406555, -0.11724349856376648, 0.2927486300468445, 0.14321725070476532, 0.28006038069725037, 0.08798761665821075, -0.46765705943107605, -0.32954394817352295, -0.3220573365688324, -0.3130764067173004, 0.23956181108951569, -0.020605312660336494, -0.008198938332498074, 0.15313543379306793, 0.03856583684682846, 0.19404323399066925, -0.21811068058013916, -0.06757563352584839, -0.07853205502033234, -0.29241734743118286, 0.3165018558502197, -0.2801838219165802, -0.21113163232803345, -0.17731623351573944, -0.10115518420934677, -0.13207218050956726, -0.05086684599518776, 0.02049044705927372, 0.2540678381919861, 0.13958506286144257, -0.1375850886106491, 0.3328828811645508, -0.10553709417581558, 0.16806471347808838, -0.0036396426148712635, -0.21147534251213074, -0.15816451609134674, -0.010645433329045773, -0.1020718663930893, 0.20991237461566925, -0.29870665073394775, -0.24545419216156006, -0.03905445709824562, 0.14346688985824585], [-1.7204509973526, 0.38915637135505676, -0.10201101005077362, 0.8431154489517212, 0.0826093927025795, 0.4983377754688263, -0.4361990988254547, 0.36661651730537415, -0.07518206536769867, -0.9824198484420776, 0.17438283562660217, 0.7548272609710693, -0.42694830894470215, -0.4590660035610199, 0.3647313117980957, 0.44861698150634766, -0.35945507884025574, 0.28773409128189087, 0.31897562742233276, 2.2113876342773438, 0.3029022812843323, 0.30794546008110046, 1.2729747295379639, 0.3328462839126587, 0.06879382580518723, 0.46646180748939514, -0.6678389310836792, -1.6045118570327759, -0.31277894973754883, -0.28446102142333984, 0.33300894498825073, -0.3705608546733856, 0.19597367942333221, -0.054295171052217484, 0.2533578872680664, -0.15898796916007996, -0.03339278697967529, -0.42489564418792725, 0.0706334263086319, -0.5865638256072998, 0.5721912980079651, -0.6581818461418152, 0.027387280017137527, -0.1061100959777832, 0.3818882703781128, -0.44360849261283875, 0.41499900817871094, 0.01926586590707302, 1.0828099250793457, 0.11803753674030304, -0.34853437542915344, 0.626170814037323, -0.12101509422063828, 0.28034594655036926, -0.32262173295021057, -0.8055540919303894, 0.4965437948703766, -0.3151189088821411, -0.41216832399368286, 0.17740076780319214, -0.22031338512897491, -0.463951975107193, 0.1391817331314087, -0.058714643120765686], [-0.25370022654533386, 0.04033496230840683, 0.18147888779640198, 0.16246084868907928, -0.1941141039133072, 0.1471996009349823, -0.12565529346466064, 0.07685388624668121, 0.17852860689163208, -0.2857157588005066, -0.06424615532159805, 0.2538803219795227, -0.11382319778203964, -0.05428789556026459, 0.10098801553249359, 0.07148528844118118, -0.42887449264526367, 0.05571264773607254, 0.15274938941001892, 0.5013336539268494, -0.1418602168560028, 0.15529927611351013, 0.612614631652832, -0.059748128056526184, 0.08170576393604279, 0.20976191759109497, -0.09649606049060822, -0.30642759799957275, -0.2867679297924042, -0.16135329008102417, 0.0633765161037445, -0.12987349927425385, 0.14618206024169922, -0.011617186479270458, 0.18002203106880188, 0.06882112473249435, -0.04045018553733826, -0.25711968541145325, 0.008669482544064522, -0.27086377143859863, 0.20637445151805878, -0.34186792373657227, -0.08705675601959229, -0.17528760433197021, 0.2303812950849533, 0.032335296273231506, 0.02812964655458927, 0.13754849135875702, 0.3602212071418762, 0.050158727914094925, -0.35793769359588623, 0.3124830424785614, -0.07718253880739212, 0.013142780400812626, -0.20558235049247742, -0.3395673632621765, 0.0560067854821682, 0.0170751940459013, -0.07873878628015518, -0.08360511064529419, -0.18406647443771362, -0.16111640632152557, -0.022589366883039474, -0.16756771504878998], [0.25821179151535034, 0.2012501358985901, -0.019619464874267578, -0.09522321820259094, -0.2632230520248413, -0.1507580280303955, 0.004554629325866699, -0.10676264762878418, 0.2163732647895813, 0.2305946946144104, 0.06931856274604797, 0.11970522999763489, -0.03756970167160034, -0.1183038204908371, 0.049730658531188965, -0.2859993875026703, -0.04213041067123413, 0.26259785890579224, 0.0067615509033203125, 0.20514914393424988, -0.1293872892856598, 0.23771315813064575, 0.06892028450965881, -0.286196231842041, -0.1516660749912262, 0.09539639949798584, -0.20987960696220398, 0.1843254268169403, 0.14834484457969666, -0.020354002714157104, 0.08688050508499146, 0.026447415351867676, -0.2919929325580597, -0.11487242579460144, 0.27072709798812866, 0.052340954542160034, 0.0009255111217498779, 0.1757948100566864, -0.142646923661232, -0.16771022975444794, -0.02168142795562744, 0.17354461550712585, -0.2437184751033783, 0.029552608728408813, -0.06114821135997772, 0.12352386116981506, -0.08972778916358948, 0.1866127848625183, -0.26113054156303406, 0.23343271017074585, 0.1882539689540863, 0.16432428359985352, -0.25131383538246155, 0.22084617614746094, 0.1389932930469513, 0.038230448961257935, -0.2657283842563629, -0.21152552962303162, 0.03288334608078003, -0.2620526850223541, -0.20096996426582336, 0.08222228288650513, 0.15360552072525024, 0.17220157384872437], [0.26530176401138306, -0.11851190030574799, 0.12716388702392578, -0.12356261909008026, -0.21631136536598206, -0.1696087121963501, 0.265724241733551, -0.00549730658531189, 0.10244980454444885, 0.07306832075119019, 0.149455726146698, 0.2035316824913025, 0.07933324575424194, 0.2423166036605835, -0.14199727773666382, 0.17816892266273499, -0.277595192193985, -0.09462110698223114, 0.18857085704803467, 0.22707408666610718, -0.11159767210483551, 0.12934932112693787, -0.1963825821876526, -0.14414507150650024, 0.0020338892936706543, -0.1622011959552765, 0.1592182219028473, 0.06741607189178467, 0.04665037989616394, -0.14569495618343353, -0.036294788122177124, 0.1267881691455841, -0.08681336045265198, -0.27106913924217224, -0.027094900608062744, -0.1672067493200302, 0.19260525703430176, 0.23951202630996704, -0.22450503706932068, -0.0005942285060882568, -0.14830386638641357, 0.09785488247871399, -0.2120780050754547, -0.22276920080184937, -0.23427700996398926, 0.23688316345214844, -0.21618592739105225, 0.15456712245941162, 0.02842533588409424, 0.0875018835067749, -0.25845497846603394, 0.06041082739830017, 0.08563295006752014, 0.22318661212921143, 0.13100522756576538, -0.11212202906608582, -0.003450930118560791, -0.051293447613716125, -0.06924235820770264, 0.17579635977745056, -0.2200455367565155, 0.23379862308502197, 0.20586475729942322, 0.048401057720184326]], "b1": [0.19123874604701996, -0.21336112916469574, 0.19582554697990417, 0.006898289080709219, -0.4268268644809723, -0.14661343395709991, 0.1159965842962265, -0.3183514475822449, -0.20691734552383423, 0.1986328363418579, 0.2180219143629074, -0.10471110045909882, 0.08094396442174911, 0.20519597828388214, 0.28973153233528137, -0.4066449999809265, -0.2866128087043762, -0.4658055603504181, 0.2385929524898529, 0.02010926604270935, 0.19475339353084564, -0.20507359504699707, 0.6933646202087402, 0.42481544613838196, 0.2813454270362854, -0.09126586467027664, 0.12087798118591309, 0.19599322974681854, 0.07843497395515442, -0.4259377717971802, -0.13249029219150543, -0.4309479892253876, -0.15894438326358795, 0.2485978901386261, 0.31706923246383667, 0.2826269865036011, -0.28142616152763367, 0.18979619443416595, -0.2706417739391327, 0.140670508146286, -0.2120247185230255, -0.3257056176662445, 0.2051246017217636, -0.26708993315696716, 0.34935951232910156, 0.3008386492729187, -0.20264224708080292, -0.2469688504934311, 0.5201094746589661, 0.26560452580451965, -0.47166240215301514, -0.19430306553840637, -0.2476341426372528, 0.22727452218532562, 0.188162699341774, -0.3360590934753418, -0.27220845222473145, 0.199544295668602, 0.23621422052383423, 0.2850029766559601, 0.20153281092643738, 0.14538894593715668, 0.3445926904678345, 0.2015390545129776], "W2": [[-0.5491560697555542, 0.021207433193922043, 0.2737695872783661, 0.03988952934741974, -0.28862079977989197, -0.8944776058197021, -0.047028038650751114, 0.2981451153755188, -0.6780585050582886, -0.0469052828848362, 0.11460775136947632, 0.049870844930410385, -0.27994269132614136, 0.293270468711853, -0.04938727989792824, 0.14594393968582153, -0.058768317103385925, -0.8351638317108154, -0.8184475302696228, -1.1576769351959229, 0.05512642115354538, 0.2732270061969757, 0.1298140287399292, -0.06777619570493698, 0.245619997382164, 0.29211628437042236, -0.9762529134750366, -1.0728451013565063, 0.10820796340703964, -0.7472551465034485, -0.7733041644096375, -0.960766613483429, -0.8117639422416687, -0.45986440777778625, -0.5600811243057251, -0.6469535231590271, -1.0262452363967896, -0.037231605499982834, -0.2797636389732361, 0.2770085632801056, -0.9432618021965027, 0.0937262773513794, 0.29892390966415405, 0.1777898371219635, -0.060738589614629745, 0.23641440272331238, 0.024255171418190002, 0.11091021448373795, -0.8377423882484436, -0.6328087449073792, -0.7672987580299377, -0.07434110343456268, -0.8870554566383362, -1.0061148405075073, 0.32876691222190857, -0.4236939251422882, 0.22341367602348328, 0.021727629005908966, -0.1441756635904312, 0.14784874022006989, -0.9385825395584106, 0.23352298140525818, -0.029554497450590134, 0.272598534822464], [0.20434314012527466, -0.28484615683555603, -0.009555208496749401, -0.19219417870044708, 0.3443831503391266, 0.24242769181728363, -0.25940126180648804, 0.039863221347332, 0.4454040229320526, -0.14827820658683777, -0.19334961473941803, -0.146760493516922, 0.4866679012775421, -0.09336702525615692, -0.372300922870636, -0.2953491806983948, -0.20331986248493195, 0.21187596023082733, 0.21815592050552368, 0.16079971194267273, 0.018898935988545418, -0.27784019708633423, -0.048284851014614105, -0.03561827167868614, 0.05349617823958397, -0.013388716615736485, 0.07190307974815369, 0.42142385244369507, -0.10206596553325653, 0.37626203894615173, 0.31555628776550293, 0.15975582599639893, 0.26457151770591736, 0.052078574895858765, 0.446239173412323, 0.2259521186351776, 0.3679713308811188, 0.0036792471073567867, 0.339998722076416, 0.029141347855329514, 0.41021275520324707, -0.3178812861442566, 0.2983734905719757, 0.3143312633037567, -0.21352621912956238, -0.337799608707428, -0.07185447961091995, 0.00029926502611488104, 0.269358366727829, 0.11143742501735687, 0.25506824254989624, -0.2636629045009613, 0.11390025913715363, 0.2942493259906769, -0.10508943349123001, 0.5565877556800842, -0.16572678089141846, -0.2411177158355713, 0.3349466025829315, -0.3550876975059509, 0.07491347938776016, -0.03324061259627342, -0.14059846103191376, -0.24030166864395142], [-0.24571150541305542, 0.10783238708972931, -0.030405255034565926, 0.3762555420398712, -0.5824655890464783, -0.0023415435571223497, -0.017066799104213715, -0.46384936571121216, -0.14739924669265747, 0.19121845066547394, 0.11147189140319824, 0.15341971814632416, -0.47336143255233765, 0.10246545076370239, -0.029440801590681076, 0.17611436545848846, 0.24734026193618774, 0.03973430022597313, -0.2767016887664795, -0.05809905007481575, 0.20482201874256134, -0.045067667961120605, -0.5327522158622742, 0.3130863308906555, 0.32177069783210754, -0.5296720862388611, 0.056450434029102325, -0.13041803240776062, -0.03534215688705444, 0.09446196258068085, -0.21254774928092957, 0.015556502155959606, -0.08854607492685318, -0.2235129028558731, 0.07965003699064255, 0.023317664861679077, 0.038864850997924805, 0.18058514595031738, -0.619910478591919, -0.688689649105072, -0.08540276437997818, 0.30606892704963684, -0.5385720729827881, -0.48280858993530273, 0.19865871965885162, 0.08413137495517731, 0.04995858296751976, -0.5463727116584778, 0.13694392144680023, -0.13349765539169312, 0.12407919764518738, 0.17538978159427643, -0.06070011854171753, -0.18093301355838776, 0.18661877512931824, -0.40238502621650696, 0.32041218876838684, 0.292447030544281, -0.35618722438812256, 0.32040080428123474, 0.011895661242306232, 0.18639229238033295, 0.030756661668419838, -0.027174416929483414], [0.1959538757801056, 0.10942099988460541, -0.044726211577653885, 0.15706343948841095, 0.21452762186527252, 0.1670946180820465, -0.11042606830596924, 0.036706212908029556, -0.1052512601017952, 0.08469784259796143, -0.05763811618089676, 0.09728854894638062, 0.47068482637405396, -0.09409491717815399, -0.08712346106767654, -0.10603415220975876, -0.04705246537923813, 0.13816657662391663, 0.18513554334640503, 0.09307985007762909, 0.08198001235723495, 0.16371843218803406, 0.014215562492609024, 0.048192668706178665, 0.15335305035114288, 0.1389252096414566, -0.08261571824550629, 0.18004560470581055, -0.19909709692001343, -0.028754984959959984, -0.19772250950336456, 0.01021696999669075, -0.17280885577201843, -0.1653253436088562, -0.0958721712231636, -0.10604540258646011, 0.23072490096092224, 0.1666916012763977, 0.20639698207378387, 0.0742655023932457, 0.06039810553193092, 0.16457995772361755, 0.12414570152759552, 0.13332395255565643, -0.07411973178386688, 0.09214181452989578, -0.14685410261154175, 0.1115269735455513, 0.01711905002593994, -0.0048876674845814705, 0.14607611298561096, 0.01297883689403534, 0.07812157273292542, 0.21669958531856537, -0.14375436305999756, 0.25709250569343567, 0.059111811220645905, 0.159100741147995, 0.48992156982421875, -0.11485657840967178, 0.25068530440330505, -0.19458824396133423, 0.09033180773258209, -0.0572345145046711], [-0.1298033893108368, -0.273037850856781, -0.2996676564216614, -0.29532262682914734, 0.9597690105438232, 0.18694603443145752, -0.491839200258255, 1.3155173063278198, -0.14379441738128662, -0.5741984844207764, -0.39329683780670166, -0.5987223386764526, 0.5133379101753235, -0.4662456810474396, -0.49038437008857727, -0.4856429994106293, -0.5162243843078613, -0.0588509701192379, 0.3695739507675171, -0.2790836989879608, -0.5794784426689148, -0.6139529943466187, 1.096380352973938, -0.5160843729972839, -0.2591831684112549, 1.207081913948059, 0.1395244300365448, 0.013314695097506046, -0.23854205012321472, -0.09854327142238617, 0.16011375188827515, -0.19045083224773407, 0.16879622638225555, 0.1601039469242096, 0.2301221638917923, -0.031373266130685806, 0.14921066164970398, -0.544908344745636, 0.5071032643318176, 1.3748388290405273, -0.12488947808742523, -0.5510995388031006, 1.2170339822769165, 1.260805606842041, -0.5494322776794434, -0.5573476552963257, -0.5626810789108276, 1.351253628730774, 0.07619262486696243, 0.025750014930963516, -0.09086950123310089, -0.5663321018218994, -0.2396678626537323, 0.06813079118728638, -0.5387884974479675, 0.6014251708984375, -0.6289855241775513, -0.6346031427383423, 1.130693793296814, -0.32163700461387634, -0.15622392296791077, -0.5704963803291321, -0.36857786774635315, -0.49183347821235657], [-0.06399908661842346, -0.051883529871702194, -0.07494660466909409, -0.14854112267494202, 0.4819107949733734, 0.11757347732782364, -0.21999087929725647, 0.09276235848665237, 0.11920711398124695, -0.024284064769744873, 0.07480368763208389, -0.06291695684194565, 0.5331685543060303, -0.16761638224124908, 0.1341695338487625, 0.07406644523143768, 0.03839259222149849, 0.4219248592853546, 0.49504023790359497, 0.421983003616333, -0.038171689957380295, -0.06518851965665817, -0.03457855060696602, -0.22058646380901337, 0.0009521929896436632, 0.11553545296192169, 0.27929434180259705, 0.30528396368026733, -0.06033641844987869, 0.0556727759540081, 0.07353650033473969, 0.2754991948604584, 0.5186642408370972, -0.004706398583948612, 0.3832097053527832, 0.2589283883571625, 0.12826642394065857, 0.15407799184322357, 0.5317132472991943, -0.02107200026512146, 0.17036546766757965, -0.2634808123111725, 0.14433391392230988, 0.15943440794944763, -0.259992390871048, -0.1639859676361084, -0.15973205864429474, 0.21707701683044434, 0.4551207423210144, 0.3248666226863861, 0.1744796335697174, -0.011375226080417633, 0.3850705325603485, 0.25602632761001587, -0.01800324022769928, 0.4003181457519531, -0.20719708502292633, -0.04620503634214401, 0.7001950740814209, -0.09885921329259872, 0.10851701349020004, 0.07982894033193588, -0.15094724297523499, -0.12812472879886627], [-0.12365402281284332, -0.046273279935121536, 0.3065321147441864, 0.15435078740119934, -0.8321413397789001, -0.6330222487449646, 0.06165454164147377, -0.22172220051288605, -0.39356133341789246, 0.3379356563091278, 0.24716848134994507, 0.2240254133939743, -0.9856372475624084, 0.2338154911994934, 0.3601948320865631, 0.12367036193609238, 0.09813761711120605, -0.5475477576255798, -0.573324978351593, -0.5447302460670471, -0.048963334411382675, 0.33238741755485535, -0.36156371235847473, -0.01783745363354683, 0.10252708196640015, -0.3702138662338257, -0.4131735563278198, -0.35306867957115173, 0.2890903949737549, -0.35526829957962036, -0.1609625220298767, -0.6726946234703064, -0.6963526606559753, -0.2044142633676529, -0.5341265797615051, -0.4414013922214508, -0.4965963661670685, 0.0029572993516921997, -0.8390838503837585, -0.3514643907546997, -0.6850674748420715, 0.2793741822242737, -0.26788952946662903, -0.3679656982421875, 0.06397674232721329, 0.23724395036697388, 0.2143179476261139, -0.2879951298236847, -0.46775373816490173, -0.5508598685264587, -0.41631412506103516, 0.07400498539209366, -0.5001300573348999, -0.6147074103355408, -0.05160486698150635, -1.1641370058059692, 0.3486550450325012, 0.34113049507141113, -0.8646600246429443, 0.20922702550888062, -0.6222148537635803, -0.03478125482797623, 0.36468392610549927, 0.31459081172943115], [0.12394187599420547, -0.3307795524597168, -0.42462676763534546, -0.2516401708126068, 0.5883389115333557, 0.19996023178100586, -0.38510051369667053, 0.6002867817878723, 0.23017805814743042, -0.08629793673753738, -0.358881413936615, -0.0851031020283699, 0.4634910225868225, -0.19516879320144653, -0.29591959714889526, -0.3307138681411743, -0.45530927181243896, 0.2770719826221466, 0.1749953031539917, 0.16167885065078735, -0.23671264946460724, -0.4406452775001526, 0.7656408548355103, -0.3728872835636139, -0.28711333870887756, 0.4060465395450592, -0.004723042249679565, 0.006053358782082796, -0.33832046389579773, 0.04284568503499031, 0.12479529529809952, 0.1871277540922165, 0.3967268466949463, -0.11655295640230179, 0.039375483989715576, -0.061660267412662506, -0.0836559608578682, -0.26177048683166504, 0.5211566090583801, 0.7785680294036865, 0.20894558727741241, -0.17413443326950073, 0.4263783395290375, 0.6855107545852661, -0.17599008977413177, -0.32575279474258423, -0.2171679586172104, 0.7253698110580444, -0.038856230676174164, 0.09040110558271408, 0.07150397449731827, -0.1895422339439392, 0.03714644908905029, -0.027745861560106277, -0.4386290907859802, 0.6215611100196838, -0.12195222079753876, -0.4316427707672119, 1.0174329280853271, -0.3638263940811157, 0.1001833975315094, -0.4079890549182892, -0.38315796852111816, -0.17429356276988983], [0.2686140537261963, -0.33390143513679504, -0.2586725652217865, -0.39837056398391724, 0.5225643515586853, 0.4815501570701599, -0.24959047138690948, 0.577158510684967, 0.10223040729761124, -0.37233588099479675, -0.24544164538383484, -0.09680035710334778, 0.09908866882324219, -0.13372068107128143, -0.3424205183982849, -0.11978713423013687, -0.42190876603126526, 0.2498771697282791, 0.2248477339744568, 0.5212846398353577, -0.3773494064807892, -0.2628142237663269, 0.27253106236457825, -0.28689873218536377, -0.3373095691204071, 0.29032909870147705, 0.4653986394405365, 0.28269410133361816, -0.08955023437738419, 0.23739492893218994, 0.5207821130752563, 0.1064249724149704, -0.07005870342254639, 0.4214511215686798, 0.09126725047826767, 0.20642882585525513, 0.14160524308681488, -0.2190050184726715, 0.09358863532543182, 0.583543062210083, 0.37529194355010986, -0.4091382622718811, 0.5076833963394165, 0.20773862302303314, -0.320284903049469, -0.46058738231658936, -0.3713630735874176, 0.26050934195518494, 0.25520625710487366, 0.4078628420829773, 0.36747705936431885, -0.2958177328109741, 0.2676892578601837, 0.27182042598724365, -0.4290757477283478, -0.1021544486284256, -0.4018385112285614, -0.4785946309566498, 0.31104815006256104, -0.4358178377151489, 0.5035836100578308, -0.49591347575187683, -0.21075746417045593, -0.09328030794858932], [-0.5913805365562439, -0.013508206233382225, 0.23722434043884277, 0.025618890300393105, -0.1637842059135437, -0.8607631921768188, 0.015156617388129234, 0.14848683774471283, -1.138700008392334, 0.1328408122062683, 0.05730412155389786, 0.23756036162376404, -0.3561524748802185, 0.1904122531414032, 0.37597110867500305, 0.2907904088497162, 0.06821471452713013, -0.6027700901031494, -0.8211811184883118, -1.4420357942581177, 0.35907354950904846, 0.05141357332468033, 0.14649131894111633, 0.2935657799243927, 0.20795221626758575, -0.026022467762231827, -0.7856485843658447, -1.2490291595458984, 0.22639141976833344, -0.8581390976905823, -0.733927309513092, -1.027936577796936, -0.6675796508789062, -0.6122838258743286, -0.7501193881034851, -1.0077224969863892, -1.2348010540008545, 0.05117760971188545, -0.104372039437294, 0.25646641850471497, -1.033676266670227, 0.18923889100551605, 0.06463469564914703, -0.16130776703357697, 0.19477103650569916, 0.2342713624238968, 0.26386624574661255, 0.07714248448610306, -0.9893009662628174, -0.6350937485694885, -1.2469993829727173, 0.3843799829483032, -1.003320336341858, -0.6807066202163696, 0.3811669647693634, -0.5156462788581848, 0.11978385597467422, 0.058105167001485825, 0.006999601610004902, 0.16059301793575287, -1.2609285116195679, 0.30587562918663025, 0.390118271112442, 0.09793136268854141], [-0.07786231487989426, 0.32083478569984436, 0.49820971488952637, 0.36664479970932007, -0.8925869464874268, -0.04351340979337692, 0.44778916239738464, -0.4379669725894928, 0.016707440838217735, 0.31342411041259766, 0.4002200663089752, 0.48318779468536377, -1.0677610635757446, 0.15487276017665863, 0.25097936391830444, 0.43883469700813293, 0.12031083554029465, -0.1537693291902542, -0.23769275844097137, 0.23233984410762787, 0.24918565154075623, 0.3658428192138672, -0.5312329530715942, 0.11103004962205887, 0.3953464925289154, -0.7241801023483276, 0.029364129528403282, -0.18744972348213196, 0.36923184990882874, 0.04847558215260506, 0.11097751557826996, -0.01196141168475151, 0.037219684571027756, 0.11821206659078598, 0.05169517174363136, 0.09455540776252747, -0.08387118577957153, 0.1303345412015915, -0.6558704376220703, -0.8499136567115784, -0.1084742620587349, 0.12648078799247742, -0.6203938126564026, -0.7815245985984802, 0.49526190757751465, 0.26953548192977905, 0.12245231866836548, -0.7066163420677185, -0.18766319751739502, -0.16905274987220764, 0.0059568556025624275, 0.1220439225435257, 0.059926703572273254, -0.03652917593717575, 0.322896271944046, -0.6442070007324219, 0.20284606516361237, 0.15448050200939178, -1.0664936304092407, 0.1362217366695404, -0.07871079444885254, 0.27387720346450806, 0.2751074433326721, 0.10992289334535599], [0.17163342237472534, -0.27190276980400085, -0.09033732861280441, -0.17103458940982819, 0.5297006964683533, 0.34733402729034424, 0.014895913191139698, 0.22071288526058197, 0.09585408866405487, -0.2308027595281601, -0.008753136731684208, -0.12373927235603333, 1.0774153470993042, -0.08269426971673965, -0.034319918602705, -0.09746264666318893, -0.19675756990909576, 0.5094636082649231, 0.3540133535861969, 0.4408448040485382, -0.30985304713249207, 0.08353231102228165, 0.1926461011171341, -0.12272636592388153, -0.15486960113048553, 0.5090276598930359, 0.07725146412849426, 0.3736516237258911, -0.28068771958351135, 0.3453671634197235, 0.28155821561813354, 0.4876753091812134, 0.2791774272918701, 0.30848345160484314, 0.1825484037399292, 0.12563680112361908, 0.3822532892227173, -0.10553739964962006, 0.6352372169494629, 0.1559750884771347, 0.2816620171070099, -0.24484913051128387, 0.41672420501708984, 0.14280611276626587, -0.07697885483503342, -0.09120070934295654, -0.1668732613325119, 0.5473772883415222, 0.38622844219207764, 0.1491638720035553, 0.4874449372291565, 0.09521473199129105, 0.152868390083313, 0.4484604597091675, -0.21857057511806488, 1.1359422206878662, -0.020200742408633232, 0.06657955050468445, 0.622080385684967, 0.053077951073646545, 0.4493805468082428, 0.027526358142495155, 0.06759537756443024, 0.06926139444112778], [-0.24266503751277924, -0.08860039710998535, 0.22835049033164978, 0.17173001170158386, -0.5133106708526611, -0.19040542840957642, -0.14080767333507538, -0.3896960914134979, -0.2982116639614105, -0.14549434185028076, 0.029131915420293808, 0.11884966492652893, -0.7662302255630493, 0.02561335451900959, -0.1299600899219513, 0.09048430621623993, 0.07332822680473328, -0.29745805263519287, -0.3308029770851135, -0.5080680847167969, 0.09470416605472565, 0.20115119218826294, -0.2614790201187134, -0.17508459091186523, 0.1856444925069809, -0.34760409593582153, -0.30905693769454956, -0.3689239025115967, -0.08116473257541656, -0.1714295744895935, -0.14748483896255493, -0.1566905528306961, -0.48853570222854614, -0.031877096742391586, -0.30383747816085815, -0.00919356383383274, -0.2790271043777466, 0.0030249340925365686, -0.4818820655345917, -0.15328393876552582, -0.37626463174819946, -0.0202325489372015, -0.21367794275283813, -0.23272638022899628, 0.15909355878829956, -0.1428428739309311, 0.13773782551288605, -0.08622390031814575, -0.19442571699619293, -0.4473014175891876, -0.1370932012796402, 0.25125277042388916, -0.08996536582708359, -0.33588552474975586, 0.19791005551815033, -0.472738116979599, 0.03658836707472801, 0.08073759824037552, -0.4774068593978882, -0.15320748090744019, -0.1689327210187912, 0.1460338681936264, -0.09495650976896286, 0.022194625809788704], [-0.5154838562011719, 0.36508652567863464, 0.4754810333251953, 0.5694071054458618, -0.31985944509506226, -0.5490126609802246, 0.640807032585144, -0.35766157507896423, -0.7148523926734924, 0.6263352632522583, 0.4345671534538269, 0.31840500235557556, -0.29801344871520996, 0.4129665195941925, 0.2877922058105469, 0.34305912256240845, 0.6934984922409058, -0.45721539855003357, -0.31217867136001587, -0.8484137654304504, 0.33943140506744385, 0.5026339292526245, -0.2346184253692627, 0.27556857466697693, 0.43284621834754944, -0.28526830673217773, -0.8351768255233765, -0.7974780797958374, 0.5629826188087463, -0.7285287976264954, -0.7630285024642944, -0.6303580403327942, -0.6210213303565979, -0.7089250087738037, -0.4360637366771698, -0.6824921369552612, -0.7126771807670593, 0.4650578796863556, -0.362591028213501, -0.1681104451417923, -0.8707173466682434, 0.421617716550827, -0.434452086687088, -0.08219683915376663, 0.5798174142837524, 0.6282843351364136, 0.5873750448226929, -0.2191522866487503, -0.6507691144943237, -0.41522216796875, -0.9282549023628235, 0.6903741359710693, -0.9029318690299988, -0.741513192653656, 0.5479990839958191, -0.2956602871417999, 0.6281071901321411, 0.4925273060798645, -0.435432106256485, 0.27298179268836975, -0.6057743430137634, 0.35492467880249023, 0.30819186568260193, 0.6313736438751221], [-0.22576677799224854, 0.28940698504447937, 0.5543639659881592, 0.39652737975120544, -0.8930261135101318, -0.0028072036802768707, 0.2793697118759155, -0.9702132344245911, 0.2133084237575531, 0.4189886152744293, 0.6098785996437073, 0.5691280364990234, -0.6305907368659973, 0.31055623292922974, 0.3415118157863617, 0.44730448722839355, 0.39998555183410645, 0.004591391421854496, -0.24407248198986053, 0.11889317631721497, 0.3739100992679596, 0.27457013726234436, -1.2007319927215576, 0.3078279197216034, 0.18657121062278748, -1.064989686012268, 0.14472457766532898, -0.1326870620250702, 0.5657206177711487, -0.022100213915109634, 0.15681374073028564, -0.002488323487341404, -0.21092800796031952, -0.11347280442714691, -0.04970145225524902, 0.15947970747947693, 0.034602053463459015, 0.4220534861087799, -0.5782256126403809, -1.1707041263580322, -0.08611387014389038, 0.2904675602912903, -1.3227386474609375, -1.331091284751892, 0.19415809214115143, 0.38927167654037476, 0.3868089020252228, -1.101999282836914, -0.011549720540642738, 0.062417108565568924, -0.04514581337571144, 0.46384409070014954, 0.07052911818027496, 0.08390495926141739, 0.5458855032920837, -0.3685151934623718, 0.4375947117805481, 0.5947688817977905, -0.8242068886756897, 0.20735347270965576, 0.12369789183139801, 0.3362431526184082, 0.26781511306762695, 0.6015948057174683], [0.04895002394914627, -0.30138710141181946, -0.4181082844734192, -0.2125130295753479, 0.8050864934921265, -0.02921968884766102, -0.42975276708602905, 0.569750189781189, 0.10203491896390915, -0.38355207443237305, -0.07542575150728226, -0.43689051270484924, 0.8009521961212158, -0.10952103137969971, -0.33234038949012756, -0.10820415616035461, -0.24267493188381195, -0.010151930153369904, 0.33615642786026, 0.20193499326705933, -0.2355034500360489, -0.15652263164520264, 0.5083065629005432, -0.4987746775150299, -0.3560924232006073, 0.4963999390602112, 0.09187135100364685, -0.016676833853125572, -0.1581616848707199, 0.20067007839679718, 0.10322361439466476, 0.03508524224162102, 0.23849833011627197, -0.07652119547128677, 0.26833096146583557, -0.15797187387943268, -0.06281843781471252, -0.47149598598480225, 0.8960491418838501, 0.5938481092453003, 0.09467696398496628, -0.4271712005138397, 0.5754395723342896, 0.5150274634361267, -0.23705095052719116, -0.1138785108923912, -0.17446458339691162, 0.769185483455658, -0.14196178317070007, 0.16052697598934174, -0.11056085675954819, -0.20566976070404053, -0.22972047328948975, -0.04337535798549652, -0.46480241417884827, 0.6616401672363281, -0.47309669852256775, -0.1843825876712799, 0.6454339623451233, -0.07585053890943527, -0.022764768451452255, -0.43498745560646057, -0.18385137617588043, -0.38037896156311035], [0.4610532522201538, -0.7750416398048401, -0.7058642506599426, -0.647142231464386, 0.783054530620575, 0.39154261350631714, -0.6387744545936584, 0.6719241142272949, 0.46539363265037537, -0.41649824380874634, -0.8012799620628357, -0.6111087799072266, 0.3607843816280365, -0.4477570056915283, -0.586961030960083, -0.5244875550270081, -0.4154587388038635, 0.25344160199165344, 0.18736284971237183, 0.4032527506351471, -0.680347740650177, -0.5132960677146912, 1.0306262969970703, -0.7227732539176941, -0.7715884447097778, 0.7922689318656921, 0.4854995906352997, 0.3631511628627777, -0.7455483078956604, 0.5883695483207703, 0.6188690066337585, 0.3268946707248688, 0.18695656955242157, 0.3259984850883484, 0.23917627334594727, 0.5148272514343262, 0.19821082055568695, -0.4240933656692505, 0.6061345338821411, 1.0340913534164429, 0.3255079984664917, -0.7416465878486633, 0.9959328770637512, 0.8602069616317749, -0.7587082982063293, -0.7539024353027344, -0.7785184383392334, 0.781032919883728, 0.2720693051815033, 0.36289820075035095, 0.15074554085731506, -0.6397848129272461, 0.471956729888916, 0.4456557035446167, -0.53537517786026, 0.09983443468809128, -0.44624289870262146, -0.4601990282535553, 0.49628615379333496, -0.5553361773490906, 0.5087899565696716, -0.6130266785621643, -0.6752100586891174, -0.6609532237052917], [-0.07104294002056122, -0.3805728852748871, -0.18021877110004425, -0.22774261236190796, 0.6199971437454224, -0.15522314608097076, -0.16379714012145996, 0.7516655325889587, 0.12047263979911804, -0.4360242187976837, -0.17138737440109253, -0.3023780584335327, 0.8842306137084961, -0.48283466696739197, -0.5268588662147522, -0.5506370663642883, -0.398830384016037, 0.2541494071483612, 0.16764681041240692, -0.0521727129817009, -0.5364445447921753, -0.3201775848865509, 0.7897639870643616, -0.4233150780200958, -0.4926016330718994, 0.5296403765678406, 0.20684708654880524, 0.17184922099113464, -0.4872609078884125, 0.04596279561519623, 0.00941475760191679, -0.08575348556041718, 0.23339280486106873, 0.11267340183258057, 0.12642894685268402, -0.06620046496391296, -0.1924934834241867, -0.4249752461910248, 0.8070158362388611, 0.5618450045585632, 0.07382380217313766, -0.2777409255504608, 0.4254772663116455, 0.4352067708969116, -0.48236650228500366, -0.3948881924152374, -0.3725746273994446, 0.7663204073905945, -0.11980379372835159, -0.009225697256624699, -0.019642280414700508, -0.3590947985649109, -0.008777105249464512, 0.32469356060028076, -0.18284082412719727, 0.6000309586524963, -0.4970506727695465, -0.22891247272491455, 0.7905698418617249, -0.39157092571258545, -0.13380077481269836, -0.18653817474842072, -0.38795632123947144, -0.12274432927370071], [0.03743688762187958, 0.24693161249160767, 0.4007008969783783, 0.40514108538627625, -0.9881840348243713, 0.2747800052165985, 0.22127699851989746, -1.1037521362304688, 0.2831338047981262, 0.38268396258354187, 0.08271599560976028, 0.20407156646251678, -0.7343143224716187, 0.3168260157108307, 0.49234673380851746, 0.4574049115180969, 0.09382441639900208, -0.178117573261261, 0.004978911951184273, 0.031760480254888535, 0.3479364812374115, 0.1755128651857376, -1.0558185577392578, 0.39176443219184875, 0.2808021903038025, -1.0239988565444946, 0.2177448570728302, 0.19103285670280457, 0.09930258989334106, -0.03441145271062851, 0.2679036855697632, 0.2635388970375061, -0.2664821445941925, 0.057321999222040176, 0.05299917608499527, -0.061088528484106064, -0.0035851371940225363, 0.2530273497104645, -0.800317645072937, -1.2133653163909912, 0.12188306450843811, 0.17059585452079773, -0.9721038937568665, -0.9788557887077332, 0.4374808371067047, 0.5007275938987732, 0.1878257393836975, -1.1244641542434692, -0.02343538962304592, -0.10608788579702377, -0.04331525042653084, 0.15438221395015717, -0.01812092587351799, 0.0749751552939415, 0.18692518770694733, -0.526942789554596, 0.13172711431980133, 0.31851398944854736, -0.9953336715698242, 0.3108009696006775, 0.24837641417980194, 0.44604727625846863, 0.23694396018981934, 0.3438577651977539], [0.09100078046321869, 0.29497799277305603, 0.234610453248024, 0.26081061363220215, -0.38428443670272827, 0.34910452365875244, 0.024571998044848442, -0.6151848435401917, 0.34621480107307434, -0.024723509326577187, 0.12479420006275177, 0.13067744672298431, -0.15919087827205658, -0.09126881510019302, 0.07744977623224258, 0.05452264845371246, 0.2625141143798828, 0.03464469686150551, 0.22289912402629852, 0.6074643135070801, -0.04654413089156151, 0.24425429105758667, -0.3470193147659302, 0.28859743475914, 0.06952134519815445, -0.6272558569908142, 0.3352386951446533, 0.3501651883125305, 0.0838877335190773, 0.2001616358757019, 0.2713903784751892, 0.5483598113059998, 0.403889924287796, 0.34788158535957336, 0.28945741057395935, 0.5162355899810791, 0.3793262839317322, 0.028694365173578262, -0.19846847653388977, -0.5115472078323364, 0.26108551025390625, 0.1653663069009781, -0.6248422265052795, -0.5583921074867249, 0.17516764998435974, 0.15586619079113007, 0.20975641906261444, -0.45912712812423706, 0.5592905282974243, 0.2640261650085449, 0.3261486291885376, 0.1161336675286293, 0.5227549076080322, 0.1174866184592247, 0.18193520605564117, -0.29717838764190674, 0.12366481870412827, 0.01614971272647381, -0.10887729376554489, 0.07314082980155945, 0.5203729867935181, 0.1296459585428238, 0.22634421288967133, -0.11964865773916245], [-0.13474413752555847, 0.19168353080749512, 0.17813637852668762, 0.20773741602897644, -0.8053491711616516, -0.08319003880023956, 0.30154260993003845, -0.6408793330192566, -0.16916218400001526, 0.20817093551158905, 0.352588027715683, 0.23586806654930115, -0.5762453675270081, 0.4159209728240967, 0.3941751718521118, 0.4065242409706116, 0.3136533498764038, -0.04323870316147804, 0.01660384237766266, -0.16396427154541016, 0.30788323283195496, 0.24973201751708984, -0.8201682567596436, 0.37051159143447876, 0.0827120915055275, -0.891846239566803, -0.18836821615695953, 0.05123870447278023, 0.41602203249931335, -0.1154264360666275, 0.09021372348070145, -0.09827113151550293, -0.037774138152599335, 0.08025908470153809, -0.06059402599930763, 0.09481038898229599, 0.1253775656223297, 0.4258266091346741, -0.8907541632652283, -0.7007299661636353, -0.17540182173252106, 0.4596453905105591, -0.7976984977722168, -0.6906458139419556, 0.24571606516838074, 0.2697869837284088, 0.17585717141628265, -0.7821542024612427, 0.016513766720891, 0.025865526869893074, -0.12682847678661346, 0.38003745675086975, 0.10218611359596252, 0.11959301680326462, 0.246656134724617, -0.5894932746887207, 0.24782858788967133, 0.3666817247867584, -0.759543240070343, 0.2768760621547699, -0.19595925509929657, 0.2667776644229889, 0.3455538749694824, 0.45695459842681885], [0.1864800751209259, -0.08492215722799301, 0.06329875439405441, -0.073432058095932, 0.34158703684806824, 0.14652951061725616, -0.014682951383292675, -0.018096359446644783, 0.14108692109584808, -0.1620522290468216, -0.17548848688602448, -0.24900591373443604, 0.5732508301734924, -0.29489490389823914, -0.2204323559999466, 0.013667687773704529, -0.23105266690254211, 0.41603031754493713, 0.37492701411247253, 0.4411180317401886, -0.24146586656570435, -0.2590440511703491, 0.2551287114620209, 0.006988787557929754, -0.14946284890174866, -0.019056499004364014, 0.1612742394208908, 0.08625038713216782, -0.269300252199173, 0.05411442741751671, 0.16595053672790527, 0.011174588464200497, 0.23666523396968842, 0.33750155568122864, 0.3088200092315674, 0.037253547459840775, 0.38012561202049255, 0.01724204421043396, 0.6435556411743164, 0.21098920702934265, 0.4176781177520752, -0.16323541104793549, 0.1289122998714447, 0.16696622967720032, -0.2717978358268738, -0.28045982122421265, -0.07171446084976196, 0.24822472035884857, 0.2558814585208893, 0.0272358525544405, -0.0015414200024679303, 0.06712409108877182, 0.26178625226020813, 0.17105165123939514, 0.08550602942705154, 0.5666183829307556, -0.1449250727891922, -0.10839872062206268, 0.6500232815742493, -0.029910000041127205, 0.13154391944408417, -0.12431295216083527, -0.14023198187351227, 0.0593576543033123], [0.3667597770690918, 0.44035255908966064, 0.3498660624027252, 0.12055214494466782, -0.8792011141777039, 0.17721740901470184, 0.07899991422891617, -1.1804715394973755, 0.07190609723329544, 0.2867495119571686, 0.2518804371356964, 0.32405462861061096, -0.6906697750091553, 0.4588620364665985, 0.4282037615776062, 0.19805625081062317, 0.13878679275512695, -0.08930943161249161, 0.14994800090789795, 0.40468552708625793, 0.22193756699562073, 0.30961933732032776, -1.122562289237976, 0.19574132561683655, 0.22849780321121216, -1.0793370008468628, 0.3891134262084961, 0.3609580397605896, 0.45853370428085327, 0.40486499667167664, 0.4333435595035553, 0.46212178468704224, -0.023658668622374535, 0.2719510495662689, 0.021505257114768028, 0.13722537457942963, 0.38497665524482727, 0.2435033917427063, -0.5598665475845337, -1.2753007411956787, 0.23337224125862122, 0.3375658392906189, -0.8796226978302002, -0.8708294630050659, 0.4151391386985779, 0.42108607292175293, 0.23582740128040314, -0.9920024871826172, 0.23111450672149658, 0.12986119091510773, 0.46776241064071655, 0.36449846625328064, 0.4628412425518036, 0.04174927622079849, 0.04770990461111069, -0.4926677644252777, 0.15108773112297058, 0.2155257910490036, -0.5992152094841003, 0.34190988540649414, 0.4256087839603424, 0.2732544541358948, 0.13434883952140808, 0.356240451335907], [0.11653097718954086, 0.22688792645931244, 0.4390614926815033, 0.36689457297325134, -0.8136823773384094, -0.09895441681146622, 0.2684803605079651, -0.6359779238700867, -0.0821390226483345, 0.24234731495380402, 0.4754370152950287, 0.3574361205101013, -0.5867893099784851, 0.46280568838119507, 0.20030370354652405, 0.12433595955371857, 0.2604334354400635, 0.09866595268249512, -0.2566254734992981, 0.2513095736503601, 0.08693944662809372, 0.3878135085105896, -0.6689938902854919, 0.4606994390487671, 0.23007984459400177, -0.6902426481246948, 0.16885130107402802, 0.20797944068908691, 0.3653053343296051, 0.059354931116104126, 0.2833763659000397, 0.07463320344686508, -0.19930696487426758, 0.16880904138088226, 0.13604216277599335, 0.13415972888469696, 0.09024351835250854, 0.1830686330795288, -0.5337247848510742, -0.650066077709198, 0.10692961513996124, 0.34750235080718994, -0.482369065284729, -0.5734660625457764, 0.1299116015434265, 0.30273693799972534, 0.4183671176433563, -1.0090625286102295, 0.08641073852777481, -0.054514817893505096, 0.28767871856689453, 0.1183360293507576, -0.11758923530578613, -0.03783939406275749, 0.43922778964042664, -0.6019148826599121, 0.3137446343898773, 0.10658358037471771, -0.9935842752456665, 0.24471820890903473, 0.01948617957532406, 0.41515567898750305, 0.20206233859062195, 0.2519150376319885], [0.002304358407855034, 0.4285074472427368, 0.11381127685308456, 0.2640893757343292, -0.57823246717453, -0.179871067404747, 0.11451319605112076, -0.5781219005584717, -0.12887315452098846, 0.22286073863506317, 0.15691469609737396, 0.3659028112888336, -0.34032246470451355, 0.31291651725769043, 0.37755152583122253, 0.25478193163871765, 0.1787189245223999, -0.16653473675251007, -0.181746706366539, 0.100387804210186, 0.4364235997200012, 0.446292906999588, -0.3908529579639435, 0.0769224613904953, 0.17685143649578094, -0.657630980014801, -0.17211700975894928, 0.0784401223063469, 0.4710654616355896, -0.0036661357153207064, -0.16232196986675262, -0.21861431002616882, 0.014342145062983036, -0.3320443332195282, -0.15605483949184418, 0.0922405943274498, -0.09588629752397537, 0.37342050671577454, -0.4754232168197632, -0.4840816557407379, -0.08064152300357819, 0.266690731048584, -0.3898652195930481, -0.5966805219650269, 0.2933337688446045, 0.3457096815109253, 0.18027010560035706, -0.4224072992801666, 0.001605896046385169, -0.02096160687506199, -0.13568015396595, 0.22019265592098236, 0.11360980570316315, -0.14975498616695404, 0.059235576540231705, -0.49128463864326477, 0.36833465099334717, 0.44183653593063354, -0.5838678479194641, 0.10009237378835678, -0.1668955534696579, 0.34807083010673523, 0.45415544509887695, 0.18078316748142242], [0.19728173315525055, 0.008655091747641563, -0.1363706737756729, -0.010995226912200451, 0.3933701515197754, 0.42463219165802, -0.1239398941397667, 0.4061497449874878, 0.1160813570022583, 0.09322259575128555, 0.04122096300125122, -0.14173544943332672, 0.6142475008964539, -0.12596695125102997, 0.06347137689590454, 0.15131646394729614, 0.060244545340538025, 0.39756640791893005, 0.23971359431743622, 0.6058088541030884, 0.17995962500572205, 0.1622280329465866, 0.1464902013540268, 0.06569075584411621, 0.010029387660324574, 0.29560720920562744, 0.1958237886428833, 0.49374955892562866, -0.11193504929542542, 0.24515019357204437, 0.405159592628479, 0.5075249075889587, 0.3920953869819641, 0.205331489443779, 0.31882765889167786, 0.13352307677268982, 0.44579195976257324, -0.1886446177959442, 0.5712220072746277, 0.07146277278661728, 0.3439550995826721, 0.1080024465918541, 0.11896166950464249, 0.38825222849845886, -0.12950825691223145, 0.023825708776712418, -0.14835812151432037, 0.07592613250017166, 0.24861489236354828, 0.08462890237569809, 0.10753872990608215, -0.04412826895713806, 0.47870421409606934, 0.3132154047489166, -0.07748586684465408, 0.7586825489997864, -0.20924432575702667, -0.007148508448153734, 0.6041789054870605, 0.08377338200807571, 0.31773796677589417, -0.23849260807037354, 0.16311410069465637, -0.1635463684797287], [-0.27042117714881897, 0.14606288075447083, 0.24598337709903717, 0.12627442181110382, -0.14759832620620728, -0.6423000693321228, 0.13002806901931763, 0.08316807448863983, -0.5462943315505981, 0.1375265121459961, 0.20304438471794128, 0.21562042832374573, -0.5449974536895752, -0.11219284683465958, 0.10567780584096909, 0.12984779477119446, -0.014718026854097843, -0.39602601528167725, -0.2995109260082245, -0.55131596326828, 0.0039015943184494972, 0.05933209881186485, 0.07019349932670593, 0.25417083501815796, 0.2582986354827881, -0.0120015237480402, -0.5888036489486694, -0.6858492493629456, 0.21528507769107819, -0.40915828943252563, -0.45541873574256897, -0.4258411228656769, -0.5625731945037842, -0.4697323143482208, -0.3166945278644562, -0.5926379561424255, -0.6253596544265747, 0.12015144526958466, -0.21804557740688324, 0.16217021644115448, -0.39081817865371704, 0.027392474934458733, 0.002888468559831381, 0.17354153096675873, -0.0527152419090271, 0.18964502215385437, 0.16408130526542664, -0.25584858655929565, -0.8198935985565186, -0.6207402348518372, -0.5296115279197693, 0.2513290345668793, -0.732241690158844, -0.5726296901702881, 0.241775244474411, -0.5771913528442383, 0.10648001730442047, -0.06721679121255875, -0.2841247320175171, 0.0022830346133559942, -0.7082891464233398, 0.2605512738227844, -0.10441198945045471, 0.25762712955474854], [-0.7552282214164734, -0.01473785750567913, -0.052473947405815125, -0.05903560668230057, -0.03620174899697304, -0.6608774065971375, 0.14790970087051392, 0.04471622407436371, -0.742343544960022, 0.001303078723140061, -0.05729464441537857, 0.046498339623212814, -0.4116359353065491, 0.2093430906534195, 0.26239457726478577, -0.06827864795923233, -0.09029880166053772, -0.8322737216949463, -0.7186546921730042, -0.9718183875083923, 0.09315032511949539, 0.21471679210662842, 0.048929519951343536, -0.10324413329362869, 0.15415382385253906, 0.010096227750182152, -0.814501166343689, -1.0031336545944214, 0.12314516305923462, -0.8946141004562378, -0.6601812243461609, -0.9425776600837708, -0.9231522679328918, -0.2660233676433563, -0.43099477887153625, -0.7091042399406433, -0.857409656047821, -0.04619957506656647, -0.0687793642282486, 0.038700252771377563, -0.791820228099823, 0.03913586959242821, 0.16861245036125183, 0.29656097292900085, 0.041804514825344086, 0.042825791984796524, 0.20805533230304718, 0.145961731672287, -0.8953982591629028, -0.48901185393333435, -0.7761390209197998, 0.19873985648155212, -0.8400359749794006, -0.6619864702224731, 0.13152064383029938, -0.33173200488090515, 0.17703288793563843, -0.09071569889783859, -0.002345295390114188, 0.30568209290504456, -0.8899797201156616, 0.2711062729358673, 0.2619932293891907, 0.07793314754962921], [-0.29052335023880005, 0.17012862861156464, 0.36756134033203125, 0.31197842955589294, -0.46616724133491516, -0.7332593202590942, 0.010482242330908775, -0.12283279746770859, -0.6630120873451233, 0.41693028807640076, 0.016868868842720985, 0.022101853042840958, -0.34891241788864136, 0.2772088050842285, 0.02892204374074936, 0.12825225293636322, 0.0337010882794857, -0.6408229470252991, -0.5659786462783813, -0.8905214667320251, 0.3065192997455597, 0.24491550028324127, -0.021023821085691452, 0.08312463760375977, 0.14682571589946747, -0.1824244260787964, -0.6443646550178528, -0.5786809921264648, 0.19865213334560394, -0.7582623362541199, -0.43972283601760864, -0.6668428182601929, -0.5036173462867737, -0.1638229638338089, -0.45671096444129944, -0.6540444493293762, -0.6763673424720764, 0.33000826835632324, -0.3598794639110565, -0.1364416778087616, -0.7903295159339905, 0.21909308433532715, -0.3063044250011444, -0.013057243078947067, 0.1880239099264145, 0.35033178329467773, 0.2253217250108719, -0.3297545909881592, -0.5780915021896362, -0.7219434976577759, -0.7578681707382202, 0.28231877088546753, -0.5254628658294678, -0.3240495026111603, 0.07642576843500137, -0.37399178743362427, -0.0037342840805649757, 0.298917293548584, -0.38056761026382446, 0.37369415163993835, -0.7668384909629822, 0.38807305693626404, 0.12226836383342743, 0.04302329197525978], [0.14154011011123657, -0.4119243323802948, -0.5230502486228943, -0.40831881761550903, 1.1049057245254517, -0.09621285647153854, -0.5310747623443604, 1.143250584602356, -0.126719132065773, -0.24643078446388245, -0.33921486139297485, -0.4532192051410675, 0.6577460765838623, -0.41704073548316956, -0.3419499099254608, -0.3250924050807953, -0.2732453942298889, 0.21731434762477875, 0.11869305372238159, 0.01596938632428646, -0.3501947522163391, -0.4227801263332367, 1.490370273590088, -0.4942087233066559, -0.29518458247184753, 1.1634113788604736, -0.12051721662282944, -0.22302338480949402, -0.28236889839172363, -0.16252268850803375, -0.07604525238275528, -0.1120080053806305, 0.22141948342323303, 0.21744222939014435, 0.04920980706810951, 0.071227066218853, 0.03896299749612808, -0.6516546010971069, 0.798233151435852, 1.5869200229644775, -0.20386247336864471, -0.6502735614776611, 1.3119057416915894, 1.2832446098327637, -0.6147100329399109, -0.6589241027832031, -0.5157081484794617, 1.0668349266052246, -0.08800254762172699, 0.15876616537570953, -0.2552112340927124, -0.41428494453430176, 0.10871011763811111, -0.13998080790042877, -0.5378080010414124, 0.6882778406143188, -0.37833189964294434, -0.3640306890010834, 1.1195361614227295, -0.4886474311351776, -0.16774752736091614, -0.23713381588459015, -0.3565112054347992, -0.5727367401123047], [0.3013528883457184, -0.09701741486787796, 0.024913279339671135, -0.12328176945447922, 0.1917617917060852, 0.561588704586029, -0.029183819890022278, 0.19597654044628143, 0.31192630529403687, -0.2706035375595093, -0.16403459012508392, 0.04043514281511307, 0.05109110847115517, -0.3172137439250946, -0.08740834146738052, -0.3493211567401886, 0.05286018177866936, 0.1296212077140808, 0.3056573271751404, 0.4491785764694214, -0.2448699027299881, -0.35666170716285706, 0.16412611305713654, -0.2831512689590454, -0.33086687326431274, -0.03418761119246483, 0.5656483173370361, 0.5432090163230896, -0.22620464861392975, 0.36625027656555176, 0.59669029712677, 0.5517678260803223, 0.3490048348903656, 0.4438282549381256, 0.2873133420944214, 0.5551462769508362, 0.3678613305091858, 0.07247190177440643, 0.0887119472026825, -0.005986696109175682, 0.49881041049957275, -0.12028204649686813, 0.20678532123565674, -0.010737945325672626, -0.029487665742635727, 0.05883358418941498, -0.33678582310676575, -0.18832284212112427, 0.6659048795700073, 0.39160868525505066, 0.44276365637779236, 0.057903800159692764, 0.3257389962673187, 0.32553449273109436, -0.032660722732543945, 0.23310860991477966, -0.00930834375321865, -0.20662645995616913, 0.12754978239536285, -0.2464173138141632, 0.3196794390678406, -0.2945045232772827, -0.2386704832315445, -0.21499252319335938], [0.24760150909423828, -0.5768811106681824, -0.308792382478714, -0.6270966529846191, 0.8554784059524536, 0.13659679889678955, -0.5381908416748047, 1.0416795015335083, -0.1400880664587021, -0.5585384964942932, -0.47210627794265747, -0.6093881726264954, 0.8102783560752869, -0.45214515924453735, -0.5185515284538269, -0.6597832441329956, -0.5380614995956421, 0.2272353172302246, 0.3481850326061249, 0.0468500591814518, -0.29521143436431885, -0.530896782875061, 1.0127151012420654, -0.4775814712047577, -0.6511675119400024, 1.0660163164138794, -0.27999672293663025, -0.08642349392175674, -0.4833376705646515, -0.06489689648151398, -0.07315807789564133, 0.13318122923374176, 0.2172018587589264, -0.04830147325992584, -0.0999288484454155, 0.09424513578414917, 0.05863375961780548, -0.31132733821868896, 0.9558503031730652, 0.897291362285614, -0.02054787240922451, -0.5557687282562256, 0.8436603546142578, 1.1966829299926758, -0.6581133604049683, -0.5091440081596375, -0.38950803875923157, 1.1904282569885254, -0.15451866388320923, -0.17927202582359314, -0.15198533236980438, -0.3278072476387024, -0.07326525449752808, -0.1123141348361969, -0.6301038861274719, 0.8779622316360474, -0.6312478184700012, -0.3854425549507141, 0.9154401421546936, -0.637976348400116, -0.24854996800422668, -0.4727555811405182, -0.6598516702651978, -0.2897762954235077], [0.6048728227615356, -0.1023632138967514, -0.12161175906658173, -0.23137949407100677, 0.38304030895233154, 0.3711262345314026, -0.16163599491119385, 0.24014633893966675, 0.5740180611610413, -0.4209953546524048, -0.20014464855194092, -0.2494407743215561, 0.07301811128854752, -0.1536562293767929, -0.18477965891361237, -0.3686872720718384, -0.293080598115921, 0.578082799911499, 0.4801355302333832, 0.6631923913955688, -0.47729983925819397, -0.15563803911209106, 0.11562252044677734, -0.06917250901460648, -0.27963101863861084, 0.1882883757352829, 0.6328927278518677, 0.5882253050804138, -0.3910118639469147, 0.6451398730278015, 0.2561660408973694, 0.5606169104576111, 0.18213196098804474, 0.5389630794525146, 0.2639559507369995, 0.530544638633728, 0.6413293480873108, -0.41485121846199036, 0.0487680658698082, 0.051992300897836685, 0.6089565753936768, -0.2059473991394043, 0.32039394974708557, 0.0512394979596138, -0.19168764352798462, -0.2873658537864685, -0.27244389057159424, 0.08130409568548203, 0.39100947976112366, 0.6405831575393677, 0.5217552185058594, -0.21861805021762848, 0.44702595472335815, 0.2868843674659729, -0.4490167796611786, -0.010805830359458923, -0.46592652797698975, -0.06738385558128357, 0.39361393451690674, -0.20889638364315033, 0.5298417210578918, -0.4778966009616852, -0.46751147508621216, -0.4558221399784088], [-0.053761981427669525, 0.4610235393047333, 0.10869213938713074, 0.3362935781478882, -0.8814231753349304, -0.06936090439558029, 0.14211837947368622, -0.6482651233673096, -0.18329302966594696, 0.3732723891735077, 0.1714724600315094, 0.4731241464614868, -0.6740864515304565, 0.47600510716438293, 0.47801652550697327, 0.13428980112075806, 0.27495768666267395, -0.26322320103645325, -0.4961915612220764, 0.13237670063972473, 0.19288930296897888, 0.24786357581615448, -0.5225368738174438, 0.4823954999446869, 0.27067744731903076, -0.6642991304397583, 0.046690382063388824, -0.060392968356609344, 0.4370969235897064, -0.2425961047410965, -0.07714412361383438, 0.13816243410110474, -0.2208222597837448, -0.09019488096237183, -0.3748086988925934, 0.0822194293141365, -0.24572432041168213, 0.3977278769016266, -0.6398701071739197, -0.7991528511047363, 0.10586338490247726, 0.26591774821281433, -0.5697587728500366, -0.48535582423210144, 0.14846649765968323, 0.34279218316078186, 0.13643226027488708, -0.48143020272254944, -0.20153291523456573, -0.1531655341386795, 0.07145526260137558, 0.45345014333724976, -0.26209595799446106, -0.0941266268491745, 0.20891746878623962, -0.4496023654937744, 0.26747018098831177, 0.11552146077156067, -0.8229382634162903, 0.13196417689323425, 0.11243792623281479, 0.27490800619125366, 0.2946116626262665, 0.2959519922733307], [-0.09195229411125183, 0.14533863961696625, 0.24986252188682556, 0.45726948976516724, -0.5912185311317444, -0.10297735035419464, 0.46599939465522766, -0.6282635927200317, -0.11936211585998535, 0.4207477271556854, 0.25019070506095886, 0.3085930347442627, -0.09669669717550278, 0.10722146183252335, 0.4180697202682495, 0.4646804630756378, 0.04888742417097092, 0.040298670530319214, 0.202423095703125, -0.06170139089226723, 0.45782017707824707, 0.175050288438797, -0.7946403622627258, 0.4658187925815582, 0.13738074898719788, -0.6213025450706482, -0.1092376634478569, 0.1421801596879959, 0.45412477850914, -0.05025062710046768, 0.10902111232280731, -0.22225801646709442, 0.24165436625480652, -0.26037833094596863, -0.11079404503107071, -0.009684241376817226, -0.11204440146684647, 0.16153015196323395, -0.17550621926784515, -0.8624252080917358, -0.21047963201999664, 0.19704429805278778, -0.7556239366531372, -0.8562647104263306, 0.3266875743865967, 0.11116409301757812, 0.4502177834510803, -0.5518438816070557, -0.1560192108154297, 0.012864808551967144, -0.09613988548517227, 0.27856454253196716, 0.13849365711212158, 0.14026129245758057, 0.44382214546203613, -0.06813500821590424, 0.4250349998474121, 0.14192938804626465, -0.3830890953540802, 0.27191752195358276, -0.17001722753047943, 0.4450118839740753, 0.3035065829753876, 0.32134774327278137], [-0.048804040998220444, 0.17801140248775482, 0.17041367292404175, 0.16663947701454163, -0.8909463882446289, -0.019430460408329964, 0.45132923126220703, -0.6054399609565735, -0.14599880576133728, 0.3977145254611969, 0.2732369899749756, 0.4999779462814331, -0.8216103315353394, 0.4558061361312866, 0.4060572683811188, 0.20131322741508484, 0.4281438887119293, -0.28775081038475037, -0.11723856627941132, -0.02504824660718441, 0.4505290389060974, 0.27203428745269775, -0.47468966245651245, 0.31852275133132935, 0.5245263576507568, -0.5056259036064148, -0.04648716375231743, -0.22088269889354706, 0.4265313446521759, -0.1444683074951172, 0.1186353787779808, -0.2377372682094574, -0.09661924093961716, -0.08655636757612228, -0.24262501299381256, 0.14670193195343018, 0.03448276221752167, 0.3420622944831848, -0.5452069640159607, -0.7804725170135498, 0.0984768196940422, 0.17404423654079437, -0.5405835509300232, -0.5074607729911804, 0.5231022238731384, 0.22379280626773834, 0.480309396982193, -0.769993782043457, 0.02316945791244507, -0.2666982412338257, -0.00986446812748909, 0.26167726516723633, 0.12503637373447418, -0.08229031413793564, 0.4943065941333771, -0.5250563621520996, 0.2041340470314026, 0.1409783661365509, -0.8835430145263672, 0.12873582541942596, -0.012213599868118763, 0.4516671299934387, 0.11620978266000748, 0.2267901748418808], [0.4864124059677124, -0.3625745177268982, -0.6411851048469543, -0.31372496485710144, 0.5798022150993347, 0.1608860194683075, -0.2525361180305481, 0.4267978072166443, 0.21963243186473846, -0.5364282727241516, -0.5245977640151978, -0.37108877301216125, 0.3411998450756073, -0.3400500416755676, -0.44869160652160645, -0.4855942130088806, -0.3314554989337921, 0.44209206104278564, 0.5196349620819092, 0.36267605423927307, -0.5763297080993652, -0.5369482636451721, 0.2081664502620697, -0.5379388928413391, -0.49871373176574707, 0.4428219199180603, 0.3072202801704407, 0.20962128043174744, -0.5939850807189941, 0.4962710738182068, 0.5069223642349243, 0.3604253828525543, 0.4347773492336273, 0.43081673979759216, 0.19906702637672424, 0.5803937911987305, 0.27200108766555786, -0.25160080194473267, 0.17553305625915527, 0.3464052379131317, 0.2278749644756317, -0.3707103133201599, 0.17236007750034332, 0.3379537761211395, -0.5543592572212219, -0.52802973985672, -0.23969325423240662, 0.05323280766606331, 0.5708967447280884, 0.39879873394966125, 0.5428609848022461, -0.5177575945854187, 0.2412751168012619, 0.43716615438461304, -0.5552645325660706, 0.017678892239928246, -0.29452434182167053, -0.46288377046585083, 0.35343897342681885, -0.25363603234291077, 0.2350970059633255, -0.5339421033859253, -0.23483803868293762, -0.3751963973045349], [-0.48081251978874207, 0.4057323932647705, 0.3617958426475525, 0.24942874908447266, -0.32115745544433594, -0.7490746378898621, 0.10025654733181, -0.09419528394937515, -0.5306901931762695, 0.2816637456417084, 0.24914054572582245, 0.08864020556211472, -0.09169533103704453, 0.33455386757850647, 0.38689500093460083, 0.09401515871286392, 0.12289702892303467, -0.28941610455513, -0.2770668864250183, -0.9547614455223083, 0.20607498288154602, 0.12545830011367798, -0.26313623785972595, 0.37835073471069336, 0.27728694677352905, -0.24249614775180817, -0.5795893669128418, -0.502421498298645, 0.392875075340271, -0.6417480707168579, -0.5081007480621338, -0.6233965158462524, -0.6089704036712646, -0.34575462341308594, -0.6076030135154724, -0.4547920525074005, -0.666651725769043, 0.17888088524341583, -0.043304383754730225, -0.011984623968601227, -0.6527240872383118, 0.1374102234840393, 0.09597477316856384, 0.06162157282233238, 0.36479678750038147, 0.06472457945346832, 0.3426474332809448, -0.2561473548412323, -0.6303467750549316, -0.5275371670722961, -0.8070801496505737, 0.20480315387248993, -0.6728293299674988, -0.5148299932479858, 0.1434565931558609, 0.008154444396495819, 0.22168095409870148, 0.40302014350891113, 0.056997254490852356, 0.11877003312110901, -0.8095912337303162, 0.3739596903324127, 0.16622555255889893, 0.3980591893196106], [0.07096979022026062, -0.529072642326355, -0.14449267089366913, -0.5653623342514038, 1.0892727375030518, 0.12932522594928741, -0.344696044921875, 0.676641583442688, -0.08456491678953171, -0.41307494044303894, -0.3780162036418915, -0.2343035638332367, 0.7375928163528442, -0.554804265499115, -0.21330222487449646, -0.28836801648139954, -0.21521806716918945, 0.47263303399086, 0.27246931195259094, -0.057923443615436554, -0.288760781288147, -0.35037386417388916, 0.5358767509460449, -0.4452575445175171, -0.25853800773620605, 0.7771919965744019, 0.19204242527484894, 0.02480551227927208, -0.347900927066803, 0.2321319282054901, 0.20172777771949768, 0.22631901502609253, 0.3182776868343353, 0.12946373224258423, 0.06649983674287796, 0.22609691321849823, 0.2619912624359131, -0.535007119178772, 0.6809832453727722, 0.4568832218647003, 0.33140867948532104, -0.5458575487136841, 0.44546443223953247, 0.47887274622917175, -0.39273011684417725, -0.5755744576454163, -0.3643715977668762, 0.5253501534461975, 0.30949798226356506, 0.16601835191249847, 0.10321099311113358, -0.23093420267105103, 0.17276449501514435, 0.4211883842945099, -0.5396926403045654, 0.9124241471290588, -0.3959213197231293, -0.3895021975040436, 0.9085949659347534, -0.13202472031116486, -0.1104232594370842, -0.2752501666545868, -0.22385263442993164, -0.3873060345649719], [-0.5505287051200867, 0.13402526080608368, 0.0539599172770977, 0.13929086923599243, -0.4694782495498657, -0.6894325613975525, 0.4010360836982727, -0.06216442584991455, -0.9304694533348083, 0.21713319420814514, 0.21902142465114594, 0.4394117593765259, -0.08860283344984055, 0.21508052945137024, 0.3097219467163086, 0.28644275665283203, 0.08236920088529587, -0.7215394973754883, -0.7814552783966064, -1.2603862285614014, 0.04103362187743187, 0.17733216285705566, -0.2493164986371994, 0.4572336971759796, 0.21868416666984558, -0.0831882655620575, -1.0850073099136353, -1.1287269592285156, 0.2215198278427124, -0.6170064210891724, -0.9238452911376953, -1.0805773735046387, -0.8703641891479492, -0.4251643121242523, -0.5832463502883911, -0.8294312953948975, -1.0936639308929443, 0.07527855038642883, -0.4500804841518402, -0.043977923691272736, -0.9518523812294006, 0.1909375637769699, -0.06300133466720581, 0.04675646126270294, 0.18448278307914734, 0.3822499215602875, 0.4672074615955353, -0.0715951919555664, -0.7335990071296692, -0.822010338306427, -0.9093482494354248, 0.3386942744255066, -0.8433292508125305, -0.8125592470169067, 0.21369394659996033, -0.465880811214447, 0.29390132427215576, 0.3610905408859253, -0.2552555501461029, 0.38756507635116577, -1.1805675029754639, 0.4406251311302185, 0.27011772990226746, 0.18668870627880096], [1.0095570087432861, -0.5301224589347839, -0.4733644723892212, -0.5104370713233948, 0.29839783906936646, 0.9561048746109009, -0.3407936990261078, 0.25301048159599304, 0.8857557773590088, -0.4277021288871765, -0.22433872520923615, -0.18884702026844025, 0.4452047049999237, -0.12809470295906067, -0.2386976033449173, -0.5010586380958557, -0.25653642416000366, 0.6944611668586731, 0.7278242111206055, 1.2147338390350342, -0.5272175073623657, -0.13154757022857666, -0.08316342532634735, -0.3744737505912781, -0.23427166044712067, 0.267241895198822, 0.9841004014015198, 1.0727945566177368, -0.1416310966014862, 1.1114506721496582, 1.0377302169799805, 1.1936815977096558, 0.8504809737205505, 0.5458089709281921, 1.0003681182861328, 1.1874053478240967, 1.2730002403259277, -0.5193145871162415, 0.5389999151229858, -0.08116408437490463, 1.1669580936431885, -0.14338549971580505, 0.2837357521057129, 0.15110580623149872, -0.36315879225730896, -0.555811882019043, -0.5648934245109558, -0.015597078017890453, 1.323796033859253, 1.0430127382278442, 1.2776238918304443, -0.35712262988090515, 1.0000357627868652, 1.0411605834960938, -0.4711894690990448, 0.5096105337142944, -0.2971598207950592, -0.27302607893943787, 0.3396117687225342, -0.16467079520225525, 1.1567763090133667, -0.31945520639419556, -0.42551514506340027, -0.5073441863059998], [0.19805866479873657, -0.3473373055458069, -0.3793357014656067, -0.2463115155696869, 0.7874746322631836, 0.04211217164993286, -0.4664970636367798, 1.2641702890396118, -0.13212531805038452, -0.298245906829834, -0.3372214436531067, -0.3898566961288452, 0.3996722102165222, -0.6604903936386108, -0.4929044246673584, -0.48997682332992554, -0.3442019820213318, 0.13274306058883667, -0.09586993604898453, -0.3063661456108093, -0.43504011631011963, -0.2955702543258667, 1.41195547580719, -0.5462437272071838, -0.3656752407550812, 1.2829774618148804, -0.10529009997844696, -0.02560488134622574, -0.5303817987442017, -0.18188828229904175, -0.14323928952217102, -0.2998754382133484, 0.24016621708869934, 0.2641643285751343, 0.050259750336408615, -0.006098492536693811, 0.0015298988437280059, -0.23903308808803558, 0.693973958492279, 1.3086920976638794, 0.08490048348903656, -0.6287180781364441, 1.4360520839691162, 1.4437459707260132, -0.6311062574386597, -0.25818219780921936, -0.5663061738014221, 1.2341885566711426, -0.09058160334825516, -0.13066788017749786, -0.1431129276752472, -0.42213064432144165, -0.00027118882280774415, 0.13519759476184845, -0.3811374008655548, 0.5954512357711792, -0.4033436179161072, -0.23117601871490479, 0.8892744779586792, -0.3929431140422821, -0.2961377501487732, -0.6575124263763428, -0.5294700860977173, -0.3210955262184143], [-0.03767336905002594, 0.2213125228881836, 0.09979838877916336, 0.12410996109247208, -0.8625156283378601, 0.113965705037117, 0.04173768311738968, -0.575357973575592, -0.07789822667837143, 0.12168961018323898, 0.42460790276527405, 0.3008940815925598, -0.9444096088409424, 0.13399015367031097, 0.13758794963359833, 0.1138603612780571, 0.28153809905052185, -0.19310548901557922, -0.29599103331565857, 0.008976181969046593, 0.16778215765953064, 0.24040420353412628, -0.5457261204719543, 0.18999812006950378, 0.11754530668258667, -0.7257146835327148, -0.1750754863023758, -0.005200577899813652, 0.3881092369556427, 0.11540000885725021, -0.13927394151687622, 0.10529514402151108, -0.35326993465423584, -0.016362642869353294, -0.2571711540222168, 0.041041240096092224, 0.10897897928953171, 0.11748477816581726, -0.909794807434082, -0.35787585377693176, -0.02891670912504196, 0.4251008927822113, -0.5702461004257202, -0.3998313248157501, 0.34180179238319397, 0.3302381932735443, 0.35411062836647034, -0.5789679288864136, -0.19200371205806732, -0.01127548236399889, 0.1487235724925995, 0.11547290533781052, 0.0077429297380149364, -0.25535136461257935, 0.270016074180603, -0.8915613293647766, 0.3577392101287842, 0.42774882912635803, -1.181298017501831, 0.3989967405796051, 0.13683345913887024, 0.23918065428733826, 0.3098379373550415, 0.2656967043876648], [0.41325142979621887, -0.5384345054626465, -0.654595136642456, -0.5551233887672424, 0.4737105965614319, 0.6036756038665771, -0.5694980025291443, 0.7757812142372131, 0.5525091886520386, -0.7384752035140991, -0.8220260739326477, -0.4976763129234314, 0.38093695044517517, -0.5094744563102722, -0.4633113443851471, -0.7809934616088867, -0.4720873236656189, 0.5272660255432129, 0.499347984790802, 0.3242751657962799, -0.5889841318130493, -0.5330119132995605, 0.5202863216400146, -0.5589407086372375, -0.783772885799408, 0.5762948989868164, 0.6861733198165894, 0.3594537675380707, -0.8382236957550049, 0.4863441288471222, 0.4015009105205536, 0.4250175356864929, 0.1994999498128891, 0.56074059009552, 0.6855126619338989, 0.6682215332984924, 0.3437090218067169, -0.6638239622116089, 0.6041198968887329, 0.442955881357193, 0.5362992286682129, -0.7744929790496826, 0.6811612844467163, 0.5639060139656067, -0.6009781360626221, -0.43765148520469666, -0.687504768371582, 0.5493306517601013, 0.35753530263900757, 0.6407889723777771, 0.4992448389530182, -0.4605170786380768, 0.6046672463417053, 0.6460996866226196, -0.7864288687705994, 0.12193547189235687, -0.504653811454773, -0.6589748859405518, 0.42313921451568604, -0.48911911249160767, 0.6789620518684387, -0.7378509044647217, -0.707263171672821, -0.6607195138931274], [-0.03155332803726196, 0.4217558801174164, 0.4548046290874481, 0.4898279905319214, -0.8985021710395813, -0.001840781420469284, 0.6123284697532654, -0.7928504347801208, 0.3053106665611267, 0.3730951249599457, 0.3785645365715027, 0.2459384948015213, -0.7986907958984375, 0.28492414951324463, 0.4481757581233978, 0.3103739023208618, 0.3288654088973999, -0.1793016940355301, -0.2448493242263794, 0.12487024068832397, 0.5365848541259766, 0.5490657091140747, -0.7675960659980774, 0.5955451726913452, 0.5667412281036377, -0.9364252090454102, 0.23844721913337708, 0.040147557854652405, 0.4021410644054413, 0.14138256013393402, 0.004825944546610117, 0.19403938949108124, -0.11848081648349762, 0.03705790266394615, -0.01578398421406746, 0.1892693042755127, 0.1652071326971054, 0.36353376507759094, -0.6811433434486389, -1.0687185525894165, 0.205843985080719, 0.4523939788341522, -1.0601760149002075, -0.928063154220581, 0.20007728040218353, 0.5745975375175476, 0.497185081243515, -0.7489960193634033, 0.31528475880622864, 0.027895918115973473, 0.14100034534931183, 0.18483218550682068, 0.1551664173603058, 0.009052923880517483, 0.5667904019355774, -0.9078591465950012, 0.23193864524364471, 0.5095481276512146, -0.8657978773117065, 0.4405291974544525, -0.025466041639447212, 0.20661576092243195, 0.6112659573554993, 0.3363378643989563], [-0.3958606421947479, 0.4798443615436554, 0.4455382227897644, 0.43781790137290955, -0.39994150400161743, -0.387277215719223, 0.4301406145095825, -0.29109513759613037, -0.4408333897590637, 0.15447986125946045, 0.5048680901527405, 0.47644656896591187, -0.13875330984592438, 0.2809366285800934, 0.3177850842475891, 0.28434687852859497, 0.5667760968208313, -0.4223184883594513, -0.5191169381141663, -0.6894363760948181, 0.20400479435920715, 0.2200063169002533, -0.05919863283634186, 0.25242069363594055, 0.1493055820465088, -0.16882167756557465, -0.6158279776573181, -0.5000051259994507, 0.1847199946641922, -0.39633679389953613, -0.5024208426475525, -0.33820852637290955, -0.4571063220500946, -0.26853999495506287, -0.43221980333328247, -0.4130874276161194, -0.5836724042892456, 0.15644268691539764, -0.11964050680398941, -0.08271555602550507, -0.6322851777076721, 0.5361931324005127, -0.1464512050151825, -0.17735521495342255, 0.5499445796012878, 0.1976543366909027, 0.445266455411911, -0.2333131581544876, -0.25988033413887024, -0.359287291765213, -0.41315674781799316, 0.45744895935058594, -0.6401864886283875, -0.20392872393131256, 0.44362974166870117, -0.0008688957896083593, 0.17158393561840057, 0.2128617763519287, -0.4319571852684021, 0.4469579756259918, -0.4952201545238495, 0.3641732335090637, 0.4609166085720062, 0.4629911184310913], [0.24725636839866638, -0.09684820473194122, -0.3066437840461731, -0.21113243699073792, 0.2483784556388855, 0.21413323283195496, -0.40404295921325684, 0.24122591316699982, 0.49549999833106995, -0.29816797375679016, -0.23071587085723877, -0.2265627235174179, 0.45838287472724915, -0.2115379124879837, -0.43290168046951294, -0.17546182870864868, -0.12233589589595795, 0.45985186100006104, 0.2501923143863678, 0.18998928368091583, -0.21185797452926636, -0.21386957168579102, 0.07673702389001846, -0.31555071473121643, -0.09459905326366425, 0.17711696028709412, 0.25279340147972107, 0.45997247099876404, -0.31897133588790894, 0.21047084033489227, 0.2231619507074356, 0.36846795678138733, 0.44218122959136963, 0.477925181388855, 0.21428102254867554, 0.24070855975151062, 0.32260850071907043, -0.46852341294288635, 0.5215812921524048, 0.1765214502811432, 0.46238741278648376, -0.3173757493495941, 0.2266746312379837, 0.15538914501667023, -0.45997482538223267, -0.12849658727645874, -0.4230149984359741, 0.006400103680789471, 0.26350122690200806, 0.5440739393234253, 0.22123436629772186, -0.2651045024394989, 0.33013007044792175, 0.4471857249736786, -0.4551360607147217, 0.49119311571121216, -0.19645549356937408, -0.16039109230041504, 0.5064631700515747, -0.060934990644454956, 0.5107919573783875, -0.12483615428209305, -0.21285732090473175, -0.4670189321041107], [0.3211953639984131, -0.453427791595459, -0.14351405203342438, -0.2242985963821411, 0.8111994862556458, 0.2515208125114441, -0.4264013171195984, 0.4999185800552368, 0.14597640931606293, -0.5356427431106567, -0.29260775446891785, -0.4817230701446533, 0.6489543914794922, -0.3232361078262329, -0.19037680327892303, -0.35604432225227356, -0.27765020728111267, 0.09302663058042526, 0.38857319951057434, -0.08368467539548874, -0.14581367373466492, -0.3393494486808777, 0.5550530552864075, -0.12591563165187836, -0.4454846680164337, 0.7825714349746704, 0.25789114832878113, 0.09687009453773499, -0.39604154229164124, 0.10184923559427261, 0.20965801179409027, 0.2877987027168274, 0.2615853250026703, 0.24953514337539673, 0.29631054401397705, 0.054940033704042435, -0.06624653935432434, -0.1698116660118103, 0.6071715354919434, 0.435578316450119, 0.1938941776752472, -0.4253233075141907, 0.6463127732276917, 0.7920740842819214, -0.48895686864852905, -0.5420652627944946, -0.3886563181877136, 0.7739222049713135, 0.24916347861289978, 0.3213992714881897, -0.11310826241970062, -0.48992210626602173, 0.28962916135787964, 0.15638615190982819, -0.17369578778743744, 0.6620534658432007, -0.3010253310203552, -0.12111541628837585, 1.0995599031448364, -0.4831320345401764, 0.05492516607046127, -0.28805530071258545, -0.4092830717563629, -0.43131470680236816], [0.07137231528759003, 0.3840613067150116, 0.08562543988227844, 0.32254558801651, -0.27959996461868286, 0.2444712370634079, 0.2183505892753601, -0.7307711839675903, -0.12430696934461594, 0.10556381195783615, 0.17502303421497345, 0.0713377371430397, 0.262492835521698, 0.23337046802043915, 0.11490273475646973, 0.22772520780563354, 0.10171975195407867, 0.2769703269004822, 0.09101694822311401, 0.25268515944480896, 0.05335645005106926, 0.1700134575366974, -0.9141431450843811, 0.18836094439029694, 0.16010117530822754, -0.8566275835037231, 0.12216534465551376, 0.05094355344772339, 0.1513729691505432, -0.061599086970090866, -0.07264066487550735, 0.10505447536706924, 0.22089242935180664, -0.21905195713043213, 0.0515640452504158, 0.09949785470962524, 0.06213431805372238, 0.19203059375286102, -0.18530771136283875, -0.5756383538246155, 0.25647884607315063, 0.21671009063720703, -1.0265446901321411, -0.9662978053092957, 0.12779156863689423, 0.3106851279735565, 0.16236959397792816, -0.8377646803855896, 0.005265409126877785, 0.061818014830350876, 0.14970043301582336, 0.06532957404851913, -0.13662007451057434, 0.18565739691257477, 0.023311391472816467, -0.055565621703863144, 0.047494806349277496, 0.381793349981308, -0.3932358920574188, 0.1453523486852646, 0.014155513606965542, 0.35579004883766174, 0.1405506134033203, 0.3841319978237152], [-0.35975784063339233, 0.3172341585159302, 0.2532244920730591, 0.27514076232910156, -0.5319096446037292, -0.1355035901069641, 0.4102553725242615, -0.5358933210372925, -0.028654156252741814, 0.36597299575805664, 0.34864675998687744, 0.2901974618434906, -0.14558091759681702, 0.2610233426094055, 0.527662456035614, 0.13588033616542816, 0.11839794367551804, -0.3291969895362854, -0.19890832901000977, -0.10857285559177399, 0.39794594049453735, 0.10465312749147415, -0.5920237302780151, 0.405156672000885, 0.42122161388397217, -0.31070441007614136, -0.1803041696548462, -0.019636517390608788, 0.475694477558136, -0.38302865624427795, -0.0646868422627449, -0.012463961727917194, -0.13219842314720154, -0.21168562769889832, -0.27743691205978394, -0.2178480327129364, -0.018010064959526062, 0.13802111148834229, -0.4342223107814789, -0.4622988700866699, -0.13831758499145508, 0.38825657963752747, -0.7381990551948547, -0.35535743832588196, 0.49800819158554077, 0.22560346126556396, 0.11745958030223846, -0.4457077085971832, -0.16388435661792755, -0.22042326629161835, -0.3647678792476654, 0.4876866340637207, -0.01909513585269451, -0.27946043014526367, 0.5011935830116272, -0.06789088249206543, 0.24171185493469238, 0.475941926240921, -0.49161496758461, 0.19279888272285461, -0.10158717632293701, 0.49651166796684265, 0.507426381111145, 0.4136958122253418], [-0.227679044008255, -0.6446107029914856, -0.262026846408844, -0.6364533305168152, 0.7934377193450928, -0.12103798240423203, -0.5416503548622131, 1.2054585218429565, -0.06314127892255783, -0.5155933499336243, -0.6130315065383911, -0.508640468120575, 0.506601870059967, -0.3519454002380371, -0.5646826028823853, -0.679719865322113, -0.3659503161907196, 0.17625205218791962, 0.1016862615942955, -0.1928505003452301, -0.40632709860801697, -0.28753387928009033, 1.095389485359192, -0.5370563864707947, -0.3937361240386963, 0.8824734091758728, -0.13387906551361084, 0.058002520352602005, -0.667759358882904, -0.025150371715426445, 0.0262324009090662, -0.18545623123645782, -0.005024780053645372, 0.22122976183891296, -0.08965397626161575, -0.09283903241157532, -0.28757229447364807, -0.3210466504096985, 0.5220806002616882, 1.2629661560058594, -0.1596037894487381, -0.3050832450389862, 1.2671260833740234, 1.3260315656661987, -0.41989514231681824, -0.6797957420349121, -0.5886409282684326, 1.3301893472671509, -0.32931557297706604, -0.11453361809253693, 0.04076845943927765, -0.32938820123672485, -0.36160022020339966, -0.012790103442966938, -0.5374363660812378, 0.4792953133583069, -0.5682786107063293, -0.5826187133789062, 0.9875326156616211, -0.3629380166530609, -0.08068115264177322, -0.38922977447509766, -0.6646401882171631, -0.538901150226593], [0.5947465896606445, -0.2859605550765991, -0.11618973314762115, -0.39849910140037537, 0.12143702805042267, 0.9909935593605042, -0.13009394705295563, 0.004021881148219109, 1.0851337909698486, -0.3109194338321686, -0.2928173840045929, -0.20292145013809204, 0.4678848087787628, -0.21325714886188507, -0.12317865341901779, -0.2570532262325287, -0.4731186032295227, 0.5742539763450623, 0.5750576853752136, 1.098349690437317, -0.3626459240913391, -0.09124583750963211, -0.025565769523382187, -0.319896936416626, -0.18938510119915009, 0.09501376748085022, 0.8017785549163818, 0.9303329586982727, -0.4809311032295227, 0.9916001558303833, 0.6241773962974548, 0.9663212895393372, 0.870743989944458, 0.5669795870780945, 0.7343220114707947, 0.9835548996925354, 1.0199209451675415, -0.4101262390613556, 0.3902556002140045, -0.21032291650772095, 0.7414168119430542, -0.25682124495506287, 0.13065697252750397, -0.1513761430978775, -0.2616713345050812, -0.4280281662940979, -0.2236546128988266, -0.14180253446102142, 1.1107577085494995, 0.915850818157196, 1.1169698238372803, -0.21367816627025604, 0.813557505607605, 0.5446710586547852, -0.3214651644229889, 0.19049106538295746, -0.4799293875694275, -0.22358012199401855, 0.13798773288726807, -0.34894508123397827, 1.0692832469940186, -0.07856150716543198, -0.06330661475658417, -0.13370706140995026], [0.5488665699958801, -0.6539544463157654, -0.7396053075790405, -0.7197397947311401, 0.9157589673995972, 0.3225308358669281, -0.597854495048523, 0.6754065752029419, 0.18443609774112701, -0.7055594325065613, -0.7448199987411499, -0.4306360185146332, 0.4123927056789398, -0.6874903440475464, -0.49635815620422363, -0.5968000888824463, -0.6318019032478333, 0.2177579402923584, 0.46355023980140686, 0.5240874886512756, -0.6182519793510437, -0.7324185967445374, 0.4706948697566986, -0.48675787448883057, -0.605017364025116, 0.6597750782966614, 0.19258783757686615, 0.3578358292579651, -0.7111819386482239, 0.20169080793857574, 0.23628787696361542, 0.41480550169944763, 0.34357792139053345, 0.33806607127189636, 0.24644029140472412, 0.41004350781440735, 0.17248710989952087, -0.6762940883636475, 0.48417162895202637, 0.6686074137687683, 0.37612205743789673, -0.43036359548568726, 0.6822648048400879, 0.7748262286186218, -0.6791843771934509, -0.5308776497840881, -0.38708147406578064, 0.3819996416568756, 0.14443017542362213, 0.3822931945323944, 0.24086517095565796, -0.5274211764335632, 0.3991798460483551, 0.39756983518600464, -0.5097209215164185, 0.32137811183929443, -0.6614106297492981, -0.37552618980407715, 0.6402376294136047, -0.45552730560302734, 0.5764516592025757, -0.5879235863685608, -0.5176414847373962, -0.5011419057846069], [-0.3101993501186371, 0.1741148978471756, 0.3977767527103424, 0.2595963776111603, -0.7939425110816956, -0.08212271332740784, 0.35228484869003296, -0.8356901407241821, 0.015400099568068981, 0.17550359666347504, 0.46819114685058594, 0.2439795434474945, -0.47765275835990906, 0.2077103704214096, 0.14278122782707214, 0.27188295125961304, 0.3682577908039093, -0.3425692021846771, -0.11487260460853577, 0.06941286474466324, 0.47426292300224304, 0.1843864917755127, -0.9265506267547607, 0.13056014478206635, 0.4198674261569977, -1.0179436206817627, -0.23940075933933258, 0.052689921110868454, 0.30166223645210266, -0.09713860601186752, -0.2737538814544678, -0.032421838492155075, -0.10252679884433746, -0.012170477770268917, -0.10876957327127457, -0.06489505618810654, 0.0036625564098358154, 0.5166146159172058, -0.6851856708526611, -1.0392467975616455, 0.15458279848098755, 0.23775643110275269, -1.0387241840362549, -0.9888074994087219, 0.45551836490631104, 0.20300982892513275, 0.15963536500930786, -1.012844443321228, 0.06315889954566956, -0.21730299293994904, -0.1791621446609497, 0.16013169288635254, 0.12812355160713196, -0.010195901617407799, 0.3673807680606842, -0.6320850253105164, 0.4591819643974304, 0.380097359418869, -0.9090179800987244, 0.5038294792175293, 0.05381695553660393, 0.47259053587913513, 0.20497599244117737, 0.4958462715148926], [-0.14630943536758423, 0.23701168596744537, 0.3569033145904541, 0.2800959348678589, -0.05264803767204285, -0.29570692777633667, 0.059311747550964355, -0.07647445052862167, -0.3392057716846466, -0.015054036863148212, 0.09454354643821716, 0.013503771275281906, -0.14125493168830872, -0.055857378989458084, 0.20896534621715546, 0.37609899044036865, 0.2805355489253998, -0.20233169198036194, -0.270266592502594, -0.27757495641708374, -0.050011444836854935, 0.36390721797943115, 0.11080282926559448, 0.247507706284523, 0.2912716865539551, 0.1602988839149475, -0.2411695420742035, -0.5237529873847961, 0.3540620505809784, -0.06262888014316559, -0.47029438614845276, -0.4787658154964447, -0.4150724411010742, -0.42900148034095764, -0.261416494846344, -0.4707815945148468, -0.2087768167257309, -0.03773314505815506, 0.05956580489873886, 0.12109754979610443, -0.2942318320274353, 0.3016214370727539, 0.11331625282764435, 0.03883447125554085, 0.23655489087104797, 0.16861216723918915, -0.007310566492378712, 0.05886933580040932, -0.45282745361328125, -0.4697185754776001, -0.3729414641857147, 0.12837359309196472, -0.465240478515625, -0.346792072057724, 0.0447833351790905, 0.13342171907424927, 0.2789246439933777, -0.040030885487794876, -0.2555043399333954, 0.13385680317878723, -0.4252427816390991, 0.13738492131233215, 0.06820499897003174, 0.14037694036960602], [-0.17711910605430603, -0.37196290493011475, -0.4119417369365692, -0.5078708529472351, 0.9046311974525452, 0.12096051871776581, -0.40003177523612976, 1.0530362129211426, -0.3133636713027954, -0.2841050326824188, -0.36980053782463074, -0.47870030999183655, 0.35609182715415955, -0.26790851354599, -0.4155856668949127, -0.49973493814468384, -0.17936667799949646, 0.01409025676548481, 0.10253359377384186, -0.1579848825931549, -0.08261702209711075, -0.350337952375412, 1.1570312976837158, -0.178243950009346, -0.3940635025501251, 0.9794986844062805, -0.07794449478387833, -0.060323864221572876, -0.14599007368087769, -0.26200613379478455, -0.05659287050366402, -0.06984778493642807, -0.20069418847560883, 0.19364283978939056, 0.09250916540622711, -0.31035175919532776, -0.1916322261095047, -0.2569739818572998, 0.31442543864250183, 0.7941769361495972, -0.20250052213668823, -0.15643827617168427, 0.868770956993103, 0.9740303158760071, -0.32023918628692627, -0.4748775064945221, -0.29427823424339294, 0.9876828789710999, -0.3115447461605072, -0.2714403569698334, -0.3360522985458374, -0.3151998221874237, 0.0749434307217598, -0.2329404503107071, -0.34790924191474915, 0.24793466925621033, -0.5086070895195007, -0.2921956479549408, 0.5727310180664062, -0.19466324150562286, 0.04160930961370468, -0.1850592941045761, -0.23411016166210175, -0.4623889923095703], [-0.11405807733535767, -0.05371442809700966, -0.4634568393230438, -0.34652721881866455, 0.7827774286270142, 0.07497549802064896, -0.3466145992279053, 0.6006198525428772, -0.07950419187545776, -0.34466302394866943, -0.4438890218734741, -0.13406728208065033, 0.7448646426200867, -0.15772277116775513, -0.13417290151119232, -0.04815337434411049, -0.06945353746414185, 0.38576173782348633, 0.24238398671150208, -0.04256192594766617, -0.4709049463272095, -0.1707109808921814, 0.474863737821579, -0.43086132407188416, -0.04954201728105545, 0.5176182389259338, -0.20805078744888306, -0.0418468676507473, -0.19140036404132843, 0.01830471120774746, -0.1077762320637703, 0.018113330006599426, 0.3775859773159027, -0.12492524832487106, 0.3246157169342041, -0.0330297015607357, 0.07976658642292023, -0.3637639880180359, 0.5120952725410461, 0.7688112258911133, 0.22129511833190918, -0.15153628587722778, 0.45482298731803894, 0.44147273898124695, -0.31065890192985535, -0.13538838922977448, -0.13421377539634705, 0.42375919222831726, -0.1769331395626068, 0.14364518225193024, 0.1605648398399353, -0.1536712497472763, 0.19709862768650055, 0.14316043257713318, -0.10076171904802322, 0.6431542634963989, -0.38493937253952026, -0.16277942061424255, 0.7440972924232483, -0.20806683599948883, 0.14519445598125458, -0.16514389216899872, -0.3762128949165344, -0.09033945947885513], [-0.3502427339553833, 0.11508689075708389, 0.28836819529533386, 0.33516252040863037, -0.5480038523674011, -0.4072136878967285, 0.1807781308889389, -0.331214964389801, -0.20438088476657867, 0.06963802874088287, 0.4517342150211334, 0.3901512622833252, -0.36795634031295776, 0.3268198072910309, 0.4468747675418854, 0.22201454639434814, 0.31895768642425537, -0.21274232864379883, -0.28626590967178345, -0.1173989474773407, 0.28862419724464417, 0.2934017479419708, -0.28841152787208557, 0.31303730607032776, 0.10085073858499527, -0.29548704624176025, -0.15520542860031128, -0.3256869316101074, 0.2259642481803894, -0.21791493892669678, -0.3172762393951416, -0.24988435208797455, -0.1202668696641922, -0.2466752827167511, -0.2592950761318207, -0.4108283221721649, -0.12556713819503784, 0.15829800069332123, -0.38860970735549927, -0.1626129299402237, -0.2687860429286957, 0.07299646735191345, -0.10892780125141144, -0.2649856507778168, 0.3796769082546234, 0.24461384117603302, 0.0423261858522892, -0.28203070163726807, -0.48281246423721313, -0.06962709873914719, -0.19138570129871368, 0.20582866668701172, -0.389548659324646, -0.15842296183109283, 0.16561265289783478, -0.3689400851726532, 0.04194922372698784, 0.1911948174238205, -0.363288551568985, 0.4589957594871521, -0.2810468077659607, 0.22093835473060608, 0.051634036004543304, 0.4569305181503296], [-0.49911436438560486, 0.4649932384490967, 0.4232655465602875, 0.3409962058067322, -0.41313523054122925, -0.4159945249557495, 0.46991780400276184, -0.09080395102500916, -0.702005922794342, 0.15465708076953888, 0.43216386437416077, 0.18670670688152313, -0.2263973504304886, 0.12724056839942932, 0.22362744808197021, 0.453078031539917, 0.44849488139152527, -0.4479147493839264, -0.24619825184345245, -0.45335790514945984, 0.2561120092868805, 0.15697038173675537, -0.02834295853972435, 0.5126509666442871, 0.37011024355888367, -0.3553352952003479, -0.43340733647346497, -0.3927437365055084, 0.27994558215141296, -0.5577751994132996, -0.5303803086280823, -0.7630500197410583, -0.5422537326812744, -0.6815670132637024, -0.4669013023376465, -0.4322488307952881, -0.7884383797645569, 0.1809554249048233, -0.2425081729888916, -0.1385500729084015, -0.39466527104377747, 0.14289391040802002, -0.08918319642543793, -0.09813868999481201, 0.4759449064731598, 0.14720244705677032, 0.4233301281929016, 0.05940191075205803, -0.5246132612228394, -0.5018396973609924, -0.6066255569458008, 0.501437783241272, -0.38510218262672424, -0.28989118337631226, 0.4976828396320343, 0.006029505282640457, 0.18445122241973877, 0.22352662682533264, -0.27312472462654114, 0.2617703676223755, -0.41961875557899475, 0.48685765266418457, 0.23702368140220642, 0.4479230046272278], [0.030677620321512222, 0.10171281546354294, 0.19334669411182404, 0.3712350130081177, -0.7094330191612244, -0.011515773832798004, 0.29278603196144104, -0.28363728523254395, 0.06327972561120987, 0.1946580410003662, 0.20853185653686523, 0.008716676384210587, -0.5109395980834961, 0.20142100751399994, 0.27885469794273376, 0.14212287962436676, 0.24490274488925934, -0.09629709273576736, -0.3463221788406372, 0.0712704136967659, 0.2818939983844757, 0.2147398293018341, -0.4469224810600281, 0.16589438915252686, 0.2695911228656769, -0.6279730796813965, 0.017343919724225998, -0.0975421816110611, 0.3833993971347809, 0.14295360445976257, 0.056265950202941895, -0.15038318932056427, -0.2754650413990021, -0.0920497253537178, -0.16641780734062195, -0.03188632056117058, -0.14528076350688934, 0.38927656412124634, -0.3394608497619629, -0.3988003134727478, 0.10129907727241516, 0.34858301281929016, -0.3236343264579773, -0.32041579484939575, 0.334355890750885, 0.18331655859947205, 0.16776961088180542, -0.3996157646179199, -0.19774937629699707, -0.06115350127220154, -0.03809311240911484, 0.2123851180076599, -0.03735197335481644, -0.19116753339767456, 0.2105465531349182, -0.39084917306900024, 0.4032752215862274, 0.28226855397224426, -0.541969358921051, 0.31038981676101685, 0.15990035235881805, 0.38032862544059753, 0.18092486262321472, 0.2502635717391968], [-0.47867363691329956, 0.4476436376571655, 0.12820930778980255, 0.3390484154224396, -0.3587043285369873, -0.5123788118362427, 0.27699241042137146, -0.1231989786028862, -0.63275146484375, 0.42429524660110474, 0.08787781745195389, 0.274554967880249, -0.29364946484565735, 0.20811603963375092, 0.42578357458114624, 0.49998170137405396, 0.45415738224983215, -0.4643212854862213, -0.23620103299617767, -0.8058473467826843, 0.3914385735988617, 0.4214150309562683, -0.07669880986213684, 0.27619823813438416, 0.12472464889287949, -0.15219955146312714, -0.34118688106536865, -0.3751981854438782, 0.44914835691452026, -0.6818669438362122, -0.4279724657535553, -0.5600506067276001, -0.30263152718544006, -0.2798241674900055, -0.3823849558830261, -0.32258057594299316, -0.5997980833053589, 0.2049037665128708, -0.34981223940849304, -0.3828778862953186, -0.6496109366416931, 0.43109288811683655, -0.1569569706916809, -0.0728655532002449, 0.2622002959251404, 0.4001508355140686, 0.2692115604877472, -0.06433122605085373, -0.34725847840309143, -0.44075313210487366, -0.40126097202301025, 0.310945987701416, -0.5823289155960083, -0.5925765633583069, 0.2972008287906647, -0.089762844145298, 0.4969862103462219, 0.4835747480392456, -0.42921358346939087, 0.19805151224136353, -0.4206966161727905, 0.25482290983200073, 0.12977035343647003, 0.48453253507614136], [-0.5158660411834717, 0.32877466082572937, 0.26118823885917664, 0.3335193693637848, -0.587531566619873, -0.6252519488334656, 0.27942073345184326, -0.1187240406870842, -0.8380840420722961, 0.4547855257987976, 0.37542635202407837, 0.12445835024118423, -0.18115940690040588, 0.2521381974220276, 0.2870618999004364, 0.3183864653110504, 0.2126045972108841, -0.6893787980079651, -0.34332969784736633, -0.9702884554862976, 0.48044702410697937, 0.41679003834724426, -0.19170287251472473, 0.5029109716415405, 0.15394039452075958, -0.37808629870414734, -0.9606736898422241, -0.7834693193435669, 0.46005916595458984, -0.7019661068916321, -0.7653905153274536, -0.8739171028137207, -0.370662659406662, -0.6016491055488586, -0.7400037050247192, -0.7808768153190613, -0.8765495419502258, 0.3183988928794861, -0.272969514131546, 0.011203562840819359, -0.8256627321243286, 0.35175567865371704, 0.07143180072307587, -0.32259368896484375, 0.4333462715148926, 0.2431958019733429, 0.4156191647052765, -0.26475557684898376, -0.6318197250366211, -0.80572110414505, -0.9282013177871704, 0.42899221181869507, -0.9561001658439636, -0.5730401277542114, 0.4269828200340271, -0.4009784758090973, 0.25521522760391235, 0.47668516635894775, -0.4626702666282654, 0.4974871575832367, -0.6040295362472534, 0.4498383104801178, 0.38179144263267517, 0.23517894744873047], [-0.4774245619773865, 0.6062815189361572, 0.4421563446521759, 0.3358974754810333, -0.7018726468086243, -0.31752052903175354, 0.6019347310066223, -0.4221626818180084, -0.24564723670482635, 0.4377538859844208, 0.30993032455444336, 0.5056691765785217, 0.17080514132976532, 0.6120131015777588, 0.3160128891468048, 0.25384849309921265, 0.6226469874382019, -0.051431626081466675, -0.17286497354507446, -0.5335456728935242, 0.6118431687355042, 0.5565705299377441, -0.5222647786140442, 0.43567487597465515, 0.5376566648483276, -0.2980771064758301, -0.4763360619544983, -0.51734858751297, 0.4312366843223572, -0.14363209903240204, -0.35555216670036316, -0.4893516004085541, -0.01887744478881359, -0.3349902927875519, -0.12480051815509796, -0.538861870765686, -0.2642157971858978, 0.5006479024887085, -0.4702003300189972, -0.1877296268939972, -0.18574532866477966, 0.5382080674171448, -0.646633505821228, -0.6038863062858582, 0.5551117062568665, 0.4286634922027588, 0.6247570514678955, -0.38561731576919556, -0.48194119334220886, -0.2662048935890198, -0.44676125049591064, 0.29166027903556824, -0.5075566172599792, -0.053767863661050797, 0.40468859672546387, 0.13956858217716217, 0.49808064103126526, 0.4560721516609192, -0.21222512423992157, 0.6018702983856201, -0.4912720322608948, 0.4402223527431488, 0.5090397596359253, 0.5392522811889648], [0.07045559585094452, 0.24625442922115326, 0.06329131126403809, -0.04639705643057823, -0.7181611657142639, -0.18153375387191772, 0.21771354973316193, -0.3725300133228302, -0.07937666773796082, -0.07161424309015274, 0.1693531572818756, 0.06503777205944061, -0.7378889322280884, 0.23992528021335602, 0.19984546303749084, 0.10901526361703873, 0.09632090479135513, 0.09816665947437286, -0.33722737431526184, -0.18686427175998688, 0.21273817121982574, 0.19755132496356964, -0.608340859413147, -0.02211018279194832, 0.31517669558525085, -0.42581188678741455, -0.1296992301940918, -0.16786691546440125, 0.33862781524658203, 0.03866830840706825, 0.17650313675403595, -0.06234665587544441, -0.14119505882263184, 0.04053768515586853, 0.04814662039279938, -0.07203575223684311, 0.07232380658388138, 0.2556343972682953, -0.386131227016449, -0.40614283084869385, -0.16208946704864502, -0.0638253390789032, -0.4468114674091339, -0.5056852102279663, 0.12094209343194962, 0.19314150512218475, -0.025375517085194588, -0.6142206788063049, -0.09312345087528229, 0.234114408493042, 0.11315763741731644, 0.0008684183703735471, -0.11419335007667542, 0.08985575288534164, -0.043708935379981995, -0.6140313148498535, 0.06575290858745575, 0.25127172470092773, -0.7869828939437866, 0.05453009158372879, -0.10728945583105087, 0.002883958164602518, 0.294883131980896, 0.10703644156455994]], "b2": [-0.24820344150066376, 0.3125997483730316, 0.30785781145095825, 0.3367699682712555, -0.5582742691040039, -0.2124963104724884, 0.3173128366470337, -0.3014667332172394, -0.22177639603614807, 0.32134148478507996, 0.31389832496643066, 0.3166944980621338, -0.30293694138526917, 0.30694150924682617, 0.31661880016326904, 0.31845688819885254, 0.32990023493766785, -0.20846252143383026, -0.20521771907806396, -0.20408469438552856, 0.31036317348480225, 0.307657390832901, -0.30257245898246765, 0.32081881165504456, 0.31222787499427795, -0.32216590642929077, -0.18894343078136444, -0.23430941998958588, 0.3080957531929016, -0.20990729331970215, -0.21557322144508362, -0.18241041898727417, -0.1612015813589096, -0.2663591206073761, -0.22805510461330414, -0.17779745161533356, -0.20326454937458038, 0.30835703015327454, -0.5178427696228027, -0.327669233083725, -0.21945148706436157, 0.31387972831726074, -0.33259543776512146, -0.32099804282188416, 0.31207749247550964, 0.33991050720214844, 0.32281917333602905, -0.35254424810409546, -0.20487715303897858, -0.18797461688518524, -0.19084197282791138, 0.33771365880966187, -0.18441839516162872, -0.22410468757152557, 0.31092363595962524, -0.3197002112865448, 0.3092494308948517, 0.3130742907524109, -0.48250696063041687, 0.3099435567855835, -0.1904611885547638, 0.3099048435688019, 0.3135889172554016, 0.3116154074668884], "W3": [[-0.3613012731075287], [0.5862731337547302], [0.46686333417892456], [0.30536720156669617], [-0.37661710381507874], [-0.5259149074554443], [0.4422990083694458], [-0.9274122714996338], [-0.46183398365974426], [0.3568289279937744], [0.5019336342811584], [0.45679011940956116], [-0.7022747993469238], [0.45068514347076416], [0.43792951107025146], [0.3668690323829651], [0.22087904810905457], [-0.4082798361778259], [-0.39922794699668884], [-0.5331735014915466], [0.518519401550293], [0.5355848670005798], [-0.7492589354515076], [0.4009801149368286], [0.4849010109901428], [-0.8836052417755127], [-0.6717224717140198], [-0.6021544337272644], [0.49319106340408325], [-0.5703009963035583], [-0.5481607913970947], [-0.6641559600830078], [-0.6411150097846985], [-0.5251039862632751], [-0.5562678575515747], [-0.4628792107105255], [-0.6344638466835022], [0.41615626215934753], [-0.38916918635368347], [-0.9496768712997437], [-0.6177017688751221], [0.5065532326698303], [-0.9560468792915344], [-0.8730534315109253], [0.5720001459121704], [0.33686643838882446], [0.35277077555656433], [-0.7231135964393616], [-0.4704728126525879], [-0.6673780083656311], [-0.6510838866233826], [0.2634616792201996], [-0.7283394932746887], [-0.630100667476654], [0.5196374654769897], [-0.525593638420105], [0.5098581314086914], [0.39654541015625], [-0.5868802070617676], [0.44302302598953247], [-0.665473461151123], [0.4618753492832184], [0.5107491612434387], [0.540848970413208]], "b3": [0.3110979199409485]}