{"W1": [[0.39073753356933594, 0.8368924856185913, -0.05656464770436287, 0.676265299320221, -0.6772634387016296, 0.13882720470428467, 0.14058730006217957, 0.01506789866834879, 0.6051939725875854, -1.8827579021453857, 0.8552971482276917, 0.27508723735809326, -0.9068257212638855, 0.09526469558477402, 0.2001037895679474, -0.7750996947288513, -0.6675856709480286, 0.7242263555526733, 0.5661804676055908, -0.32329830527305603, 0.5480101108551025, 0.014922983944416046, -0.15934623777866364, 0.5428134799003601, -0.817193329334259, -0.5414759516716003, -0.9847205877304077, -0.2529522776603699, 0.40263891220092773, 0.9709599614143372, 0.9939947724342346, -0.41363146901130676, 0.24948595464229584, 0.25470855832099915, -0.5240305662155151, -0.5669763088226318, 0.15924681723117828, 0.6510092616081238, 0.5288450717926025, 0.8607081770896912, -0.21658271551132202, 0.05352015048265457, 0.08919979631900787, -0.6056552529335022, -0.8964372873306274, -0.009492438286542892, 0.8074387311935425, -0.9064792990684509, 0.7070191502571106, -0.9020803570747375, 0.8214452862739563, -0.10844344645738602, 0.812140166759491, -1.130817174911499, 0.44136515259742737, 0.7286713719367981, 0.11004328727722168, -0.5344488024711609, -0.225304514169693, 0.5971052646636963, 0.35200226306915283, -0.5895789861679077, 0.03773310407996178, 0.083028145134449], [-0.4974222183227539, 0.8443602919578552, 0.5708980560302734, -0.8094096779823303, 0.48011937737464905, -1.2196146249771118, 0.6375333070755005, -1.74486243724823, 0.23972730338573456, 0.4993293583393097, -0.094791941344738, -1.5971816778182983, 0.012594902887940407, -0.5526665449142456, -0.6164435744285583, 0.7542181015014648, 0.14179906249046326, 0.03089762292802334, -0.33624398708343506, -1.5675156116485596, -0.2503741979598999, 0.42217862606048584, 0.8301180005073547, 0.06502296030521393, -0.5328752398490906, -1.1382712125778198, -0.869192898273468, 0.41277316212654114, -0.37193232774734497, -0.5465642809867859, -0.26002272963523865, 0.40130549669265747, 0.3214949071407318, 0.7868450284004211, 0.46126458048820496, -1.057935118675232, -1.280531644821167, 0.3711133599281311, 0.43924251198768616, -0.5876250863075256, -0.5547628402709961, 0.6048535108566284, -1.1585235595703125, -0.9164412617683411, 0.12891589105129242, 0.6883185505867004, 0.1531195044517517, 0.7578202486038208, -0.3371067941188812, 0.04348307475447655, -0.1571653038263321, -0.6927902698516846, 0.1862657070159912, -0.3795519769191742, 0.49173474311828613, 0.12360114604234695, 0.46361929178237915, 0.97386234998703, -0.5917325019836426, -0.2781757414340973, -0.9234088659286499, 0.4717353880405426, -1.8097460269927979, -0.635890007019043], [0.24588541686534882, -0.37004396319389343, -0.12277321517467499, -0.5331859588623047, 1.00896418094635, 0.35802483558654785, -0.12394888699054718, -0.28538891673088074, -0.5257656574249268, 1.2009190320968628, -0.3545970320701599, -0.7869706749916077, 0.8485103845596313, -0.5049798488616943, -0.30192679166793823, 0.39809542894363403, 1.0190527439117432, -0.5264325141906738, -0.005279484670609236, 0.03562673553824425, -0.5028678178787231, 0.5720246434211731, 0.6633573174476624, 0.24295273423194885, 0.7622646689414978, 0.45167168974876404, 0.7659744620323181, 0.26258087158203125, -0.6372252106666565, -3.1078009605407715, -0.3887474536895752, -0.31692224740982056, 0.01706932671368122, 0.37464189529418945, 0.9357704520225525, -0.22539359331130981, -0.1418919712305069, -0.25871801376342773, -0.4613223969936371, -0.4338037967681885, -0.22164320945739746, -0.5441442131996155, -0.4907619059085846, 0.5055229067802429, 0.25965893268585205, 0.9790722727775574, -0.38402625918388367, 0.6657223105430603, -0.7766293287277222, 0.7484439015388489, -0.19886374473571777, 0.2840724587440491, -0.28889545798301697, 1.1055333614349365, -0.14099372923374176, -0.9615770578384399, -0.006183510646224022, 0.6020188331604004, 0.24088391661643982, -0.42665523290634155, -0.19811585545539856, 0.2600194811820984, -0.5835685729980469, -0.037694696336984634], [-0.032130539417266846, -0.16892346739768982, -0.06387855857610703, -0.1623116433620453, 0.33206257224082947, 0.03206062689423561, -0.055447645485401154, -0.16279514133930206, -0.051856689155101776, 0.26027920842170715, -0.02630818448960781, -0.3174760043621063, 0.005959224421530962, 0.18986301124095917, -0.2732388377189636, 0.1006627082824707, 0.22238019108772278, 0.019222455099225044, -0.11389198154211044, 0.07703496515750885, -0.14478358626365662, 0.07621283084154129, 0.1304192841053009, -0.13919340074062347, 0.04323914647102356, -0.015063110738992691, 0.20801250636577606, 0.11219264566898346, -0.13516919314861298, -0.44593098759651184, -0.21643874049186707, -0.06470489501953125, 0.02713507041335106, 0.1193198710680008, 0.2499369978904724, 0.026100588962435722, -0.2211577147245407, -0.2317538559436798, -0.06293479353189468, -0.2438775897026062, 0.05506952106952667, -0.06465023010969162, -0.10755794495344162, 0.0750962421298027, 0.08301372826099396, 0.30216991901397705, 0.052238356322050095, 0.24523651599884033, -0.1974371075630188, 0.11899743974208832, -0.03246411681175232, -0.044353462755680084, 0.09509599208831787, 0.2687842845916748, -0.12964367866516113, -0.14124809205532074, -0.10680875927209854, 0.23376600444316864, 0.05360232666134834, -0.16488327085971832, 0.04996625706553459, 0.22595390677452087, -0.21914935111999512, -0.11231927573680878], [-0.07421699166297913, 0.01971098780632019, 0.1804496943950653, 0.12271207571029663, -0.2726040780544281, -0.03097712993621826, 0.029466837644577026, 0.1704411506652832, -0.23673731088638306, -0.18935388326644897, -0.2561541497707367, 0.22181403636932373, 0.2005561888217926, -0.27607160806655884, 0.11603882908821106, -0.005008906126022339, 0.11124426126480103, 0.11304426193237305, 0.20208972692489624, -0.10396820306777954, 0.12039333581924438, -0.2525736689567566, -0.14159932732582092, -0.18891051411628723, -0.24757523834705353, -0.24337923526763916, -0.23747965693473816, -0.1587563455104828, 0.24583137035369873, 0.24914133548736572, 0.18927082419395447, -0.2382241040468216, -0.14888964593410492, -0.05203928053379059, -0.015743106603622437, 0.23703885078430176, 0.044080257415771484, -0.06065128743648529, -0.2588980793952942, 0.13141050934791565, -0.1343180239200592, 0.19742876291275024, -0.0018027722835540771, -0.2685731053352356, 0.2808597683906555, 0.15118655562400818, 0.2469085454940796, -0.04270341992378235, 0.19044175744056702, -0.2196878045797348, -0.048729345202445984, 0.22030514478683472, 0.10965782403945923, 0.24525028467178345, 0.06016343832015991, -0.041553229093551636, 0.15089008212089539, 0.07517549395561218, 0.2594531178474426, -0.07655848562717438, -0.08002400398254395, 0.07034710049629211, -0.232528418302536, 0.1375773549079895], [-0.17386794090270996, 0.18179839849472046, 0.024593621492385864, -0.039759308099746704, 0.1374933123588562, -0.26689282059669495, 0.2314070463180542, 0.15445131063461304, -0.21479198336601257, 0.23355579376220703, -0.04399706423282623, 0.033577799797058105, -0.23929157853126526, -0.13839592039585114, -0.09659852087497711, -0.12406092882156372, -0.04712027311325073, -0.07283121347427368, -0.042925044894218445, 0.18625909090042114, 0.2815551161766052, 0.045471757650375366, -0.25475916266441345, 0.11361250281333923, 0.09503021836280823, 0.19097447395324707, -0.00083160400390625, -0.1779586672782898, -0.27065807580947876, -0.20603695511817932, 0.2327224612236023, -0.03317910432815552, 0.009598791599273682, 0.138072669506073, -0.03455859422683716, -0.11215078830718994, -0.05823977291584015, -0.12432743608951569, 0.27174514532089233, 0.24358224868774414, -0.1942780613899231, 0.03815639019012451, -0.18637418746948242, -0.03710979223251343, 0.03695252537727356, 0.06121605634689331, 0.11174774169921875, 0.15166664123535156, 0.24588513374328613, -0.03488388657569885, -0.2664811909198761, 0.21771842241287231, -0.06071697175502777, 0.0183241069316864, -0.23600894212722778, -0.11788904666900635, -0.15894849598407745, 0.14664989709854126, -0.23828727006912231, -0.2904747426509857, 0.032817453145980835, 0.20496347546577454, 0.25095510482788086, -0.11081527173519135]], "b1": [0.16742412745952606, 0.3317676782608032, -0.12042087316513062, 0.1152864545583725, -0.1694454699754715, 0.146440327167511, -0.15044495463371277, -0.11965371668338776, 0.013047929853200912, 0.2424514889717102, 0.37002989649772644, -0.053911011666059494, -0.271997332572937, 0.1591069996356964, 0.3211997151374817, 0.0874655544757843, -0.16765062510967255, 0.4487791657447815, 0.2977960705757141, 0.06202943995594978, 0.33979281783103943, 0.7356626391410828, 0.06187371909618378, 0.2900501489639282, 0.10378341376781464, -0.11743604391813278, -0.10972359031438828, -0.27132388949394226, 0.29804742336273193, 0.3884046971797943, 0.3847028613090515, -0.21921823918819427, 0.46911168098449707, -0.02169938199222088, -0.18367904424667358, -0.5979640483856201, 0.05614767223596573, -0.0726722776889801, 0.010385696776211262, 0.23714664578437805, -0.009186233393847942, -0.09532085061073303, 0.15965232253074646, -0.2771294414997101, -0.275157630443573, -0.24389530718326569, 0.40431901812553406, 0.11065556108951569, 0.3338010609149933, -0.1726214587688446, 0.368496298789978, 0.0063027129508554935, 0.48915955424308777, -0.08953795582056046, -0.07920361310243607, 0.34118685126304626, -0.03801014646887779, 0.6816380620002747, 0.04933891072869301, 0.35944753885269165, 0.17342936992645264, -0.21301069855690002, 0.00039544745231978595, 0.12376802414655685], "W2": [[-0.5660808086395264, -0.21123512089252472, -0.8746001124382019, -0.2698669135570526, -0.5445938110351562, -0.23155048489570618, 0.13933907449245453, -0.19651399552822113, -0.5430594086647034, -0.4585263133049011, -0.14560286700725555, -0.5011696815490723, -0.02081197127699852, -0.7577393651008606, -0.7643980979919434, -1.0050296783447266, -0.020550353452563286, -0.01727299764752388, 0.1464270055294037, 0.07745233923196793, -0.6077461838722229, -0.5471991896629333, -0.08972897380590439, 2.539232015609741, 0.08948641270399094, -0.6301729679107666, -0.008616739884018898, -0.5092719197273254, -0.24893227219581604, -0.9410437941551208, -0.45931005477905273, -0.3110590875148773, 0.1442706435918808, -0.3709181547164917, -0.3652207553386688, -0.6345548033714294, -0.7360859513282776, -0.41376784443855286, -0.11072689294815063, 0.43230104446411133, -0.5735898017883301, -0.5601853132247925, -0.03837991878390312, -0.7044383883476257, 0.21139726042747498, -0.9065427780151367, -0.5752255320549011, -0.9769406318664551, -0.5834055542945862, -0.40368983149528503, -0.5595179796218872, -0.8930043578147888, -1.1346782445907593, 1.7222840785980225, -0.33379435539245605, -0.9106609225273132, -0.32778990268707275, -0.21103326976299286, -0.8092770576477051, 0.11993040144443512, -0.34668105840682983, -0.19538822770118713, -0.8472942113876343, 0.15775908529758453], [0.011602417565882206, -1.1941791772842407, -0.25563520193099976, -0.963006317615509, -0.585099995136261, 0.24045352637767792, -0.7550451755523682, -0.17685791850090027, -1.0505328178405762, -1.0371330976486206, -0.6996325254440308, 0.13439975678920746, -0.039126280695199966, 0.2241271287202835, -0.8811366558074951, 0.19069431722164154, 1.9589794874191284, -0.23592877388000488, -0.43110689520835876, -0.060559000819921494, -0.15760847926139832, -0.5099429488182068, 1.887656331062317, 1.0390262603759766, 0.3987675905227661, 0.31989744305610657, 1.409711480140686, -0.8320616483688354, -0.5338218212127686, 0.10245324671268463, -0.24147005379199982, -0.23197101056575775, 0.13336966931819916, -0.8993248343467712, -0.6930088996887207, -0.9718273282051086, -0.06806410104036331, -0.008441558107733727, 1.747902512550354, 0.5204874873161316, -0.0921543538570404, -0.18640848994255066, -0.47900640964508057, -0.742031991481781, 0.08503492176532745, 0.08511243015527725, 0.07298406213521957, 0.06805366277694702, 0.16324591636657715, -0.7227005362510681, -0.09870389848947525, -0.19823256134986877, 0.0012231108266860247, -0.3715422749519348, -0.8968320488929749, -0.8301662802696228, -0.5680797696113586, 1.9468210935592651, 0.02981995791196823, -0.6617285013198853, -0.8940839171409607, -0.08500746637582779, -0.23459528386592865, 1.8085943460464478], [0.16425590217113495, 0.025112571194767952, 0.26454630494117737, 0.023869775235652924, -0.6318991184234619, 0.39729008078575134, -0.10863003879785538, -0.29288920760154724, -0.5419022440910339, -0.256851464509964, -0.5620870590209961, -0.07573351263999939, -0.18096068501472473, 0.339445561170578, -0.33683982491493225, 0.3382563889026642, 1.3127962350845337, -0.5232188105583191, -0.08675503730773926, -0.7749313116073608, 0.0023281509056687355, 0.18806685507297516, 0.9647608399391174, -0.5407818555831909, -0.5064725279808044, 0.7634836435317993, 0.8420550227165222, -0.5459574460983276, -0.5374550819396973, 0.273876816034317, -0.35490983724594116, 0.2894396483898163, -0.21565619111061096, -0.21032612025737762, -0.008971852250397205, 0.14978811144828796, 0.2708406448364258, 0.47743457555770874, 1.2289707660675049, -0.7082176804542542, 0.48539218306541443, 0.18124134838581085, -0.8625829815864563, 0.6832576394081116, -0.547444760799408, 0.5914998054504395, 0.08076950907707214, 0.5013728737831116, 0.15157264471054077, -0.44838422536849976, 0.2647700309753418, 0.40940842032432556, 0.2702779769897461, -0.9995318055152893, -0.3194659352302551, 0.6147375106811523, 0.46055787801742554, 1.1004323959350586, -0.08708058297634125, -0.13289503753185272, -0.4770528972148895, 0.45296579599380493, 0.23611371219158173, 1.2823151350021362], [-0.3474818170070648, 0.631094217300415, -0.627248227596283, 0.39101722836494446, -0.5550311207771301, -0.4081682860851288, 0.4036681056022644, -0.7176831960678101, -0.37748393416404724, -0.5619950294494629, -0.31779518723487854, -0.3656461536884308, -0.5107421875, -0.6305983662605286, -0.6837131381034851, -0.3756422996520996, 1.0979634523391724, -0.8154305815696716, 0.20285257697105408, -0.24995000660419464, -0.6019993424415588, 0.42716044187545776, 1.2485727071762085, 3.5695173740386963, -0.2785198390483856, -0.5172426700592041, 1.2952314615249634, -0.37047383189201355, -0.5093610882759094, -0.4067678153514862, -0.8138296008110046, -0.2903749346733093, -0.2699797749519348, -0.3686380982398987, -0.190536767244339, 0.47282323241233826, -0.5729004144668579, -0.5836235880851746, 0.9619125127792358, 0.06864850223064423, -0.46887752413749695, -0.7739472389221191, -0.6399694681167603, -0.5624358057975769, -0.16833306849002838, -0.7147805094718933, -0.6935288906097412, -0.5740704536437988, -0.7031950950622559, -0.4584493041038513, -0.39530280232429504, -0.5129619240760803, -0.8083181977272034, 1.6381962299346924, -0.26280727982521057, -0.28650540113449097, -0.35496389865875244, 1.3772852420806885, -0.37192028760910034, 0.18379414081573486, -0.6090412735939026, -0.3224700689315796, -0.5560331344604492, 1.4668240547180176], [0.46465161442756653, 1.2701810598373413, 0.24139243364334106, 0.2945518493652344, 0.14312484860420227, 1.1966856718063354, 1.2303547859191895, 0.4384555220603943, 0.025158505886793137, 0.1107393428683281, -0.6290027499198914, -0.24454927444458008, 0.8125682473182678, -0.015891287475824356, 0.1373223513364792, -0.03377996012568474, -0.7726262211799622, -0.39743098616600037, 0.08614832907915115, -1.0202670097351074, 0.2026122510433197, 0.37055525183677673, -0.3595063090324402, -2.69927978515625, -0.3442143499851227, 0.4146432876586914, -0.22826255857944489, 0.07987441122531891, -0.12333270162343979, 0.6053482890129089, 0.4687255024909973, 1.6638232469558716, -0.44328737258911133, 0.17346635460853577, 1.5180144309997559, 1.051161766052246, 0.2794222831726074, 1.5806204080581665, -0.8981526494026184, -0.7363847494125366, 1.5786043405532837, 0.3158339560031891, -0.45525577664375305, 1.3031855821609497, -0.37859588861465454, 0.3123324513435364, 0.19554929435253143, 0.39403611421585083, 0.5278405547142029, 0.2843989133834839, 1.5159835815429688, 0.13199560344219208, 0.598652184009552, 0.5378289222717285, 0.02244284562766552, 1.7722774744033813, 1.662919044494629, -0.951089084148407, 0.3134978711605072, 1.417374610900879, -0.02835465595126152, 1.1534395217895508, 0.6950576901435852, -0.6095998883247375], [-0.5519824028015137, 1.1202046871185303, -0.6167271137237549, 0.5534155964851379, -0.22137847542762756, -0.3853801190853119, 0.6470958590507507, -0.09428226947784424, -0.24319152534008026, 0.04080817475914955, -0.1445770114660263, -0.385545015335083, 0.14882807433605194, -0.28753232955932617, -0.0571289137005806, -0.653734564781189, -0.2103530317544937, -0.6293573975563049, 0.33724501729011536, -0.28372785449028015, -0.6148172616958618, 0.2787682116031647, 0.2547057271003723, 2.2255806922912598, -0.19312158226966858, -0.36814770102500916, 0.10468228161334991, 0.09387676417827606, -0.3813043236732483, -0.5368854403495789, -0.4069333076477051, 0.12234827876091003, -0.37192627787590027, -0.2263871282339096, 0.284042090177536, 0.6947382688522339, -0.3501318693161011, -0.0675109326839447, -0.28120481967926025, -0.0935930386185646, -0.1359758973121643, -0.6784720420837402, -0.3819659948348999, 0.320654958486557, -0.27729547023773193, -0.5608397126197815, -0.6239333748817444, -0.31702253222465515, -0.5787507891654968, -0.097860187292099, -0.25913920998573303, -0.2750549912452698, -0.7625713348388672, 2.094240427017212, -0.23733682930469513, 0.1809111088514328, -0.020236417651176453, -0.14392895996570587, -0.3667834997177124, 0.5199059247970581, -0.011932087130844593, -0.14412812888622284, -0.517456591129303, -0.11737242341041565], [0.2095423936843872, -0.06971458345651627, -0.037296850234270096, -0.38440442085266113, -0.7389097809791565, 0.358378529548645, -0.04402882978320122, -0.5778245329856873, -0.7934304475784302, -0.7204201221466064, -0.7837264537811279, -0.32224905490875244, -0.08809635043144226, 0.5422834753990173, -0.757507860660553, 0.5742419958114624, 1.0245823860168457, -0.8232549428939819, 0.17434033751487732, -0.44616109132766724, -0.02999112568795681, 0.01964281126856804, 1.4063483476638794, -0.049755197018384933, -0.606141984462738, 0.5646946430206299, 0.9689036011695862, -0.5764166116714478, -0.732132077217102, -0.003943330608308315, -0.6152695417404175, 0.2000369131565094, -0.5938626527786255, -0.40297484397888184, 0.002554245525971055, -0.48787322640419006, 0.14804904162883759, 0.3897065222263336, 1.2558478116989136, -0.3767143785953522, 0.4946822226047516, -0.19108667969703674, -0.8130897879600525, -0.006669948808848858, -0.5548698306083679, 0.06954681128263474, -0.16376444697380066, 0.3750469982624054, 0.05139382556080818, -0.6094027161598206, 0.09749562293291092, 0.17266078293323517, 0.009985503740608692, -1.1943397521972656, -0.7268548011779785, 0.33925119042396545, 0.04129832237958908, 1.2590335607528687, 0.04091009497642517, -0.131126269698143, -0.833608865737915, 0.4013861119747162, 0.378720223903656, 1.4147038459777832], [-0.3773564398288727, 1.3360010385513306, -0.5902149081230164, 0.9413837790489197, -0.43563976883888245, -0.15998919308185577, 0.8320968747138977, -0.5021737217903137, -0.24023635685443878, -0.31241369247436523, -0.34330764412879944, -0.5705805420875549, -0.2937902808189392, -0.3205118477344513, -0.38767415285110474, -0.2754826247692108, 0.6223735809326172, -0.8973459601402283, 0.5582064986228943, -0.5681257247924805, -0.47357335686683655, 0.4155544340610504, 0.5468891859054565, 2.6030125617980957, -0.5624191761016846, -0.6979854702949524, 1.1145517826080322, -0.27397507429122925, -0.2367711216211319, -0.6676015257835388, -0.6209079623222351, 0.15173375606536865, -0.4197320342063904, -0.2569422423839569, 0.41281840205192566, 0.9885318875312805, -0.44206130504608154, -0.09171967953443527, 0.5079819560050964, -0.3021128475666046, -0.08372920751571655, -0.6978829503059387, -0.57826167345047, 0.0990915298461914, -0.5086650848388672, -0.7579529881477356, -0.4361760914325714, -0.38122183084487915, -0.7474089860916138, -0.1425636261701584, -0.10112526267766953, -0.4845636487007141, -0.8014891147613525, 1.8952401876449585, -0.21507026255130768, 0.08638495951890945, 0.11312884837388992, 0.2149243950843811, -0.670887291431427, 0.7546958923339844, -0.07206326723098755, 0.024999283254146576, -0.6114059686660767, 0.5428206324577332], [1.1078135967254639, -0.8054584264755249, 1.0356632471084595, -0.6230493187904358, -0.6707756519317627, 0.042457692325115204, -0.6928633451461792, 0.5712317824363708, -0.9162502288818359, -0.6381771564483643, -0.7367832660675049, 1.0415096282958984, -1.1973975896835327, 1.556359052658081, -0.8777843117713928, 1.259059190750122, 0.8114858865737915, -0.3973667323589325, -0.7374710440635681, -0.015299097634851933, 0.9934196472167969, -0.3831021785736084, 0.32774093747138977, -0.26542600989341736, 0.9791620969772339, 1.8700836896896362, 0.41549959778785706, -0.7461385726928711, -0.8632725477218628, 1.1483252048492432, 0.7412908673286438, -0.3275254964828491, 1.0260510444641113, -0.7791432738304138, -0.9903415441513062, -0.8128469586372375, 1.2426893711090088, -0.28122949600219727, 0.6925615072250366, 1.223013162612915, -0.21191823482513428, 0.8412176966667175, -0.44764912128448486, -0.40645942091941833, 1.1209557056427002, 1.1686668395996094, 1.1597791910171509, 0.9575976729393005, 1.2078933715820312, -0.7817815542221069, -0.32527220249176025, 1.252401351928711, 1.293528437614441, -1.2667701244354248, -0.8067751526832581, -0.5384442806243896, -0.503740131855011, 0.7270294427871704, 0.9490149021148682, -0.7895042300224304, -0.7999368906021118, -0.3991270363330841, 1.1514338254928589, 0.5834259390830994], [0.2219591587781906, -0.051460519433021545, 0.29303672909736633, -0.15283434092998505, 0.08766082674264908, 0.47763869166374207, 0.29140982031822205, 0.7787514925003052, 0.08154486119747162, 0.12905822694301605, 0.3263512849807739, 0.013200266286730766, 0.5497543811798096, 0.03495745733380318, 0.36601611971855164, 0.11309570074081421, -2.123440742492676, 0.2539147734642029, 0.029472392052412033, -0.21727873384952545, 0.3988580107688904, -0.30655449628829956, -2.1181228160858154, -1.1606816053390503, 0.20371241867542267, 0.1974802017211914, -1.7894903421401978, 0.32158949971199036, 0.025776922702789307, 0.30759549140930176, 0.5068085789680481, 0.23803630471229553, -0.09333338588476181, 0.29298609495162964, 0.020024854689836502, 0.07923285663127899, 0.23160158097743988, 0.34083691239356995, -2.093191623687744, -0.1968460977077484, 0.44406595826148987, 0.40699172019958496, 0.3841229975223541, 0.10850244760513306, 0.48268595337867737, 0.26651713252067566, 0.3541276454925537, 0.27858972549438477, 0.15612229704856873, 0.4054196774959564, 0.28711146116256714, 0.05571269989013672, 0.30535849928855896, 0.22834013402462006, 0.26773813366889954, 0.20282696187496185, 0.18875521421432495, -2.2220470905303955, 0.3360491394996643, 0.13482235372066498, 0.2492089867591858, 0.09272126108407974, 0.39559587836265564, -2.040858268737793], [-0.015142958611249924, -0.4710974097251892, -0.029563410207629204, 0.011961052194237709, -0.03196077048778534, -0.8698709607124329, -0.4123654067516327, -0.020192207768559456, -0.3758968114852905, -0.049196112900972366, 0.5706663131713867, 0.5348425507545471, -0.503892719745636, 0.23025944828987122, -0.09091215580701828, -0.05895001441240311, 0.08406951278448105, 0.3062642514705658, 0.16387659311294556, 1.0893537998199463, -0.11585123836994171, -0.15269748866558075, -0.12058989703655243, 2.985159158706665, 0.3436500132083893, 0.04416175186634064, 0.14797653257846832, -0.09198929369449615, -0.019985422492027283, -0.0399450846016407, -0.1178518608212471, -0.9819962978363037, 0.4413791298866272, -0.300339013338089, -0.8146767616271973, -0.3079170286655426, -0.22403548657894135, -0.9878414273262024, 0.3886583745479584, 0.8201999068260193, -1.1470873355865479, 0.13470233976840973, 0.5235704183578491, -0.6938474178314209, 0.5905225872993469, -0.09002744406461716, -0.1613779515028, 0.05259184539318085, 0.16551662981510162, -0.24897325038909912, -1.143123984336853, 0.21735095977783203, -0.23649276793003082, 1.289084553718567, -0.22284461557865143, -0.6836248636245728, -0.859840989112854, 0.04235848784446716, 0.10731740295886993, -0.5272417664527893, -0.09663259238004684, -0.7452499270439148, -0.11649886518716812, 0.2409370094537735], [-0.5133515000343323, 1.0514206886291504, -0.8139929175376892, 0.7043539881706238, -0.39951369166374207, -0.03749289736151695, 0.9103685021400452, -0.7872438430786133, -0.2569252848625183, -0.21655455231666565, -0.40159621834754944, -0.3290631175041199, -0.49632909893989563, -0.7273125648498535, -0.33206117153167725, -0.6782498955726624, 0.6702581644058228, -0.8702145218849182, 0.2976970076560974, -0.5951647758483887, -0.7467761039733887, 0.23046614229679108, 1.2901384830474854, 3.076568126678467, -0.695746660232544, -0.5192292928695679, 1.3041971921920776, -0.3510441482067108, -0.6609304547309875, -0.6640027761459351, -0.594215452671051, -0.1373574435710907, -0.4858161509037018, -0.3611498773097992, 0.4752529561519623, 0.385993093252182, -0.5235918760299683, -0.08280421793460846, 0.8052487969398499, -0.31243082880973816, -0.2522047758102417, -0.8308629989624023, -0.9632347822189331, 0.09366563707590103, -0.41433611512184143, -0.6428455114364624, -0.5545333027839661, -0.6453623175621033, -0.5820059776306152, -0.2183176875114441, -0.3685626983642578, -0.5849926471710205, -0.9234469532966614, 1.7226399183273315, -0.10393894463777542, -0.27510109543800354, 0.22572758793830872, 0.727154016494751, -0.6700855493545532, 0.582352876663208, -0.4412657916545868, -0.06224890425801277, -0.5280959010124207, 0.9422468543052673], [0.02693970873951912, 0.6212973594665527, -0.1340368092060089, 0.21061231195926666, -0.303172767162323, 1.3027993440628052, 0.9265639185905457, 0.002817973028868437, -0.22943486273288727, -0.21800248324871063, -0.5990842580795288, -0.32440289855003357, 0.9265899658203125, -0.13827984035015106, 0.0004937392077408731, -0.36546555161476135, -0.8612457513809204, -0.6130141019821167, 0.20367403328418732, -1.3532480001449585, -0.211402028799057, 0.03990171104669571, -0.48006975650787354, -3.198965072631836, -0.46766799688339233, -0.23287516832351685, -0.3630356192588806, -0.17485347390174866, -0.40511566400527954, 0.08464103937149048, -0.25516146421432495, 1.2407362461090088, -0.813596785068512, -0.308773398399353, 0.7671381235122681, 0.6199052333831787, -0.08892661333084106, 1.0619980096817017, -0.6965358257293701, -0.75384920835495, 1.2275779247283936, 0.018824070692062378, -0.6763372421264648, 0.7018634676933289, -0.43288397789001465, -0.08716893196105957, 0.021657515317201614, -0.17073287069797516, 0.003134173573926091, 0.0587402768433094, 1.311853289604187, -0.15746229887008667, -0.1595902442932129, -1.2481356859207153, -0.24181900918483734, 0.9964571595191956, 1.1253396272659302, -0.5698795318603516, -0.08060559630393982, 0.7562196254730225, -0.31892767548561096, 1.1365560293197632, 0.14958520233631134, -0.6873616576194763], [-0.2588243782520294, -0.4611075520515442, -0.3101404905319214, -0.4668378531932831, 0.4406563639640808, -0.5767872333526611, -0.42178794741630554, 0.2131810188293457, 0.2966117858886719, 0.20302549004554749, 0.5362890362739563, 0.06888233125209808, -0.17518801987171173, -0.2607351541519165, 0.0388663187623024, -0.3809673488140106, -0.8278723955154419, 0.8021934032440186, -0.2563861906528473, 0.7427538633346558, 0.09418894350528717, -0.9471964240074158, -0.8595179319381714, 0.7446718215942383, 0.27998608350753784, -0.3916914463043213, -1.0840649604797363, 0.1305108666419983, 0.511406421661377, -0.16713151335716248, 0.3596784174442291, -0.8803948760032654, 0.4501212537288666, 0.010975413024425507, -0.7264617681503296, -0.7072668671607971, -0.3672449588775635, -1.120003581047058, -0.8859861493110657, 0.5917665958404541, -0.9024376273155212, -0.06039300188422203, 0.8166673183441162, -1.394044280052185, 0.2977829873561859, -0.5480467677116394, -0.23782400786876678, -0.31411778926849365, -0.4015830159187317, 0.19921596348285675, -1.0601775646209717, -0.28599977493286133, -0.46991705894470215, 0.7719438672065735, 0.23322126269340515, -1.198391318321228, -1.0632872581481934, -0.8238925337791443, -0.11032623052597046, -0.728477954864502, 0.04107505828142166, -0.8109360933303833, -0.5781472325325012, -1.0316410064697266], [-0.16593480110168457, 0.05766674503684044, -0.21431848406791687, 0.2760886549949646, -0.6748393774032593, 0.8360429406166077, 0.40180033445358276, 0.08882850408554077, -0.7330352663993835, -0.823125422000885, -0.2848082482814789, 0.040662795305252075, 0.3486635088920593, -0.44521063566207886, -1.137508511543274, -0.4735100269317627, 0.6053382158279419, -0.30188852548599243, -0.12345786392688751, -0.48360908031463623, -0.07373291999101639, -0.1439383178949356, 0.18856395781040192, 0.883355438709259, 0.2256922870874405, -0.13270041346549988, -0.6108241677284241, -0.9301818609237671, -0.7700983881950378, -0.48326605558395386, 0.24982231855392456, 0.1700538843870163, 0.28946593403816223, -1.0812360048294067, 0.14464505016803741, 0.18950994312763214, -0.1391531080007553, 0.2859562039375305, 0.49957117438316345, 0.4774910509586334, 0.2801800072193146, -0.26614272594451904, -0.4821854829788208, -0.1468057930469513, 0.21778103709220886, -0.596784770488739, -0.2331991195678711, -0.41845840215682983, -0.44633597135543823, -0.6241124868392944, 0.04872577637434006, -0.2029832899570465, -0.42295750975608826, -0.009799725376069546, -0.9910682439804077, -0.42450714111328125, 0.12758643925189972, 0.33391666412353516, -0.3949749171733856, 0.6025007963180542, -0.6414936184883118, 0.7065829634666443, -0.4653638005256653, 0.32999294996261597], [0.6650859713554382, -0.20337669551372528, 0.9489527344703674, -0.23196415603160858, 0.31302109360694885, 0.21796700358390808, 0.05785569176077843, 0.9295380115509033, 0.1974470615386963, 0.16595719754695892, 0.20307061076164246, 0.5442658066749573, 0.3217669725418091, 0.3821863532066345, 0.26481059193611145, 0.5069224834442139, -1.8897663354873657, 0.7241841554641724, -0.6917034387588501, 0.37821847200393677, 0.6835902333259583, -0.6153748035430908, -2.230989456176758, -3.767200231552124, 0.2874930799007416, 0.38760823011398315, -1.928779125213623, 0.139884352684021, 0.07263932377099991, 0.7045760750770569, 0.9818823933601379, 0.28803515434265137, 0.5670740604400635, 0.3039410412311554, 0.11082720756530762, -0.02631230838596821, 0.4789581000804901, 0.32319387793540955, -1.5449745655059814, 0.2110244482755661, 0.45438069105148315, 0.6500658392906189, 0.46293190121650696, 0.36037251353263855, 0.46077659726142883, 0.86247718334198, 0.786978542804718, 0.43984001874923706, 0.8198820352554321, 0.056419435888528824, 0.47679564356803894, 0.6265973448753357, 0.6553260087966919, -0.6120056509971619, -0.0673820972442627, 0.25640493631362915, 0.38556718826293945, -1.554900884628296, 0.7514594793319702, 0.09758463501930237, 0.1667601615190506, -0.016928551718592644, 0.9156443476676941, -1.8077720403671265], [-0.4598667323589325, 1.2605230808258057, -0.328062504529953, 0.6256152391433716, -0.49494820833206177, 1.5243552923202515, 1.298068642616272, -0.27031055092811584, -0.25169837474823, -0.1341961920261383, -0.8818314671516418, -0.6044582724571228, 1.4323153495788574, -0.45075520873069763, -0.424556702375412, -0.5558496713638306, -1.0743558406829834, -0.6601763963699341, 0.8156988620758057, -1.406989336013794, -0.11759106069803238, 0.7540861368179321, -0.7776243686676025, -1.6663352251052856, -0.6785330176353455, 0.034503091126680374, -0.7509331107139587, -0.3593541383743286, -0.7475226521492004, -0.0310949869453907, -0.028350530192255974, 1.637760043144226, -0.8315478563308716, -0.17626823484897614, 1.3241229057312012, 0.6658143401145935, -0.1169225424528122, 1.7318633794784546, -0.97267085313797, -0.741402804851532, 1.7280277013778687, -0.39035311341285706, -0.5974026322364807, 0.9922376871109009, -0.6195866465568542, -0.1616097092628479, -0.4405750036239624, -0.1686875969171524, -0.22712790966033936, -0.13116364181041718, 1.8014488220214844, -0.362760066986084, -0.10875043272972107, 0.5964480042457581, -0.2431945949792862, 1.3800674676895142, 1.5412583351135254, -1.0601660013198853, -0.3674878478050232, 1.440442442893982, -0.16070035099983215, 1.3045955896377563, -0.1668027937412262, -0.7546306848526001], [0.5178601145744324, -0.8471351861953735, 0.405273973941803, -0.6831581592559814, 0.542751669883728, -1.0726484060287476, -1.0845192670822144, 0.6101412773132324, -0.011383297853171825, 0.20793291926383972, 0.7485490441322327, 0.6707990169525146, -0.4928501546382904, 0.30530524253845215, 0.1221596971154213, 0.39799928665161133, 0.3398078978061676, 0.8289968967437744, -1.0027694702148438, 1.0169209241867065, 0.6177293658256531, -1.02151358127594, 0.5023134350776672, 2.374708414077759, 0.9046189188957214, 0.18424881994724274, 0.4927655756473541, -0.2071852833032608, 0.5938841104507446, 0.46222174167633057, 0.49003201723098755, -1.468400001525879, 0.6701747179031372, 0.0400753878057003, -1.3209270238876343, -0.8499549627304077, 0.26184341311454773, -1.446099877357483, 0.47392016649246216, 0.9446161985397339, -1.4229828119277954, 0.5379985570907593, 0.8624141216278076, -1.214094638824463, 1.0201857089996338, 0.17507828772068024, 0.6883810758590698, 0.41107797622680664, 0.5242050290107727, -0.15560324490070343, -1.4967617988586426, 0.41504162549972534, 0.5033664107322693, 1.4095028638839722, 0.11438329517841339, -1.0877033472061157, -1.2599964141845703, 0.2281610518693924, 0.3623889684677124, -0.8894995450973511, -0.21294374763965607, -1.3822243213653564, 0.33887746930122375, 0.5808707475662231], [-0.32802557945251465, -0.37071144580841064, -0.3057321608066559, 0.22908751666545868, 0.3228696882724762, -0.8158135414123535, -0.19396042823791504, 0.02449539490044117, -0.37618890404701233, -0.10153594613075256, 0.46595969796180725, 0.16972602903842926, -0.48990654945373535, -0.23472389578819275, -0.30845269560813904, -0.31837669014930725, -0.3971445560455322, 0.43265673518180847, -0.007142702117562294, 0.8469305038452148, 0.02710237354040146, 0.104041688144207, -0.7250312566757202, 1.9569045305252075, 0.44112256169319153, -0.30686700344085693, -0.6499611139297485, -0.16204990446567535, 0.47882407903671265, -0.15965208411216736, 0.19692698121070862, -1.2385201454162598, 0.764186680316925, -0.2499610185623169, -0.6934130191802979, -0.007325136102735996, -0.2456997036933899, -0.8329123258590698, -0.22029107809066772, 0.9442535042762756, -0.9269052743911743, 0.03309209272265434, 0.3192899525165558, -1.0320675373077393, 0.45609551668167114, -0.1776127815246582, 0.05772094801068306, -0.4162440896034241, -0.3429197072982788, -0.009998833760619164, -0.8900665640830994, -0.16417111456394196, -0.5146611332893372, 1.1479116678237915, 0.009811303578317165, -1.0476711988449097, -1.1091117858886719, -0.6398423910140991, -0.29373544454574585, -0.44916096329689026, -0.23235690593719482, -0.8312374949455261, -0.19636769592761993, -0.48113304376602173], [-0.4892284572124481, 1.1368764638900757, -0.5143773555755615, 0.8095033168792725, 0.018773626536130905, -0.08125995099544525, 1.0396242141723633, -0.3163692355155945, -0.209285706281662, -0.08989103883504868, -0.40580445528030396, -0.5423552989959717, -0.10755086690187454, -0.6528022289276123, -0.3427903354167938, -0.6351441740989685, -0.183330699801445, -0.6912633776664734, 0.06728781014680862, -0.45586222410202026, -0.3667944073677063, 0.2899034023284912, 0.048592567443847656, 2.0430963039398193, -0.34505653381347656, -0.6181865930557251, 0.25713884830474854, -0.20600400865077972, -0.04253903776407242, -0.3783093988895416, -0.06370458006858826, 0.20019909739494324, -0.19492436945438385, 0.02430991269648075, 0.7101913690567017, 0.8175358176231384, -0.5255188345909119, -0.04944002628326416, 0.1461547166109085, -0.15874414145946503, -0.1157774031162262, -0.646162748336792, -0.7043129205703735, 0.34549346566200256, -0.3740929365158081, -0.6747899055480957, -0.5422196984291077, -0.3533494770526886, -0.5300130248069763, 0.04793589934706688, 0.2498069554567337, -0.613150417804718, -0.7098001837730408, 2.342959403991699, 0.06215042620897293, 0.41474151611328125, 0.5141599774360657, -0.10279268026351929, -0.2302854061126709, 0.682999849319458, -0.16407132148742676, 0.0847010686993599, -0.648764967918396, -0.08313407003879547], [0.35966208577156067, -0.42342492938041687, 0.08161121606826782, 0.018298964947462082, 0.4751913249492645, -1.0982410907745361, -0.597413182258606, 0.5003082752227783, -0.013596711680293083, 0.058977026492357254, 0.978090226650238, 0.5770463347434998, -0.9795966744422913, 0.13190430402755737, 0.19267228245735168, 0.24295835196971893, -0.4039681851863861, 0.6813951134681702, -0.8823978304862976, 1.4387081861495972, 0.2685989737510681, -0.7068723440170288, -0.4821043014526367, 2.1848838329315186, 0.7577462792396545, -0.03093562461435795, -0.6988036036491394, 0.11138731241226196, 0.6082215309143066, -0.03300183638930321, 0.34272730350494385, -1.0797215700149536, 0.7633650302886963, -0.004022705368697643, -0.9425178170204163, -0.2826446294784546, -0.07234453409910202, -1.3831028938293457, -0.21883249282836914, 1.0679614543914795, -1.1513069868087769, 0.12982523441314697, 0.6790809631347656, -1.0392980575561523, 0.8490986227989197, -0.12029709666967392, 0.3676421344280243, -0.10527266561985016, 0.10993195325136185, -0.03256142884492874, -1.226164698600769, 0.17111194133758545, -0.18828973174095154, 1.001338005065918, -0.02136162482202053, -0.8318979144096375, -1.1115061044692993, -0.3442456126213074, 0.2399873584508896, -0.6473481059074402, 0.057639025151729584, -1.1695232391357422, -0.1141088604927063, -0.05966470390558243], [0.016598248854279518, -0.49877679347991943, 0.33408012986183167, -0.18198025226593018, 0.002744104713201523, 0.19434835016727448, -0.1682957410812378, 0.5129811763763428, -0.18580667674541473, -0.3327507972717285, 0.08668798953294754, 0.1367482841014862, 0.043913375586271286, 0.19792699813842773, -0.07058846205472946, 0.06042865291237831, -1.9915359020233154, 0.20637358725070953, -0.23915579915046692, 0.36345604062080383, 0.333784282207489, -0.5034393072128296, -2.1394617557525635, 0.054648999124765396, 0.3529493510723114, 0.10865795612335205, -2.4151110649108887, -0.4465799331665039, -0.1238102987408638, 0.0343429259955883, 0.18518511950969696, -0.4384347200393677, 0.5693668127059937, -0.545556902885437, -0.23630747199058533, -0.4593965709209442, 0.1859971433877945, -0.13961161673069, -1.6583445072174072, 0.31888869404792786, -0.2517813444137573, 0.30273881554603577, 0.10446572303771973, -0.30388563871383667, 0.3866281807422638, 0.13277651369571686, 0.3898383677005768, 0.09886430203914642, 0.13982287049293518, -0.2711139917373657, -0.21964645385742188, -0.013531333766877651, 0.35747137665748596, 0.038265958428382874, -0.3783442974090576, -0.2470289170742035, -0.24961403012275696, -1.8219850063323975, 0.29953938722610474, -0.5177574157714844, -0.48244422674179077, -0.17869392037391663, 0.25980880856513977, -2.0451736450195312], [0.387814998626709, -0.8779526948928833, 0.7228786945343018, -0.7676352262496948, 0.10379185527563095, 0.07399506121873856, -0.6370372772216797, 0.4938676953315735, 0.15958835184574127, -0.1168212816119194, 0.30222320556640625, 0.3322022557258606, -0.02571682631969452, 0.6321842670440674, 0.09519227594137192, 0.5250283479690552, -0.8281649947166443, 0.5558559894561768, -0.4022323489189148, 0.7184123992919922, 0.6258257031440735, -0.5384971499443054, -1.1902644634246826, -2.8310720920562744, 0.5836465954780579, 0.4182743430137634, -1.0373660326004028, -0.18040676414966583, 0.3160649836063385, 0.695931077003479, 0.34996089339256287, -0.12957774102687836, 0.4012075364589691, 0.005641465540975332, -0.1424163579940796, -0.48787981271743774, 0.6382903456687927, 0.24028244614601135, -0.527177631855011, 0.24051536619663239, 0.2435828596353531, 0.5722711682319641, 0.5456328392028809, -0.08853073418140411, 0.47979164123535156, 0.5544366240501404, 0.35549837350845337, 0.32861536741256714, 0.6239302158355713, -0.030646027997136116, 0.17211872339248657, 0.31660303473472595, 0.812781572341919, -1.8186007738113403, 0.021094880998134613, 0.10232558846473694, -0.2499617040157318, -0.8817141056060791, 0.5989676713943481, -0.3509625196456909, 0.10676142573356628, 0.14112599194049835, 0.7484957575798035, -0.896708607673645], [0.024106288328766823, -1.0942424535751343, -0.16224205493927002, -0.8478673100471497, -0.18559232354164124, -0.13025319576263428, -0.7242791652679443, 0.03210664913058281, -0.5373950600624084, -0.44925594329833984, 0.20767666399478912, 0.12051147222518921, -0.11964059621095657, -0.06098351627588272, -0.5044177174568176, -0.005186593625694513, -0.6142950057983398, 0.23120397329330444, -0.2431030571460724, 0.18907496333122253, -0.013218238949775696, -0.7769011855125427, -1.2203559875488281, 1.255313515663147, 0.09005310386419296, 0.19602499902248383, -1.4068677425384521, -0.3961259424686432, 0.03212346136569977, -0.015768906101584435, 0.18041442334651947, -0.6007625460624695, 0.4920252561569214, -0.40132588148117065, -0.9050887227058411, -0.8754428625106812, -0.20758217573165894, -0.5110700726509094, -0.5460401177406311, 0.46187594532966614, -0.2466430813074112, -0.1193528026342392, 0.28620895743370056, -0.7581477165222168, 0.469393253326416, -0.19134733080863953, 0.20208023488521576, -0.020306391641497612, -0.16983994841575623, -0.5077013969421387, -0.6401733756065369, 0.11361370235681534, 0.006959324702620506, 0.06953903287649155, -0.3904896676540375, -0.631201446056366, -0.6422131657600403, -0.642745316028595, 0.10203665494918823, -0.8123844861984253, -0.692470371723175, -0.17687760293483734, -0.23311087489128113, -0.9201290607452393], [-1.0419141054153442, 1.0966229438781738, -1.0215222835540771, 0.9210233688354492, 0.36085909605026245, 0.048566784709692, 1.0242207050323486, -0.5197198390960693, 0.26606452465057373, 0.312233030796051, 0.3193114101886749, -1.3693073987960815, 1.3207714557647705, -1.7200716733932495, 0.33189308643341064, -1.7690523862838745, -0.23671267926692963, 0.24521169066429138, 0.5002075433731079, -0.6658167243003845, -0.6869226098060608, 0.18638567626476288, -0.11255450546741486, 0.6990561485290527, -1.0355585813522339, -1.3726353645324707, 0.3294532597064972, 0.12929482758045197, 0.053740017116069794, -1.1809298992156982, -0.6466065645217896, 0.5685743093490601, -1.4008539915084839, 0.1522894650697708, 1.150201439857483, 1.081923246383667, -1.075598955154419, 0.4765554666519165, -0.14673687517642975, -1.0790423154830933, 0.48383787274360657, -0.9909796714782715, -0.09603448212146759, 0.8726943135261536, -0.8781809210777283, -1.3842723369598389, -1.0013744831085205, -1.2183107137680054, -0.8850570917129517, 0.32946446537971497, 0.433710515499115, -1.2735756635665894, -1.3178943395614624, 1.8871039152145386, 0.17055711150169373, 0.8656511306762695, 0.502068042755127, -0.3075428009033203, -1.077451467514038, 0.8646694421768188, 0.10165077447891235, 0.3061811625957489, -1.2878446578979492, -0.27217647433280945], [-0.631959855556488, 1.368595838546753, -0.6297506093978882, 1.5272622108459473, 0.2168545424938202, -0.1197633445262909, 0.8341896533966064, -0.3158411681652069, -0.004511559847742319, 0.3807772397994995, 0.019663600251078606, -0.5937046408653259, 0.7163612246513367, -0.7274966239929199, 0.059090614318847656, -0.9109093546867371, 0.1861678659915924, -0.350599080324173, 0.6192519664764404, -0.414577841758728, -0.7981118559837341, 1.2204539775848389, 0.38087135553359985, 1.1912606954574585, -0.5450488328933716, -0.9240831732749939, 0.5880300998687744, 0.1783602088689804, 0.07177284359931946, -0.9158033728599548, -0.6007000803947449, 0.733051061630249, -0.9309642910957336, 0.3580790162086487, 1.136110544204712, 1.4232184886932373, -0.7863748073577881, 0.42799142003059387, -0.04348353296518326, -0.6843510866165161, 0.04153917729854584, -0.5937183499336243, -0.2710868716239929, 1.1128352880477905, -0.8215413689613342, -0.702272355556488, -0.8987271189689636, -0.7236504554748535, -0.5508675575256348, 0.04525128751993179, 0.4314637780189514, -0.8191805481910706, -0.6616513729095459, 1.9389266967773438, 0.26586952805519104, 1.0698351860046387, 0.5752772092819214, -0.05946803465485573, -0.848713755607605, 0.818801760673523, 0.09930912405252457, 0.22431756556034088, -0.8502367734909058, -0.08620943129062653], [-0.6299834847450256, 1.241093635559082, -0.8381875157356262, 1.3814196586608887, 0.06443457305431366, 0.5294257998466492, 1.1138640642166138, -0.33600348234176636, 0.17556846141815186, 0.29489439725875854, 0.01808229275047779, -0.8272306323051453, 0.8798106908798218, -0.8231644034385681, 0.5301333665847778, -0.7091406583786011, -0.16402947902679443, -0.2608490586280823, 0.7362220287322998, -0.6639431715011597, -0.3414803743362427, 1.0139626264572144, -0.20955297350883484, 0.22577925026416779, -0.6405372023582458, -0.960988461971283, 0.3433775007724762, 0.31070733070373535, -0.03553047403693199, -0.6265119314193726, -0.47588688135147095, 0.5832449793815613, -0.689025342464447, 0.09400106966495514, 1.080667495727539, 1.3541959524154663, -0.34359806776046753, 0.605589747428894, -0.3100077509880066, -0.7543459534645081, 0.6251563429832458, -0.6592434644699097, 0.06384249031543732, 1.0393255949020386, -0.5904025435447693, -0.4528772532939911, -0.4915567934513092, -0.47973155975341797, -0.5072869658470154, 0.15459711849689484, 0.5083996057510376, -0.6301984190940857, -0.7627150416374207, 1.9907760620117188, 0.35305145382881165, 1.1796176433563232, 0.8153915405273438, -0.1041962280869484, -0.6840887665748596, 1.142744541168213, 0.29902204871177673, 0.5658572316169739, -0.7939870953559875, -0.2402588278055191], [-0.11747608333826065, 0.2206924855709076, -0.15030759572982788, -0.11645367741584778, -0.7111702561378479, 0.7606697678565979, 0.2630927562713623, -0.677615225315094, -0.5484616756439209, -0.26518452167510986, -1.1121346950531006, -0.39278870820999146, 0.4716600179672241, -0.2879364788532257, -0.7043077349662781, -0.2079295963048935, 0.1821022927761078, -1.0607396364212036, 0.621751070022583, -0.8014329671859741, -0.23314467072486877, 0.18776148557662964, 0.4978961646556854, -1.3761053085327148, -0.5550404787063599, 0.10255961120128632, 0.815307080745697, -0.7100557684898376, -0.7651930451393127, -0.09512671083211899, -0.444494366645813, 0.7896970510482788, -0.7788934707641602, -0.5212278962135315, 0.24174682796001434, -0.326937735080719, -0.22949515283107758, 0.8544335961341858, 0.15417037904262543, -0.560151219367981, 0.7934858202934265, -0.268492728471756, -0.9856011867523193, 0.5051265358924866, -0.38111233711242676, 0.12012797594070435, -0.5333796739578247, 0.008747342973947525, -0.06105384975671768, -0.5497133731842041, 0.7044569253921509, -0.2274504452943802, -0.14504891633987427, -1.0174418687820435, -0.30686670541763306, 0.2749530076980591, 0.569092869758606, 0.4930579960346222, -0.09465622901916504, 0.48148250579833984, -0.5769913196563721, 0.5824207067489624, 0.0381525456905365, 0.3621911406517029], [0.08854831010103226, -0.7905964851379395, -0.1154596135020256, -0.025308873504400253, 0.6757459044456482, -0.7965251207351685, -0.7265316843986511, 0.39519137144088745, 0.2012006640434265, -0.004053682088851929, 1.0236144065856934, 0.5604652762413025, -1.0499322414398193, -0.08022833615541458, 0.08231766521930695, 0.037866730242967606, -0.4595161974430084, 0.7867345213890076, -0.578711748123169, 1.2019062042236328, 0.13790224492549896, -0.8267477750778198, -0.7331953644752502, 1.7566858530044556, 0.761913001537323, 0.03668024763464928, -0.7214280366897583, 0.1468406617641449, 0.4600121080875397, 0.12791480123996735, 0.2624977231025696, -1.053641676902771, 0.8013445138931274, 0.3254828155040741, -1.0167680978775024, -0.37916743755340576, 0.18436366319656372, -1.0075138807296753, -0.7091032862663269, 0.9518439173698425, -1.1488308906555176, 0.05592064931988716, 0.8131150603294373, -1.157558560371399, 0.7386332750320435, -0.1977313756942749, 0.1509518176317215, 0.1602073460817337, 0.052280690521001816, 0.16170181334018707, -1.2900875806808472, -0.1259201318025589, 0.0486224889755249, 0.5991361737251282, 0.016710078343749046, -1.3792102336883545, -1.4831452369689941, -0.5022132992744446, -0.04237101227045059, -0.6150956749916077, 0.06735739856958389, -0.6921043992042542, -0.003875661175698042, -0.7793314456939697], [-0.12370883673429489, 0.0409560389816761, -0.315284788608551, 0.5297237038612366, 0.13085201382637024, -1.4415746927261353, -0.47757014632225037, -0.21830689907073975, -0.11179811507463455, -0.3252221345901489, 0.588356077671051, 0.1504315286874771, -0.8844146132469177, 0.05439648777246475, -0.3679666519165039, 0.09460552036762238, 0.5592011213302612, 0.10277760028839111, -0.28557726740837097, 0.5934185981750488, -0.19952161610126495, -0.05887255445122719, 0.10941436141729355, 3.6704559326171875, 0.25443336367607117, 0.0003431017976254225, 0.526930570602417, -0.07230207324028015, 0.06675661355257034, -0.4320749044418335, -0.1560119092464447, -1.2464426755905151, 0.5640812516212463, -0.07881631702184677, -0.9606667757034302, -0.00937978457659483, -0.37320566177368164, -1.3842428922653198, 0.5952882766723633, 0.7208210825920105, -1.452954888343811, -0.10057134926319122, -0.037952423095703125, -0.6308256983757019, -0.027821697294712067, -0.4309443533420563, -0.23542103171348572, -0.03805922344326973, -0.3704565465450287, -0.3050749599933624, -1.4972445964813232, -0.20240876078605652, -0.3075813353061676, 1.3437329530715942, -0.012912067584693432, -0.681907594203949, -1.0755046606063843, 0.6297526359558105, -0.2415488064289093, -0.5676310062408447, -0.033540334552526474, -1.2029621601104736, -0.31639161705970764, 0.4948878884315491], [-0.5114060640335083, -0.24626478552818298, -0.675639271736145, 0.06892821937799454, -1.054105520248413, -0.5715174078941345, -0.3702177107334137, -0.40619799494743347, -1.2844829559326172, -1.3333990573883057, -0.7924606204032898, 0.08615300804376602, -0.63506019115448, -0.027188066393136978, -1.3096624612808228, -0.2390860617160797, 1.3225641250610352, -0.6923872232437134, 0.1424531489610672, 0.11602815240621567, -0.5733019709587097, -0.0025498096365481615, 1.0093594789505005, 3.6596574783325195, 0.23442324995994568, -0.21259084343910217, 0.7795761823654175, -1.4827430248260498, -0.8885194659233093, -0.3991440236568451, -0.5098334550857544, -1.1327399015426636, 0.485635370016098, -1.4646118879318237, -0.9403676390647888, -0.6959290504455566, -0.604385495185852, -0.7222627401351929, 1.058976411819458, 0.44981807470321655, -0.7233422994613647, -0.44948992133140564, -0.6362582445144653, -0.9906590580940247, 0.07225058227777481, -0.6554195880889893, -0.5057786703109741, -0.5986936688423157, -0.6595937609672546, -1.2439650297164917, -1.197360873222351, -0.6217479109764099, -0.6130177974700928, 0.6531016230583191, -1.1119496822357178, -1.2297462224960327, -0.8662880063056946, 1.2367173433303833, -0.622879147529602, -0.3693176805973053, -1.1781288385391235, -0.7783267498016357, -0.6411840915679932, 1.3217146396636963], [0.3769169747829437, 0.8157823085784912, 0.13490493595600128, 0.7595980763435364, -0.08552305400371552, 0.295301228761673, 0.5738765597343445, 0.005427071824669838, 0.5269351601600647, 0.32949694991111755, -0.35075774788856506, 0.043056465685367584, 0.15158765017986298, 0.38048261404037476, 0.3882959187030792, 0.15171590447425842, 0.5230499505996704, -0.4751148223876953, 0.17095990478992462, -0.44322171807289124, 0.13100048899650574, 0.4919598698616028, 0.6505716443061829, -1.4043033123016357, -0.15319600701332092, 0.24506542086601257, 0.6723306775093079, 0.5256204605102539, 0.12190467119216919, 0.42201194167137146, -0.07501519471406937, 1.0900890827178955, -0.4926457703113556, 0.22281277179718018, 0.9090211987495422, 0.9311807751655579, 0.6045876741409302, 0.7167548537254333, 0.3872118592262268, -0.5081731081008911, 0.8036883473396301, 0.31881609559059143, -0.40852516889572144, 0.8603000044822693, -0.24950547516345978, 0.3329733610153198, 0.04575815796852112, 0.30373531579971313, 0.3521491289138794, 0.2722513675689697, 0.7948632836341858, 0.24806268513202667, 0.4561321437358856, -0.5488224029541016, 0.5872043967247009, 0.9427468776702881, 0.9106591939926147, 0.5335782766342163, 0.2704862654209137, 0.8951971530914307, 0.5488231182098389, 0.45366406440734863, 0.4401213824748993, 0.7117007970809937], [0.02378039062023163, -0.1984790712594986, 0.2951611578464508, -0.4586981236934662, 0.3160529136657715, -0.4219169318675995, -0.2329205721616745, 0.6305119395256042, -0.2919882535934448, -0.06670744717121124, 0.5881044864654541, 0.18238180875778198, 0.28038209676742554, 0.00036284636007621884, -0.172372967004776, 0.3655726909637451, -0.6313743591308594, 0.5295292139053345, -1.0290967226028442, 0.7625613212585449, 0.14758379757404327, -1.4358421564102173, -0.7612878084182739, 0.5017411708831787, 0.33805254101753235, 0.13702477514743805, -0.888343334197998, -0.25226399302482605, 0.3013848066329956, 0.049747321754693985, 0.5452432632446289, -0.34449371695518494, 0.4745795726776123, -0.21856246888637543, -0.3571799397468567, -0.40004295110702515, 0.3257979452610016, -0.3060561418533325, -0.5204615592956543, 0.36690306663513184, -0.23439079523086548, 0.25704020261764526, 0.7615450620651245, -0.4552510976791382, 0.45953842997550964, 0.35296395421028137, 0.2799558639526367, 0.3235066831111908, 0.2383340746164322, -0.10254578292369843, -0.5114246010780334, 0.01000305823981762, 0.20361803472042084, 1.2746716737747192, -0.27185454964637756, -0.6821668744087219, -0.38207828998565674, -0.5438835620880127, 0.37424156069755554, -0.5568225383758545, -0.05768001452088356, -0.7501741051673889, 0.13082249462604523, -0.3413034677505493], [0.32354867458343506, -0.9884791374206543, 0.5979564785957336, -0.8793613314628601, 0.1770453006029129, 0.06746722757816315, -0.8799950480461121, 0.17793235182762146, -0.020842593163251877, 0.2864011228084564, 0.40046417713165283, 0.4170530140399933, 0.009586773812770844, 0.3315405249595642, 0.27420327067375183, 0.539928138256073, -0.045187078416347504, 0.3416035771369934, 0.10822729766368866, 0.5800718665122986, 0.4128229022026062, -0.14686115086078644, -0.625760018825531, -1.6242283582687378, 0.37034937739372253, 0.5680736303329468, -0.5062047839164734, -0.09727416932582855, 0.26015999913215637, 0.3280091881752014, 0.3611352741718292, -0.1734609752893448, 0.4194304049015045, -0.08235735446214676, -0.5037387609481812, -0.6376162171363831, 0.5771690607070923, -0.33648446202278137, -0.13182500004768372, 0.22303977608680725, 0.09318692982196808, 0.4178342819213867, 0.23995095491409302, -0.51641446352005, 0.3813983201980591, 0.7158965468406677, 0.6105200052261353, 0.5983142256736755, 0.6335609555244446, -0.029049891978502274, -0.15579989552497864, 0.3095947206020355, 0.7277195453643799, -2.0048999786376953, 0.09806472063064575, -0.45697712898254395, -0.36787983775138855, -0.08931431174278259, 0.530474066734314, -0.6123177409172058, 0.14540262520313263, -0.33875763416290283, 0.5888299942016602, -0.6871135830879211], [0.4393403232097626, 1.0030841827392578, 0.3068388104438782, 0.4284071922302246, 0.005767849273979664, 0.8922466039657593, 0.917945146560669, 0.3150051534175873, 0.2269180417060852, 0.14198626577854156, -0.5730782151222229, -0.14955812692642212, 0.7174413204193115, 0.1639348566532135, 0.4048391282558441, 0.2459641695022583, -0.30194175243377686, -0.23879368603229523, -0.039587605744600296, -0.9850926995277405, 0.28512611985206604, 0.5782554745674133, 0.14373476803302765, -2.5126800537109375, -0.053005293011665344, 0.3984750807285309, 0.2076781690120697, 0.08488737791776657, -0.17847691476345062, 0.37585756182670593, 0.38738545775413513, 1.6227903366088867, -0.4127291440963745, -0.02299400418996811, 1.3128392696380615, 0.9660032987594604, 0.3789222240447998, 1.2688498497009277, -0.11325856298208237, -0.5901429057121277, 1.4234987497329712, 0.4500202536582947, -0.10495032370090485, 1.4343308210372925, -0.1577731966972351, 0.626950740814209, 0.19834493100643158, 0.42275717854499817, 0.5220195651054382, 0.30866020917892456, 1.5812536478042603, 0.3509555160999298, 0.5444661378860474, 0.46391400694847107, 0.1839504987001419, 1.5833083391189575, 1.72869873046875, -0.24023963510990143, 0.37926867604255676, 1.3185137510299683, 0.0991549864411354, 1.1535344123840332, 0.4321739375591278, -0.22971311211585999], [-0.29197606444358826, 0.5671239495277405, -0.27712535858154297, 0.40860646963119507, -0.06451845914125443, -0.14465077221393585, 0.48904168605804443, -0.37028348445892334, 0.29348671436309814, 0.386069655418396, -0.07686270773410797, -0.30426517128944397, -0.1112901121377945, -0.11223743855953217, 0.3233911097049713, -0.3292361795902252, 0.5696196556091309, -0.08776118606328964, 0.39070814847946167, -0.34517672657966614, -0.18514111638069153, 0.9080390930175781, 0.4437955915927887, -0.31919655203819275, -0.2750076949596405, -0.05370374768972397, 0.5448508858680725, 0.3417954444885254, 0.036873530596494675, -0.3875778615474701, -0.4045089781284332, 0.16215677559375763, -0.37266936898231506, 0.373452752828598, 0.6143525242805481, 0.48572301864624023, -0.33053070306777954, 0.2110157012939453, 0.2236046940088272, -0.5158559679985046, 0.07110030949115753, -0.13872188329696655, -0.3047751486301422, 0.3013000786304474, -0.5396917462348938, -0.33502086997032166, -0.41103947162628174, -0.1252554953098297, -0.03739191219210625, 0.5222625136375427, 0.14568185806274414, -0.08673090487718582, -0.10838395357131958, -0.13130562007427216, 0.6602022647857666, 0.34703925251960754, 0.43374133110046387, 0.45477530360221863, -0.3760717511177063, 0.6376389861106873, 0.36528515815734863, 0.14602747559547424, -0.24193120002746582, 0.3267063498497009], [-0.6355074048042297, 0.8707857131958008, -1.0206780433654785, 0.9512456655502319, -0.5885241627693176, 0.05083012208342552, 0.7445522546768188, -0.6933659315109253, -0.5987842082977295, -0.20527316629886627, -0.43426820635795593, -0.5169926285743713, -0.029098432511091232, -0.5117875337600708, -0.5767507553100586, -0.771267831325531, 0.6299654841423035, -0.7534666061401367, 0.480927973985672, -0.7490491271018982, -0.6688453555107117, 0.4845511317253113, 0.8704607486724854, 2.9302241802215576, -0.3954647481441498, -0.6554981470108032, 0.8373474478721619, -0.3605100214481354, -0.2505090832710266, -0.8891016244888306, -0.7871843576431274, 0.08584833145141602, -0.4603777527809143, -0.4309866726398468, 0.3839820623397827, 0.6558358073234558, -0.5716305375099182, -0.1386023610830307, 0.36177700757980347, -0.17008744180202484, -0.06037890911102295, -0.8212716579437256, -0.6737005710601807, -0.09247609227895737, -0.7048193216323853, -0.964074432849884, -0.8423640131950378, -0.8745166063308716, -0.6841090321540833, -0.4917038679122925, -0.22421929240226746, -0.7601537108421326, -0.9302700757980347, 1.8591086864471436, -0.4396107494831085, 0.22521264851093292, 0.2993018925189972, 0.591425359249115, -0.8185988664627075, 0.6315286755561829, -0.23733918368816376, 0.20032522082328796, -0.8481100797653198, 0.615899920463562], [0.310134619474411, 0.1972018927335739, 0.3632429242134094, 0.14066222310066223, -1.2696722745895386, 0.7581111788749695, 0.1630709022283554, -0.303286075592041, -1.2011735439300537, -1.052024245262146, -1.2580622434616089, 0.4886791408061981, -0.20273131132125854, 0.9786174893379211, -1.2652355432510376, 0.8961113691329956, 1.0104554891586304, -0.7962861657142639, 0.21755316853523254, -0.497109591960907, 0.08580977469682693, 0.45262351632118225, 1.323048710823059, 0.29393264651298523, 0.12648971378803253, 1.1660362482070923, 1.4208922386169434, -1.281121850013733, -1.1064307689666748, 0.3091662526130676, -0.2934393584728241, 0.5651441216468811, -0.020270660519599915, -1.2532989978790283, 0.20405258238315582, 0.13640177249908447, 0.41677188873291016, 0.5425513386726379, 1.3207272291183472, 0.30806729197502136, 0.6226910948753357, 0.3802682161331177, -1.1623539924621582, 0.4136926829814911, 0.1839773803949356, 0.6453045010566711, 0.32997214794158936, 0.7279056906700134, 0.33374202251434326, -1.1565788984298706, 0.678237795829773, 0.722741425037384, 0.7116288542747498, -0.8276993632316589, -1.0448154211044312, 0.3477421700954437, 0.42745980620384216, 1.0709939002990723, 0.40872901678085327, 0.27123844623565674, -1.3468472957611084, 0.7831685543060303, 0.7316349744796753, 1.3842377662658691], [0.6754735112190247, -1.0269811153411865, 0.6140888333320618, -1.0450016260147095, -0.43722209334373474, 0.1708430051803589, -0.7139830589294434, 0.33138298988342285, -0.8540593385696411, -0.6408645510673523, -0.6515975594520569, 0.7534202337265015, -0.7981120347976685, 0.7888212203979492, -0.7830514311790466, 0.7894576787948608, 0.2746046185493469, -0.34919190406799316, -0.5597571134567261, 0.007732036057859659, 0.47611624002456665, -0.547918438911438, 0.04511963576078415, -0.6491349339485168, 0.837020993232727, 1.1468185186386108, -0.1326332986354828, -0.6856464743614197, -0.45375940203666687, 0.9060823321342468, 0.37520015239715576, -0.2033873349428177, 0.7503415942192078, -0.5767291784286499, -0.6019863486289978, -1.095221996307373, 0.7979961037635803, -0.020868223160505295, 0.21668072044849396, 0.9414631724357605, -0.16548924148082733, 0.8973139524459839, -0.17451611161231995, -0.5246288180351257, 0.6066604852676392, 0.9733230471611023, 0.625295877456665, 0.6485140919685364, 0.5766412615776062, -0.5131560564041138, -0.2152804136276245, 0.6231090426445007, 0.860645055770874, -1.5900779962539673, -0.5196142196655273, -0.7518768310546875, -0.2538886070251465, 0.5036851763725281, 0.7399510145187378, -0.7358024716377258, -0.4529944360256195, -0.22855141758918762, 0.8694812059402466, 0.44024354219436646], [-0.19786973297595978, 0.494026243686676, -0.64809250831604, 0.4791218340396881, -0.23708824813365936, -0.6403443217277527, 0.033022183924913406, -0.743114173412323, -0.6800276041030884, -0.6248196959495544, -0.16443167626857758, -0.13993322849273682, -0.2855514585971832, -0.27092990279197693, -0.5224610567092896, -0.05298786982893944, 1.5023832321166992, -0.4949952960014343, 0.06984920054674149, 0.046844471246004105, -0.562547504901886, 0.2794211208820343, 1.4054456949234009, 4.050732135772705, -0.27981892228126526, -0.3313782811164856, 1.1117414236068726, -0.2941783368587494, -0.46850842237472534, -0.23615875840187073, -0.5366712808609009, -0.4451407790184021, 0.17125912010669708, -0.6130982637405396, -0.10668531060218811, 0.3904516100883484, -0.4484558701515198, -0.6146741509437561, 1.3938753604888916, 0.07371484488248825, -0.5566547513008118, -0.5471897125244141, -0.6618571281433105, -0.3252811133861542, -0.24797727167606354, -0.509644091129303, -0.3910078704357147, -0.3723964989185333, -0.6270031929016113, -0.526935875415802, -0.5456481575965881, -0.2275323122739792, -0.5235720276832581, 0.8146371841430664, -0.5682604312896729, -0.5865171551704407, -0.2239513099193573, 1.4991542100906372, -0.3433395326137543, 0.28891289234161377, -0.5728971362113953, -0.3803554177284241, -0.5950634479522705, 1.5723611116409302], [-0.3626493215560913, -0.09045469015836716, -0.22394941747188568, -0.06165977567434311, -0.2470683455467224, 0.1428138166666031, -0.06731235980987549, 0.37193408608436584, -0.0690050944685936, -0.1903056800365448, 0.18944430351257324, -0.0935024619102478, 0.0396108403801918, -0.8503609895706177, 0.20652130246162415, -0.5285200476646423, -1.2632297277450562, 0.3097877502441406, -0.049652375280857086, -0.03524547070264816, -0.06637644022703171, -0.23810163140296936, -1.3236466646194458, -0.14061766862869263, 0.0866759866476059, -0.7040326595306396, -1.6856038570404053, 0.056579433381557465, 0.12599794566631317, -0.3266766667366028, 0.44417762756347656, -0.3458983600139618, 0.3761860430240631, 0.060632459819316864, -0.30786362290382385, -0.08477818220853806, 0.011206680908799171, -0.015839695930480957, -0.9839838147163391, 0.5287944674491882, 0.11360520124435425, 0.012738561257719994, -0.023034781217575073, -0.2565324604511261, 0.5047792792320251, -0.061291538178920746, -0.056215908378362656, -0.24494290351867676, -0.17864744365215302, 0.08834949880838394, 0.0069896928034722805, -0.21433117985725403, -0.438824862241745, 0.22659672796726227, -0.261032372713089, -0.2899758517742157, -0.12334264069795609, -1.0290629863739014, -0.027446554973721504, 0.01703079417347908, 0.11081870645284653, -0.16963253915309906, -0.017476318404078484, -1.3076956272125244], [0.6467804312705994, 0.038836248219013214, 0.7208378911018372, 0.1687556505203247, -0.40451139211654663, 0.3884296119213104, -0.09792914241552353, -0.017924051731824875, 0.019608475267887115, -0.25137972831726074, -0.5471463799476624, 0.16424252092838287, -0.3698680102825165, 0.9439574480056763, -0.1398065686225891, 0.9640747904777527, 1.4122955799102783, -0.6053962111473083, 0.16055142879486084, -0.4118798077106476, 0.48012852668762207, 0.3378913700580597, 1.353195071220398, -0.5018032789230347, -0.20547650754451752, 0.92438143491745, 1.2139320373535156, -0.14502820372581482, -0.11812634021043777, 0.681369423866272, 0.07642322033643723, 0.2921631634235382, 0.05916576087474823, -0.26361727714538574, 0.1655135154724121, 0.39782005548477173, 0.6062429547309875, 0.4407116174697876, 1.4000622034072876, -0.17204627394676208, 0.5068503022193909, 0.35514211654663086, -0.49077439308166504, 0.6372005939483643, 0.048154085874557495, 0.7506285905838013, 0.2747035622596741, 0.6467909812927246, 0.626844048500061, 0.019242485985159874, 0.502519428730011, 0.8398535251617432, 0.7644948363304138, -0.7857959866523743, -0.1277841478586197, 0.5735538005828857, 0.24519416689872742, 1.137279748916626, 0.49507471919059753, -0.06280262023210526, -0.3042745888233185, 0.5246322154998779, 0.8409399390220642, 1.4517452716827393], [-0.7926708459854126, 0.9007107615470886, -1.0762429237365723, 0.4387645423412323, -0.23207253217697144, -0.19401738047599792, 0.6459853053092957, -0.48488688468933105, -0.3159204423427582, -0.23147790133953094, -0.6540853381156921, -0.6972355246543884, -0.032332099974155426, -0.9943152666091919, -0.6498457789421082, -0.6843981742858887, 0.3783945143222809, -0.5171511769294739, 0.29992255568504333, -0.8655898571014404, -0.8095095157623291, -0.10774718970060349, 0.6926766037940979, 3.131070613861084, -0.4405600428581238, -0.6686778664588928, 0.17395366728305817, -0.5534763336181641, -0.5549062490463257, -0.9834612607955933, -0.6357634663581848, 0.13637644052505493, -0.36959853768348694, -0.49734213948249817, 0.33078742027282715, 0.22306279838085175, -0.8424813151359558, -0.2594794034957886, 0.35644426941871643, -0.4388654828071594, -0.3345954418182373, -0.7548417448997498, -0.5026817321777344, -0.23238354921340942, -0.673689603805542, -1.2496922016143799, -0.9480228424072266, -1.0209276676177979, -1.062829613685608, -0.19308069348335266, 0.006879634689539671, -1.0517162084579468, -1.2261574268341064, 2.178776502609253, -0.490855872631073, -0.29298773407936096, 0.2238466441631317, 0.3969670236110687, -0.8005388975143433, 0.7094307541847229, -0.6179276704788208, 0.08375264704227448, -0.7994464635848999, 0.8192577958106995], [-0.20106008648872375, 1.4329737424850464, -0.2291453331708908, 1.1376346349716187, 0.02825498953461647, -0.12400178611278534, 0.9603452682495117, -0.07815460115671158, 0.4736948013305664, 0.2600337862968445, -0.2743522822856903, -0.533027708530426, 0.26161864399909973, -0.5704278349876404, 0.1695178598165512, -0.27346086502075195, -0.6540808081626892, -0.12756192684173584, 0.39971885085105896, -0.6489343643188477, -0.29649487137794495, 0.8088054060935974, -0.3530569076538086, 0.4681245982646942, -0.5786002278327942, -0.32521915435791016, -0.05849999561905861, 0.5554563403129578, -0.17551687359809875, -0.3201870322227478, -0.12145427614450455, 0.48107388615608215, -0.3385474979877472, 0.46022361516952515, 0.9473550915718079, 1.1557098627090454, -0.4657159447669983, 0.08825049549341202, -0.5413200259208679, -0.7030990123748779, 0.2151312381029129, -0.5796731114387512, -0.2788591980934143, 0.4939667284488678, -0.38804176449775696, -0.5306409001350403, -0.3881390392780304, -0.14482849836349487, -0.24543777108192444, 0.21320118010044098, 0.3987894356250763, -0.3812065124511719, -0.5293794274330139, 1.2739626169204712, 0.2418319433927536, 0.7135931849479675, 0.6841865181922913, -0.6737768650054932, -0.35513898730278015, 1.0860422849655151, 0.27015405893325806, 0.16749173402786255, -0.2322193831205368, -0.35301774740219116], [-0.1250297874212265, 0.8658249974250793, -0.17249645292758942, 0.29332834482192993, -0.31340041756629944, 1.2195143699645996, 1.0313743352890015, -0.14389361441135406, -0.28285735845565796, -0.23376086354255676, -0.6836326122283936, -0.3464478552341461, 0.7194945216178894, -0.1917252391576767, -0.3618982434272766, -0.31445494294166565, -0.6100111603736877, -0.6232476830482483, 0.0731189027428627, -1.4871894121170044, -0.3180360794067383, -0.1055702343583107, -0.6072349548339844, -3.1382229328155518, -0.7225500345230103, -0.12060046941041946, -0.49088525772094727, -0.21022741496562958, -0.4871658980846405, -0.07188186049461365, 0.07966689765453339, 1.023671269416809, -0.7894106507301331, -0.2135206013917923, 0.8024137020111084, 0.16197991371154785, 0.12140756100416183, 1.3112070560455322, -0.4018392860889435, -0.934619128704071, 1.1504347324371338, 0.019913697615265846, -0.9790366888046265, 0.8410645127296448, -0.718930721282959, -0.12541787326335907, -0.06383249163627625, -0.19233663380146027, -0.17069238424301147, -0.1550975888967514, 1.2036290168762207, -0.2715992033481598, -0.14794641733169556, -1.0312161445617676, -0.43571168184280396, 0.8725115060806274, 0.8257479667663574, -0.6259535551071167, -0.09360209107398987, 0.9540072679519653, -0.3382822871208191, 1.0599809885025024, -0.0917893797159195, -0.571344256401062], [0.08648368716239929, 0.9798837900161743, -0.059694789350032806, 0.45563697814941406, -1.1241872310638428, 1.2318321466445923, 1.2243343591690063, -0.6275182366371155, -0.9836177229881287, -0.798454999923706, -1.2855033874511719, -0.540658175945282, 1.0261284112930298, 0.24301619827747345, -0.6449889540672302, 0.09594972431659698, 0.5368759036064148, -1.3869693279266357, 0.5475119948387146, -1.0355284214019775, -0.27525585889816284, 0.5012403130531311, 0.7199080586433411, -0.9457111954689026, -0.5957093834877014, 0.448721706867218, 1.4946823120117188, -0.6338108777999878, -0.9113097190856934, 0.045055992901325226, -0.47570106387138367, 1.4097212553024292, -0.6346970796585083, -0.7091067433357239, 1.2504957914352417, 0.573775589466095, -0.18666402995586395, 1.1436593532562256, 0.8157739639282227, -0.7909839153289795, 1.083719253540039, -0.10364490747451782, -1.1959407329559326, 0.886023998260498, -0.7057545185089111, 0.22452542185783386, -0.18677634000778198, 0.17332229018211365, -0.016303706914186478, -0.862555980682373, 1.3135234117507935, 0.24320350587368011, 0.16077695786952972, 0.04904227331280708, -0.7855802774429321, 1.1793837547302246, 1.1895359754562378, 0.6411387920379639, -0.31906992197036743, 0.9663422703742981, -1.001943826675415, 1.101951003074646, 0.21279007196426392, 0.6195911169052124], [0.35027867555618286, -1.2167211771011353, 0.42265138030052185, -1.0995948314666748, 0.23439104855060577, -1.085758924484253, -1.0515515804290771, 0.3626909852027893, -0.5021990537643433, -0.18363294005393982, 0.31711626052856445, 0.20150217413902283, -0.18288427591323853, 0.21630296111106873, -0.20568056404590607, 0.30927595496177673, 0.499416708946228, 0.507377028465271, -0.43214645981788635, 0.8542664051055908, 0.04940730705857277, -0.5259302854537964, 0.27698421478271484, 2.2658627033233643, 0.6516534686088562, 0.26370322704315186, 0.22263476252555847, -0.09419571608304977, -0.10692029446363449, 0.28283610939979553, 0.11272773891687393, -0.9824658036231995, 0.5581068396568298, -0.13345415890216827, -1.1455128192901611, -0.9312427043914795, 0.03962540626525879, -1.1722110509872437, 0.47645100951194763, 0.4862477779388428, -1.0714646577835083, 0.10727299004793167, 0.568082869052887, -0.9841325879096985, 0.7356002330780029, 0.3380659818649292, 0.29089072346687317, 0.17398658394813538, 0.2491188496351242, -0.4546026587486267, -1.2745904922485352, 0.28466662764549255, 0.15327005088329315, 1.6514365673065186, -0.10732723027467728, -0.9167095422744751, -1.0030643939971924, 0.5027860403060913, 0.08036932349205017, -1.3107630014419556, -0.45716819167137146, -1.1047542095184326, 0.2904137074947357, 0.43711796402931213], [0.5524693131446838, 0.05029229447245598, 0.8196935653686523, -0.05897217243909836, 0.25955379009246826, 0.23934005200862885, -0.010732869617640972, 0.6364986300468445, 0.40557432174682617, 0.15883255004882812, 0.27667486667633057, 0.41569972038269043, 0.4912869334220886, 0.40407055616378784, 0.1508873701095581, 0.5096165537834167, -2.1311793327331543, 0.68360435962677, -0.19951201975345612, 0.3438257873058319, 0.5042136907577515, -0.33948811888694763, -2.6475908756256104, -3.5250091552734375, 0.40422120690345764, 0.3628341555595398, -2.2523293495178223, -0.10145232081413269, 0.4330196976661682, 0.7244642972946167, 0.8193086981773376, 0.17266637086868286, 0.3998678922653198, 0.20388588309288025, 0.2289019525051117, 0.0633714571595192, 0.7026505470275879, 0.27176323533058167, -2.29988169670105, 0.058802660554647446, 0.46032243967056274, 0.6196304559707642, 0.5432984828948975, 0.21099762618541718, 0.3032256066799164, 0.4638195037841797, 0.7797613739967346, 0.6869633197784424, 0.5434715151786804, 0.2242916077375412, 0.3749164044857025, 0.3190396726131439, 0.7918761372566223, -0.6519568562507629, 0.23240694403648376, 0.18861998617649078, 0.13608084619045258, -2.487985610961914, 0.5692043900489807, -0.021535182371735573, 0.2071315348148346, 0.05663470923900604, 0.7544757127761841, -2.8092007637023926], [0.0454137809574604, -0.5660414099693298, -0.2073521614074707, 0.04707733541727066, 0.2277897447347641, -1.0670504570007324, -1.0359266996383667, 0.05656709894537926, -0.20403461158275604, -0.26369932293891907, 0.46291065216064453, 0.46200868487358093, -1.0679309368133545, 0.04539935663342476, -0.35427284240722656, 0.08267012238502502, -0.01777690090239048, 0.5139843821525574, -0.4222296476364136, 0.8865969777107239, 0.10278642922639847, -0.6217097640037537, -0.09707106649875641, 3.0784270763397217, 0.7537016868591309, -0.08628753572702408, -0.01695864088833332, -0.4110332131385803, 0.46062859892845154, -0.20361919701099396, 0.020223889499902725, -1.7556859254837036, 0.6394988894462585, -0.03449223190546036, -1.525882601737976, -0.20933613181114197, -0.06768284738063812, -1.7375705242156982, 0.25055450201034546, 1.0004980564117432, -1.5214661359786987, -0.17667922377586365, 0.37192174792289734, -1.437036156654358, 0.4912315011024475, -0.10438454896211624, -0.11413052678108215, -0.1961333006620407, -0.14524275064468384, -0.2492542266845703, -1.8060005903244019, -0.13515254855155945, -0.17396901547908783, 0.7381061911582947, -0.07872680574655533, -1.405264973640442, -1.7164503335952759, -0.03479572385549545, 0.09369856119155884, -1.2241426706314087, -0.06196000054478645, -1.1981909275054932, -0.3550829291343689, 0.20938725769519806], [0.04241690784692764, 1.0383559465408325, 0.010455763898789883, 0.20061077177524567, -0.26750412583351135, 1.2647961378097534, 0.9787829518318176, 0.35564687848091125, -0.09260205179452896, -0.33641019463539124, -0.6246776580810547, -0.22980616986751556, 0.7471027970314026, -0.5074941515922546, -0.06808827072381973, -0.13604123890399933, -1.3702480792999268, -0.42778444290161133, 0.13987120985984802, -1.184002161026001, 0.07328925281763077, 0.2619737684726715, -0.9817450642585754, -2.9111361503601074, -0.429999977350235, -0.014890736900269985, -1.3729994297027588, -0.26787689328193665, -0.6364500522613525, -0.13005642592906952, 0.026328962296247482, 1.1696711778640747, -0.5537328124046326, -0.1506204456090927, 1.2179760932922363, 0.5520762801170349, -0.056275900453329086, 1.2871346473693848, -1.3608046770095825, -0.47045013308525085, 1.273901343345642, 0.07139256596565247, -0.6173409223556519, 0.8808213472366333, -0.030448725447058678, 0.09411464631557465, 0.20449405908584595, -0.13168124854564667, 0.07825031876564026, -0.2748837471008301, 1.0026334524154663, -0.002917527686804533, 0.23612654209136963, -0.5564804077148438, -0.2267017662525177, 0.5980618000030518, 1.0156530141830444, -1.3842853307724, 0.20160451531410217, 1.1794263124465942, -0.3872775435447693, 1.101307988166809, -0.03353971987962723, -1.3379334211349487], [-0.02261165715754032, 0.08193239569664001, 0.04629504308104515, 0.4415731728076935, 0.05171477049589157, -1.0590006113052368, -0.04016025736927986, -0.2925282418727875, -0.4163395166397095, -0.3397246301174164, 0.2172611504793167, 0.05992988869547844, -0.5326545238494873, 0.2256382256746292, -0.5144674181938171, 0.12126656621694565, 0.12176170945167542, 0.058169785887002945, 0.384749174118042, 0.496535062789917, -0.3309793174266815, 0.42092984914779663, -0.3375450372695923, 2.76430082321167, 0.3217161297798157, -0.4671531617641449, -0.33054855465888977, -0.5534728765487671, 0.09900352358818054, -0.3946326971054077, 0.01929466612637043, -0.8341977000236511, 0.36363059282302856, -0.3149139881134033, -0.5672944784164429, 0.22289319336414337, -0.068199522793293, -0.8429105877876282, 0.22195525467395782, 0.7049305438995361, -0.905876100063324, 0.005839338060468435, -0.00707233464345336, -0.5332845449447632, 0.2886258065700531, -0.28837430477142334, -0.025545043870806694, -0.294036328792572, -0.12123902887105942, -0.30732956528663635, -0.8379676938056946, -0.017371177673339844, -0.041632216423749924, 1.6250063180923462, -0.42456120252609253, -0.5148480534553528, -0.6293373703956604, -0.08613885194063187, -0.3479968011379242, -0.2865895926952362, -0.3267735242843628, -0.9987223148345947, -0.32864072918891907, 0.05224098265171051], [-0.8251429796218872, 0.4119798541069031, -0.7891221642494202, 0.4653550088405609, 0.5060784816741943, -0.5900046825408936, 0.14944061636924744, -0.34963259100914, 0.6671445965766907, 0.22081215679645538, 0.5691092014312744, -0.7388920783996582, 0.5983411073684692, -1.0203566551208496, 0.39787253737449646, -1.3240656852722168, -0.3036004304885864, 0.10856228321790695, 0.327080100774765, 0.02777251973748207, -0.9567402005195618, 0.6057468056678772, -0.4952198266983032, 0.6341872811317444, -0.47148454189300537, -1.4605234861373901, -0.17594408988952637, 0.6248993873596191, 0.5069649815559387, -1.0009421110153198, -0.6760377287864685, -0.2328040599822998, -0.45209041237831116, 0.46872755885124207, 0.27820634841918945, 0.7443096041679382, -0.7668892741203308, -0.21431708335876465, -0.5803248882293701, -0.4370522201061249, -0.03035569004714489, -0.8265014290809631, 0.036564841866493225, 0.24331019818782806, -0.463964581489563, -1.0459314584732056, -0.8432747721672058, -1.1068490743637085, -0.8334279656410217, 0.4190253019332886, -0.05286812037229538, -0.915102481842041, -1.2837789058685303, 0.9937030076980591, 0.452852338552475, 0.06556081026792526, 0.110554039478302, -0.18080632388591766, -0.7169148921966553, 0.46356818079948425, 0.4506091773509979, -0.016083212569355965, -0.863912045955658, -0.6097931265830994], [0.16956643760204315, -0.8140725493431091, 0.5168033838272095, -0.9679113626480103, 0.09146790206432343, -0.8908743858337402, -0.982197105884552, 0.5495752692222595, -0.18104645609855652, -0.05609332025051117, 0.5678237080574036, 0.5732520818710327, -0.4503350555896759, 0.27120035886764526, -0.09726297110319138, 0.24267980456352234, 0.6858566403388977, 0.6843693852424622, -0.6155343651771545, 0.9316409230232239, 0.5464012026786804, -0.5852757692337036, 0.5888731479644775, 2.0323362350463867, 0.6959350109100342, -0.08173700422048569, 0.7750694751739502, -0.1288079023361206, 0.35610347986221313, 0.3158186972141266, 0.5212854146957397, -0.8896955847740173, 0.39488598704338074, -0.06445183604955673, -0.703705906867981, -0.7183536887168884, 0.3406809866428375, -0.997528612613678, 0.7331529259681702, 0.654205322265625, -0.8739210367202759, 0.1259366273880005, 0.6180468797683716, -0.8036038875579834, 0.7647841572761536, 0.26696881651878357, 0.26646897196769714, 0.10379379987716675, 0.0931532010436058, -0.382941335439682, -0.8541622757911682, 0.2851467728614807, 0.35116660594940186, 1.9758902788162231, -0.17840871214866638, -1.0104042291641235, -1.0651507377624512, 0.7588281631469727, 0.46351513266563416, -0.7410885095596313, -0.297908216714859, -0.8469964265823364, 0.4343292713165283, 0.8518770933151245], [-0.6850950121879578, 1.2435455322265625, -0.46277186274528503, 1.165155291557312, 0.5314738750457764, 0.19368934631347656, 0.8752349019050598, -0.44305363297462463, 0.5325828790664673, 0.4500899314880371, 0.06388383358716965, -0.7279653549194336, 1.2084251642227173, -1.138174057006836, 0.644226610660553, -0.8845788240432739, -0.6563429832458496, 0.41902580857276917, 0.430154025554657, -0.10008663684129715, -0.41426020860671997, 0.4966072142124176, -0.4574478268623352, -0.09423263370990753, -0.8127151727676392, -0.8554211258888245, 0.018245888873934746, 0.4317610561847687, 0.3188258409500122, -0.6824795603752136, -0.14050689339637756, 0.7282646298408508, -1.069995641708374, 0.5126619935035706, 1.2693307399749756, 1.3039783239364624, -0.5668310523033142, 0.6739030480384827, -0.6753162741661072, -0.796038031578064, 0.6012222766876221, -0.3833431303501129, 0.4778963029384613, 1.2126872539520264, -0.9526126980781555, -0.7157659530639648, -0.4514170289039612, -0.4401282072067261, -0.7585853338241577, 0.5151639580726624, 0.8466463088989258, -0.725956380367279, -0.7113397121429443, 1.8394992351531982, 0.6357718706130981, 1.1290119886398315, 0.7377859950065613, -0.5557044744491577, -0.8307243585586548, 1.0412087440490723, 0.7618585824966431, 0.24424917995929718, -0.7378696799278259, -0.7538790702819824], [0.16236884891986847, -0.14091293513774872, 0.04956898093223572, -0.03608793020248413, -0.8515458106994629, 0.34768980741500854, 0.22509028017520905, -0.7470491528511047, -0.6627665162086487, -0.9171590209007263, -0.9442415237426758, -0.24758599698543549, 0.03609287366271019, 0.5086914300918579, -0.7580665349960327, 0.3918289244174957, 1.008482813835144, -0.7020933032035828, -0.057119254022836685, -0.4098108410835266, -0.29740938544273376, 0.12963086366653442, 0.9686187505722046, 0.08265171945095062, -0.1664358675479889, 0.6726759076118469, 1.0654354095458984, -0.5926719307899475, -0.8161698579788208, 0.20547622442245483, -0.6396653652191162, 0.26422974467277527, -0.3467692732810974, -0.7664177417755127, 0.09448457509279251, -0.4520426392555237, 0.21172307431697845, 0.46136537194252014, 1.0547327995300293, -0.31296297907829285, 0.19423353672027588, 0.01982436515390873, -0.7527304887771606, 0.20035777986049652, -0.4636912941932678, -0.05289536714553833, -0.22305797040462494, 0.3607487976551056, 0.18070301413536072, -0.7525386810302734, 0.45357269048690796, 0.4036073684692383, 0.29672592878341675, -0.9431656002998352, -0.8112426996231079, 0.1383669227361679, 0.3791855573654175, 0.8772084712982178, -0.019198104739189148, -0.12521645426750183, -0.970648467540741, 0.39297178387641907, 0.021221088245511055, 0.8163461685180664], [0.26380491256713867, -1.1606199741363525, 0.2339315265417099, -1.2547541856765747, -0.36718055605888367, -0.96977299451828, -1.3952265977859497, 0.1865367740392685, -0.6048227548599243, -0.4232368469238281, 0.11561749130487442, 0.6722790598869324, -1.4434691667556763, 0.5185399651527405, -0.7275010347366333, 0.42242324352264404, 0.9125527739524841, 0.450277715921402, -1.6990034580230713, 0.8136330842971802, 0.38885897397994995, -0.9241978526115417, 0.8607248067855835, 1.1524865627288818, 0.6924523115158081, 0.5287176370620728, 0.1192987859249115, -0.6193309426307678, -0.06863667815923691, 0.47446274757385254, 0.4565126299858093, -1.6398303508758545, 0.887969434261322, -0.46891021728515625, -1.740201473236084, -1.5087541341781616, 0.49222642183303833, -1.3236411809921265, 0.9664192199707031, 0.8195465207099915, -1.6273832321166992, 0.42377200722694397, 0.16161629557609558, -1.4354959726333618, 0.771507978439331, 0.0623200498521328, 0.3633485436439514, 0.2642301917076111, 0.43191638588905334, -0.42817702889442444, -1.8688901662826538, 0.2761981189250946, 0.39064010977745056, -0.469143807888031, -0.7139682173728943, -1.5665936470031738, -1.466072916984558, 0.9675516486167908, 0.3164444863796234, -1.6776673793792725, -0.7079033255577087, -1.1134705543518066, 0.262424111366272, 0.8411924242973328], [0.43849295377731323, 0.16055628657341003, 0.437633216381073, 0.5377263426780701, -0.3516245186328888, 0.5105151534080505, 0.18199212849140167, -0.2110339105129242, -0.1862262636423111, -0.10687033087015152, -0.20196624100208282, 0.2381983995437622, -0.06340696662664413, 1.2197818756103516, -0.0699339359998703, 0.8514949083328247, 1.124939203262329, -0.2805139422416687, 0.15770551562309265, -0.05065365508198738, 0.44736334681510925, 0.3329533338546753, 1.2329744100570679, -0.005547159817069769, 0.06488693505525589, 0.8578703999519348, 1.029587984085083, -0.21861980855464935, -0.10723104327917099, 0.5381495952606201, -0.08783412724733353, 0.34999170899391174, -0.16526147723197937, -0.15973275899887085, 0.3279096186161041, 0.47518405318260193, 0.32683420181274414, 0.22526447474956512, 1.1484700441360474, 0.0019046065863221884, 0.24747535586357117, 0.4383281171321869, -0.3226996660232544, 0.4144328236579895, -0.14268016815185547, 0.4790211319923401, 0.21875368058681488, 0.5162484645843506, 0.7367992997169495, -0.346921443939209, 0.5115048289299011, 0.9458900690078735, 0.726161539554596, -0.7590629458427429, -0.08376309275627136, 0.4983102083206177, 0.44613128900527954, 1.217489242553711, 0.4681382179260254, 0.30305179953575134, -0.09257856756448746, 0.13494162261486053, 0.7602500915527344, 1.4613609313964844], [0.3980940580368042, -0.4364640712738037, 0.2509191036224365, -0.19416426122188568, 0.20008321106433868, 0.3572176396846771, -0.39418572187423706, 0.4083872437477112, 0.07586237788200378, -0.18932689726352692, 0.2851655185222626, 0.23689042031764984, 0.1574731469154358, 0.027825618162751198, -0.10968312621116638, 0.12798844277858734, -2.130174398422241, 0.2967042326927185, -0.48760735988616943, 0.07222416251897812, 0.486003577709198, -0.5565063953399658, -2.9395503997802734, -0.9787022471427917, 0.5413671135902405, 0.2600421905517578, -3.7243661880493164, -0.17053823173046112, 0.20981961488723755, 0.30533555150032043, 0.5738381743431091, -0.13866855204105377, 0.5470806956291199, -0.14359967410564423, -0.3404698669910431, -0.1909722238779068, 0.09600143879652023, 0.25263506174087524, -2.1404502391815186, 0.29407283663749695, 0.05660714954137802, 0.30085885524749756, 0.5291638374328613, -0.20923414826393127, 0.3464100956916809, 0.2095216065645218, 0.5215590000152588, 0.338207483291626, 0.24115335941314697, -0.17283931374549866, 0.13528652489185333, 0.33682766556739807, 0.36751097440719604, -0.42381516098976135, -0.13195201754570007, -0.14174407720565796, -0.2845337390899658, -2.040372848510742, 0.49008309841156006, 0.005197260063141584, -0.3365684747695923, 0.10412891954183578, 0.1827351152896881, -2.380446434020996], [-0.4031018614768982, 0.05630325525999069, -0.15782129764556885, -0.5086740851402283, 0.2093346267938614, -0.17703118920326233, -0.13848508894443512, 0.36513426899909973, 0.15910422801971436, 0.15573914349079132, 0.00036781560629606247, 0.12048541754484177, 0.3716738522052765, -0.7590636014938354, -0.02053888700902462, -0.5741713643074036, -1.24428391456604, 0.37578892707824707, -0.08437065035104752, 0.023670056834816933, -0.05269109830260277, -0.33753570914268494, -1.6283491849899292, -0.08604773133993149, 0.18009991943836212, -0.636532187461853, -1.008424162864685, -0.058859653770923615, 0.16017737984657288, -0.32046961784362793, 0.6314186453819275, -0.35624366998672485, 0.28591248393058777, -0.15568262338638306, 0.14520347118377686, -0.3895285129547119, -0.37854352593421936, -0.2152463048696518, -1.136573314666748, 0.4863159656524658, 0.01274594571441412, -0.05078204721212387, 0.15160411596298218, -0.1414915770292282, 0.29459676146507263, -0.1496659368276596, 0.12189017981290817, -0.1479196399450302, -0.03169461712241173, 0.28834623098373413, -0.16089831292629242, -0.2270866483449936, -0.25798091292381287, 0.7289968132972717, 0.12045201659202576, -0.46763741970062256, -0.40101903676986694, -1.1189026832580566, -0.21144969761371613, 0.024475732818245888, 0.21417571604251862, -0.22879625856876373, -0.4606853723526001, -1.7151566743850708], [0.2039737105369568, -0.3980678617954254, 0.028664954006671906, 0.2733987271785736, 0.3376205563545227, -0.8819480538368225, -0.2940825819969177, 0.33658650517463684, -0.031857680529356, 0.08793792873620987, 0.921393096446991, 0.26383861899375916, -0.8172311186790466, 0.31341853737831116, 0.011377031914889812, 0.3119075298309326, -0.09665572643280029, 0.9459296464920044, -0.7164526581764221, 1.0789529085159302, 0.4376891851425171, -0.524497926235199, -0.34157219529151917, 2.243001699447632, 0.6498427987098694, 0.014521698467433453, -0.13449150323867798, 0.03814023360610008, 0.4660727381706238, -0.10291820764541626, 0.45064425468444824, -1.3054059743881226, 0.9850377440452576, 0.19072476029396057, -0.7962399125099182, 0.005949805490672588, 0.13990436494350433, -1.3564436435699463, -0.11459318548440933, 0.9016650319099426, -1.3489760160446167, 0.16703690588474274, 0.7858150601387024, -0.8083264827728271, 0.7626104950904846, -0.006474663969129324, 0.22306175529956818, 0.21373727917671204, 0.11758829653263092, 0.15758489072322845, -1.3612371683120728, 0.2814723551273346, -0.18056324124336243, 1.290614128112793, 0.028417877852916718, -0.8575574159622192, -1.2897522449493408, 0.06994498521089554, 0.09502851217985153, -0.7643964290618896, -0.03360233083367348, -0.8419120907783508, 0.10567914694547653, -0.0005845647538080812], [-0.6713599562644958, 0.6783273816108704, -0.518462061882019, 0.43996456265449524, -0.3237769305706024, -0.1972924917936325, 0.572442889213562, -0.4793541729450226, -0.28136757016181946, -0.20488394796848297, -0.14837542176246643, -0.30348992347717285, -0.12383978813886642, -0.505158007144928, -0.3409450948238373, -0.3323737680912018, 0.10520247370004654, -0.39421898126602173, 0.4779210388660431, -0.2531464993953705, -0.40124964714050293, 0.08204953372478485, 0.4290315806865692, 2.771432399749756, -0.20982769131660461, -0.1978624016046524, 0.35410234332084656, -0.35498759150505066, -0.36404457688331604, -0.5389220714569092, -0.2567793130874634, 0.08247216790914536, -0.2694198489189148, -0.05660834163427353, 0.3193035423755646, 0.3916703164577484, -0.4409712255001068, -0.4365823566913605, 0.3239332139492035, -0.08412463963031769, -0.3736724555492401, -0.2866133451461792, -0.7234429121017456, 0.1269257515668869, -0.30186474323272705, -0.6930388808250427, -0.654987096786499, -0.6559650301933289, -0.3848978877067566, -0.39324110746383667, -0.15307806432247162, -0.714557409286499, -0.628361165523529, 1.9898252487182617, -0.24942359328269958, -0.005102694500237703, -0.22069400548934937, 0.01180148497223854, -0.4961746335029602, 0.539092481136322, -0.17548198997974396, -0.00512136984616518, -0.4642375707626343, 0.085636667907238], [0.36501482129096985, 0.6555215120315552, 0.3720107674598694, 0.44713303446769714, -0.19513040781021118, 1.1308387517929077, 0.8203120827674866, 0.40793052315711975, 0.3066254258155823, 0.3309881389141083, -0.38919129967689514, -0.15301887691020966, 0.6619060039520264, -0.09608223289251328, 0.1834859400987625, 0.21180389821529388, -0.28322261571884155, -0.39873769879341125, -0.11624021828174591, -0.9334559440612793, 0.16579294204711914, 0.46100687980651855, 0.14358176290988922, -2.3297278881073, -0.4192647337913513, 0.1348530650138855, -0.06244352459907532, 0.021441305056214333, -0.04894154146313667, 0.6665199398994446, 0.30631223320961, 1.269710898399353, -0.46596190333366394, 0.038178350776433945, 1.1944681406021118, 0.6673644781112671, 0.5249606966972351, 1.2120356559753418, 0.03508074954152107, -0.9468643665313721, 1.3184515237808228, 0.44095394015312195, -0.2777036130428314, 1.1184941530227661, -0.27661609649658203, 0.4101303219795227, 0.10860418528318405, 0.3180629312992096, 0.3079674541950226, 0.2677852213382721, 1.2058976888656616, 0.1353822946548462, 0.7307497262954712, -0.28300100564956665, 0.2583838999271393, 1.3474384546279907, 1.144109845161438, -0.12629924714565277, 0.10431414842605591, 1.1104974746704102, 0.023814832791686058, 1.1893386840820312, 0.477104127407074, 0.020335473120212555], [-0.7742551565170288, 1.0007803440093994, -0.8686255812644958, 0.6645049452781677, -0.4503532946109772, -0.0036134531255811453, 0.8170246481895447, -0.5641840696334839, -0.1252363622188568, -0.31952565908432007, -0.6861597895622253, -0.558066725730896, -0.13724476099014282, -0.7830911874771118, -0.21912619471549988, -0.4674827754497528, 0.32809510827064514, -0.7455874681472778, 0.16583460569381714, -0.794736921787262, -0.5473496913909912, 0.14011628925800323, 0.8198468685150146, 3.0487449169158936, -0.565414309501648, -0.7629629969596863, 0.6277390718460083, -0.20217303931713104, -0.49461257457733154, -0.5701298713684082, -0.3091481626033783, 0.0186147578060627, -0.2535727620124817, -0.18805137276649475, 0.7267334461212158, 0.5707577466964722, -0.6810682415962219, -0.2636703550815582, 0.6115670800209045, -0.346298485994339, -0.17014525830745697, -0.4843186140060425, -0.6332042217254639, 0.16839610040187836, -0.6086838245391846, -0.9268292188644409, -0.39520537853240967, -0.4824748933315277, -0.6050847768783569, -0.34661129117012024, -0.1259353756904602, -0.7153997421264648, -0.5546451210975647, 2.0184266567230225, -0.38807839155197144, 0.05053197965025902, 0.11562769114971161, 0.7512211203575134, -0.6560506224632263, 0.9168172478675842, -0.4202207028865814, 0.25374871492385864, -0.5660221576690674, 0.8384934663772583], [-0.4740756154060364, 0.1693877875804901, -0.3884983956813812, 0.04145964980125427, 0.6087693572044373, -0.42308923602104187, -0.1852726936340332, 0.2225743681192398, 0.5485258102416992, 0.5205309987068176, 0.613914966583252, 0.20854884386062622, -0.188071608543396, -0.7159011363983154, 0.6696491241455078, -0.5993089079856873, -1.1465333700180054, 0.7762465476989746, -0.15289360284805298, 0.516450047492981, 0.22153565287590027, -0.177053764462471, -0.9351587295532227, 0.6120516061782837, 0.5636481642723083, -0.9761434197425842, -1.0215747356414795, 0.6222673058509827, 0.48226839303970337, -0.5353786945343018, 0.42564594745635986, -0.7551093697547913, 0.5550557971000671, 0.6335259675979614, -0.5294176340103149, 0.24986012279987335, -0.16920191049575806, -0.5316647887229919, -1.1115483045578003, 0.4650108218193054, -0.9146347641944885, -0.0008688054513186216, 0.9428751468658447, -0.5810853242874146, 0.4263782501220703, -0.5494083166122437, 0.02639959380030632, -0.44151297211647034, -0.2310394048690796, 0.6163080334663391, -0.7125954627990723, -0.5670567750930786, -0.6309777498245239, 1.098349690437317, 0.46469417214393616, -0.7857578992843628, -0.6321761012077332, -0.9152636528015137, -0.007238380610942841, -0.10821282863616943, 0.6831696033477783, -0.529518723487854, -0.6713680624961853, -1.0396229028701782]], "b2": [0.21585828065872192, -0.3699290156364441, 0.285042941570282, -0.4225318133831024, 0.04820490628480911, -0.14404548704624176, -0.2982368469238281, 0.5690410733222961, -0.10027173161506653, -0.1671988070011139, 0.32372236251831055, 0.28749528527259827, -0.014039029367268085, 0.19271525740623474, -0.10716462135314941, 0.14360688626766205, -0.8850545287132263, 0.45212066173553467, -0.5357560515403748, 0.24445663392543793, 0.3826355040073395, -0.7679448127746582, -1.3283698558807373, 0.088051937520504, 0.4491829574108124, 0.2663402259349823, -1.8089591264724731, -0.1851244568824768, 0.10933707654476166, 0.2254246473312378, 0.5472177863121033, -0.4607660174369812, 0.44519901275634766, -0.1930745393037796, -0.375556617975235, -0.32358577847480774, 0.23274566233158112, -0.29553115367889404, -0.9148605465888977, 0.4373738169670105, -0.26912155747413635, 0.302077978849411, 0.4110322892665863, -0.476106196641922, 0.4668899476528168, 0.2459259033203125, 0.3484029471874237, 0.22511199116706848, 0.26345130801200867, -0.11635743081569672, -0.3338671028614044, 0.19541896879673004, 0.21476268768310547, 0.11103449016809464, -0.16419917345046997, -0.5007553100585938, -0.5119606256484985, -0.9188775420188904, 0.2992032766342163, -0.34874799847602844, -0.17143967747688293, -0.3082326352596283, 0.23961643874645233, -1.084978699684143], "W3": [[0.4549253582954407], [0.9208002686500549], [0.4528700113296509], [0.4031623899936676], [0.08126025646924973], [0.2635374963283539], [0.5388209223747253], [0.4293440580368042], [-0.1237923800945282], [-0.047631967812776566], [0.24246416985988617], [0.4848812222480774], [-0.6347554922103882], [0.48036739230155945], [-0.12641702592372894], [0.3649961054325104], [-0.7753939628601074], [0.2513943314552307], [-0.3161078095436096], [0.35155540704727173], [0.40627849102020264], [-0.24797788262367249], [-0.6639817357063293], [1.231858253479004], [0.5345279574394226], [0.43485966324806213], [-0.5518586039543152], [-0.10782168805599213], [0.15425986051559448], [0.45715004205703735], [0.48880863189697266], [0.49239951372146606], [0.6549493074417114], [-0.05867386981844902], [0.49050432443618774], [0.43177512288093567], [0.41368162631988525], [0.4545347988605499], [-0.7563750743865967], [0.6889766454696655], [0.4276235103607178], [0.4145600199699402], [0.22196070849895477], [0.31756168603897095], [0.582611083984375], [0.5005022287368774], [0.4319763779640198], [0.32606640458106995], [0.4579364061355591], [-0.12938670814037323], [0.39204856753349304], [0.42815980315208435], [0.4427611827850342], [0.7565488219261169], [-0.08274562656879425], [0.3453648090362549], [0.5617420673370361], [-0.6666460633277893], [0.49680325388908386], [0.5989327430725098], [-0.08342599123716354], [0.2263387143611908], [0.3695778250694275], [-0.6578328609466553]], "b3": [0.3040587902069092]}