{"W1": [[0.10184689611196518, -0.30859553813934326, -0.07054872065782547, 0.2832990288734436, 0.3158254027366638, -0.38396286964416504, 0.1802491843700409, 0.5582509636878967, -0.4180709719657898, 0.35599225759506226, -0.36091604828834534, 0.01804015040397644], [0.6019926071166992, 0.01281634159386158, -0.6893085837364197, -0.4687403738498688, -0.12041851133108139, -0.8656553626060486, -0.30923187732696533, 0.24321304261684418, 0.6164069175720215, 0.3967663645744324, 0.02372675947844982, 0.5228301882743835], [-0.503970742225647, 1.0680036544799805, -0.43435370922088623, 0.9198433756828308, -0.30984845757484436, -1.0280299186706543, -1.016003966331482, 0.8294118046760559, 0.7626339793205261, 0.7383264899253845, -0.49153706431388855, -0.4578465521335602], [0.19710758328437805, 0.7236843109130859, -0.7954713702201843, 0.6272737383842468, -0.6164750456809998, -0.6924585103988647, -0.09180648624897003, 0.03554196655750275, 0.8974483013153076, 0.9232325553894043, -0.44283297657966614, -0.6333535313606262], [0.09773510694503784, 0.4776099920272827, -0.39322301745414734, -0.2006961703300476, 0.530001163482666, -0.2761634886264801, -0.11337655782699585, -0.5420125126838684, -0.14022013545036316, 0.357307493686676, 0.4398355484008789, 0.025563716888427734], [-0.03738534450531006, 0.45627808570861816, -0.1992490291595459, -0.02048468589782715, 0.46467435359954834, -0.5512145757675171, 0.4624357223510742, -0.34019362926483154, 0.43315601348876953, -0.12047287821769714, -0.07646417617797852, -0.46243971586227417]], "b1": [0.2391393929719925, 0.15506511926651, -0.019760238006711006, 0.15008892118930817, -0.09220840781927109, -0.04069121181964874, 0.047688938677310944, -0.07565406709909439, 0.12587299942970276, -0.0124349445104599, -0.03436499089002609, -0.0009959691669791937], "W2": [[-0.171358123421669, -0.027046140283346176, 0.15950249135494232, 0.29827648401260376, -0.06928924471139908, 0.23970654606819153, -0.16035960614681244, 0.18405026197433472, -0.19511687755584717, 0.6975915431976318, 0.8177332282066345, -0.4683064818382263], [0.12486140429973602, -0.5470353364944458, -0.10937939584255219, 0.4688795506954193, -0.1063246876001358, -0.11461865156888962, -0.03803136944770813, 0.3113611340522766, -0.20285117626190186, 0.3535277247428894, -0.08171342313289642, -0.07031569629907608], [0.12775836884975433, 0.17698632180690765, 0.6155463457107544, -0.8253360390663147, 0.12353156507015228, 0.925305962562561, 0.20646917819976807, -1.0403550863265991, 0.026747431606054306, -0.8566828370094299, -0.04461754113435745, 0.25232699513435364], [0.2635704576969147, -0.17578932642936707, -0.11849318444728851, 0.39256560802459717, -0.6718534231185913, 0.3445568084716797, 0.17450059950351715, 0.009381393902003765, -0.5330476760864258, 0.042345281690359116, -0.4407429099082947, -0.6902886629104614], [0.3672403395175934, 0.24171635508537292, 0.09504293650388718, -0.4880203604698181, -0.29078975319862366, -0.15649932622909546, 0.21019373834133148, 0.15216666460037231, -0.1706835776567459, -0.12103218585252762, 0.05433724820613861, -0.1819707453250885], [0.5328702330589294, 0.06811726838350296, 0.2395390272140503, -0.6413989663124084, -0.2898361384868622, -0.11688914895057678, 0.6214997172355652, -0.6373434066772461, -0.03658263012766838, -0.6941685676574707, -0.7610666155815125, 0.3386898934841156], [-0.34285882115364075, 0.5917825698852539, 0.23823808133602142, 0.26362526416778564, -0.36309799551963806, 0.403642475605011, 0.3167728781700134, -0.09062377363443375, 0.31013625860214233, -0.4599490761756897, -0.28297871351242065, 0.10610287636518478], [-0.1552911251783371, 0.3247222900390625, -0.4399504065513611, -0.11661402136087418, 0.11464720219373703, -0.4142497181892395, -0.4017453193664551, 0.2886340916156769, -0.1515141725540161, 0.014595231972634792, 0.04314527288079262, -0.2682173252105713], [-0.5042524933815002, -0.21979473531246185, -0.7364097833633423, 0.7036237120628357, 0.44438865780830383, -0.6780179142951965, -0.7867550253868103, 0.19031724333763123, -0.3212186396121979, 0.8175404071807861, 0.17025315761566162, 0.20094354450702667], [0.17872144281864166, -0.21547122299671173, -0.17031434178352356, 0.10747981816530228, -0.38053691387176514, -0.7497998476028442, -0.5587595105171204, 0.1972937434911728, -0.3514936566352844, 0.07005365192890167, -0.22142393887043, -0.1499367356300354], [0.19956126809120178, 0.015394945628941059, -0.271708607673645, -0.4912552833557129, -0.22372697293758392, 0.20262055099010468, 0.28452014923095703, 0.17714785039424896, 0.5245437026023865, -0.12040937691926956, 0.3834892213344574, -0.4008193910121918], [0.021505998447537422, -0.42544445395469666, -0.022172989323735237, -0.1783745288848877, 0.2714342176914215, 0.04570969194173813, 0.11435306072235107, 0.12574854493141174, 0.33312225341796875, -0.12431760877370834, 0.6956397294998169, 0.39379769563674927]], "b2": [0.02556292712688446, 0.006120543926954269, 0.041448548436164856, 0.130629301071167, -0.09146662801504135, 0.10054463148117065, 0.02949676103889942, 0.07279354333877563, -0.03954988718032837, 0.11109014600515366, 0.08169155567884445, -0.09358873963356018], "W3": [[0.22503699362277985, 0.24242715537548065, -0.4171399772167206], [0.5841795802116394, -0.24011321365833282, -0.2892509698867798], [0.2847488224506378, -0.2647251784801483, -0.5209376811981201], [0.23986440896987915, 0.35813841223716736, -0.1300687938928604], [-0.5130147933959961, 0.29627010226249695, -0.2701583802700043], [-0.07526033371686935, -0.3179646134376526, -0.28302058577537537], [0.5433906316757202, -0.10634493082761765, -0.35418832302093506], [-0.019799817353487015, 0.4264814555644989, 0.23362083733081818], [0.2903802692890167, -0.4975634217262268, -0.6138740181922913], [-0.7007893919944763, 0.08544750511646271, 0.45303672552108765], [-0.687309980392456, -0.1617160439491272, -0.6109912991523743], [-0.4070049524307251, 0.5169431567192078, 0.12622597813606262]], "b3": [-0.006410487927496433, -0.0005363794625736773, -0.004360068589448929]}