{"W1": [[0.04136236011981964, -0.13688936829566956, -0.31367650628089905, -0.5806231498718262, 0.5232446789741516, 0.5526696443557739, 0.3082035481929779, 0.4400787055492401, -0.06364598870277405, 0.018740957602858543, -0.3303435742855072, 0.46199166774749756], [-0.40461233258247375, 0.1134248673915863, -0.32609453797340393, 0.30971935391426086, 0.625122606754303, -0.012576157227158546, 0.5962685942649841, 0.16835975646972656, 0.4781135320663452, 0.5092857480049133, 0.011153191328048706, 0.46595656871795654], [-0.4432513415813446, 0.913633406162262, -0.009311891160905361, -0.3435007631778717, 0.9757567644119263, 1.0580310821533203, 0.03758447244763374, -0.47179004549980164, 0.650227963924408, -0.1173156276345253, 0.8557323217391968, 0.7955116629600525], [-0.5392608046531677, 0.7807143926620483, 0.37520521879196167, -0.570968747138977, 0.5883395075798035, 0.523577868938446, 0.3376970589160919, -0.8879663348197937, 0.4918389618396759, 0.06396807730197906, 0.793479859828949, 0.28794151544570923], [0.2624579668045044, -0.020763814449310303, -0.041279494762420654, 0.24130100011825562, 0.0371437668800354, -0.13483813405036926, 0.5101331472396851, -0.5087824463844299, -0.21970823407173157, 0.2796561121940613, -0.19231128692626953, -0.2544234097003937], [0.4504154920578003, -0.07339221239089966, -0.2658413052558899, 0.5663995742797852, 0.533291220664978, 0.37088555097579956, -0.06830549240112305, -0.03688746690750122, 0.4010300040245056, 0.44572925567626953, 0.42238783836364746, -0.09560373425483704]], "b1": [0.09869355708360672, 0.08280951529741287, -0.19919715821743011, 0.13330094516277313, -0.025298576802015305, 0.00869128666818142, 0.05040796846151352, -0.008755414746701717, 0.02953771874308586, 0.06111461669206619, 0.043565791100263596, 0.027571476995944977], "W2": [[-0.3221558630466461, -0.030725054442882538, 0.5623610615730286, -0.5089284777641296, 0.9689677357673645, -0.569353461265564, -0.280722975730896, 0.8328418731689453, 0.20464088022708893, 0.9703852534294128, 1.1477465629577637, 0.3643420934677124], [-0.0671829953789711, 0.4505577087402344, -0.25130969285964966, 0.2104192078113556, -0.7380844354629517, 0.2015618234872818, 0.684693455696106, 0.15252891182899475, -0.619049608707428, -0.3575909435749054, -0.778214156627655, -0.5073967576026917], [-0.16976769268512726, 0.05848636105656624, -0.06455536931753159, 0.09584192931652069, -0.458803653717041, -0.500178873538971, -0.32794588804244995, -0.19574181735515594, -0.497023344039917, 0.3089708983898163, -0.18155136704444885, 0.11585535109043121], [0.44017499685287476, 0.17034828662872314, 0.46410539746284485, 0.3225991427898407, 0.47847604751586914, 0.3153308033943176, 0.37294530868530273, -0.11913343518972397, 0.3020990788936615, 0.37693873047828674, 0.39589938521385193, -0.43994131684303284], [0.19321613013744354, 0.14844757318496704, -0.42020612955093384, -0.29364967346191406, -0.635820209980011, 0.11158803850412369, 0.010846886783838272, 0.10602686554193497, 0.12741942703723907, -0.4855775237083435, -0.4797399938106537, -0.4545382857322693], [0.2332904040813446, 0.6551935076713562, -0.6727970242500305, -0.08429910242557526, 0.16143256425857544, 0.1843070089817047, -0.2486819475889206, -0.23977284133434296, 0.16732488572597504, 0.10698332637548447, -0.7678385376930237, -0.4367998242378235], [0.5315378308296204, 0.06267542392015457, 0.3178316056728363, 0.003320087678730488, -0.18605178594589233, 0.3029150664806366, 0.5199070572853088, -0.34978699684143066, 0.047756318002939224, -0.41320106387138367, -0.6474812626838684, -0.2404397428035736], [-0.4717768430709839, 0.06731563061475754, 0.09422829002141953, 0.190041184425354, -0.3466818332672119, -0.21922515332698822, -0.4798821806907654, 0.6010479927062988, 0.197491854429245, 0.4429580867290497, -0.2257150113582611, 0.27450382709503174], [0.2667875289916992, 0.2876027524471283, -0.690676212310791, 0.5912225246429443, -0.9790385365486145, 0.045066382735967636, 0.4858505427837372, -0.5748217701911926, -0.08727031946182251, -0.12603691220283508, -0.6102607250213623, -0.09605874121189117], [0.14469444751739502, 0.25701987743377686, -0.15820711851119995, -0.29328447580337524, -0.23884204030036926, 0.010381565429270267, 0.1045014038681984, 0.014272048138082027, 0.20024751126766205, -0.2648305296897888, 0.05785166472196579, 0.37152013182640076], [0.4868752062320709, 0.3173341155052185, -0.6515313386917114, -0.10203202068805695, -0.14356252551078796, -0.047538600862026215, 0.29683178663253784, -0.6541799902915955, -0.10612675547599792, -0.47315481305122375, -0.17389994859695435, 0.149972602725029], [-0.011867525056004524, -0.19993433356285095, -0.4669492840766907, 0.5480680465698242, -0.5286248922348022, -0.1716105192899704, 0.6147059798240662, 0.19669798016548157, 0.15138480067253113, 0.17868654429912567, -0.7135735750198364, -0.40481114387512207]], "b2": [0.06368973851203918, 0.036811020225286484, 0.03370077162981033, 0.05818494036793709, 0.05008688196539879, 0.06553961336612701, 0.07591669261455536, -0.01395044382661581, -0.05595821887254715, 0.008315031416714191, 0.02820112556219101, -0.01028109434992075], "W3": [[-0.6812514662742615, -0.20257504284381866, 0.5411307215690613], [-0.5013778209686279, 0.35181722044944763, -0.2991449236869812], [0.6581522822380066, -0.9555484056472778, 0.09534694254398346], [-0.21247828006744385, 0.3009258508682251, -0.32816195487976074], [1.0108189582824707, 0.11901174485683441, 0.5000563859939575], [0.07514337450265884, 0.406427800655365, 0.34057116508483887], [-0.3647556006908417, 0.7495655417442322, -0.47576904296875], [0.5128684639930725, -0.6504366993904114, 0.1385422646999359], [0.3851850926876068, 0.05694763734936714, 0.2080719918012619], [1.122979760169983, -0.7460694909095764, -0.3077327311038971], [0.5833890438079834, -0.6094379425048828, 0.40942054986953735], [-0.006210434250533581, -0.7689857482910156, -0.12184496968984604]], "b3": [-0.05153424292802811, 0.00855093915015459, -0.0010021678172051907]}