{"W1": [[-0.23958398401737213, -0.009821946732699871, -0.35240858793258667, 0.12445633113384247, 0.23125338554382324, -0.083828404545784, 0.026663294062018394, 0.08541090041399002, 0.00870497152209282, -0.30680009722709656, -0.23093365132808685, 0.0511050745844841, -0.41448596119880676, -0.059814006090164185, -0.36880624294281006, 0.09528634697198868, 0.23819029331207275, -0.20470477640628815, 0.052655335515737534, 0.007794070988893509, -0.0007622171542607248, 0.2789508104324341, 0.25061142444610596, 0.15612605214118958, 0.13570137321949005, 0.15062803030014038, -0.14395762979984283, -0.04527757689356804, -0.1995733678340912, 0.20942673087120056, -0.39838194847106934, 0.22045540809631348, 0.05526377260684967, -0.3855546712875366, 0.1967543661594391, -0.15233777463436127, 0.03701814264059067, -0.28670230507850647, 0.07652189582586288, -0.19870273768901825, 0.11883044987916946, -0.08514474332332611, -0.04587430879473686, -0.14356812834739685, 0.1548176407814026, 0.11574819684028625, -0.06446383893489838, -0.031947068870067596, -0.40005922317504883, -0.3181540071964264, 0.12987489998340607, -0.20601333677768707, 0.2790466845035553, -0.08484666049480438, 0.22290657460689545, -0.16234633326530457, -0.3404017686843872, 0.12663894891738892, 0.2071191519498825, -0.0009319701348431408, 0.14221076667308807, 0.20211009681224823, -0.19452832639217377, -0.21223433315753937], [0.02175593562424183, 0.18030951917171478, -0.15427765250205994, -0.011548316106200218, 0.18384769558906555, -0.030809370800852776, 0.33875301480293274, -0.20673596858978271, 0.11034917831420898, -0.3837859630584717, -0.332692414522171, 0.0333336740732193, 0.2805151045322418, -0.17574791610240936, -0.16585049033164978, 0.127412810921669, 0.127766951918602, 0.20456357300281525, 0.10430184006690979, -0.29565879702568054, -0.19637808203697205, -0.03248189389705658, -0.11917117238044739, -0.2896076440811157, 0.3576350510120392, 0.376229465007782, -0.11465094983577728, 0.0039882967248559, -0.030050331726670265, 0.025796199217438698, -0.23684969544410706, -0.1657109558582306, 0.40204447507858276, 0.08684272319078445, 0.2417229413986206, -0.10722626000642776, 0.06669066846370697, 0.11682981997728348, 0.0014525695005431771, -0.14584895968437195, 0.1490117609500885, 0.3047991693019867, 0.1356310397386551, 0.0655563697218895, -0.0659717321395874, -0.006043960340321064, -0.373928040266037, -0.11925961822271347, -0.05486816540360451, -0.16928954422473907, -0.04534735158085823, 0.13965804874897003, 0.3659805953502655, 0.16502967476844788, -0.038907457143068314, 0.10777522623538971, -0.1774190068244934, 0.05068192631006241, 0.056920163333415985, -0.22995790839195251, 0.18291684985160828, 0.2872295677661896, 0.33665961027145386, -0.16625453531742096], [-0.34495285153388977, 0.9222683906555176, -0.15400345623493195, 0.5895090699195862, -0.2947571277618408, -0.7339879870414734, 0.7992759943008423, 1.8718889951705933, -0.8071010112762451, -0.6914362907409668, -0.8308525085449219, -0.41873398423194885, 0.9675309658050537, -1.5800772905349731, -0.4388057291507721, 0.7798823118209839, 0.02026715688407421, 0.07047831267118454, -1.5220825672149658, 1.807801604270935, -0.4160083532333374, -0.37369877099990845, 0.12673713266849518, 0.060352690517902374, 0.6056996583938599, -0.020276160910725594, -0.000838138279505074, -0.2771776616573334, -0.8245363235473633, -0.6125756502151489, -0.9199602007865906, -1.3730717897415161, 0.2641182243824005, 0.002765817567706108, -0.06528399139642715, -0.7958211898803711, 0.5387266874313354, -0.03552200272679329, 0.5387596487998962, 0.0034852426033467054, 0.6285828351974487, 0.4628324508666992, 0.037728045135736465, -0.40537768602371216, -0.6181472539901733, 1.1693129539489746, 0.03241278603672981, 0.20496545732021332, 0.615960419178009, -0.5992957353591919, 0.15997876226902008, -0.23729552328586578, 0.21373772621154785, -2.424562454223633, -0.06456378847360611, -0.08365943282842636, -0.44556909799575806, 0.02669387124478817, 0.1517132967710495, -0.4669783115386963, 0.6911711692810059, -0.41608577966690063, 1.0790170431137085, -0.405233770608902], [-0.10136471688747406, 0.1840638369321823, -0.10561391711235046, 0.17456741631031036, -0.004069456364959478, -0.08962667733430862, 0.29514575004577637, 0.15837408602237701, -0.09061715006828308, -0.3042132258415222, -0.2602028548717499, -0.2004941701889038, 0.325590580701828, -0.23425635695457458, -0.26622360944747925, 0.007524130865931511, 0.17858006060123444, 0.1028035581111908, 0.03821081668138504, -0.027652457356452942, -0.2046658843755722, 0.05834869295358658, -0.08457431942224503, 0.09997372329235077, 0.2526049017906189, 0.2162877470254898, -0.09005498141050339, 0.13762761652469635, -0.11718498170375824, -0.004501812160015106, -0.17227309942245483, -0.0343586690723896, 0.29984843730926514, 0.09241899102926254, 0.09906350076198578, -0.2463078498840332, -0.03786616027355194, 0.05753912404179573, 0.22904539108276367, -0.028623901307582855, 0.13162928819656372, 0.18025174736976624, 0.12455862760543823, -0.06598412990570068, -0.03379876911640167, 0.05393588915467262, -0.12666365504264832, -0.0795140266418457, 0.2096915990114212, -0.13286560773849487, -0.058874379843473434, -0.21112962067127228, 0.255385160446167, -0.11376101523637772, 0.04636386036872864, 0.20214368402957916, -0.14383777976036072, -0.06279908120632172, 0.04313730448484421, -0.04262763261795044, -0.07340530306100845, 0.1620045006275177, 0.1555633395910263, -0.139119490981102], [-0.060861244797706604, 0.23451900482177734, 0.24323302507400513, -0.2924366593360901, -0.236856609582901, 0.22778189182281494, -0.26307129859924316, -0.07725197076797485, 0.26640450954437256, 0.2920263409614563, -0.0312577486038208, -0.20209984481334686, 0.08279535174369812, 0.2324308156967163, 0.0024138987064361572, 0.14507463574409485, -0.007668554782867432, 0.06885600090026855, 0.2364274263381958, 0.2161228060722351, 0.14091095328330994, -0.13668765127658844, -0.23736609518527985, -0.21881262958049774, 0.12121322751045227, 0.2071160078048706, -0.2528594434261322, -0.24836798012256622, 0.08295053243637085, 0.05021005868911743, -0.20984114706516266, -0.13111251592636108, -0.2607592046260834, 0.2727252244949341, -0.17748528718948364, 0.11853590607643127, 0.1531522274017334, 0.2076476812362671, 0.09778738021850586, -0.013190507888793945, 0.19658514857292175, -0.0529874712228775, 0.2192521095275879, -0.2687245011329651, -0.08493037521839142, 0.01936393976211548, 0.19512826204299927, -0.012430250644683838, -0.05678139626979828, 0.2127479910850525, -0.140995055437088, 0.13468873500823975, 0.06165894865989685, 0.24330371618270874, -0.24739864468574524, -0.042113661766052246, -0.14678512513637543, 0.20117872953414917, -0.21198797225952148, -0.03109496831893921, 0.11894333362579346, 0.0524497926235199, 0.15264946222305298, -0.006306380033493042], [0.05626976490020752, 0.04974362254142761, -0.08228684961795807, 0.0076573193073272705, -0.18565794825553894, -0.09064951539039612, 0.1700376272201538, 4.0411949157714844e-05, -0.23735953867435455, 0.05697348713874817, 0.22623324394226074, 0.2738115191459656, -0.21255776286125183, -0.23467189073562622, -0.22261977195739746, -0.276668906211853, -0.2084130048751831, 0.2897968292236328, 0.04679065942764282, 0.25009143352508545, 0.04890391230583191, -0.15328624844551086, 0.1809069812297821, -0.16565009951591492, -0.041747480630874634, 0.06973445415496826, 0.04391476511955261, -0.2852747142314911, 0.20244935154914856, -0.16605034470558167, -0.2579251825809479, -0.08368204534053802, 0.1778412163257599, 0.08321499824523926, 0.04465445876121521, -0.22530293464660645, 0.04822880029678345, -0.2604440450668335, 0.06838908791542053, -0.2263418734073639, -0.21750113368034363, 0.015265434980392456, 0.10871249437332153, -0.09449294209480286, 0.1253424882888794, 0.15635409951210022, 0.19003689289093018, -0.1342753767967224, 0.04680740833282471, 0.23778176307678223, -0.17581045627593994, -0.10811483860015869, 0.24410587549209595, -0.11710043251514435, -0.2008349597454071, -0.07924963533878326, 0.20237529277801514, 0.010354191064834595, -0.10125946998596191, 0.20901602506637573, 0.13402360677719116, -0.11056286096572876, -0.11191470921039581, 0.10464945435523987]], "b1": [-0.16323967278003693, -0.25493931770324707, -0.23672530055046082, 0.13070103526115417, -0.23480242490768433, 0.22941862046718597, -0.3146244287490845, -0.22261658310890198, -0.08380448073148727, -0.22241616249084473, -0.18514899909496307, -0.1193225309252739, -0.22357815504074097, -0.09981467574834824, -0.21304912865161896, 0.11501827836036682, -0.3517373502254486, 0.11969396471977234, 0.2161145806312561, -0.2756254971027374, -0.1083616316318512, 0.35370728373527527, -0.20182663202285767, 0.1632479578256607, -0.39766925573349, -0.3722480535507202, -0.1688104122877121, 0.12375064939260483, 0.27763259410858154, -0.15749789774417877, -0.22850161790847778, 0.274887353181839, -0.3182090222835541, -0.252595990896225, -0.3296298384666443, 0.3403647541999817, 0.10802938789129257, -0.2322290539741516, 0.09257370233535767, -0.21917439997196198, -0.2557165026664734, -0.2262038141489029, -0.16904997825622559, 0.24551238119602203, -0.12730064988136292, -0.24799451231956482, 0.21759647130966187, -0.17298036813735962, -0.2795625925064087, -0.2074633091688156, 0.18106751143932343, 0.30540797114372253, -0.48129791021347046, 0.2710684537887573, 0.20579297840595245, 0.1328478902578354, -0.24635513126850128, -0.15947645902633667, -0.26580724120140076, 0.2119179517030716, 0.14207687973976135, -0.3214842975139618, 0.1541048139333725, 0.3035985231399536], "W2": [[0.4066603183746338, -0.30160588026046753, 0.6534082889556885, -0.5021476149559021, -0.14230604469776154, -0.24594613909721375, 0.5843137502670288, -0.40463852882385254, 0.009593830443918705, 0.5544577240943909, -0.44729098677635193, 0.5916370153427124, -0.1969926804304123, -0.4993591904640198, 0.568878173828125, 0.49151477217674255, 0.6099199652671814, -0.5267623662948608, -0.26601123809814453, 0.6953385472297668, 0.17065060138702393, -0.4678157866001129, 0.4798145294189453, -0.13079950213432312, 0.31871604919433594, 0.6413409113883972, -0.5109272599220276, -0.5368504524230957, -0.18736307322978973, 0.4897949993610382, -0.3177664279937744, -0.3212715685367584, -0.281831830739975, -0.21977412700653076, 0.4486832320690155, -0.3676122725009918, 0.7168377637863159, 0.8086528182029724, -0.17639034986495972, -0.45111846923828125, 0.5969060659408569, 0.28976351022720337, 0.46139955520629883, 0.6652247905731201, -0.3316488265991211, -0.15369589626789093, -0.20049887895584106, 0.39300888776779175, -0.5728244781494141, -0.22763806581497192, 0.355511337518692, -0.297352135181427, 0.7496035099029541, 0.10521748661994934, 0.3361348509788513, -0.37503209710121155, -0.19383689761161804, -0.2501448094844818, -0.30235716700553894, -0.08274736255407333, -0.4441392719745636, 0.6913439631462097, -0.26968878507614136, 0.6467043161392212], [0.24411602318286896, -0.2366306632757187, -0.29600295424461365, -0.44567522406578064, 0.3226882219314575, -0.5531636476516724, -0.2722458243370056, -0.4345344603061676, -0.04338861629366875, -0.19501695036888123, -0.13806897401809692, -0.09494874626398087, -0.5660464763641357, -0.2955048084259033, -0.40351471304893494, 0.41045355796813965, -0.07298707216978073, -0.45766881108283997, -0.3588826060295105, -0.38366177678108215, 0.26227065920829773, -0.43342894315719604, 0.06544237583875656, -0.1716337949037552, 0.6543264985084534, -0.3789462149143219, -0.07370341569185257, -0.35767465829849243, -0.28718963265419006, -0.12488044053316116, 0.8603935241699219, -0.3896850645542145, -0.43011054396629333, -0.4090666174888611, 0.46810078620910645, -0.3972477614879608, -0.08473023772239685, -0.4131777584552765, -0.47170335054397583, -0.20814810693264008, -0.27815788984298706, -0.04866280406713486, -0.3385981619358063, -0.3473508358001709, -0.2160874754190445, -0.2050129771232605, -0.5505213737487793, -0.3460889756679535, -0.45680010318756104, -0.473599374294281, -0.478696346282959, -0.38023075461387634, -0.4309972822666168, 0.5869320631027222, -0.39115646481513977, -0.3469877541065216, 0.5774545669555664, -0.09580889344215393, -0.3376627266407013, 0.5992240905761719, -0.17436888813972473, 0.06689010560512543, -0.4900863468647003, -0.08322089165449142], [0.3808205723762512, -0.35650843381881714, 0.6089970469474792, -0.3414844572544098, 0.11001241952180862, -0.2115972638130188, 0.4332249164581299, -0.333276629447937, 0.15946611762046814, 0.3455375134944916, -0.30608806014060974, 0.4040880501270294, -0.463498592376709, -0.48574385046958923, 0.34990090131759644, 0.5634229779243469, 0.6651440262794495, -0.24120448529720306, -0.314077764749527, 0.6183900833129883, 0.46606844663619995, -0.40380239486694336, 0.5358837842941284, -0.3604220449924469, 0.48225826025009155, 0.6142876148223877, -0.5474480390548706, -0.5042346715927124, -0.47706592082977295, 0.4319186210632324, -0.21932682394981384, -0.507258951663971, -0.29934877157211304, -0.42775627970695496, 0.3358745276927948, -0.5414577126502991, 0.5650061964988708, 0.8472492098808289, -0.27868300676345825, -0.39325910806655884, 0.44719183444976807, 0.7368925213813782, 0.7285656929016113, 0.6675515174865723, -0.22990651428699493, -0.21134547889232635, -0.30075931549072266, -0.0659247636795044, -0.5611764192581177, -0.6325545310974121, 0.35699671506881714, -0.40718498826026917, 0.9194138646125793, 0.07670515775680542, 0.3011266887187958, -0.3467492461204529, -0.15348340570926666, -0.5362072587013245, -0.484752893447876, 0.17588210105895996, -0.15903067588806152, 0.7860304713249207, -0.2370419055223465, 0.7559311389923096], [-0.28577283024787903, 0.2387438416481018, -0.891299843788147, 0.2241106480360031, 0.11835608631372452, 0.21809501945972443, -0.6288775205612183, 0.12171057611703873, -0.26348182559013367, -0.8888262510299683, 0.06494862586259842, -0.4546355903148651, 0.05513430014252663, 0.08695376664400101, -0.7329021692276001, -0.4807160496711731, -0.6822589039802551, 0.4204052686691284, 0.4159388840198517, -0.5356749892234802, -0.01283864863216877, 0.32836130261421204, -0.491472452878952, 0.43030107021331787, -0.2090367078781128, -0.7731329798698425, 0.1821281611919403, 0.1309492290019989, 0.21407659351825714, -0.5189370512962341, 0.3538626730442047, 0.10714803636074066, 0.10285381972789764, 0.3814300000667572, -0.012006036005914211, 0.34245550632476807, -0.740205705165863, -0.5726957321166992, 0.27250581979751587, 0.40810146927833557, -0.6272944808006287, -0.5501075387001038, -0.6786761283874512, -0.6427183747291565, 0.4116734564304352, 0.3811276853084564, 0.10733803361654282, -0.4772721529006958, 0.22488147020339966, 0.11132374405860901, -0.6836565732955933, 0.023826297372579575, -0.6908043622970581, 0.30664366483688354, -0.5448752045631409, 0.4351440668106079, 0.07612206786870956, 0.474649578332901, 0.16629067063331604, 0.3063690662384033, 0.36864131689071655, -0.724686861038208, 0.3179154098033905, -0.5695704221725464], [-0.048528727144002914, -0.4866088032722473, 0.0711875930428505, -0.20852014422416687, 0.7236714363098145, -0.3161133825778961, 0.09364870935678482, -0.4204363524913788, 0.3292853534221649, 0.32634255290031433, -0.22999770939350128, -0.027403755113482475, -0.5069826245307922, -0.22636793553829193, 0.25988930463790894, -0.019344598054885864, 0.23855029046535492, -0.2538434863090515, -0.11541435122489929, -0.07960687577724457, -0.1372768133878708, -0.30791693925857544, 0.13834786415100098, -0.377851665019989, -0.3690950572490692, 0.3053971529006958, -0.21629644930362701, -0.1386277675628662, -0.3592849373817444, 0.3008979558944702, 0.3919125497341156, -0.3862803876399994, -0.28052768111228943, -0.051027484238147736, -0.13873842358589172, -0.42699769139289856, 0.01947503350675106, -0.13180112838745117, -0.49623095989227295, -0.3242295980453491, 0.0432395413517952, -0.05671222135424614, -0.06056240200996399, -0.0873589739203453, -0.3908829689025879, -0.23962202668190002, -0.5121423602104187, 0.37434616684913635, -0.035483621060848236, -0.048163674771785736, 0.1523905098438263, -0.45280691981315613, -0.2824983596801758, 0.7626708745956421, -0.09877898544073105, -0.4372449517250061, 0.475640207529068, -0.072234146296978, -0.12527696788311005, 0.27748310565948486, -0.24446487426757812, -0.22935643792152405, -0.20421387255191803, -0.19348427653312683], [0.020436584949493408, 0.47818806767463684, 0.3617595136165619, 0.46560046076774597, -0.7825457453727722, 0.7036923766136169, 0.03923531621694565, 0.3674633204936981, -0.2578016221523285, 0.26720723509788513, 0.4176601469516754, 0.07237831503152847, 0.5480272769927979, 0.39478057622909546, 0.17969228327274323, 0.14527031779289246, 0.23696252703666687, 0.6319605112075806, 0.44344809651374817, 0.2745882272720337, 0.0988769382238388, 0.6134380102157593, -0.1273760199546814, 0.55646812915802, -0.08258239924907684, -0.013268597424030304, 0.5223534107208252, 0.5805585980415344, 0.5147718787193298, 0.07208780944347382, -1.050034999847412, 0.46226194500923157, 0.5051345825195312, 0.34504789113998413, 0.09771814942359924, 0.6920698285102844, -0.04854775592684746, 0.23476912081241608, 0.3394966423511505, 0.2765970230102539, -0.057301733642816544, 0.03337157517671585, 0.1859404593706131, 0.16369862854480743, 0.28222891688346863, 0.6786513328552246, 0.35008320212364197, -0.08205970376729965, 0.24174661934375763, 0.5586045384407043, 0.2575523853302002, 0.5119056105613708, 0.336428165435791, -0.6167873740196228, -0.06302530318498611, 0.6547169089317322, -0.9472396969795227, 0.3016287386417389, 0.7405343055725098, -0.7954270243644714, 0.5489363670349121, 0.25731927156448364, 0.44323790073394775, 0.21479931473731995], [0.19290906190872192, -0.8161303997039795, -0.30769744515419006, -0.583264172077179, 0.42673906683921814, -0.8105423450469971, -0.3365112841129303, -0.7342106103897095, -0.12618310749530792, -0.2694645822048187, -0.6320655941963196, -0.1700739860534668, -0.6662431955337524, -0.47671324014663696, -0.23882617056369781, 0.36844009160995483, -0.3610105812549591, -0.7117577791213989, -0.37537989020347595, -0.45323795080184937, 0.377780944108963, -0.8034332990646362, 0.14363718032836914, -0.4042675495147705, 0.47332078218460083, -0.26518166065216064, -0.26400747895240784, -0.3528306186199188, -0.3822513520717621, -0.2394569367170334, 1.1829663515090942, -0.27996760606765747, -0.6274812817573547, -0.7007614374160767, 0.42851120233535767, -0.4323803186416626, -0.22596287727355957, -0.2726221978664398, -0.4629521667957306, -0.40882375836372375, -0.08688505738973618, 0.2872011065483093, -0.30310893058776855, -0.34126314520835876, -0.6798503994941711, -0.772277295589447, -0.7640841603279114, -0.38945063948631287, -0.36396458745002747, -0.465679794549942, -0.2965877950191498, -0.8497994542121887, -0.39105933904647827, 0.9130454659461975, 0.023928971961140633, -0.8233131766319275, 1.1971694231033325, -0.22513540089130402, -0.6998381018638611, 0.7687777280807495, -0.6552362442016602, 0.08285865932703018, -0.5601885914802551, -0.17391738295555115], [-0.2687565088272095, -0.048425156623125076, -0.16907614469528198, -0.28317171335220337, 0.036735355854034424, -0.12031561136245728, -0.12207700312137604, -0.2903172969818115, -0.11016115546226501, -0.35816872119903564, -0.06221650913357735, -0.052611105144023895, -0.009026219137012959, -0.27863410115242004, -0.39850959181785583, -0.15810206532478333, -0.33280491828918457, 0.03723617643117905, -0.23516550660133362, -0.24810545146465302, -0.12662126123905182, -0.27460595965385437, -0.010123306885361671, 0.030170977115631104, 0.08131818473339081, -0.036474741995334625, -0.21568502485752106, 0.002541920403018594, -0.30067598819732666, -0.4393850266933441, 0.2740023732185364, 0.017028799280524254, 0.03993094339966774, -0.15449850261211395, 0.09401851892471313, -0.1839570701122284, -0.2706473469734192, -0.07123707234859467, -0.2518967092037201, -0.16413551568984985, -0.40200045704841614, 0.12305676192045212, -0.14679650962352753, 0.002552538877353072, -0.13803723454475403, -0.30643564462661743, -0.27224665880203247, -0.2467724084854126, -0.05979891121387482, -0.1421845555305481, -0.010811366140842438, -0.17165350914001465, -0.2967969477176666, 0.3231924772262573, -0.3828009068965912, -0.10583251714706421, 0.5081735849380493, -0.27938342094421387, 0.06434692442417145, 0.4157017171382904, -0.09485672414302826, -0.29833224415779114, -0.341560423374176, -0.355282723903656], [-0.47670507431030273, -0.07550346106290817, 0.15818175673484802, 0.10754918307065964, -0.060445528477430344, 0.04409739002585411, 0.2906072735786438, -0.20478570461273193, 0.35195431113243103, 0.295732319355011, -0.17830568552017212, 0.34705492854118347, 0.019880449399352074, 0.020658764988183975, 0.3776979446411133, -0.36906448006629944, 0.22220157086849213, -0.18471693992614746, 0.10931357741355896, 0.2594098448753357, -0.25285589694976807, -0.19350667297840118, 0.10906478762626648, -0.048748139292001724, -0.5137752890586853, 0.1177448034286499, -0.12062006443738937, 0.024590449407696724, 0.04511226341128349, 0.15327075123786926, -0.282402902841568, -0.041297342628240585, 0.15901707112789154, 0.08154547959566116, -0.26764991879463196, -0.16837318241596222, 0.09208870679140091, 0.39675572514533997, 0.0690741240978241, -0.13975632190704346, 0.16788290441036224, -0.288026362657547, 0.09321725368499756, 0.2058132290840149, 0.08136870712041855, 0.013267365284264088, -0.18373969197273254, 0.12580004334449768, -0.019531255587935448, -0.13483940064907074, 0.446106493473053, -0.24846801161766052, 0.22509559988975525, -0.04099709168076515, 0.434873104095459, -0.2822853922843933, -0.2948499619960785, -0.07367789000272751, 0.07235699146986008, -0.07986835390329361, 0.02975267358124256, -0.016657087951898575, 0.03404216840863228, 0.2300698310136795], [0.39443814754486084, -0.22810828685760498, 1.1514194011688232, -0.48264947533607483, 0.11415143311023712, -0.2540643513202667, 0.8665560483932495, -0.33037662506103516, 0.49008503556251526, 0.8901688456535339, -0.3523533344268799, 0.765920877456665, -0.3679737150669098, -0.5228137969970703, 1.139017105102539, 0.4327612519264221, 1.0259782075881958, -0.2137327492237091, -0.4922718107700348, 0.9633802175521851, 0.021729696542024612, -0.26349619030952454, 0.5971375703811646, -0.1454048901796341, 0.2729143500328064, 1.195877194404602, -0.4919414222240448, -0.2867390513420105, -0.30943238735198975, 0.9917588233947754, -0.20200255513191223, -0.25968894362449646, -0.5554391741752625, -0.44925767183303833, 0.02809719555079937, -0.4450252056121826, 0.9851765632629395, 1.1227128505706787, -0.58852618932724, -0.545807421207428, 1.0818991661071777, 0.47543489933013916, 1.0507038831710815, 1.3066331148147583, -0.5108361840248108, -0.4531749188899994, -0.2993926703929901, 0.6130856871604919, -0.4083608388900757, -0.4813404381275177, 0.8979218602180481, -0.2269376516342163, 1.1381622552871704, 0.027265066280961037, 0.7004188299179077, -0.22458212077617645, -0.3473484516143799, -0.40377169847488403, -0.4190875291824341, -0.31776824593544006, -0.25654128193855286, 0.7121829986572266, -0.5075643658638, 0.9760061502456665], [0.1375761330127716, -0.4650524854660034, 1.4060828685760498, -0.4793047606945038, 0.0340995118021965, -0.428413063287735, 1.1142951250076294, -0.5169373750686646, 0.617906928062439, 1.3249541521072388, -0.19689466059207916, 0.8972899913787842, -0.24548622965812683, -0.487601101398468, 1.2326529026031494, 0.4820638597011566, 0.7609264850616455, -0.4926903247833252, -0.4002300798892975, 0.9780451655387878, 0.27833330631256104, -0.40782761573791504, 0.6214655041694641, -0.5990715026855469, 0.14414341747760773, 1.1743288040161133, -0.4219330847263336, -0.3133064806461334, -0.39691632986068726, 1.1750032901763916, -0.09769755601882935, -0.5977378487586975, -0.3195747137069702, -0.5703092813491821, 0.35788267850875854, -0.470264196395874, 1.319650650024414, 1.1275177001953125, -0.3396960496902466, -0.30752384662628174, 0.9946081638336182, 0.28851115703582764, 0.8351858854293823, 1.4029510021209717, -0.48383307456970215, -0.3558117747306824, -0.2621951103210449, 1.0825577974319458, -0.3601168990135193, -0.2504362165927887, 0.9733906388282776, -0.3692723512649536, 1.4409891366958618, -0.09789575636386871, 0.8017395734786987, -0.38470035791397095, -0.2492629438638687, -0.4954812526702881, -0.4094242751598358, 0.014144601300358772, -0.31634828448295593, 0.9246841669082642, -0.6313510537147522, 1.0513886213302612], [-0.43754586577415466, -0.12665998935699463, 0.13307200372219086, -0.3177141845226288, 0.45622536540031433, -0.29520630836486816, 0.07476760447025299, -0.2788544297218323, 0.19959452748298645, 0.21581386029720306, 0.06609491258859634, 0.24409842491149902, -0.3035934865474701, -0.27724725008010864, 0.26603180170059204, -0.13624507188796997, 0.10719797760248184, -0.21830376982688904, -0.20198221504688263, 0.024320082738995552, -0.5095499157905579, -0.07323705404996872, 0.014590805396437645, -0.11338423192501068, -0.4526597559452057, 0.1417945772409439, -0.1870686113834381, -0.0544663667678833, -0.0173783041536808, 0.38613587617874146, -0.1455378532409668, -0.1404714435338974, 0.07218212634325027, -0.1150289848446846, -0.3511784076690674, 0.024491047486662865, 0.23124875128269196, -0.01681489869952202, -0.0961371585726738, 0.08593036979436874, 0.13624365627765656, -0.1430981606245041, 0.06468503922224045, 0.16236594319343567, 0.09180723130702972, -0.3487718403339386, -0.17379216849803925, 0.28939780592918396, -0.13659578561782837, -0.0002910509647335857, 0.23204126954078674, 0.05282974988222122, -0.09597663581371307, 0.04642651230096817, -0.050498899072408676, 0.005180233623832464, -0.16324666142463684, -0.10465526580810547, -0.2838885188102722, -0.06770280748605728, 0.00829815212637186, -0.13820701837539673, 0.12425988167524338, 0.049531664699316025], [1.0153971910476685, -0.5683773756027222, -0.11694643646478653, -0.5290910601615906, -0.5048071146011353, -0.22682636976242065, -0.1581965684890747, -0.2424420714378357, -0.3390657305717468, -0.020830096676945686, -0.41710424423217773, 0.13404491543769836, -0.5808109641075134, -0.462711364030838, -0.29133105278015137, 0.7990601658821106, -0.16933482885360718, -0.4342079162597656, -0.4106607139110565, 0.2057299166917801, 0.7806878089904785, -0.2973417639732361, 0.2143513411283493, -0.2770324647426605, 1.0251562595367432, -0.19831305742263794, -0.5433213710784912, -0.588675320148468, -0.36444294452667236, -0.20815856754779816, 0.5572036504745483, -0.4436265826225281, -0.46913138031959534, -0.23801302909851074, 0.7812974452972412, -0.19119086861610413, -0.17939847707748413, 0.02466888539493084, -0.3001261353492737, -0.19215860962867737, -0.1630566567182541, 0.7557299733161926, 0.09545425325632095, 0.12615059316158295, -0.2806033194065094, -0.17840692400932312, -0.3719739019870758, -0.4009527862071991, -0.4011532664299011, -0.4928533136844635, 0.09374511241912842, -0.44258978962898254, 0.08076735585927963, 0.04004736244678497, -0.24806934595108032, -0.37663236260414124, 0.36533135175704956, -0.5528625249862671, -0.5112776756286621, 0.2609637975692749, -0.2931532561779022, 0.0585254542529583, -0.43833088874816895, -0.1855134218931198], [-0.3645201027393341, -0.15336136519908905, 0.7311497330665588, -0.0853918269276619, 0.07404051721096039, -0.1877332180738449, 0.6682004332542419, -0.2539868652820587, 0.8366713523864746, 0.5448014140129089, -0.27358752489089966, 0.455768346786499, 0.07405833154916763, 0.09288335591554642, 0.7221929430961609, 0.07026940584182739, 0.6082078218460083, -0.3105027973651886, -0.2657032012939453, 0.5234019160270691, -0.48746177554130554, -0.17182029783725739, -0.03208338841795921, 0.07190215587615967, -0.3232356011867523, 0.9583645462989807, -0.20169144868850708, -0.3129485845565796, -0.24274510145187378, 0.7077428102493286, -0.46228107810020447, -0.21054136753082275, -0.23476941883563995, -0.29393234848976135, -0.37717941403388977, -0.3032284379005432, 0.596446692943573, 0.7906886339187622, -0.2645646333694458, -0.20295390486717224, 0.7123770713806152, -0.09893708676099777, 0.33610108494758606, 0.34833207726478577, 0.045354168862104416, -0.26306653022766113, -0.014307782053947449, 1.1368696689605713, -0.16767439246177673, -0.07871921360492706, 0.7016646265983582, 0.007019495591521263, 0.4504605829715729, -0.22259172797203064, 0.4975791275501251, -0.3125251233577728, -0.6857201457023621, -0.23984017968177795, -0.01093282736837864, -0.8069292902946472, 0.08759447187185287, 0.3052428960800171, -0.1811906099319458, 0.7751492261886597], [0.4407150447368622, -0.335822731256485, 0.5918691158294678, -0.1530826836824417, -0.1230282187461853, -0.06451715528964996, 0.8023760914802551, -0.313046932220459, 0.3543514609336853, 0.6393104195594788, -0.4743271470069885, 0.5790876150131226, -0.27924150228500366, -0.11821514368057251, 0.6886236071586609, 0.4345218241214752, 0.6838241815567017, -0.37005290389060974, -0.184947207570076, 0.832229495048523, 0.257624089717865, -0.2588324248790741, 0.4053245484828949, -0.19035477936267853, 0.23227058351039886, 0.45834413170814514, -0.5539939999580383, -0.3351910710334778, -0.4763057231903076, 0.48397013545036316, -0.11274752020835876, -0.1400066763162613, -0.5024561285972595, -0.358900249004364, 0.26932281255722046, -0.34817782044410706, 0.6662443280220032, 0.6032900810241699, -0.25088533759117126, -0.3777240812778473, 0.6093749403953552, 0.4165918827056885, 0.8261129260063171, 0.9706347584724426, -0.16706450283527374, -0.3605002462863922, -0.3187513053417206, 0.5771706700325012, -0.390868604183197, -0.5327440500259399, 0.7223275303840637, -0.16826637089252472, 0.683989405632019, -0.12404359132051468, 0.5419319272041321, -0.41888201236724854, -0.2811654508113861, -0.13116124272346497, -0.05120399221777916, -0.20164011418819427, -0.4170771837234497, 0.34234288334846497, -0.2895534634590149, 0.6996832489967346], [-0.46106210350990295, 0.47207748889923096, -1.0684531927108765, 0.5525871515274048, -0.2246035635471344, 0.16328541934490204, -1.0633331537246704, 0.2639330327510834, -0.4872536361217499, -0.9044085741043091, 0.2512768805027008, -0.8435029983520508, 0.2400292158126831, 0.23862804472446442, -1.0189045667648315, -0.3681800663471222, -1.099732518196106, 0.28979116678237915, 0.21796917915344238, -0.8225815296173096, -0.3383881449699402, 0.4863170385360718, -0.717472493648529, 0.47965967655181885, -0.3139311671257019, -1.0839927196502686, 0.276912659406662, 0.3189898133277893, 0.4752638339996338, -0.6750836968421936, 0.3337632417678833, 0.4989565908908844, 0.3909580707550049, 0.31655794382095337, -0.12543033063411713, 0.3413744270801544, -0.9784325957298279, -1.0384087562561035, 0.4991190731525421, 0.5677041411399841, -1.102046012878418, -0.5973854064941406, -1.2023885250091553, -1.0858596563339233, 0.5077337026596069, 0.278286337852478, 0.37443971633911133, -0.4122353792190552, 0.2168593853712082, 0.43864011764526367, -1.069007158279419, 0.5220300555229187, -1.3661320209503174, -0.03650091215968132, -0.7303705811500549, 0.19688725471496582, 0.1784638613462448, 0.4096795320510864, 0.5389934778213501, 0.30232566595077515, 0.5458934307098389, -0.9391344785690308, 0.5783000588417053, -1.1011152267456055], [-0.10534961521625519, -0.42740195989608765, -0.1407582312822342, -0.6364710927009583, 0.6931883096694946, -0.569183886051178, -0.22278928756713867, -0.46367812156677246, 0.3635496199131012, 0.14221839606761932, -0.5433568954467773, -0.27802717685699463, -0.7004979252815247, -0.26517418026924133, -0.036063067615032196, -0.13731640577316284, -0.24213309586048126, -0.6582722663879395, -0.3584560453891754, 0.04503040388226509, 0.09919649362564087, -0.6594955325126648, 0.1415872573852539, -0.5541094541549683, 0.05421946570277214, -0.10321850329637527, -0.32904183864593506, -0.33157050609588623, -0.41641324758529663, -0.12891033291816711, 0.8715326189994812, -0.3070816397666931, -0.26306968927383423, -0.2878696918487549, -0.1981118619441986, -0.6550647020339966, 0.007100969087332487, -0.016830841079354286, -0.5825823545455933, -0.285342812538147, -0.0805346742272377, -0.21915896236896515, -0.04045409336686134, -0.32929861545562744, -0.3070152997970581, -0.5113188028335571, -0.466134637594223, 0.04703892767429352, -0.5731272101402283, -0.4495818316936493, -0.027946870774030685, -0.33067452907562256, -0.18105264008045197, 0.7579880356788635, 0.072953000664711, -0.5067073702812195, 0.8519114851951599, -0.44269731640815735, -0.3698408305644989, 0.5175085663795471, -0.32830092310905457, -0.00033709959825500846, -0.4672788083553314, -0.12305615097284317], [0.6054952144622803, 0.34943506121635437, -0.6145650744438171, 0.19481231272220612, -0.9020335078239441, 0.1941273808479309, -0.34405001997947693, 0.08775699883699417, -0.7543569803237915, -0.7651792764663696, 0.25182515382766724, -0.23570989072322845, 0.13937987387180328, 0.421964555978775, -0.47703689336776733, 0.17296172678470612, -0.42940083146095276, 0.4097501337528229, 0.3771866261959076, -0.4776095747947693, 0.6912270188331604, 0.27262404561042786, 0.060870006680488586, 0.43400582671165466, 0.5975846648216248, -0.4602452218532562, 0.14077289402484894, 0.28870365023612976, 0.20820777118206024, -0.8649156093597412, -0.21956415474414825, 0.31376907229423523, 0.43056178092956543, 0.42078977823257446, 0.551176130771637, 0.42574289441108704, -0.40526100993156433, -0.3905341327190399, 0.38249704241752625, 0.3819260597229004, -0.6540785431861877, 0.11956141144037247, -0.11362803727388382, -0.5026931762695312, 0.3956421911716461, 0.03905337303876877, 0.4141252338886261, -0.7418271899223328, 0.33203405141830444, 0.21332402527332306, -0.4327421486377716, 0.26041024923324585, -0.11937721818685532, -0.3583373725414276, -0.29981493949890137, 0.3965507745742798, -0.3617408573627472, 0.10766886174678802, 0.28517910838127136, -0.36836832761764526, 0.21421697735786438, -0.06970918923616409, 0.1020541712641716, -0.5860288739204407], [-0.5949491262435913, 0.29186609387397766, 0.21243461966514587, 0.2522902488708496, 0.4996779263019562, 0.2825426459312439, 0.08289609104394913, 0.07465329021215439, 0.4373912811279297, 0.4682711362838745, -0.13337622582912445, 0.04215187579393387, 0.024553222581744194, -0.05190544202923775, 0.1750255674123764, -0.10836367309093475, 0.23749004304409027, 0.04350212588906288, -0.03791801258921623, 0.305404394865036, -0.42937949299812317, 0.10984540730714798, -0.00018661096692085266, -0.10321884602308273, -0.6376969218254089, 0.25374171137809753, 0.2752711772918701, 0.009405668824911118, -0.012231404893100262, 0.5271724462509155, -0.2105509489774704, -0.04691760987043381, 0.21221132576465607, -0.04618007317185402, -0.5840371251106262, 0.11803766340017319, 0.3055550158023834, 0.2958811819553375, 0.1086534932255745, 0.24018745124340057, 0.29848989844322205, -0.1525740921497345, 0.16201896965503693, 0.1565430909395218, 0.18045960366725922, -0.11484520882368088, -0.029841864481568336, 0.778384804725647, 0.15488247573375702, -0.0033984032925218344, 0.44794943928718567, 0.1168915405869484, -0.01766408607363701, 0.061892446130514145, 0.46383896470069885, 0.0512547641992569, -0.4996694028377533, 0.3358840346336365, 0.13447211682796478, -0.40922051668167114, -0.01542290672659874, -0.06214378401637077, 0.30829256772994995, 0.24698899686336517], [0.06669939309358597, -0.012984585016965866, -0.41295143961906433, 0.008969061076641083, -0.17139838635921478, -0.1842106431722641, -0.1920173317193985, -0.2588531970977783, -0.6726165413856506, -0.2840130031108856, 0.07404636591672897, -0.172633558511734, -0.1682179719209671, 0.05917613208293915, -0.23398511111736298, 0.20624688267707825, -0.3300764560699463, -0.02101479470729828, -0.3391544222831726, -0.40294697880744934, 0.20258910953998566, -0.014620265923440456, -0.11495545506477356, -0.35693129897117615, 0.03662177920341492, -0.46986204385757446, -0.3879735469818115, -0.040175363421440125, -0.11923076212406158, -0.6690963506698608, 0.5891678929328918, -0.3399968147277832, -0.024272184818983078, -0.05761157348752022, 0.07546110451221466, -0.08663755655288696, -0.14225974678993225, -0.41198045015335083, 0.038492243736982346, -0.09302712231874466, -0.2696901857852936, 0.3247726261615753, -0.19170650839805603, -0.19396212697029114, -0.16027948260307312, -0.25042015314102173, -0.3183246850967407, -0.4866422712802887, -0.3999597430229187, -0.07704988867044449, -0.2786058485507965, -0.20959311723709106, -0.37123653292655945, 0.3509427309036255, -0.3219985365867615, -0.30617979168891907, 0.5546078681945801, -0.4096210300922394, -0.18637724220752716, 0.5568246841430664, -0.21008838713169098, 0.038828589022159576, -0.3183840811252594, -0.4402754008769989], [-0.03783786669373512, 0.06989782303571701, 0.6369444727897644, -0.039959948509931564, 0.37130501866340637, 0.1332494169473648, 0.6798303723335266, -0.274666428565979, 0.34972143173217773, 0.6932973265647888, -0.1632988452911377, 0.28299710154533386, -0.13325519859790802, 0.018139000982046127, 0.684231698513031, -0.15798993408679962, 0.7664223313331604, -0.2637630105018616, -0.25660550594329834, 0.8122022747993469, -0.02215585485100746, -0.04200359061360359, 0.1651800274848938, -0.2844337522983551, -0.1851036250591278, 0.49257850646972656, -0.3538810908794403, -0.3300113081932068, -0.24939805269241333, 0.6871992349624634, -0.07253959774971008, -0.2852296531200409, -0.3245951533317566, -0.2696133553981781, -0.10415660589933395, -0.2659275233745575, 0.5048602223396301, 0.9084179401397705, 0.03594733402132988, -0.17082633078098297, 0.44338691234588623, 0.15911971032619476, 0.4367866814136505, 0.7310572266578674, -0.06160387769341469, 0.07804414629936218, 0.09669606387615204, 0.6701904535293579, -0.2920527458190918, 0.009364601224660873, 0.7795063853263855, -0.24510598182678223, 0.9864616394042969, 0.24857862293720245, 0.665777325630188, 0.0031529010739177465, 0.0037214974872767925, -0.2080153524875641, -0.04518486186861992, 0.06461335718631744, -0.027966219931840897, 0.5524480938911438, -0.21754711866378784, 0.6616865396499634], [-0.7227700352668762, 0.025990886613726616, 0.04225780442357063, 0.01133014541119337, 0.2273382544517517, 0.2977563440799713, 0.09488949924707413, 0.10475136339664459, 0.5131572484970093, -0.10716956108808517, 0.4105852246284485, -0.14742259681224823, 0.2110266387462616, 0.16343270242214203, 0.07863746583461761, -0.5713261961936951, 0.14336641132831573, 0.3521384000778198, 0.10135200619697571, -0.3256903886795044, -0.7005831599235535, 0.26919063925743103, -0.2480580359697342, 0.04728608578443527, -0.6945380568504333, 0.15874174237251282, 0.47879430651664734, 0.35412609577178955, 0.39141231775283813, 0.23493970930576324, -0.02337835542857647, 0.4778503179550171, 0.12892964482307434, 0.41636237502098083, -0.3808012902736664, 0.3495052754878998, -0.0048711542040109634, -0.3549743592739105, 0.29218462109565735, 0.33120468258857727, -0.10238423198461533, -0.59886634349823, -0.267729789018631, -0.16401466727256775, 0.038225796073675156, 0.17793379724025726, 0.102082259953022, 0.5737999081611633, 0.3714652955532074, 0.43826740980148315, -0.18958911299705505, 0.1997959315776825, -0.3826826512813568, -0.016437016427516937, 0.10538585484027863, 0.0039993636310100555, 0.03957785665988922, 0.4818177819252014, 0.068923719227314, -0.10185766220092773, 0.033603034913539886, -0.3578052222728729, 0.11425561457872391, -0.20393873751163483], [-0.05001171678304672, -0.4476338028907776, -0.004513529594987631, -0.5325263738632202, 1.079139232635498, -0.4206795394420624, 0.32868850231170654, -0.2391626089811325, 0.49765703082084656, 0.35848164558410645, -0.3482421040534973, 0.22688673436641693, -0.4244112968444824, -0.509057343006134, 0.17945317924022675, -0.1737150400876999, 0.3246816098690033, -0.333013653755188, -0.22567115724086761, 0.045464154332876205, -0.10539718717336655, -0.358542263507843, 0.27438145875930786, -0.2903461158275604, -0.1391104906797409, 0.0381176583468914, -0.3886141777038574, -0.3137657046318054, -0.5057517290115356, 0.2854655683040619, 0.5290599465370178, -0.17330488562583923, -0.18680566549301147, -0.4998849034309387, -0.35578033328056335, -0.5009625554084778, 0.1936357617378235, 0.006532616913318634, -0.2469628006219864, -0.5589075088500977, 0.24013109505176544, 0.07025588303804398, -0.09383947402238846, 0.09538072347640991, -0.4711317718029022, -0.2993220090866089, -0.18841950595378876, 0.5595376491546631, -0.3848673105239868, -0.24737872183322906, 0.05824096128344536, -0.47247114777565, -0.029206855222582817, 0.8644611835479736, 0.1705760955810547, -0.2849562168121338, 0.67100590467453, -0.2946361303329468, -0.46657535433769226, 0.4223231375217438, -0.18671385943889618, -0.01293252408504486, -0.45598527789115906, -0.06392218172550201], [-0.029686035588383675, 0.23374226689338684, -0.24517066776752472, 0.17210562527179718, 0.22578713297843933, 0.14651428163051605, 0.0094048622995615, -0.07130283117294312, 0.03587205335497856, -0.049174338579177856, 0.05797865241765976, -0.20912379026412964, 0.08402754366397858, 0.2315029352903366, -0.019577378407120705, -0.17541752755641937, 0.08586103469133377, 0.2367015779018402, 0.3442046344280243, -0.07490257173776627, 0.10192526876926422, 0.1322028785943985, -0.04933652654290199, 0.236846923828125, 0.15472660958766937, 0.013107174076139927, 0.2784184217453003, 0.2706358730792999, -0.004828581586480141, 0.33341237902641296, 0.008561144582927227, -0.07976677268743515, 0.1903168261051178, 0.3260596990585327, 0.16518715023994446, -0.08741075545549393, -0.24110311269760132, 0.008898892439901829, -0.015914447605609894, -0.033329885452985764, -0.24559471011161804, -0.37294596433639526, -0.19442398846149445, -0.11538324505090714, 0.13580873608589172, 0.1935422420501709, 0.04016515985131264, 0.07842355966567993, -0.0004213915963191539, 0.02002740651369095, -0.08323656022548676, 0.10072546452283859, -0.08003347367048264, 0.2208336442708969, -0.009214701130986214, 0.24130892753601074, 0.13954724371433258, 0.12710359692573547, 0.13891230523586273, 0.3290768265724182, 0.2456037849187851, -0.18859827518463135, 0.19380339980125427, -0.2527797222137451], [0.26590874791145325, -0.8345895409584045, -0.44704902172088623, -0.7134695053100586, 1.0284607410430908, -0.6532344222068787, -0.275272399187088, -0.6070768237113953, 0.16690628230571747, -0.33586522936820984, -0.7294489741325378, -0.023899929597973824, -0.7180593013763428, -0.6560675501823425, -0.27766451239585876, 0.01837475225329399, -0.1027732864022255, -0.8322599530220032, -0.7110537886619568, -0.3308948874473572, 0.5222208499908447, -0.7157676219940186, 0.15512493252754211, -0.7965168356895447, 0.5088042616844177, -0.01689266972243786, -0.6580442190170288, -0.4773395359516144, -0.31240135431289673, 0.1209956631064415, 1.4202474355697632, -0.3722853362560272, -0.7951025366783142, -0.5144588947296143, 0.21255946159362793, -0.6898806095123291, -0.37944045662879944, -0.31428641080856323, -0.8147050738334656, -0.47473159432411194, -0.1421135663986206, 0.03712470829486847, -0.35105398297309875, -0.398181676864624, -0.675990104675293, -0.6736517548561096, -0.7696652412414551, -0.21360273659229279, -0.44819220900535583, -0.7187366485595703, -0.06599249690771103, -0.8145743012428284, -0.2770633399486542, 1.2539942264556885, -0.029825692996382713, -0.5722471475601196, 1.2004271745681763, -0.2752866744995117, -0.7377051115036011, 1.2716455459594727, -0.6671751737594604, 0.09134647250175476, -0.6599712371826172, -0.2511981427669525], [0.003607508260756731, -0.52028489112854, -0.303148478269577, -0.3468343913555145, 0.6292814612388611, -0.5640867352485657, -0.07379309087991714, -0.6498903632164001, 0.362856388092041, -0.20173123478889465, -0.7349477410316467, -0.03500248119235039, -0.7944291234016418, -0.5880218148231506, -0.23859445750713348, 0.1300710290670395, 0.0232436154037714, -0.46147871017456055, -0.6672371029853821, -0.06813908368349075, 0.18227778375148773, -0.6113309264183044, -0.06404849141836166, -0.7039534449577332, -0.07010001689195633, 0.13002344965934753, -0.434542715549469, -0.32696616649627686, -0.5618384480476379, 0.24919037520885468, 1.015673041343689, -0.4249451756477356, -0.3564772605895996, -0.4916110634803772, -0.01694648340344429, -0.7192080616950989, -0.08791778236627579, -0.13896074891090393, -0.692484438419342, -0.6391722559928894, 0.029883436858654022, -0.028566638007760048, -0.20529142022132874, -0.11159292608499527, -0.5467573404312134, -0.3923555612564087, -0.415363609790802, -0.07542867213487625, -0.24232399463653564, -0.5449445843696594, -0.03930602967739105, -0.7563870549201965, -0.17808324098587036, 0.6940228939056396, -0.11605381965637207, -0.5171773433685303, 0.9556409120559692, -0.5724080801010132, -0.7718756198883057, 1.0405458211898804, -0.7501215934753418, 0.05273681506514549, -0.5947701334953308, 0.05291081592440605], [0.49124330282211304, -0.346306174993515, 0.38815465569496155, -0.25116389989852905, 0.017506688833236694, -0.154771089553833, 0.3920145630836487, -0.24139080941677094, 0.149617001414299, 0.16655373573303223, -0.1836998015642166, 0.36692923307418823, -0.1047903448343277, -0.28632277250289917, 0.29130351543426514, 0.44937387108802795, 0.3068554699420929, -0.1852453649044037, -0.4285041391849518, 0.5453713536262512, 0.47843554615974426, -0.42642536759376526, 0.6265033483505249, -0.06314137578010559, 0.1895100325345993, 0.4423975646495819, -0.49473562836647034, -0.36075615882873535, -0.12674890458583832, -0.08999744802713394, -0.005273392889648676, -0.24760930240154266, -0.17868168652057648, -0.36120539903640747, 0.4343966841697693, -0.08992066234350204, 0.33351781964302063, 0.32105571031570435, -0.16631846129894257, -0.20095153152942657, 0.3242446184158325, 0.6262887716293335, 0.6054700613021851, 0.48800843954086304, -0.5125495195388794, -0.16399672627449036, -0.4640718400478363, -0.23598605394363403, -0.45161592960357666, -0.23331338167190552, 0.38538771867752075, -0.4224940240383148, 0.5194207429885864, 0.2071300446987152, 0.4009643495082855, -0.4495466649532318, 0.11107849329710007, -0.2797695994377136, -0.22920803725719452, -0.09776183217763901, -0.16867521405220032, 0.5880544185638428, -0.1763492226600647, 0.5626659393310547], [0.08951572328805923, 0.19085372984409332, -0.18318626284599304, 0.45672446489334106, -0.8076618909835815, 0.34654855728149414, 0.09520813822746277, 0.41474461555480957, -0.4674283266067505, -0.2923792898654938, 0.4260959327220917, 0.07925320416688919, 0.06706252694129944, 0.4531080722808838, 0.0026397244073450565, 0.06959760189056396, -0.02793622761964798, 0.3226209878921509, 0.2190658450126648, -0.21266445517539978, 0.17330026626586914, 0.14522138237953186, 0.20716236531734467, 0.3639897406101227, 0.19063647091388702, -0.08059587329626083, 0.26613909006118774, 0.11139987409114838, 0.2917132079601288, -0.34997907280921936, -0.47456660866737366, 0.26845479011535645, 0.34949934482574463, 0.2808166444301605, 0.4770028293132782, 0.46156957745552063, -0.17024198174476624, -0.11690844595432281, 0.2906089723110199, 0.11334268748760223, -0.11958526074886322, -0.13069112598896027, 0.14622485637664795, -0.17000950872898102, 0.3727327585220337, 0.07990636676549911, 0.4341139793395996, -0.374459445476532, 0.3124386966228485, 0.3182569444179535, -0.06716112047433853, 0.3089545965194702, 0.23285908997058868, -0.4102121889591217, -0.18947120010852814, 0.05906926095485687, -0.5898566246032715, 0.11077997833490372, 0.40064728260040283, -0.31792986392974854, 0.1256721317768097, 0.04595368728041649, 0.14867982268333435, -0.1031256765127182], [-0.1435975879430771, 0.6330840587615967, 0.1297774761915207, 0.5610805749893188, -1.0331555604934692, 0.28123530745506287, -0.01440088264644146, 0.29868030548095703, -0.17794078588485718, 0.15080340206623077, 0.28010815382003784, 0.22205178439617157, 0.3271576166152954, 0.41139188408851624, 0.3571757972240448, 0.027359232306480408, 0.031834427267313004, 0.5823664665222168, 0.4541000723838806, 0.19138766825199127, -0.2897084951400757, 0.43170249462127686, 0.05601030960679054, 0.4431629478931427, -0.024048147723078728, 0.39232325553894043, 0.4205870032310486, 0.5311812162399292, 0.3221832811832428, 0.15170367062091827, -1.2711278200149536, 0.5081992745399475, 0.3278816044330597, 0.5630315542221069, -0.18136265873908997, 0.4561828672885895, 0.18349766731262207, 0.3007061183452606, 0.5486890077590942, 0.5459136366844177, -0.016756566241383553, 0.2742493748664856, 0.09997162222862244, 0.45602524280548096, 0.29941147565841675, 0.5727436542510986, 0.2605453133583069, -0.05987207591533661, 0.49314460158348083, 0.42830225825309753, 0.006327230017632246, 0.35555729269981384, 0.1562132090330124, -0.9933738112449646, -0.010117200203239918, 0.40175291895866394, -1.0716278553009033, 0.4558475911617279, 0.5834317803382874, -0.8086344003677368, 0.4256857931613922, 0.2484246790409088, 0.3999648988246918, 0.2786681652069092], [-0.1921161264181137, -0.48888519406318665, 0.3340674042701721, -0.4155712425708771, 0.8779991865158081, -0.5207847952842712, 0.40383464097976685, -0.35007035732269287, 0.4083815813064575, 0.5245885252952576, -0.3764432370662689, 0.450459748506546, -0.30542880296707153, -0.4681693911552429, 0.5417733788490295, 0.023332888260483742, 0.3900645971298218, -0.6102742552757263, -0.6034355163574219, 0.37363141775131226, -0.17625057697296143, -0.3418236970901489, 0.21270790696144104, -0.2280033677816391, -0.4585755169391632, 0.49946334958076477, -0.11526574194431305, -0.5930777192115784, -0.4360359311103821, 0.5325708985328674, 0.24407698214054108, -0.15460790693759918, -0.19489893317222595, -0.41256019473075867, -0.28796133399009705, -0.35090455412864685, 0.24114149808883667, 0.25598570704460144, -0.4138108193874359, -0.47705692052841187, 0.20085877180099487, -0.19345781207084656, -0.0466206893324852, 0.0638897642493248, -0.1549319624900818, -0.47577965259552, -0.551267147064209, 0.5563488602638245, -0.40078747272491455, -0.22135162353515625, 0.47352850437164307, -0.3569948375225067, 0.41163480281829834, 0.5843105316162109, 0.16270051896572113, -0.3880866765975952, 0.41284897923469543, -0.19670815765857697, -0.5227324962615967, 0.2693324089050293, -0.5129789710044861, 0.2888098955154419, -0.40325573086738586, 0.5060768127441406], [0.09691765159368515, -0.2772394120693207, 1.34156334400177, -0.17552900314331055, 0.05048937350511551, -0.402286171913147, 0.7356094121932983, -0.31281307339668274, 0.7266555428504944, 1.3036956787109375, -0.5624327063560486, 0.8010486364364624, -0.36548545956611633, -0.5856573581695557, 1.051586627960205, 0.28300437331199646, 0.7344152331352234, -0.3114451766014099, -0.48937565088272095, 1.2286239862442017, 0.22449791431427002, -0.4180227816104889, 0.30854541063308716, -0.4107249975204468, 0.01182128582149744, 1.0625354051589966, -0.5849283337593079, -0.2330453097820282, -0.6156001091003418, 0.7751961946487427, -0.3957318663597107, -0.5663884878158569, -0.3883158564567566, -0.3190954029560089, 0.0707433745265007, -0.42799660563468933, 1.1038583517074585, 1.3832606077194214, -0.42089948058128357, -0.500466525554657, 0.8217868208885193, 0.46165284514427185, 1.0601818561553955, 1.2564738988876343, -0.5954704284667969, -0.4416730999946594, -0.2931846082210541, 0.9808943271636963, -0.6320882439613342, -0.48225337266921997, 1.1925946474075317, -0.3731500804424286, 1.3375883102416992, -0.0021471602376550436, 0.763969898223877, -0.29085013270378113, -0.15085439383983612, -0.3095409870147705, -0.23524197936058044, -0.047663088887929916, -0.4377181828022003, 0.5598850846290588, -0.6472830772399902, 1.3300349712371826], [-1.1353720426559448, 0.12410943955183029, 0.2388617992401123, 0.39711642265319824, 0.42931073904037476, 0.17342114448547363, 0.47293660044670105, 0.3594614565372467, 0.6176178455352783, 0.6604965329170227, 0.24832071363925934, 0.13033093512058258, 0.05657976493239403, 0.10753697156906128, 0.6135071516036987, -0.4688511788845062, 0.5318306088447571, 0.32571306824684143, 0.28779974579811096, 0.5606664419174194, -1.294097661972046, 0.40260323882102966, -0.07903371751308441, 0.23069031536579132, -1.4145817756652832, 0.3668718636035919, 0.21262459456920624, 0.1893586814403534, 0.18880333006381989, 0.8418202996253967, -0.38024023175239563, 0.16320466995239258, 0.4133707582950592, 0.017826391384005547, -0.9223808646202087, 0.19876065850257874, 0.5382488369941711, 0.5354793667793274, 0.09120208770036697, 0.027078691869974136, 0.3923785090446472, -0.5624591708183289, 0.13144350051879883, 0.3222526013851166, 0.12887488305568695, 0.07563023269176483, 0.2881089448928833, 0.9106874465942383, 0.37061071395874023, 0.004582105204463005, 0.34681275486946106, 0.05880025774240494, 0.36913010478019714, 0.012852916494011879, 0.3382773697376251, 0.025625446811318398, -0.7592146396636963, 0.3389032781124115, 0.32055795192718506, -0.6526267528533936, 0.37947726249694824, -0.07974209636449814, 0.22121122479438782, 0.5071141719818115], [0.2287258505821228, -0.6290310025215149, -0.35580670833587646, -0.46579888463020325, 0.5614815354347229, -0.5518114566802979, 0.013405819423496723, -0.46926748752593994, 0.24542877078056335, -0.06168941408395767, -0.6253616213798523, 0.05353483557701111, -0.6692836284637451, -0.5992710590362549, -0.1405356079339981, 0.3429204523563385, 0.03992873802781105, -0.6095607876777649, -0.4813903272151947, -0.2924368381500244, 0.5434246063232422, -0.6224990487098694, 0.01438556332141161, -0.6244223117828369, 0.46163713932037354, -0.212217777967453, -0.2734430134296417, -0.6544865965843201, -0.18521884083747864, -0.21729746460914612, 1.3128327131271362, -0.48570016026496887, -0.4911261796951294, -0.4522549510002136, 0.26024216413497925, -0.6095156669616699, -0.2698304057121277, -0.27456435561180115, -0.48327428102493286, -0.4040944278240204, -0.36767515540122986, 0.17196430265903473, -0.3851754665374756, -0.1227302998304367, -0.5252444744110107, -0.4378810226917267, -0.6318613290786743, 0.117299385368824, -0.6049913763999939, -0.1888820379972458, -0.3172076642513275, -0.6852114796638489, -0.35613712668418884, 0.682888925075531, -0.0586385652422905, -0.7411011457443237, 1.3010507822036743, -0.3162814974784851, -0.4862540066242218, 1.2150400876998901, -0.644852876663208, -0.12078408896923065, -0.2756443917751312, -0.30067843198776245], [0.6611127853393555, -0.3377811908721924, 0.5008637309074402, -0.4550551772117615, 0.07108738273382187, -0.5158517360687256, 0.2798454165458679, -0.5234165191650391, -0.21488000452518463, 0.48260757327079773, -0.4377883970737457, 0.3545937240123749, -0.49119237065315247, -0.20964893698692322, 0.28000906109809875, 0.49999693036079407, 0.21475738286972046, -0.20120789110660553, -0.5191367268562317, 0.2183409184217453, 0.45230111479759216, -0.3921845555305481, 0.6213011741638184, -0.5744732022285461, 0.6261141300201416, 0.34120476245880127, -0.3994203209877014, -0.48165926337242126, -0.5875765085220337, 0.057728104293346405, -0.09786510467529297, -0.5382978320121765, -0.3551177382469177, -0.43490925431251526, 0.6146203875541687, -0.3774028420448303, 0.5179718136787415, 0.38521674275398254, -0.24567294120788574, -0.28258079290390015, 0.11669940501451492, 0.7575005292892456, 0.469143271446228, 0.4339492619037628, -0.40767902135849, -0.487845242023468, -0.3020261526107788, -0.12838095426559448, -0.4091160297393799, -0.4033975601196289, 0.26147305965423584, -0.554276704788208, 0.6282228827476501, 0.19153638184070587, 0.1576230525970459, -0.5990849137306213, 0.11522385478019714, -0.5786522626876831, -0.21701136231422424, -0.05553906410932541, -0.4750541150569916, 0.3101588785648346, -0.494002103805542, 0.43443095684051514], [0.023170368745923042, -0.6526230573654175, -0.05835874378681183, -0.4219788908958435, 1.0737520456314087, -0.685866117477417, 0.021564818918704987, -0.5630285739898682, 0.43193697929382324, -0.048540618270635605, -0.46081575751304626, -0.14543873071670532, -0.7152823805809021, -0.5996127128601074, -0.02451099455356598, -0.12205351889133453, -0.025930453091859818, -0.718759298324585, -0.5696380734443665, -0.041191913187503815, -0.06032346561551094, -0.6979174017906189, 0.12174930423498154, -0.33368077874183655, -0.0010055911261588335, 0.03823338821530342, -0.575413703918457, -0.4078354835510254, -0.3696000277996063, 0.3992328643798828, 0.5965551137924194, -0.4150463938713074, -0.5097284317016602, -0.46499791741371155, 0.1304747760295868, -0.34063881635665894, 0.01131471898406744, 0.06266044825315475, -0.42050397396087646, -0.35014981031417847, -0.11911379545927048, 0.018505321815609932, 0.028590114787220955, -0.3045635521411896, -0.39469221234321594, -0.7549355626106262, -0.46738600730895996, 0.2850591838359833, -0.6262349486351013, -0.4953397214412689, 0.17049306631088257, -0.3704637885093689, -0.2400963306427002, 0.9482176899909973, 0.10864609479904175, -0.6788836717605591, 0.6781460642814636, -0.19789400696754456, -0.5166340470314026, 0.7315255999565125, -0.6182180047035217, 0.10430658608675003, -0.6399452686309814, 0.08769593387842178], [-0.14279994368553162, 0.27426472306251526, 0.10187438875436783, 0.3050288259983063, -0.739030659198761, 0.6359476447105408, 0.12878216803073883, 0.28608015179634094, 0.01052179653197527, 0.3254777491092682, 0.47543591260910034, 0.2674258053302765, 0.29231253266334534, 0.49288657307624817, 0.236017107963562, -0.09107082337141037, 0.2676180601119995, 0.521034300327301, 0.451739639043808, 0.15545852482318878, -0.20096763968467712, 0.4787279963493347, -0.100713811814785, 0.4453793466091156, 0.12082086503505707, -0.03223039209842682, 0.36261218786239624, 0.31804636120796204, 0.3764752149581909, -0.13942597806453705, -1.2461516857147217, 0.3314087390899658, 0.5355814695358276, 0.5366986393928528, -0.22221040725708008, 0.3775770366191864, 0.4091257154941559, 0.021294759586453438, 0.541395902633667, 0.4632575511932373, 0.04202182963490486, 0.06815873831510544, 0.26921796798706055, 0.36217960715293884, 0.49668216705322266, 0.49668240547180176, 0.4746443033218384, -0.17914557456970215, 0.28244078159332275, 0.3941709101200104, 0.33138877153396606, 0.30254364013671875, 0.4442114531993866, -0.9536973834037781, 0.14751414954662323, 0.6066021919250488, -0.8866360783576965, 0.22362998127937317, 0.6410800814628601, -0.8269134163856506, 0.5340859293937683, 0.32840099930763245, 0.5783362984657288, 0.014062128961086273], [0.08255989849567413, 0.015100275166332722, -0.2618378698825836, 0.21701036393642426, -0.021281518042087555, -0.03352752700448036, -0.22937096655368805, 0.30890557169914246, -0.2511005997657776, -0.38866958022117615, 0.11323459446430206, -0.19302701950073242, 0.10789927840232849, 0.10922137647867203, -0.49690744280815125, -0.1208917573094368, -0.4349328279495239, 0.07937553524971008, 0.17883534729480743, -0.3381483256816864, 0.03286810219287872, 0.06313426047563553, -0.16026608645915985, 0.05276047810912132, 0.29662907123565674, -0.546917736530304, 0.3755751848220825, 0.1626473218202591, 0.24853914976119995, -0.11548878252506256, 0.16811010241508484, 0.16251122951507568, 0.3884996175765991, 0.07083876430988312, 0.028972530737519264, 0.34073811769485474, -0.38813135027885437, -0.3749416768550873, 0.004086006432771683, 0.13776180148124695, -0.1901692897081375, 0.1301596760749817, -0.216077983379364, -0.6469382047653198, 0.3183182179927826, 0.052635837346315384, -0.028839372098445892, 0.10590405017137527, 0.3794798254966736, 0.36446312069892883, -0.3807515501976013, 0.044090013951063156, -0.6845740675926208, 0.005910023115575314, -0.3781946897506714, 0.27038222551345825, 0.3186158239841461, 0.3704219162464142, 0.1444227695465088, -0.08993153274059296, 0.09688404947519302, -0.24960854649543762, 0.010710973292589188, -0.4979151785373688], [0.6631591320037842, -0.5873419642448425, 0.6470175981521606, -0.525923490524292, -0.18952450156211853, -0.6763843894004822, 0.47022712230682373, -0.29898741841316223, 0.03308022767305374, 0.5260182619094849, -0.701975405216217, 0.30852383375167847, -0.5594395995140076, -0.6467226147651672, 0.5997459888458252, 0.5199057459831238, 0.36706995964050293, -0.3429384231567383, -0.6244991421699524, 0.5783565044403076, 0.3425011932849884, -0.5318448543548584, 0.7344681024551392, -0.6403861045837402, 0.5790411829948425, 0.18819306790828705, -0.6127582788467407, -0.6301833987236023, -0.7411347031593323, 0.10289112478494644, -0.15838834643363953, -0.6165372729301453, -0.31685006618499756, -0.742663562297821, 0.3728061318397522, -0.31284111738204956, 0.4312962591648102, 0.45108330249786377, -0.7115899920463562, -0.4757036864757538, 0.27270931005477905, 0.7641610503196716, 0.36526766419410706, 0.3805388808250427, -0.362167090177536, -0.7205153703689575, -0.501117467880249, -0.22484172880649567, -0.446139931678772, -0.7499135732650757, 0.531271755695343, -0.6793177127838135, 0.4175100326538086, 0.1933215856552124, 0.44295504689216614, -0.5216180086135864, 0.17340028285980225, -0.4605000913143158, -0.3273739814758301, 0.2513364553451538, -0.5585917830467224, 0.45991936326026917, -0.502973735332489, 0.2623078525066376], [-0.14475637674331665, 0.07494429498910904, -0.4862402081489563, 0.026559067890048027, 0.2787880599498749, 0.28011637926101685, -0.39157217741012573, -0.09640136361122131, -0.09715770930051804, -0.5149001479148865, 0.03429378941655159, -0.38767167925834656, 0.271480917930603, 0.2919422388076782, -0.6711291074752808, -0.35607054829597473, -0.44126221537590027, 0.22464120388031006, 0.27108314633369446, -0.5091759562492371, 0.07565712183713913, -0.0836174488067627, -0.23072686791419983, 0.1767367273569107, 0.046514708548784256, -0.7217505574226379, 0.05462300777435303, 0.2799919545650482, 0.010572475381195545, -0.4033769369125366, 0.2139316350221634, 0.04463119059801102, -0.00625507952645421, 0.25003400444984436, -0.03768356889486313, 0.19021189212799072, -0.6521550416946411, -0.6763095259666443, 0.14686807990074158, 0.2556520402431488, -0.33351263403892517, -0.2877756655216217, -0.43046870827674866, -0.5131009221076965, 0.11127351969480515, 0.03722718730568886, 0.0869683101773262, -0.39508920907974243, 0.2114875316619873, 0.3551419675350189, -0.6907823085784912, 0.21519699692726135, -0.5518081188201904, -0.02228342927992344, -0.5448726415634155, -0.0835077241063118, 0.09453663229942322, 0.24706313014030457, 0.07372735440731049, 0.041720692068338394, 0.3110225200653076, -0.5774182677268982, 0.21689867973327637, -0.31942445039749146], [0.3715675473213196, -0.208018958568573, 0.2884975075721741, -0.22894927859306335, -0.08146123588085175, -0.05373353883624077, 0.34425318241119385, -0.24035556614398956, -0.06793108582496643, 0.17987756431102753, -0.1272382140159607, 0.3559413552284241, -0.14452199637889862, -0.34524843096733093, 0.24478931725025177, 0.15321601927280426, 0.2109050154685974, -0.430538147687912, -0.4008580148220062, 0.45251962542533875, 0.21261008083820343, -0.2277880162000656, 0.3186756372451782, -0.40732818841934204, 0.47599783539772034, 0.3664938807487488, -0.4651230573654175, -0.11192266643047333, -0.31797128915786743, 0.02472628653049469, 0.2106374353170395, -0.35942620038986206, -0.4817827343940735, -0.31026148796081543, 0.5231348872184753, -0.1951466202735901, 0.4888319671154022, 0.1841968595981598, -0.4658253490924835, -0.37918591499328613, 0.09501482546329498, 0.431438148021698, 0.5419917106628418, 0.2882036566734314, -0.46712154150009155, -0.11917424947023392, -0.4136413335800171, -0.31292203068733215, -0.2986133396625519, -0.4421071708202362, 0.45304054021835327, -0.4295538365840912, 0.6711841821670532, -0.17892715334892273, 0.26901334524154663, -0.05839607119560242, -0.17093732953071594, -0.27845481038093567, -0.36266443133354187, 0.20049592852592468, -0.3010871112346649, 0.5036850571632385, -0.45491278171539307, 0.2956502139568329], [0.2849418520927429, -0.743984043598175, -0.14820435643196106, -0.5893304944038391, 0.6972469091415405, -0.6062973141670227, -0.24190038442611694, -0.6439204216003418, 0.2935676872730255, -0.1719980686903, -0.7406545281410217, -0.10069598257541656, -0.5246503949165344, -0.5234489440917969, -0.1567993462085724, 0.25313982367515564, 0.04248931258916855, -0.5355781316757202, -0.8382770419120789, 0.01721999980509281, 0.5045415163040161, -0.7177096009254456, 0.15764737129211426, -0.795127272605896, 0.1797517091035843, -0.2162998616695404, -0.44485795497894287, -0.5696504712104797, -0.4123625159263611, 0.18027156591415405, 1.1419633626937866, -0.3829183280467987, -0.8503252863883972, -0.5983090996742249, 0.431774765253067, -0.5769805908203125, -0.21208176016807556, -0.13331201672554016, -0.8635191321372986, -0.666049599647522, 0.014694960787892342, -0.03546023368835449, -0.14672094583511353, -0.36579322814941406, -0.5058804750442505, -0.7505108714103699, -0.5008316040039062, 0.09187819063663483, -0.6619580984115601, -0.4432401657104492, 0.010114134289324284, -0.7705438733100891, -0.32104843854904175, 0.8543818593025208, -0.19256603717803955, -0.7385154366493225, 1.342100977897644, -0.6504193544387817, -0.7334794402122498, 1.1380277872085571, -0.5493446588516235, -0.25441470742225647, -0.7169466614723206, -0.21537820994853973], [0.4109053611755371, -0.2540103793144226, -0.14796976745128632, -0.32497793436050415, 0.31565067172050476, -0.433103084564209, -0.27094778418540955, -0.5053096413612366, -0.40790852904319763, 0.03149715065956116, -0.401631623506546, 0.05683539807796478, -0.24206915497779846, -0.4834308922290802, -0.17429065704345703, 0.15767210721969604, -0.028936997056007385, -0.19950464367866516, -0.18528997898101807, -0.049109529703855515, -0.032753895968198776, -0.5659404397010803, 0.13364002108573914, -0.3356236219406128, 0.04122959077358246, -0.32984086871147156, -0.2560427188873291, -0.4473997950553894, -0.19841158390045166, -0.27137789130210876, 0.38341033458709717, -0.08263852447271347, -0.24764223396778107, -0.3498341739177704, 0.32164376974105835, -0.4641381800174713, -0.011757202446460724, -0.21032081544399261, -0.2591848373413086, -0.367442786693573, -0.3646771311759949, 0.33275991678237915, -0.03953323885798454, -0.21799126267433167, -0.27577340602874756, -0.32406988739967346, -0.3742203712463379, -0.24836991727352142, -0.3256349563598633, -0.35494163632392883, -0.36597663164138794, -0.5757362246513367, -0.2786175310611725, 0.18930639326572418, -0.08807716518640518, -0.6068626046180725, 0.23858098685741425, -0.17176926136016846, -0.5416048169136047, 0.1608397513628006, -0.49599143862724304, 0.09413941204547882, -0.23693835735321045, -0.05693310871720314], [-0.05990146845579147, 0.03442488983273506, 0.16967207193374634, 0.039717528969049454, -0.05193259194493294, -0.3419584035873413, -0.032904982566833496, -0.22718144953250885, -0.3715519309043884, 0.1411733329296112, 0.06507086008787155, -0.15558695793151855, -0.09656458348035812, -0.07684604823589325, -0.05053560435771942, -0.05439034476876259, 0.08686454594135284, -0.1006530299782753, -0.24085363745689392, 0.12810608744621277, -0.3885412812232971, -0.030320215970277786, -0.16034549474716187, -0.3576511740684509, -0.4147060811519623, 0.0644044354557991, -0.19365057349205017, -0.30535832047462463, -0.16845136880874634, -0.17707785964012146, -0.15399304032325745, -0.3340744376182556, -0.027765564620494843, 0.021621402353048325, -0.13294480741024017, -0.17462094128131866, 0.14774654805660248, -0.04573395848274231, -0.30525559186935425, -0.1678714007139206, 0.02974255196750164, 0.19280435144901276, -0.035426560789346695, 0.058194998651742935, -0.20862528681755066, -0.12793423235416412, -0.17059466242790222, -0.3187500536441803, -0.049745991826057434, -0.21430332958698273, 0.014331135898828506, -0.3712143898010254, -0.07002823799848557, -0.011892066337168217, 0.06033769249916077, -0.14381563663482666, -0.1311752051115036, -0.21532031893730164, -0.307801216840744, -0.09552551805973053, -0.20754174888134003, -0.0443185456097126, -0.32494938373565674, 0.18164950609207153], [0.3941704034805298, 0.20689904689788818, 0.0636557787656784, 0.34982845187187195, -0.7562339305877686, 0.3184581995010376, -0.11069116741418839, 0.45986926555633545, -0.3525961637496948, 0.11007564514875412, 0.5460302233695984, 0.156343013048172, 0.3878716230392456, 0.3770669400691986, -0.010422092862427235, 0.09143944084644318, -0.1468057483434677, 0.34751006960868835, 0.2204383909702301, 0.24519622325897217, -0.030332500115036964, 0.6123988032341003, 0.10530707985162735, 0.5798553824424744, 0.14630453288555145, -0.07197404652833939, 0.5848192572593689, 0.2117478847503662, 0.20777367055416107, -0.3706347942352295, -0.3678155243396759, 0.4673233926296234, 0.2708025276660919, 0.5718626976013184, 0.3963010609149933, 0.5680044293403625, 0.18743149936199188, -0.0421622097492218, 0.3594966232776642, 0.6030333042144775, -0.21018275618553162, -0.04649381712079048, 0.14198212325572968, 0.28708842396736145, 0.3989185690879822, 0.45789635181427, 0.4725703001022339, -0.18328380584716797, 0.28070157766342163, 0.5268296003341675, 0.06907916069030762, 0.5330352783203125, 0.21391251683235168, -0.5954118967056274, -0.08248855173587799, 0.6176834106445312, -0.6876416802406311, 0.36991173028945923, 0.2417391985654831, -0.633025586605072, 0.3320569396018982, -0.020763911306858063, 0.39801111817359924, 0.08197708427906036], [-0.2005862593650818, -0.150370255112648, 0.4067932367324829, -0.335834264755249, 1.0524482727050781, -0.2748323678970337, 0.5235140919685364, -0.17877602577209473, 0.8286715745925903, 0.447456955909729, -0.3581915497779846, 0.5397968888282776, -0.1734241545200348, -0.4291171431541443, 0.6274851560592651, -0.04950051009654999, 0.25326234102249146, -0.3637022376060486, -0.412560373544693, 0.4227425754070282, -0.6022981405258179, -0.14088550209999084, -0.12668490409851074, -0.2915365695953369, -0.35256505012512207, 0.5523650050163269, -0.30305108428001404, -0.3349185883998871, -0.4532387852668762, 0.42059630155563354, -0.043450333178043365, -0.22569243609905243, -0.43028613924980164, -0.25779110193252563, -0.4860239624977112, -0.28950798511505127, 0.5403615832328796, 0.4973502457141876, -0.4125426113605499, -0.28483399748802185, 0.5997922420501709, -0.2886508107185364, 0.21777203679084778, 0.29644715785980225, -0.11586716771125793, -0.1597999781370163, -0.3629501163959503, 0.5513020753860474, -0.3419547379016876, -0.30400580167770386, 0.29911234974861145, -0.18805530667304993, 0.04282446578145027, 0.3719218373298645, 0.4771474003791809, -0.41727542877197266, 0.04444307088851929, -0.18205352127552032, -0.06544911116361618, -0.023577330633997917, -0.22843848168849945, 0.21662679314613342, -0.28942975401878357, 0.5876622200012207], [-0.036667730659246445, -0.351149320602417, -0.3427223861217499, -0.4557153880596161, 0.40771108865737915, -0.49544379115104675, -0.20443983376026154, -0.4119039475917816, -0.04153883457183838, 0.021166739985346794, -0.1936376690864563, -0.42432746291160583, -0.26626235246658325, -0.39809006452560425, -0.1705532819032669, -0.30284950137138367, -0.04340435937047005, -0.37317177653312683, -0.1603931039571762, -0.011862032115459442, -0.046836238354444504, -0.49264249205589294, -0.055476509034633636, -0.32310283184051514, -0.4378703832626343, -0.34564799070358276, -0.1014932245016098, -0.06287229806184769, -0.17885532975196838, 0.10094067454338074, 0.7547767162322998, -0.14795880019664764, -0.15016232430934906, -0.09375495463609695, -0.11228843778371811, -0.3569437563419342, -0.22034551203250885, -0.34064847230911255, -0.514454185962677, -0.4479525089263916, -0.19857391715049744, -0.04679560661315918, -0.10645799338817596, -0.3975333869457245, -0.1783311814069748, -0.12617653608322144, -0.139921173453331, 0.16061586141586304, -0.3256462812423706, -0.193398579955101, -0.024945082142949104, -0.4402647614479065, -0.1978730410337448, 0.5526224970817566, -0.18627512454986572, -0.1654176414012909, 0.47134870290756226, -0.1733679473400116, -0.3738411068916321, 0.5652832984924316, -0.5187914967536926, -0.06403431296348572, -0.050603389739990234, -0.28591376543045044], [-0.035078536719083786, 0.6458762884140015, 0.060039568692445755, 0.2659083306789398, -0.8880850672721863, 0.5516617894172668, 0.20440126955509186, 0.25383657217025757, -0.16125701367855072, -0.23171484470367432, 0.49121183156967163, -0.1695377081632614, 0.35024648904800415, 0.4756667912006378, 0.07341655343770981, 0.015557598322629929, -0.1689131259918213, 0.3374701738357544, 0.5475389361381531, -0.11291803419589996, 0.36740177869796753, 0.42985764145851135, 0.18587066233158112, 0.25453314185142517, -0.002891677664592862, -0.08119277656078339, 0.44796279072761536, 0.5982640981674194, 0.3730674386024475, -0.28174346685409546, -0.7027434706687927, 0.45908400416374207, 0.48093971610069275, 0.5293185114860535, 0.32972607016563416, 0.39114952087402344, -0.10375948995351791, 0.004956661257892847, 0.47457942366600037, 0.44392043352127075, 0.005574412643909454, -0.03868472948670387, 0.17282894253730774, -0.04802143946290016, 0.25319138169288635, 0.31789901852607727, 0.45238322019577026, -0.14391988515853882, 0.2571384012699127, 0.13263261318206787, 0.017915716394782066, 0.5402359366416931, 0.021923238411545753, -0.887336015701294, -0.01568949967622757, 0.6313295960426331, -0.6308535933494568, 0.21972134709358215, 0.5479797124862671, -0.7152899503707886, 0.3930407464504242, -0.06733325868844986, 0.42879635095596313, -0.011392530985176563], [-0.05173318460583687, 0.08993791043758392, -0.0019952813163399696, -0.26825428009033203, 0.264480322599411, -0.10303901880979538, 0.13081778585910797, -0.1831432729959488, -0.08242984116077423, -0.2484307438135147, -0.1826980859041214, -0.18491904437541962, -0.059549253433942795, 0.023257195949554443, -0.03303617984056473, -0.15143372118473053, -0.2737480700016022, -0.14461056888103485, -0.027885040268301964, -0.0890270471572876, -0.11164746433496475, -0.12082584947347641, -0.27647075057029724, -0.14198605716228485, -0.029620930552482605, -0.147406667470932, -0.3623206913471222, -0.05404656007885933, 0.034766942262649536, -0.022206034511327744, 0.026403339579701424, -0.26342877745628357, -0.017042726278305054, -0.23762935400009155, -0.2455267608165741, -0.26296716928482056, 0.14989031851291656, -0.14287962019443512, -0.19034697115421295, -0.23114359378814697, -0.1347661316394806, 0.15126237273216248, -0.030162641778588295, -0.03686496615409851, 0.0162443108856678, -0.10539574921131134, -0.3079870343208313, -0.12204498797655106, -0.315323144197464, -0.36776435375213623, -0.18903951346874237, -0.06523216515779495, -0.1110427975654602, 0.20851263403892517, -0.09204432368278503, -0.05188414454460144, 0.1218281239271164, -0.2153014987707138, -0.06216699630022049, 0.3419489860534668, -0.2630360424518585, -0.20033249258995056, -0.13352248072624207, 0.07989124208688736], [0.4049578905105591, -0.47427359223365784, 0.19062969088554382, -0.07887280732393265, 0.019817857071757317, -0.06856057047843933, 0.22457319498062134, -0.4553498327732086, -0.3702721893787384, 0.17882317304611206, -0.327997088432312, 0.23346365988254547, -0.26595982909202576, -0.41565144062042236, 0.171586811542511, 0.5449486374855042, 0.3163658380508423, -0.4357144832611084, -0.23249810934066772, 0.269959956407547, 0.36997169256210327, -0.2416946440935135, 0.3713929057121277, -0.41618627309799194, 0.3511751592159271, -0.07169146090745926, -0.5145182013511658, -0.20703984797000885, -0.3516458570957184, -0.24964064359664917, 0.21214517951011658, -0.35649552941322327, -0.43300729990005493, -0.19871103763580322, 0.43849390745162964, -0.3047344982624054, 0.3423219919204712, 0.18468724191188812, -0.1349855214357376, -0.4755419194698334, -0.05928104370832443, 0.31138738989830017, 0.21859921514987946, 0.4980890154838562, -0.3826406002044678, -0.24494434893131256, -0.13885805010795593, -0.4096902906894684, -0.5049905180931091, -0.503130316734314, 0.29618698358535767, -0.10293319821357727, 0.15359768271446228, 0.08856763690710068, 0.2505561411380768, -0.239293172955513, 0.29240867495536804, -0.4406166672706604, -0.3093827962875366, 0.10801513493061066, -0.45558980107307434, 0.34866806864738464, -0.4239632785320282, 0.09297601133584976], [0.345626562833786, -0.3763885796070099, 1.0132806301116943, -0.23355373740196228, 0.18320868909358978, -0.38627371191978455, 0.7706029415130615, -0.19684374332427979, 0.5713832378387451, 0.8579647541046143, -0.3947734236717224, 0.589826226234436, -0.39557015895843506, -0.43559303879737854, 1.1422605514526367, 0.35245391726493835, 0.7700637578964233, -0.23596486449241638, -0.5870293378829956, 1.0421104431152344, 0.28096437454223633, -0.19001291692256927, 0.36412015557289124, -0.5808519721031189, 0.14054951071739197, 0.9118010997772217, -0.5262145400047302, -0.3923936188220978, -0.26589730381965637, 0.781362771987915, -0.01661035045981407, -0.6532553434371948, -0.6479598879814148, -0.5833784937858582, 0.3424574136734009, -0.625577449798584, 0.9777258038520813, 1.232329249382019, -0.43788033723831177, -0.5320942401885986, 0.9121356010437012, 0.7497060298919678, 1.0579679012298584, 1.011358618736267, -0.30792534351348877, -0.3371390104293823, -0.25339505076408386, 0.766090452671051, -0.6514469981193542, -0.35908955335617065, 0.760246753692627, -0.317970335483551, 1.2225347757339478, 0.013549255207180977, 0.6464971899986267, -0.5523878931999207, -0.34176743030548096, -0.6525026559829712, -0.23196597397327423, -0.11096740514039993, -0.2776769995689392, 0.6541071534156799, -0.5060811638832092, 1.1899025440216064], [-0.3935680091381073, 0.43894073367118835, -0.27438151836395264, 0.081107959151268, -0.03017449378967285, 0.4329867959022522, -0.36282795667648315, 0.16705648601055145, 0.07674989104270935, -0.019598519429564476, 0.46702975034713745, -0.07265367358922958, 0.3840963840484619, 0.2934141457080841, -0.2503572702407837, -0.4500093162059784, -0.3052351474761963, 0.15580111742019653, 0.27523940801620483, -0.016536947339773178, -0.4221560060977936, 0.30644235014915466, -0.1342611014842987, 0.3074686527252197, -0.13459977507591248, -0.1821712702512741, 0.513903021812439, 0.34310659766197205, 0.4977538585662842, 0.24486808478832245, 0.1762973815202713, 0.41040682792663574, 0.3513450026512146, 0.3240111768245697, -0.23794397711753845, 0.42038944363594055, -0.34635666012763977, -0.4046339690685272, 0.49508488178253174, 0.1845802515745163, -0.3220805525779724, -0.22985602915287018, -0.2065458595752716, -0.41936323046684265, 0.2589944303035736, 0.0809861272573471, 0.4848400354385376, 0.17529495060443878, 0.14939171075820923, 0.4908880889415741, -0.10687830299139023, 0.21264700591564178, -0.5559443235397339, -0.1578417271375656, -0.10400544852018356, 0.38636770844459534, -0.054631128907203674, 0.2715325355529785, 0.26588723063468933, -0.1270252913236618, 0.05818311497569084, -0.09674516320228577, 0.3805857002735138, -0.24608619511127472], [0.3298642933368683, 0.48154833912849426, 0.24701882898807526, 0.471176415681839, -0.8459439873695374, 0.3343002200126648, -0.051777247339487076, 0.3703524172306061, -0.42635247111320496, -0.04121877998113632, 0.39779990911483765, -0.18031661212444305, 0.1781996637582779, 0.286810964345932, 0.13923972845077515, 0.16569562256336212, 0.1195799857378006, 0.1130572035908699, 0.4351091682910919, 0.06339611113071442, 0.40139663219451904, 0.17444798350334167, -0.06202441453933716, 0.12344305217266083, 0.24340121448040009, -0.01635049656033516, 0.33249959349632263, 0.47044748067855835, 0.3911716043949127, -0.16043828427791595, -0.48113662004470825, 0.26997801661491394, 0.178243488073349, 0.4173475503921509, 0.25197869539260864, 0.3903612494468689, -0.04078559949994087, 0.22317342460155487, 0.28951871395111084, 0.5191032886505127, 0.07680607587099075, 0.11581341922283173, 0.24223163723945618, 0.13406707346439362, 0.32321467995643616, 0.27952077984809875, 0.4899953305721283, -0.28438103199005127, 0.4656206965446472, 0.4793303608894348, 0.16295845806598663, 0.4507630467414856, 0.25257715582847595, -0.3869428336620331, -0.2337292730808258, 0.13136887550354004, -0.4466891586780548, 0.19243498146533966, 0.23700347542762756, -0.4894481897354126, 0.18799112737178802, 0.04883991554379463, 0.4504642188549042, 0.19339920580387115], [0.1295611709356308, -0.7746599316596985, -0.3908633887767792, -0.7058436274528503, 0.8269369602203369, -0.4863603115081787, -0.05780011788010597, -0.756977379322052, 0.2962912619113922, -0.3025561571121216, -0.4021972417831421, -0.11420253664255142, -0.3724251687526703, -0.5297794342041016, -0.11855755001306534, 0.19120340049266815, -0.19451870024204254, -0.5429251194000244, -0.533684492111206, -0.09311287850141525, 0.44243377447128296, -0.5639718770980835, -0.09277299046516418, -0.312366247177124, 0.1478216052055359, -0.0876946970820427, -0.6206501126289368, -0.5921066403388977, -0.2922305464744568, -0.02840929850935936, 0.9581195116043091, -0.4149492084980011, -0.5717264413833618, -0.44305914640426636, 0.3203328549861908, -0.6914900541305542, -0.4035903513431549, -0.19727648794651031, -0.7522574663162231, -0.5571885704994202, -0.16732099652290344, -0.17866472899913788, -0.14349287748336792, -0.17662467062473297, -0.5438753962516785, -0.45672082901000977, -0.644844114780426, -0.03637433052062988, -0.3225284218788147, -0.4416675567626953, -0.2731119394302368, -0.7733259797096252, -0.10124122351408005, 1.065022349357605, -0.038376566022634506, -0.6119319200515747, 1.2242802381515503, -0.5312203764915466, -0.5383442640304565, 1.022207498550415, -0.6138215661048889, -0.1285468190908432, -0.28809595108032227, -0.4318699240684509], [0.06158994883298874, 0.2813827395439148, 0.05754091963171959, 0.44215700030326843, -0.45721444487571716, 0.2956940233707428, 0.3155849277973175, 0.35292160511016846, 0.13519030809402466, 0.2144116312265396, 0.18697881698608398, 0.3224934935569763, 0.05492272973060608, 0.2974711060523987, 0.06731338798999786, -0.0589224174618721, 0.3027442693710327, 0.16216911375522614, 0.08367756009101868, 0.4815638065338135, -0.11744122207164764, 0.06216840818524361, 0.05156765505671501, 0.23945219814777374, -0.094864122569561, 0.4450455904006958, 0.23177672922611237, 0.1950565129518509, 0.37174198031425476, 0.43107134103775024, -0.7420522570610046, 0.34658387303352356, 0.17188076674938202, 0.22428546845912933, 0.06931675225496292, 0.2656751871109009, 0.17999716103076935, 0.2927674353122711, 0.22708968818187714, 0.1962573230266571, 0.38912054896354675, -0.058890797197818756, 0.2158271223306656, 0.4132518768310547, 0.3381503224372864, 0.3520596921443939, 0.13286420702934265, 0.4363850951194763, 0.1303655505180359, 0.17072881758213043, 0.26745739579200745, 0.3737410604953766, 0.3119945228099823, -0.8326663970947266, 0.3855709135532379, 0.4423437714576721, -0.8310903906822205, 0.3446306884288788, 0.3008590042591095, -0.5856367945671082, 0.23195308446884155, 0.17500442266464233, 0.2150106281042099, 0.44558316469192505], [-0.3755050599575043, 0.17988450825214386, -0.31550225615501404, 0.4390532076358795, 0.2783780097961426, 0.3867495059967041, -0.42448195815086365, 0.30220741033554077, 0.49419480562210083, 0.03638456016778946, 0.05753137916326523, -0.17749905586242676, 0.28773581981658936, 0.44159483909606934, -0.2596675157546997, -0.33911365270614624, -0.12582387030124664, 0.07791607826948166, 0.45151305198669434, -0.3671998083591461, -0.38161566853523254, 0.20707616209983826, -0.3726765215396881, 0.08020664751529694, -0.42759251594543457, -0.03696684539318085, 0.38815999031066895, 0.4668938219547272, 0.4769820272922516, 0.24495269358158112, -0.06777317076921463, 0.10802347213029861, 0.19491933286190033, 0.063700370490551, -0.6892725229263306, 0.20979081094264984, -0.09977510571479797, -0.3434910178184509, 0.4452577531337738, 0.4200748801231384, -0.17103004455566406, -0.7630645036697388, -0.529509425163269, -0.4928455054759979, 0.14896199107170105, 0.18874017894268036, 0.29822298884391785, 0.24304166436195374, 0.15632149577140808, 0.4335072636604309, -0.1590886116027832, 0.4262019693851471, -0.6017441153526306, -0.19364666938781738, -0.013328527100384235, 0.3431311547756195, 0.06068044155836105, 0.4055711328983307, 0.3058503270149231, 0.10700487345457077, 0.25158682465553284, -0.1899053454399109, 0.22883039712905884, -0.391394704580307], [0.43813928961753845, 0.3121912479400635, -0.09506761282682419, 0.1976405531167984, -0.9117742776870728, 0.16400596499443054, -0.23073285818099976, 0.17361225187778473, -0.5420078635215759, -0.5450225472450256, 0.169426828622818, -0.02866116724908352, 0.059503596276044846, 0.2164946049451828, -0.4232766032218933, 0.441640168428421, -0.027862930670380592, 0.391701340675354, 0.3608454763889313, -0.21766890585422516, 0.5483434200286865, 0.23820306360721588, 0.2449108362197876, 0.11829759180545807, 0.5695301294326782, -0.4378476142883301, 0.35981959104537964, 0.35740405321121216, 0.3849709630012512, -0.527345597743988, -0.6127161383628845, 0.17852942645549774, 0.2245531976222992, 0.11958219856023788, 0.1759386658668518, 0.2121267020702362, -0.18755726516246796, -0.07974883913993835, 0.41836559772491455, 0.01739785633981228, -0.21602483093738556, 0.20937691628932953, -0.028434809297323227, 0.04018307477235794, 0.18022124469280243, 0.1823212057352066, 0.22355245053768158, -0.6704314351081848, 0.07669755071401596, 0.3956265449523926, -0.22553476691246033, 0.29477009177207947, -0.26980987191200256, -0.705885112285614, -0.18478652834892273, 0.29524633288383484, -0.31615278124809265, -0.009534901939332485, 0.2994441092014313, -0.471169114112854, 0.13808287680149078, -0.04273815080523491, 0.13852202892303467, -0.37834662199020386], [0.5403539538383484, -0.4240607023239136, 0.8267266154289246, -0.23600059747695923, -0.009166715666651726, -0.5855269432067871, 0.9393926858901978, -0.27187493443489075, 0.14622831344604492, 0.8358308672904968, -0.5247892737388611, 0.8612299561500549, -0.44328245520591736, -0.6152995228767395, 0.7461638450622559, 0.54286789894104, 0.6409385204315186, -0.5553027391433716, -0.5821815729141235, 0.9922949075698853, 0.35723862051963806, -0.31246131658554077, 0.6793585419654846, -0.4734848439693451, 0.13715162873268127, 0.6460773348808289, -0.4506204128265381, -0.4564179480075836, -0.6231802701950073, 0.6226741671562195, -0.24463365972042084, -0.28041762113571167, -0.29814228415489197, -0.29802942276000977, 0.40274378657341003, -0.4427174925804138, 0.6390998363494873, 0.7890924215316772, -0.49113669991493225, -0.47094422578811646, 0.7991660237312317, 0.7313113808631897, 0.966890811920166, 0.8529211282730103, -0.6328299641609192, -0.34301313757896423, -0.5524954199790955, 0.24833746254444122, -0.591442883014679, -0.4905780255794525, 0.8467062711715698, -0.37032920122146606, 1.0221400260925293, 0.06451612710952759, 0.764301598072052, -0.375654011964798, -0.2866923213005066, -0.6964969635009766, -0.4121420979499817, -0.06150670349597931, -0.2067086547613144, 0.6505632996559143, -0.6728571057319641, 0.9588730335235596], [-0.215404212474823, -0.5235010981559753, 0.256181538105011, -0.256584495306015, 0.5579847097396851, -0.546963095664978, -0.07656422257423401, -0.43300363421440125, 0.3981723189353943, 0.408793181180954, -0.30198991298675537, 0.046039845794439316, -0.3288446068763733, -0.48326489329338074, 0.24843119084835052, -0.18019559979438782, 0.1588624119758606, -0.5506333112716675, -0.30845215916633606, -0.017487050965428352, -0.28286731243133545, -0.4593886137008667, -0.15999053418636322, -0.2703211307525635, -0.16311219334602356, 0.20118391513824463, -0.20889954268932343, -0.24732770025730133, -0.2383476048707962, 0.06893734633922577, 0.7219924330711365, -0.30717897415161133, -0.38119420409202576, -0.46021100878715515, -0.04637282341718674, -0.48026353120803833, 0.15670152008533478, 0.2035590559244156, -0.38217663764953613, -0.12487201392650604, 0.21019811928272247, 0.012109982781112194, 0.11666036397218704, 0.17932158708572388, -0.29725363850593567, -0.2723819613456726, -0.2196309119462967, 0.31336426734924316, -0.41580840945243835, -0.5144612193107605, 0.014097373001277447, -0.5921981334686279, 0.04879907891154289, 0.4387972056865692, 0.11921138316392899, -0.44823575019836426, 0.5789044499397278, -0.4767703115940094, -0.39169371128082275, 0.5638567805290222, -0.4699261486530304, -0.04200353845953941, -0.5301650166511536, -0.08236657828092575], [-0.2572617828845978, -0.5709905624389648, 0.07900602370500565, -0.36248186230659485, 0.8390969634056091, -0.6830596327781677, 0.09172593057155609, -0.6510131359100342, 0.18414916098117828, -0.07651735097169876, -0.36249518394470215, -0.26566094160079956, -0.3906686305999756, -0.6384341716766357, 0.11953611671924591, -0.18104735016822815, 0.20331831276416779, -0.6087284684181213, -0.696436882019043, 0.0703451856970787, -0.04752820357680321, -0.5218067169189453, 0.1717098206281662, -0.5367068648338318, -0.3888169229030609, -0.1700805127620697, -0.47965800762176514, -0.6461039185523987, -0.49919405579566956, 0.04575932398438454, 0.8409149646759033, -0.21337084472179413, -0.48431482911109924, -0.2868160009384155, -0.17267051339149475, -0.5385227799415588, 0.07811103761196136, 0.03328799456357956, -0.7125310897827148, -0.2326187789440155, -0.11146792024374008, -0.2335277646780014, 0.04890116676688194, 0.10704727470874786, -0.35610508918762207, -0.5858992338180542, -0.48882240056991577, 0.13672557473182678, -0.5552359223365784, -0.2518490254878998, -0.19193896651268005, -0.47651931643486023, 0.06624726206064224, 0.7980985045433044, -0.09878630936145782, -0.3203917443752289, 0.6229799389839172, -0.2814743220806122, -0.3179786205291748, 0.7382076978683472, -0.32645758986473083, -0.15284402668476105, -0.3368609547615051, -0.10082515329122543], [-0.0911504253745079, 0.6809297800064087, 0.12222925573587418, 0.3422778248786926, -0.39319440722465515, 0.5720945000648499, 0.23885191977024078, 0.5907413959503174, -0.20472903549671173, 0.289753258228302, 0.6885437369346619, 0.06562002748250961, 0.4326828420162201, 0.30966949462890625, -0.01824166439473629, -0.207638680934906, 0.08810854703187943, 0.5509816408157349, 0.5105754733085632, 0.3543199598789215, 0.1433561146259308, 0.6033428907394409, 0.09568840265274048, 0.35983067750930786, 0.037263501435518265, 0.14748308062553406, 0.23375381529331207, 0.5365738868713379, 0.17796191573143005, 0.16551294922828674, -0.7677192091941833, 0.38246384263038635, 0.3606809377670288, 0.31513798236846924, 0.1238507479429245, 0.611407995223999, 0.3039713203907013, 0.24899259209632874, 0.7235739827156067, 0.3603876531124115, -0.031073369085788727, -0.01807565428316593, 0.21956926584243774, 0.10246603190898895, 0.19601018726825714, 0.41560065746307373, 0.6953125, -0.04767455533146858, 0.3205983340740204, 0.2886831760406494, 0.28400638699531555, 0.4801490008831024, 0.1624656617641449, -0.5183222889900208, 0.11994839459657669, 0.7459094524383545, -0.6553671360015869, 0.5253711342811584, 0.6077922582626343, -0.5126266479492188, 0.6431359648704529, -0.12124652415513992, 0.40147462487220764, -0.0033518581185489893], [-0.43033862113952637, 0.3826722204685211, -0.8946858048439026, 0.16743771731853485, -0.06384216994047165, 0.16009409725666046, -0.6179919838905334, 0.19748790562152863, 0.17132356762886047, -0.3550565838813782, 0.12698926031589508, -0.35652852058410645, 0.21001966297626495, 0.3120794892311096, -0.7313945889472961, -0.41855672001838684, -0.4327022135257721, 0.27926793694496155, 0.06415507197380066, -0.7924249768257141, -0.4399709105491638, 0.024584004655480385, -0.3634740114212036, 0.11205759644508362, -0.17840759456157684, -0.6054633259773254, 0.19966165721416473, 0.4260263442993164, 0.2771211862564087, -0.0767730101943016, 0.18175232410430908, 0.36103472113609314, 0.14315545558929443, 0.27930372953414917, -0.4572082757949829, 0.4448777437210083, -0.522667407989502, -0.7567384839057922, 0.16228342056274414, 0.4295748770236969, -0.3707394599914551, -0.47284433245658875, -0.8839794993400574, -0.8516857028007507, 0.3441446125507355, 0.2738568186759949, 0.16432416439056396, -0.27598199248313904, 0.30701780319213867, 0.2214357852935791, -0.35483241081237793, 0.0962505042552948, -0.8506324887275696, 0.11775042861700058, -0.6203977465629578, 0.40305230021476746, 0.19157937169075012, 0.36103326082229614, 0.24884384870529175, -0.06247180700302124, 0.1284675896167755, -0.3648017942905426, 0.46205946803092957, -0.4364829361438751], [0.06834107637405396, -0.4006207585334778, -0.1737571507692337, -0.49424511194229126, 1.02815580368042, -0.5803585052490234, -0.17288626730442047, -0.3640628159046173, 0.46833157539367676, 0.10279081761837006, -0.33910855650901794, 0.050417836755514145, -0.6709573864936829, -0.6581006050109863, 0.18153412640094757, -0.028744876384735107, -0.09189170598983765, -0.4226396083831787, -0.506951093673706, -0.08063890039920807, -0.02847980707883835, -0.34371232986450195, 0.030735298991203308, -0.48434242606163025, 0.022083045914769173, 0.2399730682373047, -0.3737143576145172, -0.28790947794914246, -0.33475467562675476, 0.17366449534893036, 0.6702724695205688, -0.4043034613132477, -0.619861900806427, -0.3758523464202881, -0.04392918571829796, -0.5619168281555176, -0.0654100626707077, -0.2054738700389862, -0.6304802298545837, -0.24994394183158875, 0.299102783203125, -0.009772885590791702, 0.13479739427566528, 0.11907978355884552, -0.39876070618629456, -0.4085710048675537, -0.6199010610580444, 0.34750625491142273, -0.3693595230579376, -0.5008115172386169, 0.2298140972852707, -0.6441929936408997, -0.15805085003376007, 0.8887625336647034, 0.0966792032122612, -0.7371717095375061, 0.5453424453735352, -0.6046838760375977, -0.5127060413360596, 0.7340761423110962, -0.5029376149177551, 0.2263737916946411, -0.6005017757415771, -0.07428164780139923], [0.5081917643547058, -0.09765835106372833, -0.7404232621192932, 0.06218912824988365, -0.8501653075218201, -0.1632939577102661, -0.38803577423095703, -0.19933591783046722, -1.1269508600234985, -1.1919347047805786, -0.13898153603076935, -0.2597168982028961, -0.03799034655094147, -0.18209749460220337, -1.0274803638458252, 0.20691893994808197, -0.6580908894538879, 0.19996461272239685, -0.05885423719882965, -0.5257236957550049, 0.6452314257621765, 0.05233459547162056, 0.06856846809387207, -0.11367470771074295, 0.3644696772098541, -1.0414390563964844, 0.18684805929660797, -0.03845302388072014, 0.12529142200946808, -0.8904047012329102, 0.3672729432582855, 0.20429809391498566, -0.09756472706794739, 0.04399602860212326, 0.35849401354789734, 0.19862619042396545, -0.6689146161079407, -0.6160309910774231, 0.10936404019594193, 0.23650141060352325, -0.9661145806312561, 0.2226218283176422, -0.5368640422821045, -0.7823777794837952, -0.12033441662788391, -0.007993491366505623, 0.06217219680547714, -1.3024543523788452, -0.0465204156935215, 0.26158246397972107, -0.9314718842506409, -0.14538834989070892, -0.5707070231437683, 0.15321266651153564, -0.6723495125770569, -0.14839085936546326, 0.24047619104385376, 0.20231680572032928, 0.05671258643269539, 0.19388824701309204, -0.21205146610736847, -0.0004835752188228071, 0.19454821944236755, -1.0084072351455688], [0.17154620587825775, 0.5488182902336121, 0.04100355505943298, 0.35226744413375854, -1.0435121059417725, 0.25837385654449463, 0.15615271031856537, 0.4205974340438843, -0.21863816678524017, 0.14404919743537903, 0.5507816076278687, -0.0921473354101181, 0.41017791628837585, 0.5980232954025269, 0.12111897766590118, 0.015216110274195671, -0.10067543387413025, 0.4475930333137512, 0.5078356862068176, 0.1902916431427002, 0.11087025701999664, 0.3162343502044678, -0.14271686971187592, 0.42049896717071533, 0.035377275198698044, 0.12057618796825409, 0.25102782249450684, 0.42276275157928467, 0.1380414515733719, -0.10527441650629044, -1.0190203189849854, 0.2829558849334717, 0.47658970952033997, 0.27352631092071533, -0.10558310151100159, 0.5987610220909119, 0.19718308746814728, 0.2545662820339203, 0.5289255976676941, 0.4701854884624481, 0.024751730263233185, 0.03208013251423836, 0.09729748964309692, 0.2560656666755676, 0.22218380868434906, 0.37959420680999756, 0.6232016086578369, -0.2691881060600281, 0.5046585202217102, 0.5148037075996399, -0.11397860944271088, 0.5911986827850342, 0.2797420620918274, -0.8982933759689331, -0.18065033853054047, 0.5055249333381653, -0.6032666563987732, 0.3737357258796692, 0.43852537870407104, -0.7918779253959656, 0.4506051242351532, 0.11097848415374756, 0.23976820707321167, 0.1813182234764099]], "b2": [0.021686946973204613, 0.2011856585741043, -0.08822044730186462, 0.18916983902454376, -0.31106096506118774, 0.18757623434066772, -0.08068475872278214, 0.18273872137069702, -0.05135972425341606, -0.07504235953092575, 0.18880987167358398, -0.130848690867424, 0.18430793285369873, 0.196041539311409, -0.09810799360275269, -0.08806643635034561, -0.12241020053625107, 0.19489426910877228, 0.21648405492305756, -0.05191895365715027, 0.1307613104581833, 0.18485382199287415, -0.14931584894657135, 0.19587571918964386, 0.11532887071371078, -0.0945473313331604, 0.2466759979724884, 0.2479490488767624, 0.24557945132255554, -0.016370080411434174, -0.12258699536323547, 0.24990597367286682, 0.2135651856660843, 0.21778391301631927, 0.07310084253549576, 0.20381855964660645, -0.06432636827230453, -0.08803007006645203, 0.2294517457485199, 0.2387797087430954, -0.10349853336811066, -0.11826957017183304, -0.08484487980604172, -0.0657830759882927, 0.2283923625946045, 0.18984198570251465, 0.21292604506015778, 0.07801109552383423, 0.2468123435974121, 0.23605233430862427, -0.0854158028960228, 0.1982855647802353, -0.0901150107383728, -0.2391771823167801, -0.11593154072761536, 0.191745325922966, -0.08426675945520401, 0.24825431406497955, 0.18215739727020264, -0.11774387210607529, 0.18482188880443573, -0.17488333582878113, 0.23120547831058502, -0.11047210544347763], "W3": [[-0.5360699892044067], [0.5920888781547546], [-0.619051992893219], [0.4510761797428131], [-0.5465491414070129], [0.4822285771369934], [-0.6812102198600769], [0.47850489616394043], [-0.6356101632118225], [-0.8093593120574951], [0.5136176943778992], [-0.7328572273254395], [0.5936651825904846], [0.5272082686424255], [-0.7410680651664734], [-0.6626402139663696], [-0.6148058772087097], [0.503399670124054], [0.37368810176849365], [-0.7399015426635742], [-0.6113062500953674], [0.42536991834640503], [-0.5002508759498596], [0.5524489283561707], [-0.5609486699104309], [-0.6766496300697327], [0.58389812707901], [0.29483917355537415], [0.44298115372657776], [-0.43543386459350586], [-0.7228288054466248], [0.3125923275947571], [0.31524980068206787], [0.5062518119812012], [-0.6476640701293945], [0.4085488021373749], [-0.7756826281547546], [-0.8333882093429565], [0.3696342408657074], [0.3287196755409241], [-0.6536118984222412], [-0.5654923915863037], [-0.793659508228302], [-0.8702453374862671], [0.2978929281234741], [0.5562475919723511], [0.509225606918335], [-0.5664822459220886], [0.3459516763687134], [0.5246590971946716], [-0.777738630771637], [0.4437958896160126], [-0.9288944005966187], [-0.4914870262145996], [-0.5285051465034485], [0.5900446176528931], [-0.6478879451751709], [0.3909226357936859], [0.5635219216346741], [-0.6538289189338684], [0.4218662977218628], [-0.46459755301475525], [0.5648077726364136], [-0.5737670660018921]], "b3": [0.2614375352859497]}