{"W1": [[0.44389718770980835, 0.407962441444397, -0.5264632701873779, -1.3868026733398438, -0.1626393049955368, -1.019298791885376, -0.7682729363441467, 0.6900076866149902, 0.46096038818359375, -0.894932210445404, 0.41900715231895447, -0.4631676971912384, -0.8618020415306091, 0.598763644695282, -0.5327832698822021, -0.5817835330963135, 0.4127330482006073, 0.19189096987247467, 0.2527405917644501, 0.22363030910491943, -0.26389044523239136, 0.5567521452903748, 0.5192217230796814, -0.38597312569618225, -0.7880194783210754, 0.30235806107521057, -0.6194766759872437, 0.5050981044769287, 0.013321364298462868, -0.5650752186775208, 0.3635892868041992, 0.41717442870140076, -0.22030217945575714, -0.46237966418266296, 0.40795189142227173, -0.9209825992584229, 0.7064833641052246, 0.9483199119567871, 0.6199005842208862, 0.8814602494239807, 0.3072878420352936, -0.25523853302001953, 0.399754136800766, -0.5603489875793457, 0.26808351278305054, 0.6048498749732971, 0.7109468579292297, 0.5648561120033264, 0.397832453250885, -0.009763238951563835, -0.9186001420021057, 0.4139665961265564, 0.27978888154029846, 0.6583113074302673, 0.5291151404380798, 0.35840192437171936, 0.3313797414302826, 0.13725054264068604, 0.6197498440742493, -0.4249127507209778, 0.5957234501838684, 0.7078914046287537, 0.08945956826210022, 0.6202136278152466], [-0.8920435905456543, 0.17124968767166138, 0.34123414754867554, -0.7993390560150146, 0.7798435688018799, -1.1641566753387451, 0.9992843866348267, 0.31058067083358765, -0.56132972240448, 1.0438998937606812, 0.19992804527282715, 0.6292520761489868, -0.7445617914199829, -0.8948938250541687, 0.1251722127199173, 0.2106143832206726, -0.03618670254945755, 0.39825525879859924, 0.43304309248924255, 0.4995845854282379, 0.9188604354858398, -0.8262420892715454, 0.4259953200817108, -0.7829515933990479, -0.6219492554664612, 0.3754238486289978, 0.6043890714645386, -0.0674852803349495, -1.3877071142196655, 0.5553871393203735, 0.7189265489578247, -0.7674620747566223, 0.7233221530914307, 0.6620995998382568, 0.24747814238071442, -0.4840796887874603, -0.5240206122398376, 0.38098692893981934, -0.8901270031929016, 0.27636629343032837, 0.36026138067245483, 0.7257589101791382, 0.5133001804351807, 0.6376805305480957, 0.5741552710533142, -0.4807926118373871, 1.4017976522445679, -0.1922541856765747, 0.292859822511673, -0.8509529232978821, -1.113813877105713, -0.8781903982162476, 0.5879834890365601, -0.6342340111732483, -0.784308910369873, -1.0014395713806152, 0.5987051129341125, -0.9098003506660461, -0.6220121383666992, 0.7937348484992981, -0.5122534036636353, 1.1708213090896606, 0.8197290897369385, -0.34123289585113525], [0.16632097959518433, -0.0006605386734008789, -0.21320462226867676, 0.10193988680839539, -0.21171385049819946, 0.2097190022468567, -0.2012505680322647, -0.02942487597465515, -0.2601226568222046, 0.2566794753074646, -0.2154819667339325, -0.1703939139842987, 0.05527544021606445, 0.18049779534339905, -0.011265307664871216, -0.14238223433494568, 0.041287630796432495, 0.18755677342414856, -0.19109754264354706, -0.20237667858600616, 0.21039801836013794, 0.22938036918640137, -0.0717654824256897, 0.10222804546356201, -0.19681081175804138, -0.04016411304473877, -0.24887362122535706, 0.2790316939353943, 0.0912916362285614, 0.04496312141418457, 0.042535215616226196, 0.14899671077728271, -0.28466373682022095, 0.030142933130264282, -0.009336769580841064, 0.1476241946220398, -0.11664427816867828, 0.1041913628578186, -0.06592480838298798, -0.22968795895576477, 0.21411120891571045, 0.2892208695411682, -0.26148149371147156, 0.14615416526794434, -0.13846012949943542, 0.2068518102169037, 0.22135496139526367, 0.1574435830116272, -0.14825758337974548, -0.16348938643932343, 0.16365265846252441, -0.2463093101978302, -0.0905364453792572, 0.19054311513900757, 0.019132524728775024, 0.04932433366775513, 0.017514169216156006, 0.06456360220909119, 0.05004867911338806, 0.17527103424072266, 0.12449154257774353, -0.18826812505722046, -0.027040183544158936, -0.1998177468776703], [0.13154271245002747, -0.06935089826583862, 0.14983782172203064, -0.10274749994277954, -0.1507195681333542, -0.19856955111026764, -0.14718787372112274, 0.05888816714286804, -0.08443792164325714, 0.14812013506889343, -0.06693275272846222, -0.07839958369731903, 0.2390955686569214, -0.21653877198696136, -0.060674384236335754, -0.047348037362098694, 0.07824665307998657, 0.05843362212181091, 0.10112935304641724, 0.2685304880142212, 0.008828729391098022, -0.07752671837806702, 0.11560365557670593, -0.23796240985393524, 0.1488742232322693, 0.13408741354942322, -0.24457460641860962, 0.006259620189666748, 0.18595567345619202, 0.013724565505981445, 0.10478165745735168, -0.26460275053977966, -0.0102042555809021, 0.18306872248649597, 0.13377174735069275, -0.023011773824691772, 0.28131699562072754, -0.26187825202941895, -0.015290021896362305, 0.11295565962791443, -0.19045814871788025, -0.20948633551597595, -0.06292235851287842, -0.06323778629302979, 0.2880677580833435, -0.018502026796340942, -0.018829315900802612, -0.16796046495437622, 0.20872437953948975, 0.26494884490966797, -0.19122207164764404, 0.11214163899421692, 0.2655118703842163, -0.11620208621025085, -0.040142595767974854, 0.13415414094924927, -0.2887710928916931, -0.21006646752357483, 0.1786942481994629, 0.16574999690055847, -0.2907870411872864, -0.04248940944671631, -0.2307845503091812, 0.013630479574203491], [-0.23043735325336456, 0.13875985145568848, 0.10886836051940918, 0.0896647572517395, 0.18984565138816833, -0.05253759026527405, -0.09093458950519562, -0.2553984224796295, 0.034241288900375366, 0.15845584869384766, 0.17464470863342285, -0.1872183084487915, 0.12181708216667175, -0.0623437762260437, -0.018313825130462646, 0.2587023973464966, -0.10679034888744354, -0.014145821332931519, 0.07983896136283875, -0.2804757058620453, 0.1714746356010437, 0.2643049359321594, -0.20682822167873383, -0.23310182988643646, 0.05782514810562134, 0.056388139724731445, 0.1472383439540863, 0.09357553720474243, -0.13179630041122437, 0.05355656147003174, -0.19199003279209137, -0.18404999375343323, -0.1056385487318039, 0.1339825689792633, 0.01126810908317566, 0.28302860260009766, -0.25412070751190186, -0.19930699467658997, 0.1390908658504486, -0.1873759925365448, -0.07008269429206848, -0.05394424498081207, -0.18800881505012512, 0.2853648066520691, 0.1076166033744812, 0.2040601670742035, 0.024323642253875732, 0.1379721462726593, -0.07437320053577423, -0.12396055459976196, -0.2232227921485901, 0.2112141251564026, -0.14900174736976624, -0.2582799196243286, -0.24410343170166016, 0.24012577533721924, 0.14335113763809204, 0.25521522760391235, -0.22594869136810303, -0.18581682443618774, -0.023618489503860474, 0.22053247690200806, -0.008749574422836304, 0.05420312285423279], [0.03704836964607239, 0.1747262179851532, 0.2631683349609375, -0.28928670287132263, -0.16570636630058289, 0.10395807027816772, 0.17581632733345032, -0.017482995986938477, -0.13988059759140015, -0.23391781747341156, -0.02665206789970398, 0.06551486253738403, -0.17995089292526245, 0.1710902452468872, -0.13415825366973877, -0.26990148425102234, 0.10811182856559753, -0.11483815312385559, -0.19070294499397278, -0.2456459105014801, 0.1456768810749054, 0.11420121788978577, -0.22374817728996277, -0.12353609502315521, 0.04512143135070801, 0.24439680576324463, 0.25684285163879395, 0.14844807982444763, 0.195412278175354, 0.28353238105773926, -0.197057843208313, 0.019562721252441406, -0.11576344072818756, 0.24292999505996704, -0.0710124522447586, 0.2799578309059143, 0.1856943964958191, 0.10401678085327148, -0.1944890022277832, -0.18440906703472137, -0.17657765746116638, -0.020833820104599, -0.22434261441230774, 0.021567851305007935, -0.15598221123218536, 0.03759950399398804, -0.18098515272140503, -0.2136949747800827, -0.21622423827648163, -0.20875482261180878, 0.20399999618530273, -0.017534762620925903, -0.2517911195755005, 0.2828114628791809, -0.04937542974948883, 0.06485077738761902, -0.28734734654426575, -0.25176963210105896, -0.03613373637199402, -0.2270074337720871, 0.1222502589225769, -0.09017172455787659, -0.1385928988456726, 0.2662120461463928]], "b1": [0.065983846783638, 0.24916614592075348, 0.031224805861711502, -0.327576607465744, -0.022760912775993347, -0.21565383672714233, 0.15061268210411072, -0.02009018510580063, -0.10854890942573547, 0.01674732379615307, 0.2609390318393707, -0.04742446914315224, -0.04658052697777748, 0.17499896883964539, -0.23508979380130768, -0.12442632764577866, 0.5547155737876892, 0.31369009613990784, 0.38457152247428894, 0.3353827893733978, 0.02070806734263897, 0.13418607413768768, 0.0037363984156399965, 0.07017680257558823, -0.18530099093914032, 0.3733025789260864, -0.045307401567697525, 0.36636486649513245, -0.3530973494052887, -0.002724757418036461, 0.7387651205062866, 0.05945147946476936, 0.04244368150830269, 0.28314074873924255, 0.2251303344964981, -0.3528376519680023, 0.3714570999145508, -0.052381064742803574, 0.17280225455760956, -0.009318279102444649, 0.5122384428977966, -0.01052162703126669, -0.031293950974941254, -0.03315257653594017, 0.5335961580276489, 0.26532524824142456, -0.05638445168733597, 0.263649046421051, 0.556209146976471, 0.07724731415510178, -0.24944616854190826, 0.009959283284842968, -0.03505774587392807, 0.24669495224952698, 0.1689864844083786, 0.09822379052639008, 0.024173878133296967, -0.00034360220888629556, 0.16784198582172394, -0.03453271463513374, 0.16133348643779755, -0.04359986260533333, -0.02813071943819523, 0.2661704421043396], "W2": [[-0.6045958399772644, -0.1463543027639389, -0.3524055778980255, 0.5161029696464539, -0.5955243706703186, -0.5266775488853455, -0.6663820743560791, -0.39892682433128357, 0.9907146096229553, -0.20320042967796326, -0.08031807839870453, 0.6601551175117493, 0.220526784658432, 0.40908533334732056, 0.3003115653991699, 0.6660012006759644, -0.5047205090522766, 0.45100516080856323, 0.5801189541816711, -0.4646961987018585, 0.277724951505661, -0.7598085403442383, -0.45943543314933777, -0.2983785569667816, -0.3201048970222473, -0.48036783933639526, 1.42975914478302, -0.21888747811317444, -0.6260312795639038, 1.189305305480957, -0.741439938545227, -0.6894170045852661, 1.151239275932312, 0.32330188155174255, -0.01835516281425953, 1.0637742280960083, 0.3100637197494507, 0.5378221273422241, 0.2520391643047333, 0.9653908014297485, -0.4948984980583191, 0.1557336151599884, 0.8495182394981384, -0.5399007797241211, 0.43052908778190613, -0.28624969720840454, 0.4513821601867676, -0.28538593649864197, -0.41632622480392456, -0.40031448006629944, -0.8287918567657471, -0.8178336024284363, 0.2741343379020691, 1.208544373512268, 1.30759859085083, 0.254384845495224, -0.222476065158844, -0.8571098446846008, 0.2933387756347656, -0.5436506867408752, -0.6637223362922668, 1.101915955543518, 0.33822163939476013, 1.1422244310379028], [-0.20879830420017242, -0.951698362827301, -0.2742101848125458, -0.5899184942245483, -0.45668208599090576, -0.4679408371448517, -0.266451895236969, -0.49432557821273804, 0.25610169768333435, -0.7318863272666931, -1.0236217975616455, 1.0578690767288208, -0.8941019773483276, -0.37247151136398315, -0.609304666519165, 0.06466749310493469, -0.7351334095001221, -0.6392664909362793, 0.993705689907074, -0.34700807929039, -0.16163602471351624, -0.2177981287240982, 1.1282024383544922, -1.3522239923477173, -1.1849607229232788, 0.7927958965301514, 0.5598133206367493, -0.33726930618286133, -0.7233718037605286, 0.21264155209064484, -0.4846263527870178, -0.44944360852241516, 0.5460046529769897, 0.12146977335214615, -0.04533236101269722, 0.26060864329338074, -0.08727062493562698, -0.1824992448091507, -0.3724403977394104, 0.1360272616147995, -0.36142513155937195, 0.0616535022854805, 1.2317575216293335, -0.8355932235717773, 0.20919908583164215, -0.9718323945999146, -0.4278429448604584, -1.0113962888717651, -0.27983689308166504, -0.32763347029685974, -0.22783157229423523, -0.3958699405193329, -0.2810683250427246, 0.608545184135437, 1.044966220855713, -0.49586281180381775, -1.3535116910934448, -0.36084452271461487, -0.18618294596672058, -0.9424856901168823, -0.6118044853210449, 1.387004017829895, -0.6492342352867126, 0.46800971031188965], [0.7715675830841064, 0.2608570456504822, 0.5469003319740295, 0.11693044006824493, 0.7315720915794373, 0.6629335880279541, 0.7415872812271118, 0.5792079567909241, -1.0922482013702393, -0.10789570212364197, -0.00110566895455122, -0.05369214341044426, 0.31921955943107605, -0.06690017133951187, 0.18275365233421326, -0.7981112599372864, -0.03853114694356918, -0.10961931198835373, 0.03531356155872345, 0.8697353601455688, 0.06112166866660118, 0.8843605518341064, 0.4324047267436981, 0.15615008771419525, 0.1533590704202652, 0.19380447268486023, -0.8466752767562866, -0.21745534241199493, 0.537151038646698, -0.6118863821029663, 0.6540014147758484, 0.2929878532886505, -1.2173036336898804, -0.37838688492774963, 0.43668434023857117, -0.5612024664878845, -0.2113155722618103, -0.30553901195526123, -0.12031508982181549, -1.0040806531906128, 0.4973699748516083, -0.04939306527376175, -0.41109558939933777, 0.33142316341400146, -0.8043359518051147, -0.006920714396983385, -0.2837238609790802, -0.023660559207201004, 0.8799728155136108, 0.34040287137031555, 0.6852009296417236, 0.7015859484672546, 0.11404252052307129, -0.7429371476173401, -0.6511192321777344, 0.22307036817073822, 0.28078192472457886, 0.9812099933624268, -0.3201412856578827, 0.1222323551774025, 0.6068474054336548, -0.7549481987953186, -0.03533883020281792, -1.1587738990783691], [-0.2136562615633011, 1.1974138021469116, 0.47529616951942444, -0.1668025106191635, 0.2234598696231842, 0.12295748293399811, 0.12559643387794495, 0.5583910942077637, -0.2750168740749359, 0.5343104600906372, 0.8962432742118835, -0.3505990207195282, 1.1977633237838745, -0.262126088142395, -0.14384710788726807, -0.357486754655838, 0.6675612926483154, -0.23023325204849243, -0.5439844727516174, 0.13150623440742493, -0.2232384979724884, -0.3411141335964203, -0.7778207659721375, 0.8794636130332947, 0.7605252861976624, -0.8119930028915405, 1.012607216835022, -0.21071922779083252, 0.41341954469680786, 1.2274667024612427, 0.280877023935318, 0.35207727551460266, 0.6741072535514832, -0.5354111790657043, -0.4378845691680908, 1.0787229537963867, -0.4572920501232147, -0.6359220147132874, 1.192461609840393, -0.007813696749508381, 0.28777262568473816, -0.2731495499610901, -0.2170363813638687, 0.6537929773330688, -0.5806843638420105, 0.41056737303733826, -0.2549760639667511, 0.6112781167030334, -0.08208969235420227, 0.37872976064682007, -0.44944125413894653, 0.2344892919063568, -0.18996575474739075, 0.803128182888031, 0.2741204500198364, -0.4592544138431549, 1.008798360824585, -0.2575702965259552, -0.518669068813324, 0.7059194445610046, 0.3909057676792145, 0.005608897656202316, -0.28418728709220886, -0.2521912157535553], [0.8009676933288574, 0.09760097414255142, 0.4707541763782501, -0.3965080678462982, 0.5407199859619141, 0.5669414401054382, 0.8335638642311096, 0.7731559872627258, -0.2303301990032196, 0.15946049988269806, 0.1068483516573906, -0.499112069606781, -0.10855483263731003, -0.18450243771076202, -0.38053369522094727, -0.41097989678382874, 0.22360359132289886, -0.45519912242889404, -0.6746083498001099, 0.5556793808937073, -0.1695224791765213, 0.6515218615531921, 0.29661911725997925, 0.2830045819282532, 0.37380319833755493, 0.16320984065532684, -1.3831257820129395, 0.14358460903167725, 0.7066407203674316, -0.46975091099739075, 0.5812361240386963, 0.7763869166374207, 0.07515671104192734, -0.41913357377052307, -0.27025049924850464, -0.2411816269159317, -0.2422184944152832, -0.39708375930786133, -0.2589978575706482, -0.3955020606517792, 0.6150307655334473, -0.15493017435073853, -0.7442440986633301, 0.5011705160140991, -0.29682353138923645, 0.28450682759284973, -0.5101457834243774, 0.4159543514251709, 0.7391849756240845, 0.7800332903862, 0.9399954676628113, 0.6884011626243591, -0.24143344163894653, -0.17980030179023743, -1.038483738899231, -0.40619584918022156, 0.036420755088329315, 0.8300915360450745, -0.3143365681171417, 0.34118959307670593, 0.7252879738807678, -0.8602285981178284, -0.2733312249183655, -0.5045747756958008], [-0.1692390739917755, 1.1439772844314575, 0.4568464159965515, -0.12911662459373474, 0.1288095861673355, 0.2637471854686737, 0.05933920666575432, 0.2579159438610077, -0.5267612338066101, 0.6530909538269043, 0.4819091856479645, -0.48590248823165894, 1.0652682781219482, 0.00935886800289154, -0.16914544999599457, -0.4060205817222595, 0.32324784994125366, -0.23540358245372772, -0.5020021200180054, -0.1678629368543625, -0.6262639164924622, -0.235897958278656, -1.0097894668579102, 0.7064586877822876, 0.44115209579467773, -0.8935747146606445, 1.3548338413238525, 0.05493190512061119, 0.18804626166820526, 1.2945526838302612, 0.20215299725532532, 0.3945200741291046, 0.7174521684646606, -0.3899127244949341, -0.3804497718811035, 1.297080636024475, -0.4738711416721344, -0.6397085189819336, 1.267844319343567, -0.41015249490737915, 0.3689084053039551, -0.5474057793617249, 0.052120909094810486, 0.26023030281066895, -0.1637907475233078, 0.5650623440742493, -0.2544448971748352, 0.3523408770561218, -0.03214108943939209, 0.5036764740943909, -0.3608535826206207, 0.39106351137161255, -0.2503184974193573, 0.972881555557251, 0.4037717878818512, -0.3132114112377167, 0.4818318486213684, -0.15590518712997437, -0.4951208829879761, 0.2130831480026245, 0.3519729971885681, 0.5586283802986145, -0.1552395522594452, -0.08117043972015381], [0.22278332710266113, 0.05472111701965332, 0.5906919240951538, -0.3655651807785034, 0.3288238048553467, 0.09321652352809906, 0.587315022945404, 0.26678383350372314, -1.581587314605713, 0.2428845912218094, 0.1192888468503952, -0.5403008460998535, 0.4684732258319855, -0.20667611062526703, -0.5482683777809143, -1.4657292366027832, 0.0005781083018518984, -0.2459583878517151, -0.3265107274055481, 0.5922182202339172, -0.24888652563095093, 0.42434635758399963, 0.3612203598022461, 0.36550161242485046, 0.3780882656574249, 0.4203096330165863, -0.7753271460533142, -0.013360878452658653, 0.4852822721004486, -0.23957058787345886, 0.2798976004123688, 0.28375405073165894, -1.3265910148620605, -0.5470022559165955, -0.16441407799720764, -0.2752593755722046, -0.901463508605957, -0.4487505555152893, 0.18841318786144257, -1.4791392087936401, 0.40445980429649353, -0.6552885174751282, -0.6636226773262024, 0.013042543083429337, -1.6533554792404175, 0.19530729949474335, -0.27178022265434265, 0.19640468060970306, 0.21583832800388336, 0.6118411421775818, 0.34009841084480286, 0.555888295173645, -0.09617140144109726, -0.8019850254058838, -0.9440736770629883, -0.5178478956222534, 0.21359816193580627, 0.5064178109169006, -0.7386077642440796, 0.37329497933387756, 0.3174337148666382, -0.8840304017066956, -0.47025373578071594, -1.4822605848312378], [1.187679409980774, -0.37828078866004944, 0.705312967300415, -0.3705131709575653, 0.9273121953010559, 0.7806918621063232, 0.7961662411689758, 0.31087517738342285, -0.15678873658180237, 0.017263425514101982, 0.003787265159189701, 0.25167062878608704, -0.16041085124015808, -0.2681005895137787, -0.2740236818790436, -0.20153021812438965, 0.5272404551506042, -0.14655253291130066, 0.21774137020111084, 1.250576376914978, -0.15838713943958282, 1.694583773612976, 0.8564187288284302, -0.13635072112083435, 0.2522183358669281, 0.8061375021934509, -0.7695106863975525, -0.23187470436096191, 0.6356745958328247, -0.46679118275642395, 1.125526785850525, 0.2845417559146881, 0.38028156757354736, -0.1651313751935959, -0.5214551687240601, -0.29739123582839966, -0.3037303686141968, -0.028590112924575806, -0.47884660959243774, -0.15141235291957855, 0.5815058946609497, -0.08031544834375381, -0.08001874387264252, 0.549281656742096, -0.27450209856033325, 0.06218620762228966, -0.4059990644454956, 0.25618311762809753, 1.468994379043579, 0.6362400054931641, 1.7611850500106812, 0.7315635085105896, -0.4015098512172699, -0.09682951867580414, -0.3229559063911438, -0.05227659270167351, -0.15286295115947723, 1.381534218788147, -0.055422671139240265, 0.41163352131843567, 0.7476680278778076, -0.09999703615903854, -0.3617435395717621, -0.14560677111148834], [-0.45667219161987305, -0.04529845714569092, -0.28591734170913696, -0.07441265881061554, -0.48378613591194153, -0.2912483513355255, -0.1536739021539688, -0.3029894232749939, 1.424426794052124, -0.005302748177200556, 0.17525947093963623, -0.24309515953063965, -0.07802341133356094, 0.017074817791581154, 0.26694032549858093, 1.3387515544891357, 0.22566820681095123, 0.09594851732254028, -0.30613774061203003, -0.6397352814674377, 0.04719870537519455, -0.7327905893325806, -0.48122110962867737, -0.16258278489112854, 0.22735077142715454, -0.5477128624916077, 0.9017728567123413, 0.3087603449821472, -0.5226134061813354, 0.5660407543182373, -0.2774491012096405, -0.3419349193572998, 1.6375815868377686, 0.6631540060043335, -0.5269914269447327, 0.6606608629226685, 0.5674183368682861, 0.30192750692367554, 0.2831287980079651, 1.679198980331421, -0.47590526938438416, 0.5209433436393738, -0.1694519817829132, 0.10927826911211014, 1.0723470449447632, -0.00794555526226759, 0.0691312924027443, 0.33293619751930237, -0.5072582364082336, -0.06583452224731445, -0.5845661759376526, -0.10452663153409958, -0.09766624867916107, 1.1080776453018188, 0.2412198781967163, 0.04039420187473297, -0.11498912423849106, -0.520453155040741, 0.5942806005477905, 0.1884544938802719, -0.491834819316864, 0.1946174055337906, 0.036952581256628036, 1.5974019765853882], [0.34327030181884766, 0.15894384682178497, 0.28784728050231934, -0.2182098776102066, 0.5140658020973206, 0.2727683484554291, 0.1614997386932373, 0.5510434508323669, -0.9545052647590637, 0.02932799980044365, 0.38221338391304016, -0.2472141832113266, 0.3543897569179535, -0.23940010368824005, -0.17949524521827698, -1.2359707355499268, 0.19130516052246094, -0.243972048163414, -0.5356839299201965, 0.11394916474819183, -0.08731338381767273, 0.42460963129997253, 0.5386806130409241, 0.06165650486946106, 0.1964852511882782, 0.11122695356607437, -0.3745545744895935, 0.062153398990631104, 0.31454092264175415, -0.37484368681907654, 0.21401013433933258, 0.5217303037643433, -1.3994414806365967, -0.5983852744102478, 0.1305714100599289, -0.5000250935554504, -0.44857168197631836, -0.5672589540481567, -0.06126948818564415, -1.0144935846328735, 0.2596195638179779, -0.6084808111190796, -0.7127819061279297, 0.17795348167419434, -0.8588556051254272, 0.46765419840812683, -0.06434610486030579, -0.012870513834059238, 0.11540266871452332, 0.5681118965148926, -0.012256835587322712, 0.49756139516830444, 0.015429619699716568, -1.1254850625991821, -0.6040852069854736, -0.07955584675073624, 0.29776471853256226, 0.35349205136299133, -0.5366878509521484, 0.2828530967235565, 0.5210099816322327, -1.1773359775543213, -0.4631592929363251, -1.2912049293518066], [-0.1760760098695755, -0.8033912181854248, -0.6579437255859375, -0.5274972915649414, -0.4170232117176056, -0.6440749764442444, -0.26162439584732056, -0.5411165356636047, 0.2798617482185364, -1.0210838317871094, -1.0131701231002808, 0.989704966545105, -0.8457710146903992, -0.4184628427028656, -0.3312496542930603, -0.08629781007766724, -0.9829341769218445, -0.5865024924278259, 1.2480623722076416, -0.2168208509683609, -0.1453932672739029, 0.04476587846875191, 1.1728180646896362, -1.0456925630569458, -1.1710768938064575, 1.0734350681304932, 0.7756074070930481, -0.2214166820049286, -0.5933999419212341, 0.06308613717556, -0.45778149366378784, -0.6071833372116089, 0.5863851308822632, -0.11337638646364212, 0.054512590169906616, 0.07204436510801315, -0.20351779460906982, -0.16836492717266083, -0.7725493907928467, 0.21946845948696136, -0.643892765045166, -0.10421627759933472, 1.1373168230056763, -1.032464861869812, -0.04238012805581093, -1.1409204006195068, -0.5872517824172974, -1.0599616765975952, -0.2419903576374054, -0.41771039366722107, 0.129649817943573, -0.6237358450889587, -0.04273431375622749, 0.3298964500427246, 0.8726083040237427, -0.2870512008666992, -1.4123514890670776, -0.006105349864810705, -0.08490864187479019, -0.9479185938835144, -0.6050428748130798, 1.2830653190612793, -0.5232465863227844, 0.3097456693649292], [0.6421828269958496, 0.14366576075553894, 0.627155065536499, -0.5320601463317871, 0.3584965169429779, 0.33961114287376404, 0.48163196444511414, 0.6442697644233704, -0.6723219156265259, 0.3334760367870331, 0.20201809704303741, -0.5088739991188049, 0.35087794065475464, -0.3245565593242645, -0.21739491820335388, -0.4608839452266693, 0.3558243215084076, -0.46057865023612976, -0.7143903374671936, 0.6694880127906799, -0.1852988451719284, 0.6697812080383301, 0.3741358816623688, 0.36091458797454834, 0.4812595248222351, 0.16656836867332458, -0.9268853068351746, 0.1851027011871338, 0.5536006093025208, -0.38217705488204956, 0.526321291923523, 0.7105446457862854, -0.3037436306476593, -0.08299045264720917, -0.08660297095775604, -0.3120487928390503, -0.2076360136270523, -0.29204055666923523, 0.061606016010046005, -0.6303114891052246, 0.7589118480682373, -0.26252633333206177, -0.9656224846839905, 0.47190195322036743, -0.7646406292915344, 0.3748810887336731, -0.3425882160663605, 0.4568808078765869, 0.4980189800262451, 0.6501458883285522, 0.39345359802246094, 0.459084153175354, -0.03425521403551102, -0.17264878749847412, -1.161296010017395, -0.3781392574310303, 0.45621824264526367, 0.3908853232860565, -0.46035218238830566, 0.46822747588157654, 0.7041050791740417, -0.8801470398902893, -0.2707778215408325, -0.9188789129257202], [-0.5667131543159485, 0.9805817008018494, 0.43419814109802246, 0.13646753132343292, -0.12239047139883041, 0.047713443636894226, -0.3884938359260559, 0.19638504087924957, 0.032905545085668564, 0.5311825275421143, 0.5737372636795044, -0.16336892545223236, 1.0650221109390259, 0.26142439246177673, -0.013917983509600163, -0.08795808255672455, 0.4120955169200897, -0.013366715051233768, -0.3675040304660797, -0.6598412394523621, -0.1514749974012375, -1.1191540956497192, -1.1703766584396362, 0.6999276280403137, 0.5051316618919373, -1.1883381605148315, 0.6538719534873962, 0.30174121260643005, -0.10993662476539612, 1.0396828651428223, -0.31108739972114563, 0.5256307125091553, 0.15308231115341187, -0.023881781846284866, 0.11154798418283463, 0.7866494059562683, -0.016354233026504517, -0.3094289302825928, 0.9791995882987976, -0.2220177799463272, 0.13297775387763977, -0.060444142669439316, -0.20029330253601074, 0.30429816246032715, -0.25642111897468567, 0.40776166319847107, 0.21360017359256744, 0.4625471830368042, -0.859887957572937, 0.17278651893138885, -1.1069822311401367, 0.30881205201148987, -0.11828260123729706, 0.781449019908905, 0.41169220209121704, -0.22375735640525818, 1.1094629764556885, -0.5009727478027344, -0.18040727078914642, 0.39000922441482544, -0.07993485033512115, -0.010530877858400345, 0.08352956175804138, -0.25969889760017395], [-0.6684449315071106, 0.1014120802283287, -0.650058388710022, 0.3700921833515167, -0.5157787203788757, -0.4043603539466858, -0.6215090155601501, -0.8555437922477722, 0.5331259965896606, -0.580276370048523, -0.606785237789154, 1.0197972059249878, -0.18879985809326172, 0.18328054249286652, 0.11260751634836197, 0.4532586336135864, -0.7048233151435852, 0.2108602076768875, 0.8453575968742371, -0.45091620087623596, -0.0846276506781578, -0.5925815105438232, -0.22734969854354858, -0.6242520809173584, -0.4891112148761749, -0.01949150674045086, 1.0550652742385864, -0.13893720507621765, -0.3603936731815338, 0.6134334206581116, -0.2988544702529907, -0.7259988188743591, 0.41607391834259033, 0.18894682824611664, 0.2678160071372986, 0.4571634829044342, 0.3669925928115845, 0.17576535046100616, 0.09774070233106613, 0.6137567758560181, -0.8128224611282349, -0.045454323291778564, 0.9970598220825195, -0.4794957637786865, 0.29493364691734314, -0.8411539793014526, 0.11284800618886948, -0.6011416912078857, -0.4171137511730194, -0.608905017375946, -0.34436988830566406, -0.6804147362709045, 0.08962974697351456, 0.6269422173500061, 1.3425109386444092, 0.2510729134082794, -0.4460700452327728, -0.42751169204711914, 0.2978828251361847, -0.7631075382232666, -0.6092010736465454, 1.3372817039489746, 0.15248052775859833, 0.5700374245643616], [0.28631705045700073, 0.37780818343162537, 0.46202006936073303, 0.0031651242170482874, 0.37544992566108704, 0.4563809931278229, 0.5762225389480591, 0.6203710436820984, -0.7503942847251892, 0.6068430542945862, 0.5663414597511292, -1.2923768758773804, 0.7752137780189514, 0.20105764269828796, 0.21768824756145477, -0.3395123779773712, 0.5498343706130981, -0.005252077244222164, -1.3607568740844727, 0.2140658050775528, -0.18446588516235352, -0.013032249175012112, -0.2798352837562561, 0.5649088025093079, 0.7818828821182251, -0.5901606678962708, -0.30660468339920044, 0.38902103900909424, 0.48682233691215515, -0.35540077090263367, 0.4538961946964264, 0.7826134562492371, -0.704133927822113, -0.23001399636268616, 0.0984971672296524, -0.265744686126709, 0.030697530135512352, -0.018927190452814102, 0.2135399430990219, -0.682679295539856, 0.7187051773071289, 0.05511239543557167, -1.0634509325027466, 0.6707234978675842, -0.4205866754055023, 0.7394217848777771, -0.05416608229279518, 0.7307476997375488, 0.2933991849422455, 0.5304347276687622, -0.024034716188907623, 0.7273446917533875, 0.12091941386461258, -0.3369961082935333, -0.6004568338394165, -0.13550563156604767, 0.9944694638252258, 0.26483744382858276, 0.041741129010915756, 0.6532689332962036, 0.5711619853973389, -1.0507943630218506, 0.15832215547561646, -0.6850762963294983], [0.6508401036262512, 0.5359944105148315, 0.8099862337112427, 0.18602335453033447, 0.4038553833961487, 0.6816853880882263, 0.7960115075111389, 0.7046484351158142, -0.8175034523010254, 0.15543924272060394, 0.4202752709388733, -0.8580721616744995, 0.555253803730011, 0.26784199476242065, 0.23692579567432404, -0.6374546885490417, 0.44713225960731506, 0.21623432636260986, -0.6897716522216797, 0.6060893535614014, -0.23415429890155792, 0.7255908846855164, -0.25930726528167725, 0.35087093710899353, 0.48184409737586975, -0.10778868943452835, -0.9158485531806946, -0.17787377536296844, 0.7849026918411255, -0.41243329644203186, 0.4580650329589844, 0.470600962638855, -1.2522486448287964, -0.009248030371963978, 0.3183102309703827, -0.826079785823822, -0.22808235883712769, -0.26354676485061646, 0.22041139006614685, -0.9774065613746643, 0.7513657212257385, -0.28049424290657043, -1.202038288116455, 0.16418620944023132, -0.6605274677276611, 0.40676218271255493, 0.15719185769557953, 0.4015398323535919, 0.4673680365085602, 0.49592846632003784, 0.7169267535209656, 0.4869854748249054, 0.1732235997915268, -1.1098017692565918, -0.9971427917480469, 0.16631916165351868, 0.5242528319358826, 0.7081775665283203, -0.23810532689094543, 0.4282614588737488, 0.872189998626709, -1.2515969276428223, 0.25579556822776794, -0.8578872680664062], [0.12173052132129669, -0.02314171940088272, -0.2519700229167938, -0.4961085319519043, -0.05344666540622711, -0.3099987804889679, -0.03724530711770058, 0.05908568575978279, -0.5179268717765808, -0.5490783452987671, -0.11904583871364594, 0.7153946161270142, -0.13540594279766083, -0.7709539532661438, -0.5534882545471191, -0.1155601516366005, -0.4817518889904022, -0.5779852867126465, 1.0911195278167725, -0.04111694172024727, -0.1848679929971695, 0.01164388656616211, 0.5913810133934021, -0.6349762678146362, -0.6575706601142883, 0.5696830153465271, 1.4063897132873535, -0.524307906627655, -0.06512223184108734, 0.23104308545589447, 0.03898462653160095, -0.08158653229475021, 0.04407986253499985, -0.13177865743637085, 0.36240455508232117, 0.16047489643096924, -0.2032710462808609, -0.5657520890235901, 0.3793201148509979, -0.18784339725971222, 0.08581461012363434, -0.3480740785598755, 1.5665791034698486, -0.7519233822822571, -0.20806832611560822, -0.6308108568191528, -0.7702473402023315, -0.47758224606513977, 0.11553670465946198, -0.2661843001842499, -0.13891078531742096, 0.11623112857341766, -0.08097843080759048, 0.35457026958465576, 1.0110328197479248, -0.7361453771591187, -1.084389567375183, -0.2490186095237732, -0.3048081696033478, -0.5844002366065979, 0.011509936302900314, 1.2142698764801025, -0.3860504925251007, -0.29791978001594543], [-0.11342564225196838, -0.7751815915107727, -0.13987888395786285, -0.7491884827613831, -0.21621648967266083, -0.5190755724906921, -0.29898643493652344, -0.05931209772825241, -0.24148017168045044, -0.8363868594169617, -0.779386579990387, 1.134238600730896, -0.7660089731216431, -0.718696117401123, -0.6072193384170532, -0.13605377078056335, -0.5244445204734802, -0.8091261386871338, 1.1089305877685547, -0.2935972213745117, -0.4044332504272461, -0.04792862758040428, 1.25497305393219, -0.9566211104393005, -0.7626539468765259, 0.9899799227714539, 0.63130784034729, -0.29978272318840027, -0.19880546629428864, 0.1889071762561798, -0.40321990847587585, -0.1310615837574005, 0.05524537339806557, -0.3222314119338989, 0.284517765045166, 0.3701149523258209, -0.30677059292793274, -0.5880333781242371, -0.42489102482795715, -0.14771895110607147, -0.31581538915634155, -0.09413155913352966, 1.067591905593872, -0.701897919178009, -0.03534768149256706, -0.8774386644363403, -0.6984042525291443, -0.6558080315589905, -0.006545029114931822, -0.3658102750778198, -0.05026724934577942, -0.3656315803527832, -0.1869208663702011, 0.1735014170408249, 0.7645893692970276, -0.7930574417114258, -1.2286136150360107, -0.37932032346725464, -0.08450572192668915, -0.7341276407241821, -0.4753945469856262, 1.2717792987823486, -0.8794694542884827, -0.2828041613101959], [0.03214871510863304, -0.8390106558799744, -0.24439986050128937, -0.8046864867210388, -0.3536599278450012, -0.27476370334625244, -0.49728628993034363, -0.38203948736190796, -0.2676589787006378, -0.6265553832054138, -0.7872644662857056, 1.233986258506775, -0.6837723851203918, -0.9724596738815308, -0.7543126344680786, -0.4624527394771576, -0.6383774876594543, -0.7941840887069702, 1.1841776371002197, -0.15178847312927246, -0.14560221135616302, 0.003929988946765661, 1.4789730310440063, -0.8759319186210632, -1.0146161317825317, 1.3206250667572021, 0.6048747897148132, -0.5064273476600647, -0.1314018964767456, -0.08686185628175735, -0.25719016790390015, -0.3831275701522827, -0.21635574102401733, -0.2701250910758972, 0.22043676674365997, -0.20504193007946014, -0.13301245868206024, -0.6279919743537903, -0.5633277893066406, -0.2512805461883545, -0.2819117605686188, -0.24444815516471863, 1.235758900642395, -0.8165053725242615, -0.47547781467437744, -0.719258189201355, -0.7280771732330322, -0.9171106815338135, -0.07691550999879837, -0.5467312932014465, -0.020192110911011696, -0.4893290400505066, -0.3766340911388397, -0.15364481508731842, 1.1753120422363281, -0.5842093825340271, -1.170729637145996, -0.08148183673620224, -0.4621412754058838, -0.7413553595542908, -0.3068992793560028, 1.3596816062927246, -0.6962884664535522, -0.4188821315765381], [-0.0675870031118393, -0.5943536758422852, -0.4437119960784912, -0.7936012744903564, -0.23779788613319397, -0.44822055101394653, -0.4063265025615692, -0.31005170941352844, -0.3360148072242737, -0.8361679911613464, -0.9902030825614929, 1.0861103534698486, -0.8389862179756165, -0.6749252080917358, -0.768263578414917, -0.3420511484146118, -0.9047611951828003, -0.6912983655929565, 1.0143852233886719, -0.2769870162010193, -0.1957917958498001, 0.1348428726196289, 1.4625957012176514, -1.0186972618103027, -0.9053958058357239, 1.2395387887954712, 0.2730160653591156, -0.33420583605766296, -0.29954659938812256, -0.533540666103363, -0.3169982433319092, -0.18470217287540436, -0.4459332525730133, -0.23623935878276825, 0.17762498557567596, -0.21091437339782715, -0.36404260993003845, -0.5842100381851196, -0.7246853709220886, -0.14726337790489197, -0.3850272297859192, -0.27243131399154663, 1.1324297189712524, -0.7650451064109802, -0.05116706341505051, -0.5908383131027222, -0.5029140114784241, -0.8995370268821716, -0.10814725607633591, -0.2648043632507324, -0.043812211602926254, -0.3760799169540405, -0.01802997477352619, -0.11969617754220963, 1.0067262649536133, -0.5148112177848816, -1.0919561386108398, -0.0244758278131485, -0.24195371568202972, -0.8413455486297607, -0.12146879732608795, 1.0260601043701172, -0.8482583165168762, -0.23109692335128784], [0.22824664413928986, -0.2519514262676239, 0.12630806863307953, -0.17283836007118225, 0.038562625646591187, 0.0834641233086586, 0.4647088646888733, 0.06936226040124893, -0.35423675179481506, -0.14576582610607147, 0.03273964300751686, -0.01527902577072382, -0.19081994891166687, -0.3607231080532074, -0.4473883807659149, -0.7567650675773621, -0.22946350276470184, -0.5247666239738464, 0.011697666719555855, 0.46945467591285706, -0.136807382106781, 0.3723205029964447, 0.7490963339805603, 0.07398957759141922, 0.06051803007721901, 0.6489799618721008, -1.6835626363754272, -0.1996123194694519, 0.38185232877731323, -1.0480374097824097, 0.254938006401062, 0.260277658700943, -0.6634644865989685, -0.4261230230331421, 0.2272784262895584, -0.9422481656074524, -0.16153180599212646, -0.12295942008495331, -0.6417437195777893, -0.7585672736167908, 0.11443489044904709, -0.3116695284843445, -0.5772321820259094, 0.09387858957052231, -0.7481161952018738, -0.06094403937458992, -0.4131162166595459, -0.2463977038860321, 0.3343852460384369, 0.4764736294746399, 0.47324442863464355, 0.31605514883995056, 0.05864700302481651, -0.6698936223983765, -1.0224820375442505, -0.13240937888622284, 0.13699814677238464, 0.6247135996818542, -0.3790437877178192, 0.041164714843034744, 0.3262998163700104, -0.815187394618988, -0.2711697518825531, -0.5259080529212952], [-0.7413181662559509, -0.03944135829806328, -0.5018682479858398, 0.2485264539718628, -0.5496399402618408, -0.5975195169448853, -0.7223984599113464, -0.6687837839126587, 0.9444438815116882, -0.28151851892471313, -0.3539842367172241, 0.8945713639259338, -0.20272547006607056, 0.2694852352142334, 0.5351501703262329, 0.47876742482185364, -0.48467662930488586, 0.4007030129432678, 0.9933999180793762, -0.5579907298088074, 0.2465495467185974, -0.6533885598182678, -0.35044312477111816, -0.505094051361084, -0.5058831572532654, -0.44756457209587097, 1.2645838260650635, -0.399654746055603, -0.5642184019088745, 1.02003812789917, -0.5663278698921204, -0.7791836857795715, 0.8392890691757202, 0.302891343832016, 0.06341112405061722, 0.9383870959281921, 0.12611232697963715, 0.1735406070947647, -0.03940004110336304, 1.0474159717559814, -0.6756689548492432, 0.2692137658596039, 0.9249251484870911, -0.32756349444389343, 0.7308501601219177, -0.45376163721084595, 0.1847490817308426, -0.6415467262268066, -0.5634483695030212, -0.6046969294548035, -0.48242485523223877, -0.5909420847892761, -0.005095698870718479, 0.7728278636932373, 1.4293650388717651, 0.33197155594825745, -0.5814036726951599, -0.6717056035995483, 0.3985397517681122, -0.712457537651062, -0.5401886701583862, 1.4100449085235596, 0.51883465051651, 0.9480229616165161], [1.0170412063598633, -0.3893530070781708, 0.42173492908477783, -0.197395458817482, 0.5650661587715149, 0.5331947803497314, 0.6654886603355408, 0.5314071178436279, -0.20508624613285065, -0.2789745330810547, -0.4576733112335205, -0.08129149675369263, -0.525121808052063, -0.1547817587852478, -0.17194770276546478, 0.013550733216106892, 0.13669812679290771, -0.019037412479519844, 0.3597118854522705, 1.0919991731643677, -0.14935459196567535, 1.3917733430862427, 1.0499764680862427, -0.38934096693992615, -0.1612125039100647, 0.7872687578201294, -0.994542121887207, -0.5105962753295898, 0.23888598382472992, -0.5920543670654297, 0.5748111605644226, 0.08543392270803452, -0.23900964856147766, 0.11278104782104492, -0.3650108277797699, -0.6544063687324524, 0.16570864617824554, -0.1593756228685379, -0.4167603552341461, -0.051498692482709885, 0.41760292649269104, -0.01653967797756195, -0.11185785382986069, 0.23953047394752502, -0.22744572162628174, 0.07153576612472534, -0.29728469252586365, -0.1143527403473854, 1.086382269859314, 0.13608266413211823, 1.383178949356079, 0.291371613740921, -0.1551150232553482, -0.09199261665344238, -0.3986303508281708, 0.09481668472290039, -0.6274365782737732, 1.0177562236785889, -0.24286265671253204, 0.08404924720525742, 0.33669427037239075, -0.48622801899909973, -0.07871662080287933, -0.3502194285392761], [-1.1533867120742798, 0.8110340237617493, -0.04427769407629967, -0.13109919428825378, -0.193925678730011, -0.4931083619594574, -0.4322766065597534, 0.0849907398223877, 0.32905659079551697, 0.23774020373821259, 0.6842064261436462, -0.1513535976409912, 1.0165672302246094, -0.19429244101047516, -0.052913833409547806, 0.06045049428939819, -0.005632768850773573, 0.05523281916975975, 0.06977427005767822, -0.8455862402915955, 0.05183717608451843, -1.2113806009292603, -1.1429989337921143, 0.41864797472953796, 0.5836291909217834, -0.9588450193405151, 0.7222036123275757, 0.07195410132408142, 0.031806427985429764, 0.6832106113433838, -0.5875663757324219, -0.05074474588036537, 0.3742615878582001, -0.017627673223614693, 0.3297845423221588, 0.8147023320198059, -0.27897772192955017, -0.44916048645973206, 0.6203415393829346, 0.19934318959712982, -0.019119830802083015, -0.041309863328933716, -0.08811396360397339, 0.15509775280952454, -0.1450708508491516, 0.2620566487312317, 0.07759762555360794, 0.44420498609542847, -1.3226135969161987, 0.15869037806987762, -1.1699469089508057, 0.18990309536457062, -0.1034451499581337, 0.5633531808853149, 0.7164202332496643, -0.04037348926067352, 0.6892668604850769, -0.8396540284156799, -0.18345527350902557, 0.18875360488891602, 0.09170011430978775, 0.4584870934486389, -0.049548037350177765, 0.10322759300470352], [0.2543463408946991, 0.9407875537872314, 0.6106654405593872, -0.07391414046287537, 0.43645545840263367, 0.3389398157596588, 0.16594789922237396, 0.41752752661705017, -0.37651318311691284, 0.6019918918609619, 0.7225512266159058, -0.5683121681213379, 1.119140386581421, -0.07299771904945374, -0.15236562490463257, -0.24158503115177155, 0.7320513725280762, 0.02570134401321411, -0.44656920433044434, 0.31164535880088806, -0.5787271857261658, -0.0908917561173439, -0.6181959509849548, 0.9750875234603882, 0.7344499826431274, -0.7771033048629761, 0.5291277170181274, 0.04569470137357712, 0.497433066368103, 1.1240224838256836, 0.09464488178491592, 0.3712310194969177, 0.5093896985054016, -0.21504603326320648, -0.41616493463516235, 1.194149136543274, -0.6777629256248474, -0.5340381264686584, 1.0181024074554443, -0.2538740336894989, 0.5541156530380249, -0.5970616936683655, -0.807610273361206, 0.7440954446792603, -0.24459457397460938, 0.8576642870903015, 0.009287154302001, 0.7486038208007812, -0.14557518064975739, 0.38343024253845215, -0.22673553228378296, 0.5356146693229675, -0.2867002785205841, 0.906242847442627, -0.3294976055622101, -0.14755024015903473, 0.9539902210235596, 0.12214502692222595, -0.6819048523902893, 0.7270966172218323, 0.3857448697090149, -0.20000042021274567, -0.1792079210281372, -0.2044946551322937], [0.16411659121513367, -0.6546492576599121, -0.32505688071250916, -0.6500367522239685, -0.11874311417341232, -0.47304242849349976, -0.3071131110191345, -0.48175230622291565, -0.6225422620773315, -0.9048712253570557, -0.7268291711807251, 1.1402809619903564, -0.9287997484207153, -0.576216995716095, -0.5988379716873169, -0.2603885531425476, -0.8721842765808105, -0.7505955696105957, 0.9072859883308411, 0.023548878729343414, -0.4072055518627167, 0.0769433006644249, 1.4182993173599243, -0.9271803498268127, -0.8744791150093079, 1.4868777990341187, 0.4829898774623871, -0.5620682835578918, -0.5183143019676208, -0.4705725610256195, -0.26165616512298584, -0.42608413100242615, -0.4234095811843872, -0.24866153299808502, -0.07435876876115799, -0.23936288058757782, -0.4006275534629822, -0.4124320447444916, -0.6500833630561829, -0.35414761304855347, -0.27492934465408325, -0.09586605429649353, 1.151207685470581, -0.9623178839683533, -0.2572307288646698, -1.0923092365264893, -0.6375194191932678, -1.0936779975891113, 0.2686188220977783, -0.40268033742904663, -0.1406925916671753, -0.21092653274536133, -0.1728636622428894, -0.4873295724391937, 0.6523830890655518, -0.4111981987953186, -1.322185754776001, 0.16016122698783875, -0.1316966712474823, -1.1901295185089111, -0.246468186378479, 0.7997552156448364, -0.587892472743988, -0.4153740406036377], [0.47017940878868103, 0.2882584035396576, 0.4542318284511566, -0.2165532112121582, 0.5705744028091431, 0.2912300229072571, 0.3725590407848358, 0.5420104265213013, -1.1799167394638062, 0.4078797698020935, 0.05829954892396927, -0.6619899272918701, 0.09107653796672821, -0.3637595474720001, -0.16597826778888702, -0.7593769431114197, 0.3740212619304657, -0.15394262969493866, -0.37942031025886536, 0.34209299087524414, -0.27398499846458435, 0.6722354292869568, 0.5338141918182373, 0.2355964630842209, 0.21027912199497223, 0.5752235054969788, -1.282974123954773, 0.2665978968143463, 0.7280526757240295, -0.6153126358985901, 0.511840283870697, 0.3951490521430969, -1.1152082681655884, -0.2832385003566742, 0.21869145333766937, -0.43555063009262085, -0.33476752042770386, -0.19585181772708893, -0.10220228880643845, -1.2574137449264526, 0.7260420918464661, -0.1792755424976349, -0.8174893856048584, 0.2698231041431427, -0.7001118063926697, 0.17593038082122803, -0.07755665481090546, 0.4156431555747986, 0.6361592411994934, 0.38568440079689026, 0.36291271448135376, 0.5054505467414856, -0.05443350225687027, -0.5247068405151367, -1.038564920425415, -0.20031127333641052, 0.14488676190376282, 0.49809616804122925, -0.32371318340301514, 0.1515052616596222, 0.5275585651397705, -1.3784716129302979, -0.31579387187957764, -1.0739474296569824], [-0.19328658282756805, -0.2714928984642029, -0.33157071471214294, -0.30779868364334106, -0.6226208806037903, -0.5629324316978455, -0.6091120839118958, -0.40125134587287903, -0.14562414586544037, -0.7719828486442566, -0.6915583610534668, 1.1734519004821777, -0.5470094680786133, -0.5363633632659912, -0.4786558151245117, 0.2503387928009033, -0.6594586372375488, -0.6379984617233276, 1.0314176082611084, -0.1955687701702118, -0.22778981924057007, -0.09140288084745407, 0.6564726233482361, -0.8402265310287476, -0.9949358701705933, 1.0353890657424927, 0.5550416707992554, -0.7306652069091797, -0.3085519075393677, 0.3282826244831085, -0.23588581383228302, -0.5442467927932739, 0.5718517303466797, -0.053618330508470535, 0.16829407215118408, 0.6978747248649597, -0.17913958430290222, -0.1430695801973343, 0.18096491694450378, 0.04652231186628342, -0.2498980611562729, 0.0027245001401752234, 1.4871563911437988, -0.750712513923645, 0.057562194764614105, -1.086871862411499, -0.5546687245368958, -0.8544460535049438, -0.2172948271036148, -0.51352858543396, 0.08826474845409393, -0.36518046259880066, -0.12924231588840485, 0.37283238768577576, 0.718477725982666, -0.5391345024108887, -1.0759180784225464, -0.1637483686208725, -0.09937279671430588, -0.8095638155937195, -0.42847123742103577, 1.2087482213974, -0.5727638006210327, 0.053896620869636536], [-0.3809111416339874, 0.06914931535720825, -0.20128381252288818, 0.731777012348175, 0.047698114067316055, -0.0929487943649292, -0.30061498284339905, -0.3541559875011444, 1.1310079097747803, -0.05881910026073456, 0.102273128926754, -0.4499804973602295, 0.17502735555171967, 0.7210233807563782, 0.7595340013504028, 0.5706371665000916, 0.006167860701680183, 0.7205165028572083, -0.4118689000606537, -0.09648255258798599, -0.17610280215740204, -0.08275927603244781, -0.5032919645309448, 0.3336893320083618, -0.0807405486702919, -0.4805280566215515, -0.21885308623313904, 0.3866109848022461, -0.18009459972381592, 1.0983755588531494, -0.3718757629394531, -0.214659184217453, 1.4409558773040771, 0.2906591296195984, -0.17759466171264648, 1.0917344093322754, 0.06749504059553146, -0.04542795196175575, 0.5031912922859192, 0.7649638652801514, -0.10235607624053955, 0.15163101255893707, -0.5167593955993652, 0.11783342063426971, 0.6266835331916809, 0.26502400636672974, 0.7183241844177246, 0.14229585230350494, -0.5006886720657349, -0.13283994793891907, -0.18183523416519165, -0.26873579621315, 0.06946708261966705, 1.3010095357894897, -0.33855828642845154, 0.40644821524620056, 0.46667104959487915, -0.09781860560178757, 0.20662821829319, 0.3177092671394348, -0.14081604778766632, -0.48056113719940186, 0.517730176448822, 0.9968805909156799], [0.7789360284805298, 0.2914596199989319, 0.5351454615592957, -0.3478522002696991, 0.6995038986206055, 0.3964998126029968, 0.5928440093994141, 0.49652478098869324, -1.0744297504425049, 0.27713194489479065, 0.21342875063419342, -0.37830156087875366, 0.40943875908851624, -0.3976220190525055, -0.32152801752090454, -0.8152439594268799, 0.4661584794521332, -0.32006025314331055, -0.6014351844787598, 0.5723174214363098, -0.10659632086753845, 0.42562735080718994, 0.6694498658180237, 0.5394439101219177, 0.5340302586555481, 0.24065501987934113, -0.9517500996589661, 0.16049490869045258, 0.6066173911094666, -0.3250575065612793, 0.6697478294372559, 0.6549918055534363, -0.8502630591392517, -0.4120451807975769, 0.08907213807106018, -0.2340252697467804, -0.27646973729133606, -0.3745484948158264, 0.13104946911334991, -1.2996644973754883, 0.5147837996482849, -0.4690195322036743, -0.8916742205619812, 0.23696793615818024, -0.8065080642700195, 0.25860586762428284, -0.4350341856479645, 0.3675024211406708, 0.46481770277023315, 0.48591890931129456, 0.33835092186927795, 0.5980263352394104, 0.0203208327293396, -0.41366589069366455, -1.172316551208496, -0.03397764638066292, 0.4288451373577118, 0.6449788212776184, -0.5248715877532959, 0.3324138820171356, 0.6105196475982666, -1.1464648246765137, -0.2939280569553375, -1.1679537296295166], [0.10784886032342911, -0.17246490716934204, 0.12738150358200073, -0.9290530681610107, 0.18337051570415497, 0.07243010401725769, -0.10215245187282562, 0.06677471101284027, -0.9621272087097168, -0.6755486130714417, -0.6401480436325073, 0.6192951798439026, -0.542919397354126, -0.6828072667121887, -0.9392346739768982, -0.5392153263092041, -0.409300833940506, -0.8583212494850159, 0.4980964660644531, 0.10954941064119339, -0.30797865986824036, 0.3429182171821594, 0.8521207571029663, -0.4651571214199066, -0.7144955396652222, 1.0001569986343384, 0.30312544107437134, 0.061573393642902374, 0.1424909234046936, -0.8371621966362, 0.29261520504951477, 0.00889816414564848, -1.2240474224090576, -0.20612972974777222, -0.04882798716425896, -0.5051016807556152, -0.09770435839891434, -0.5862491726875305, -0.1469644010066986, -1.102471947669983, -0.018125008791685104, -0.3072483539581299, 0.7762162685394287, -0.6984982490539551, -0.7020830512046814, -0.6381643414497375, -0.8107348680496216, -0.48800474405288696, 0.37022772431373596, 0.1304461807012558, 0.2850380539894104, 0.01869000680744648, -0.3269079327583313, -0.9172821640968323, 0.28893017768859863, -0.9451013803482056, -0.7786142230033875, 0.04353613033890724, -0.308991402387619, -0.8012652397155762, 0.06142478808760643, 0.5631228685379028, -0.7605907320976257, -1.0155540704727173], [-0.767195463180542, 0.13780775666236877, -0.5941319465637207, 0.23109814524650574, -0.43236634135246277, -0.7147833704948425, -0.5771163105964661, -0.7415438294410706, 0.890018105506897, -0.15740318596363068, -0.10167540609836578, 0.4341844618320465, 0.15179593861103058, 0.47037220001220703, 0.22297441959381104, 0.7258108854293823, -0.2548861801624298, 0.29421475529670715, 0.43894386291503906, -0.8324826955795288, 0.0007066514226607978, -0.4937516152858734, -0.6217926144599915, -0.19547240436077118, -0.41902005672454834, -0.34287121891975403, 1.6928887367248535, -0.20226868987083435, -0.639090359210968, 1.3966823816299438, -0.712512195110321, -0.6068121194839478, 1.2928218841552734, 0.34628060460090637, -0.0316210612654686, 1.02850341796875, 0.32937291264533997, 0.12584680318832397, 0.3777696192264557, 0.886102557182312, -0.6081194877624512, 0.24543632566928864, 0.5725179314613342, -0.4901355504989624, 0.6049707531929016, -0.21171776950359344, 0.29925987124443054, -0.1414342075586319, -0.7501551508903503, -0.7225303649902344, -0.5986069440841675, -0.5349115133285522, -0.12317147105932236, 0.9663804769515991, 1.3494399785995483, 0.2730662524700165, -0.2999786138534546, -0.8820652961730957, 0.27691131830215454, -0.45014581084251404, -0.6617480516433716, 1.1056939363479614, 0.5107415318489075, 0.958173394203186], [0.47838032245635986, -0.18993885815143585, 0.38313573598861694, -0.44859814643859863, 0.4102407693862915, 0.42859694361686707, 0.5847874283790588, 0.6080141067504883, -0.824617862701416, 0.03207778185606003, 0.06997346132993698, -0.3145688474178314, -0.25594761967658997, -0.2632523477077484, -0.3173265755176544, -0.6674398183822632, -0.08318106085062027, -0.5958808660507202, -0.09368140250444412, 0.48394128680229187, -0.17720946669578552, 0.5239197611808777, 0.6692249178886414, -0.2848788797855377, -0.16202548146247864, 0.5407954454421997, -1.7576215267181396, 0.06949052959680557, 0.5332787036895752, -0.7967566847801208, 0.3970673382282257, 0.17381033301353455, -0.5356797575950623, -0.4135918915271759, 0.09430494904518127, -0.66270512342453, -0.5339459776878357, -0.3289981186389923, -0.3702593147754669, -0.5047617554664612, 0.5856829285621643, -0.12046544253826141, -0.6619688272476196, 0.09132847189903259, -0.28827884793281555, 0.09619120508432388, -0.40735113620758057, 0.14942516386508942, 0.744598925113678, 0.4285282492637634, 0.6309367418289185, 0.2668607234954834, -0.04535476490855217, -0.631573498249054, -0.8005492687225342, -0.42708009481430054, -0.013960734941065311, 0.8259701132774353, -0.399831086397171, -0.11793825775384903, 0.2914513647556305, -0.8851888179779053, -0.4949365258216858, -0.3949642777442932], [0.2890530228614807, -0.05983680114150047, 0.08803999423980713, -0.004426294472068548, 0.3216440677642822, 0.26512739062309265, 0.0851893424987793, 0.2954479157924652, -1.215767502784729, -0.173629030585289, -0.13379675149917603, 0.2615887224674225, -0.139321967959404, -0.46673300862312317, -0.26432549953460693, -0.9787554740905762, -0.25631284713745117, -0.32750004529953003, 0.49003544449806213, 0.06926018744707108, -0.17504698038101196, 0.21244391798973083, 0.6220213174819946, -0.23000088334083557, -0.12593692541122437, 0.4754798412322998, -0.14796185493469238, 0.11872494965791702, 0.3230268657207489, -1.0237559080123901, 0.27892324328422546, 0.09876777976751328, -1.7429367303848267, -0.37897321581840515, 0.20127151906490326, -0.9211750626564026, -0.5551116466522217, -0.3496108651161194, -0.06021561846137047, -1.319793462753296, 0.241975799202919, -0.38114574551582336, 0.6916598081588745, -0.05806703120470047, -0.9041923880577087, -0.44697797298431396, -0.3460874557495117, -0.12865322828292847, 0.4251399338245392, 0.20489363372325897, 0.20474106073379517, 0.3064754009246826, 0.19733111560344696, -1.653747797012329, 0.03750108927488327, -0.26018404960632324, -0.13076937198638916, 0.27556145191192627, -0.5127803683280945, -0.13769853115081787, 0.19989900290966034, 0.06839123368263245, -0.19164910912513733, -1.408111572265625], [-0.35659220814704895, -0.8864614963531494, -0.6306278109550476, -0.7259615063667297, -0.32826435565948486, -0.357475221157074, -0.4664897322654724, -0.4137098789215088, 0.42309004068374634, -0.939647912979126, -1.136634111404419, 0.9817251563072205, -0.9672579169273376, -0.4034406840801239, -0.5969350337982178, 0.08040760457515717, -0.646417498588562, -0.32860639691352844, 0.8231950402259827, -0.33304017782211304, 0.028002513572573662, -0.11391104757785797, 0.9631286263465881, -1.309590458869934, -1.157810926437378, 1.136555790901184, 0.6264873147010803, -0.37222471833229065, -0.5951840877532959, -0.044112905859947205, -0.3719509243965149, -0.46891582012176514, 0.635103702545166, 0.15090040862560272, 0.1521613597869873, 0.4448569416999817, -0.12443866580724716, -0.08034367114305496, -0.7313684225082397, 0.29516857862472534, -0.43943023681640625, 0.04378082975745201, 1.3841583728790283, -0.8366198539733887, 0.1284349113702774, -0.8534501194953918, -0.45282047986984253, -0.7860637307167053, 0.07033419609069824, -0.4433422386646271, -0.22669827938079834, -0.36514705419540405, -0.008773252367973328, 0.5713061690330505, 0.7516165971755981, -0.6265051364898682, -1.158017873764038, -0.412958562374115, -0.14095179736614227, -0.8908661007881165, -0.4579576551914215, 0.9759958982467651, -0.3655306398868561, 0.1647459715604782], [-0.24371910095214844, 1.0408134460449219, 0.3329533338546753, 0.08008480817079544, 0.2729370892047882, 0.15957997739315033, 0.06722019612789154, 0.2156289517879486, -0.15412072837352753, 0.6546907424926758, 1.0410047769546509, -0.1273287981748581, 1.102660059928894, 0.0074982354417443275, 0.06955231726169586, -0.1038341373205185, 0.7003121972084045, 0.18560823798179626, -0.5419866442680359, -0.10030888020992279, -0.09366077184677124, -0.1558157503604889, -1.1042234897613525, 1.239305019378662, 0.8479459881782532, -1.3000173568725586, 0.4161563813686371, -0.3579541742801666, 0.39593082666397095, 0.8311951756477356, 0.10183815658092499, 0.31159529089927673, 0.37691226601600647, -0.244947150349617, -0.3432990610599518, 0.678112804889679, -0.15576425194740295, -0.47425931692123413, 0.8769127130508423, 0.26974034309387207, 0.5677317976951599, -0.36569613218307495, -0.9150937795639038, 0.9386948943138123, -0.11990781128406525, 0.9961274862289429, 0.017619634047150612, 0.9488639831542969, -0.10585193336009979, 0.5182147026062012, -0.4082338809967041, 0.35700464248657227, 0.008605355396866798, 0.8794088363647461, -0.19949501752853394, -0.09573588520288467, 1.5099763870239258, -0.08250115811824799, -0.36193832755088806, 1.0539427995681763, 0.27864816784858704, -0.7008399963378906, 0.21797578036785126, -0.001070830854587257], [-0.05725790932774544, -0.23519451916217804, -0.4015335440635681, -0.35144755244255066, -0.2361154854297638, -0.1683223843574524, -0.17832370102405548, -0.6371603012084961, 0.6799196600914001, -0.3295738399028778, -0.5390633344650269, 1.4077045917510986, -0.3406579792499542, -0.2480270117521286, -0.017504634335637093, 0.22586199641227722, -0.47142475843429565, 0.007949361577630043, 1.614092230796814, 0.036386407911777496, 0.16917210817337036, -0.005821480415761471, 0.374025821685791, -0.6463677287101746, -0.4943156838417053, 0.19479528069496155, 1.0355451107025146, -0.4553949236869812, -0.3207320272922516, 0.9516047239303589, -0.37128913402557373, -0.36093786358833313, 1.1522365808486938, 0.05501358211040497, 0.024348387494683266, 1.0739113092422485, 0.03349153697490692, 0.219075009226799, 0.09054394066333771, 0.32355767488479614, -0.30403345823287964, 0.08097642660140991, 1.6933046579360962, -0.36882415413856506, 0.12421625852584839, -0.48666617274284363, 0.0021028858609497547, -0.616421639919281, -0.23909884691238403, -0.4492175877094269, -0.031527116894721985, -0.5972945094108582, -0.23630769550800323, 1.3188786506652832, 1.146529197692871, -0.21949128806591034, -0.3419562578201294, -0.09685460478067398, 0.10181397944688797, -0.6965464949607849, -0.5419557094573975, 1.1875461339950562, -0.13770367205142975, 0.26344263553619385], [1.0329467058181763, -0.11718764901161194, 0.36421453952789307, -0.07525356113910675, 0.8020269274711609, 0.768774688243866, 0.8206263780593872, 0.5789979100227356, -0.11823546141386032, 0.33432260155677795, 0.2598557472229004, -0.04100345820188522, -0.38657525181770325, -0.38974282145500183, -0.20051807165145874, -0.24182532727718353, 0.28562188148498535, -0.2246560901403427, 0.1561555564403534, 1.0062031745910645, -0.19816364347934723, 1.460133671760559, 0.7611644268035889, 0.018643343821167946, 0.29287856817245483, 0.8468115925788879, -1.0121644735336304, -0.44203680753707886, 0.3585042357444763, -0.41372931003570557, 0.9484823942184448, 0.5987350344657898, 0.4618449807167053, -0.043038517236709595, -0.41222530603408813, -0.051567159593105316, -0.10219823569059372, -0.1392970085144043, -0.28012096881866455, -0.1459159106016159, 0.45590320229530334, -0.023979032412171364, -0.055517442524433136, 0.23993128538131714, -0.11550208926200867, 0.36922627687454224, -0.3064200282096863, 0.5363165140151978, 1.3351231813430786, 0.45364367961883545, 1.5625810623168945, 0.6097441911697388, -0.06663435697555542, 0.1029074415564537, -0.6544346213340759, -0.10657384991645813, 0.00947987288236618, 1.0163151025772095, -0.2197272926568985, 0.14108628034591675, 0.45851266384124756, -0.14288857579231262, -0.13119132816791534, -0.07098081707954407], [-0.6335474252700806, -0.056831277906894684, -0.4583159387111664, 0.22574476897716522, -0.6553739905357361, -0.3702825605869293, -0.6335095167160034, -0.6380072236061096, 0.6736826300621033, -0.39592981338500977, -0.2277536690235138, 0.8311465978622437, -0.3854617476463318, 0.13493600487709045, 0.3755952715873718, 0.6928417682647705, -0.5151156783103943, 0.29463475942611694, 1.005479335784912, -0.5877203941345215, 0.29290372133255005, -0.5765011310577393, 0.009358464740216732, -0.6604456305503845, -0.7088470458984375, -0.03313946723937988, 1.2620278596878052, -0.4840977191925049, -0.5410861968994141, 0.7092318534851074, -0.3156942129135132, -0.8596682548522949, 0.6526331305503845, 0.11433789134025574, 0.15105995535850525, 0.579593300819397, 0.3573255240917206, 0.08984501659870148, 0.059759341180324554, 0.6261699795722961, -0.8131640553474426, -0.04309811070561409, 1.2735731601715088, -0.540566086769104, 0.30176809430122375, -0.7410466074943542, 0.1889142543077469, -0.3719174861907959, -0.5843573808670044, -0.8178433179855347, -0.4871079921722412, -0.8486220836639404, -0.014496701769530773, 0.5798345804214478, 1.0603158473968506, 0.13189993798732758, -0.6969242095947266, -0.5126721858978271, 0.050438329577445984, -0.7617244124412537, -0.6062684059143066, 1.1179695129394531, 0.16464459896087646, 0.564746081829071], [1.1021372079849243, -0.4140508472919464, 0.4279322624206543, -0.157797172665596, 0.7258398532867432, 0.7737941741943359, 0.7540433406829834, 0.13386094570159912, -0.15722404420375824, -0.023568714037537575, -0.486987829208374, 0.5377893447875977, -0.8031570911407471, -0.35638701915740967, -0.332661896944046, 0.13939562439918518, -0.02163689211010933, -0.41504839062690735, 0.3071250319480896, 0.9743494987487793, 0.10113820433616638, 1.3443546295166016, 0.9106720685958862, -0.5095295310020447, -0.30420562624931335, 0.9967389106750488, -0.6994268298149109, -0.5929409861564636, 0.5715131759643555, -0.5493823289871216, 0.7613844275474548, 0.35124340653419495, 0.20952504873275757, 0.07086227834224701, -0.541881263256073, -0.5161694288253784, -0.08883439004421234, -0.21224185824394226, -0.6891915202140808, 0.016902968287467957, 0.22713062167167664, -0.09349305927753448, 0.2809411287307739, 0.22254224121570587, 0.11636148393154144, -0.13426214456558228, -0.22324620187282562, -0.0076470086351037025, 1.463848352432251, 0.28119370341300964, 1.361441731452942, 0.29612764716148376, -0.20978838205337524, -0.12536077201366425, -0.11031205207109451, 0.0071314009837806225, -0.3685706853866577, 1.305554986000061, -0.2071259319782257, 0.020847132429480553, 0.3631082773208618, 0.006840159650892019, -0.36178240180015564, 0.0498679019510746], [-0.1872129738330841, -0.6785300374031067, -0.15961240231990814, -1.14546799659729, -0.20092354714870453, -0.5103179812431335, -0.40020325779914856, -0.40619561076164246, -0.22606801986694336, -0.6997461915016174, -0.7960716485977173, 1.4519563913345337, -0.6680023074150085, -1.1550655364990234, -1.2468938827514648, -0.7446343302726746, -0.6747437715530396, -0.9068629145622253, 1.4028109312057495, -0.028208225965499878, -0.3875999450683594, 0.05289210006594658, 1.4578737020492554, -0.9380640983581543, -0.9438582062721252, 1.1353293657302856, 0.9667683839797974, -0.605495810508728, -0.13391441106796265, -0.4764385223388672, 0.01035439595580101, -0.1241723820567131, -0.5780364274978638, -0.6424018740653992, 0.20950007438659668, -0.0801980197429657, -0.28641194105148315, -0.6923574805259705, -0.4673280715942383, -0.4737725853919983, -0.07230429351329803, -0.45040664076805115, 1.294966459274292, -0.7963882684707642, -0.42632976174354553, -0.802556037902832, -1.0895795822143555, -0.6641534566879272, 0.16273772716522217, -0.22321951389312744, -0.10355831682682037, -0.4060693085193634, -0.5138099789619446, -0.5178712606430054, 1.3638862371444702, -0.9686633348464966, -0.879938006401062, 0.027855616062879562, -0.5374048352241516, -1.0644464492797852, -0.4848178029060364, 1.286056637763977, -1.0313414335250854, -0.32161033153533936], [0.8955556750297546, -0.1444416642189026, 0.5699184536933899, -0.4378814101219177, 0.5279566049575806, 0.5754184722900391, 0.6372093558311462, 0.611423134803772, -0.20536640286445618, 0.08951136469841003, -0.0974319651722908, -0.4855165481567383, -0.15183904767036438, -0.07130788266658783, -0.398299902677536, -0.36041906476020813, 0.5030165314674377, -0.08223600685596466, -0.22831617295742035, 0.7514870166778564, 0.019179660826921463, 0.5455496311187744, 0.40914466977119446, 0.02053820714354515, 0.11323773860931396, 0.49807536602020264, -1.3602770566940308, -0.1854085773229599, 0.7150581479072571, -0.6481029987335205, 0.7127287983894348, 0.6963555812835693, -0.2988446056842804, -0.1184629425406456, -0.011366508901119232, -0.6429237723350525, -0.4289029538631439, -0.10677798837423325, -0.11616536229848862, -0.3294288218021393, 0.7152196168899536, 0.03157217428088188, -0.5438389182090759, 0.33591359853744507, -0.542803943157196, 0.43768376111984253, -0.3609735071659088, 0.3667413592338562, 0.7418320775032043, 0.6695114970207214, 0.8159754276275635, 0.6615555286407471, 0.02174489013850689, -0.16075760126113892, -0.9394388198852539, -0.3584919273853302, 0.17218433320522308, 0.6397346258163452, -0.37173396348953247, 0.37785670161247253, 0.5974013805389404, -0.908613383769989, -0.1253940463066101, -0.26040130853652954], [1.1571820974349976, -0.5787293910980225, 0.45662951469421387, -0.09550071507692337, 0.5672163367271423, 0.6928568482398987, 0.5033332705497742, 0.5070241689682007, -0.07955405116081238, -0.09737779200077057, -0.028480544686317444, 0.07285317778587341, -0.49671506881713867, 0.011109186336398125, -0.1275213360786438, -0.13764788210391998, 0.023651311174035072, 0.08212150633335114, 0.11505112797021866, 1.006479263305664, 0.11360615491867065, 1.360076665878296, 0.4993438422679901, -0.1449519246816635, 0.04353907331824303, 0.6794766783714294, -0.8038597106933594, 0.04033050686120987, 0.3159855902194977, -0.7048401832580566, 0.5725293755531311, 0.2945486605167389, -0.088873490691185, -0.13927476108074188, -0.4466273784637451, -0.4768446683883667, 0.14407950639724731, 0.01689215935766697, -0.3632521331310272, -0.038319334387779236, 0.47506722807884216, -0.13216671347618103, -0.43993890285491943, 0.015303359366953373, -0.2495208978652954, 0.03523718938231468, -0.16232259571552277, 0.2769014835357666, 1.0469502210617065, 0.2637105882167816, 1.437392234802246, 0.598963737487793, -0.07374806702136993, -0.34668928384780884, -0.4571358859539032, 0.03480561450123787, -0.41815608739852905, 1.1783205270767212, -0.12790440022945404, 0.13742892444133759, 0.603751540184021, -0.60824054479599, -0.25879135727882385, 0.11729041486978531], [0.7121747136116028, 0.38363155722618103, 0.6841291785240173, -0.20733927190303802, 0.5761008262634277, 0.4103676974773407, 0.7126355767250061, 0.6014010906219482, -1.2971622943878174, 0.07024724781513214, 0.2494013011455536, -0.9009846448898315, 0.07903792709112167, -0.30020228028297424, -0.40117210149765015, -0.7488413453102112, 0.12560723721981049, -0.16902954876422882, -0.47361937165260315, 0.7283868193626404, -0.37503325939178467, 0.4564531743526459, 0.6748731732368469, 0.3383367955684662, 0.1696498841047287, 0.4240686595439911, -1.2671833038330078, 0.09040892869234085, 0.6159029006958008, -0.6360581517219543, 0.4174158275127411, 0.2982025444507599, -0.7210021615028381, -0.22507883608341217, -0.11584421247243881, -0.43964883685112, -0.3268887400627136, -0.4867437183856964, -0.32239392399787903, -1.0952621698379517, 0.5083327293395996, -0.5202592015266418, -0.9607247114181519, 0.47160089015960693, -0.7767468690872192, 0.24009571969509125, -0.48018667101860046, 0.06751666218042374, 0.7160712480545044, 0.32301193475723267, 0.6864824891090393, 0.3776191473007202, 0.0736343041062355, -0.6180607676506042, -1.0677019357681274, -0.4953775107860565, 0.26808202266693115, 0.47210821509361267, -0.2747863531112671, 0.42625775933265686, 0.3755636215209961, -1.3615740537643433, -0.36641189455986023, -1.1054050922393799], [-0.16142544150352478, -0.3168138563632965, -0.0005376878543756902, -0.9210520386695862, -0.3465483784675598, -0.11137330532073975, -0.21800297498703003, 0.07909083366394043, -0.6280739307403564, -0.46592584252357483, -0.5975543856620789, 0.5537253022193909, -0.599738597869873, -0.9986354112625122, -0.6672327518463135, -0.5928387641906738, -0.7107529044151306, -0.7905629873275757, 0.5941259264945984, -0.06882783025503159, -0.4273233115673065, 0.12202027440071106, 1.1813830137252808, -0.7444247007369995, -0.6934229135513306, 1.0319992303848267, 0.5527833104133606, -0.26915302872657776, -0.24927692115306854, -0.580333411693573, -0.05514620989561081, -0.2948279082775116, -0.8640614748001099, -0.1722748875617981, 0.030733702704310417, -0.6404417753219604, -0.41282323002815247, -0.6055858135223389, -0.3409201502799988, -0.9013949632644653, 0.06322897225618362, -0.21944807469844818, 1.0906370878219604, -0.7975810766220093, -0.6793723702430725, -0.7284005880355835, -0.8710646033287048, -0.4817896783351898, -0.04720614477992058, -0.35864686965942383, 0.14808452129364014, -0.09523942321538925, -0.4257504642009735, -0.7300058603286743, 0.6453703045845032, -0.5078620910644531, -0.9068485498428345, 0.16868826746940613, -0.32148706912994385, -0.7058068513870239, 0.052474312484264374, 0.994388997554779, -0.9068025946617126, -0.7400567531585693], [-0.34538331627845764, -0.43388107419013977, -0.48882055282592773, -0.04604639112949371, -0.4083118736743927, -0.3513965308666229, -0.575247585773468, -0.6156147122383118, 0.5847551822662354, -0.622916042804718, -0.5376251339912415, 1.3813730478286743, -0.2998183071613312, 0.028658365830779076, -0.3163432478904724, 0.3040536344051361, -0.4222419559955597, -0.025582589209079742, 1.260931372642517, -0.07823558151721954, -0.12563836574554443, -0.36605945229530334, 0.273071825504303, -0.6111892461776733, -0.39291298389434814, 0.08018384128808975, 0.7893713116645813, -0.64896160364151, -0.5381278991699219, 0.725834310054779, -0.553482174873352, -0.6847398281097412, 1.1603811979293823, -0.026473702862858772, -0.1893174946308136, 0.6775641441345215, 0.1189107820391655, 0.04685740917921066, -0.00020922109251841903, 0.6121501922607422, -0.6904671788215637, 0.19478020071983337, 1.484878659248352, -0.6411697268486023, 0.12153268605470657, -0.4548639953136444, -0.16930533945560455, -0.6949417591094971, -0.15332365036010742, -0.832526445388794, -0.28296494483947754, -0.5986645221710205, -0.2778128683567047, 1.0920227766036987, 1.057314395904541, -0.2077523171901703, -0.4416780471801758, -0.3650519549846649, 0.04797375574707985, -0.5543814301490784, -0.6061356663703918, 1.5568150281906128, -0.09811998903751373, 0.6745222210884094], [0.575171172618866, -0.9419603943824768, 0.130560040473938, 0.01966819539666176, 0.004714156500995159, 0.09934892505407333, 0.43094512820243835, 0.2801481783390045, 0.10354714840650558, -0.4287029504776001, -0.4199765920639038, -0.39886683225631714, -0.8156301975250244, 0.148746058344841, 0.10403212159872055, 0.20863674581050873, -0.1658153384923935, -0.003258245764300227, 0.053788922727108, 0.37044310569763184, -0.0005271363770589232, 0.3705815076828003, 0.6538411974906921, -0.5197566747665405, -0.33054324984550476, 0.5103476643562317, -1.8789645433425903, -0.199901282787323, -0.00807642750442028, -0.8252080678939819, 0.290359228849411, 0.14748406410217285, -0.15112711489200592, 0.18862569332122803, -0.11376460641622543, -0.8781277537345886, 0.047866806387901306, -0.2842276692390442, -0.6088995933532715, 0.11084241420030594, 0.15212033689022064, -0.0801541656255722, -0.5656253099441528, -0.4719850718975067, -0.15662699937820435, -0.18001089990139008, 0.15439055860042572, -0.369281530380249, 0.6029278635978699, 0.13443368673324585, 0.468242883682251, 0.07028906792402267, 0.20017725229263306, -0.6557785868644714, -1.1836503744125366, 0.11763691157102585, -0.25804921984672546, 0.650329053401947, -0.1588357388973236, -0.4516240358352661, 0.05488690733909607, -1.0907856225967407, 0.11040879786014557, 0.041059087961912155], [-0.24501152336597443, -0.5469127297401428, -0.7893438935279846, -0.26906079053878784, -0.36021342873573303, -0.5530425906181335, -0.6827700734138489, -0.7907097935676575, 0.5041775107383728, -0.6903632283210754, -0.8966303467750549, 1.1543457508087158, -0.7974764704704285, -0.19737932085990906, -0.5094428658485413, 0.0902719497680664, -0.8740721344947815, -0.38248494267463684, 1.3101551532745361, -0.36219751834869385, -0.23043271899223328, -0.0989120677113533, 0.4777085781097412, -0.8888922333717346, -0.6547267436981201, 0.5648935437202454, 0.8832038044929504, -0.5307298898696899, -0.7993656992912292, 0.434937059879303, -0.2882191836833954, -0.44411012530326843, 0.9463829398155212, 0.06392161548137665, -0.14259806275367737, 0.4725503921508789, -0.21648895740509033, -0.04775821045041084, -0.11800072342157364, 0.2977216839790344, -0.4396349787712097, 0.056368667632341385, 1.4961178302764893, -0.4976402819156647, 0.2682435214519501, -0.6912007331848145, -0.3722131848335266, -0.7185255885124207, -0.31282827258110046, -0.5048636198043823, -0.18023917078971863, -0.8027754426002502, -0.10808056592941284, 0.5847734212875366, 1.003941535949707, -0.2428082525730133, -0.9207606315612793, -0.45217934250831604, -0.13837690651416779, -0.6232572197914124, -0.7307912707328796, 1.285353660583496, -0.17935962975025177, 0.37447696924209595], [0.17632324993610382, -0.37865471839904785, -0.10333513468503952, -0.8057270646095276, -0.20041219890117645, -0.16299892961978912, -0.3159993290901184, -0.2477608621120453, -1.1116641759872437, -0.8211086988449097, -0.6281160116195679, 0.7280622720718384, -0.5248036980628967, -0.7225594520568848, -0.6542987823486328, -0.477061003446579, -0.7927086353302002, -0.6691036224365234, 1.1134992837905884, 0.1696527898311615, -0.20970122516155243, 0.3223641514778137, 1.450358510017395, -1.0299689769744873, -1.0835204124450684, 1.4974863529205322, 0.37312930822372437, -0.5872086882591248, -0.0426749512553215, -0.3513163924217224, 0.010092422366142273, -0.1291104555130005, -0.3891390562057495, -0.35627007484436035, -0.05607936903834343, -0.38610249757766724, -0.4273734390735626, -0.3466818034648895, -0.5182494521141052, -0.8069511651992798, -0.336899071931839, -0.4321843683719635, 1.4119535684585571, -0.6639468669891357, -0.3042546212673187, -1.152514934539795, -0.9894667267799377, -0.7674391269683838, 0.33166053891181946, -0.17997346818447113, 0.23968343436717987, -0.21666359901428223, -0.38845255970954895, -0.3167472183704376, 0.5933985710144043, -0.8605461120605469, -1.0850951671600342, -0.035330433398485184, -0.19272427260875702, -1.2186390161514282, -0.21547552943229675, 0.9912987947463989, -0.8218004703521729, -0.6860511302947998], [-0.9062429666519165, 0.8512163758277893, -0.21049723029136658, -0.09294424206018448, -0.6537670493125916, -0.3124133050441742, -0.4920210838317871, -0.15270987153053284, 0.21880589425563812, 0.35870659351348877, 0.48622995615005493, 0.20512649416923523, 0.8717531561851501, -0.1727752834558487, -0.11393716186285019, 0.005997670814394951, 0.32654446363449097, -0.2991499900817871, 0.285249263048172, -0.9735437631607056, -0.2851981520652771, -1.1286873817443848, -0.750138521194458, 0.5157986283302307, 0.4035227298736572, -0.6500204801559448, 1.153489351272583, 0.15575499832630157, -0.33553966879844666, 0.9299402236938477, -0.699135959148407, -0.2504156529903412, 0.47497233748435974, -0.005566064268350601, -0.1738162487745285, 0.8408158421516418, -0.04787549376487732, -0.40878361463546753, 0.9909067153930664, 0.275532066822052, -0.24348184466362, -0.020762644708156586, 0.4688246548175812, 0.2834157943725586, -0.00212075375020504, 0.20166701078414917, -0.09877089411020279, -0.0018319148803129792, -0.9001116156578064, -0.029455803334712982, -1.1157493591308594, -0.3447496294975281, 0.06082623079419136, 0.7423785924911499, 0.8253501057624817, -0.3568847179412842, 0.28527072072029114, -0.7045769095420837, -0.027015363797545433, 0.27953603863716125, -0.41609933972358704, 0.563224196434021, -0.01601412519812584, 0.3282884657382965], [-0.25369566679000854, 1.1348624229431152, 0.05475084111094475, -0.19550196826457977, 0.18761835992336273, 0.4249759614467621, 0.16666483879089355, 0.24476465582847595, -0.31891313195228577, 0.42605844140052795, 0.7320936918258667, -0.6893970966339111, 1.1027767658233643, 0.05126987397670746, -0.2062721848487854, -0.3078603148460388, 0.574664831161499, -0.19425225257873535, -0.24889343976974487, -0.2558073401451111, -0.2220551073551178, -0.18174594640731812, -1.0740331411361694, 0.4107189476490021, 0.5909695029258728, -1.0598821640014648, 1.0942106246948242, 0.38461732864379883, 0.41956180334091187, 1.4806679487228394, 0.21008984744548798, 0.0631437748670578, 1.1140989065170288, -0.3006218373775482, -0.30510541796684265, 1.2718466520309448, -0.6059572100639343, -0.5985401272773743, 1.1778007745742798, -0.4363093376159668, 0.45736557245254517, -0.20487196743488312, -0.046117402613162994, 0.303227961063385, -0.22220204770565033, 0.49955981969833374, -0.20352789759635925, 0.2910473942756653, -0.1856437772512436, 0.24073106050491333, -0.44418615102767944, 0.1391773670911789, -0.1845579296350479, 0.8782318234443665, 0.2560892105102539, -0.22649447619915009, 0.41826924681663513, 0.06369835138320923, -0.5234847664833069, 0.5829854607582092, 0.16833733022212982, 0.05539681762456894, -0.19319884479045868, -0.1980902999639511], [-0.823853611946106, 0.09304425120353699, -0.5493466854095459, 0.47746899724006653, -0.47648561000823975, -0.3287944495677948, -0.7153502702713013, -0.7383797764778137, 1.1329166889190674, -0.16317316889762878, -0.33330753445625305, 0.45095616579055786, 0.050008468329906464, 0.500755250453949, 0.532496452331543, 0.7353846430778503, -0.20275433361530304, 0.4276890754699707, 0.2952173352241516, -0.73012375831604, 0.023136816918849945, -0.7357447743415833, -0.755863606929779, -0.24761655926704407, -0.5123563408851624, -0.45531904697418213, 1.7859894037246704, -0.08843298256397247, -0.34162089228630066, 1.1211729049682617, -0.42803719639778137, -0.508938193321228, 1.3312960863113403, 0.4589947760105133, 0.15731312334537506, 1.2069979906082153, 0.6031816601753235, 0.44212207198143005, 0.10844282060861588, 0.971832275390625, -0.4924760162830353, 0.3121502995491028, 0.6494219303131104, -0.16748560965061188, 0.541837215423584, -0.3669185936450958, 0.3185746669769287, -0.16860553622245789, -0.8249945044517517, -0.6311222314834595, -0.4990313947200775, -0.6743325591087341, 0.2571166753768921, 1.2761499881744385, 1.1964640617370605, 0.5510907769203186, -0.023576436564326286, -0.8529952764511108, 0.4714997708797455, -0.48075851798057556, -0.4441981017589569, 1.1310932636260986, 0.46911635994911194, 1.1684540510177612], [1.311430811882019, -0.3200070559978485, 0.26522576808929443, 0.05970759689807892, 0.6559707522392273, 0.7083805203437805, 0.8674317002296448, 0.48834294080734253, -0.11563269048929214, 0.25840142369270325, 0.12109274417161942, -0.11905180662870407, -0.19833193719387054, -0.19521397352218628, 0.08302832394838333, -0.008532410487532616, 0.24297834932804108, -0.10051421821117401, -0.21952340006828308, 0.9900298118591309, 0.09816345572471619, 1.4910355806350708, 0.4964083731174469, 0.010128847323358059, 0.042837947607040405, 0.5982268452644348, -0.9992907047271729, -0.01070148404687643, 0.5769382119178772, -0.38938385248184204, 0.8121389746665955, 0.46187281608581543, 0.03233693540096283, 0.1661413460969925, -0.4188714623451233, -0.589625358581543, -0.26695260405540466, -0.16856978833675385, -0.2853482663631439, 0.038487423211336136, 0.6033480763435364, -0.15575985610485077, -0.30715397000312805, 0.3224670886993408, -0.17165546119213104, 0.33691349625587463, -0.07750413566827774, -0.0012086494825780392, 1.0924859046936035, 0.7186493277549744, 1.3292428255081177, 0.5397056341171265, -0.21057797968387604, -0.02555997669696808, -0.9040088057518005, 0.23025570809841156, -0.280745267868042, 1.1786681413650513, -0.0444977730512619, 0.0340285561978817, 0.45834335684776306, -0.8467295169830322, -0.16371288895606995, 0.02923152968287468], [-0.3286411166191101, -0.3563395142555237, -0.597911536693573, 0.13367120921611786, -0.28443434834480286, -0.37436172366142273, -0.4139023721218109, -0.5674005746841431, 0.5525621771812439, -0.46830153465270996, -0.45781049132347107, 1.1778850555419922, -0.217111736536026, -0.004246464464813471, -0.0610203817486763, 0.6433379650115967, -0.4050447940826416, -0.11546573042869568, 1.380179762840271, -0.13714352250099182, -0.10467551648616791, -0.4690650701522827, 0.07078272849321365, -0.5900790691375732, -0.6446179151535034, 0.22747519612312317, 0.9324620366096497, -0.373992383480072, -0.7417028546333313, 0.5146918892860413, -0.355942040681839, -0.7668763399124146, 0.9897803664207458, 0.0009452900267206132, 0.1633884161710739, 0.8564449548721313, 0.20070691406726837, 0.1379847228527069, -0.22392985224723816, 0.6063198447227478, -0.5741833448410034, 0.246574267745018, 1.5424855947494507, -0.690963864326477, 0.2772800922393799, -0.7502743005752563, 0.09336534142494202, -0.5287494659423828, -0.13130509853363037, -0.7556142210960388, -0.4324583113193512, -0.7810962200164795, 0.08187846094369888, 0.8802187442779541, 1.2232860326766968, 0.08158226311206818, -0.8302413821220398, -0.16358783841133118, 0.1811012625694275, -0.7364241480827332, -0.7404780983924866, 1.4050263166427612, -0.019426017999649048, 0.41511377692222595], [-0.3395639657974243, -0.07976342737674713, -0.7826204299926758, 0.3001638948917389, -0.3375965654850006, -0.6608726978302002, -0.6018255949020386, -0.6444339752197266, 0.9276422262191772, -0.550468921661377, -0.49138304591178894, 1.045149326324463, -0.022957079112529755, 0.2172153890132904, 0.12127234041690826, 0.7365477085113525, -0.5901040434837341, 0.3405776917934418, 0.8510504961013794, -0.6357762813568115, 0.2684329152107239, -0.6637406945228577, -0.34396424889564514, -0.5270338654518127, -0.46854540705680847, -0.22664505243301392, 1.6674909591674805, -0.41266459226608276, -0.790734589099884, 1.068902850151062, -0.30450886487960815, -0.45015236735343933, 1.3500920534133911, 0.24508661031723022, -0.011871041730046272, 1.2567933797836304, 0.06768356263637543, 0.18782047927379608, 0.4389866888523102, 0.8231241106987, -0.7114393711090088, -0.05914394184947014, 1.0595941543579102, -0.3594069182872772, 0.60040283203125, -0.6782516241073608, 0.2923227846622467, -0.2932882010936737, -0.47413069009780884, -0.5536710619926453, -0.6010348200798035, -0.5856105089187622, -0.2927834093570709, 1.128986120223999, 1.551192045211792, 0.24019086360931396, -0.2794925272464752, -0.61045902967453, 0.18503110110759735, -0.6170672178268433, -0.7126289010047913, 1.3932478427886963, 0.15686550736427307, 0.9105392694473267], [-0.5827541947364807, 0.0708405077457428, -0.5059879422187805, 0.37208518385887146, -0.18875069916248322, -0.1853334903717041, -0.6576427817344666, -0.35631343722343445, 0.6012729406356812, -0.35586050152778625, -0.09678977727890015, 0.7509962916374207, 0.008045132271945477, 0.2707267105579376, 0.4589139223098755, 0.21813377737998962, -0.3042592406272888, 0.21061602234840393, 0.4419703483581543, -0.3097492456436157, 0.1779782921075821, -0.6609363555908203, -0.6609193682670593, -0.021293260157108307, -0.29509949684143066, -0.5689331293106079, 1.8756508827209473, -0.21432830393314362, -0.6308383345603943, 1.2279260158538818, -0.4820360541343689, -0.511128842830658, 1.038784384727478, 0.3238566517829895, 0.034035373479127884, 1.029879093170166, 0.18567441403865814, 0.15710288286209106, 0.5766106843948364, 0.6923863887786865, -0.3378128409385681, 0.0987420603632927, 0.8132357001304626, -0.05662023276090622, 0.5404689908027649, -0.36471447348594666, 0.32425108551979065, -0.29256579279899597, -0.5489532947540283, -0.5232601165771484, -0.5393009185791016, -0.5291017889976501, 0.17238804697990417, 1.108620285987854, 1.511415958404541, 0.09638804942369461, -0.17837263643741608, -0.5731008648872375, 0.2545163333415985, -0.18790459632873535, -0.5285645127296448, 1.2814074754714966, 0.1973024159669876, 0.49008235335350037], [0.9667167663574219, -0.686461329460144, 0.20603333413600922, -0.2344018518924713, 0.2780442535877228, 0.23313041031360626, 0.48789411783218384, 0.3075936734676361, -0.15910586714744568, -0.009086525067687035, -0.3551064729690552, -0.16853778064250946, -0.5058431625366211, -0.08258800208568573, -0.200751394033432, 0.022095713764429092, 0.0831548273563385, -0.34962818026542664, 0.13540174067020416, 0.5334728956222534, 0.011442014947533607, 0.9411291480064392, 0.6602595448493958, -0.1639603078365326, -0.1668175607919693, 0.6309227347373962, -1.0683411359786987, 0.17899762094020844, 0.12988342344760895, -0.6873952746391296, 0.34333088994026184, 0.18637949228286743, -0.21196334064006805, -0.01004635076969862, -0.12714429199695587, -0.4445725083351135, -0.08925803750753403, -0.2751075029373169, -0.49022552371025085, -0.007810244336724281, 0.1454538255929947, -0.00013961910735815763, -0.06707051396369934, -0.03927036374807358, 0.12092011421918869, -0.3016147315502167, -0.0164386834949255, 0.08069656789302826, 0.8680044412612915, 0.4661770761013031, 0.6887167096138, 0.1079687848687172, 0.007222276646643877, -0.48814836144447327, -0.61905837059021, -0.016154568642377853, -0.4503662586212158, 0.8449473977088928, -0.19194182753562927, -0.33058589696884155, 0.36941561102867126, -0.527380645275116, -0.22749975323677063, -0.19223088026046753], [-0.9661363363265991, 0.3089560866355896, -0.14453403651714325, 0.13678626716136932, -0.5141098499298096, -0.388651043176651, -0.3305768370628357, -0.5130214095115662, 0.48610934615135193, -0.017695510759949684, 0.3548247516155243, 0.33952775597572327, 0.5781912803649902, 0.31818029284477234, 0.07242154330015182, 0.2572453022003174, -0.0011116539826616645, 0.16825051605701447, 0.08652996271848679, -0.7437317371368408, 0.026012204587459564, -0.932957649230957, -0.641808032989502, 0.26363810896873474, 0.24064891040325165, -1.0941740274429321, 1.3733524084091187, -0.11352582275867462, -0.4783529043197632, 1.2403817176818848, -0.6418536305427551, -0.27072641253471375, 0.6994019150733948, 0.2977619171142578, -0.19761687517166138, 1.2623993158340454, 0.26844170689582825, -0.10652359575033188, 0.8326197862625122, 0.6277614235877991, -0.4355951249599457, 0.274649441242218, 0.458300918340683, -0.024856891483068466, 0.4703064262866974, -0.20444709062576294, 0.08685271441936493, 0.1761346310377121, -0.6417410373687744, -0.36694759130477905, -0.6952422261238098, -0.6261149048805237, 0.14019924402236938, 0.9636386036872864, 0.6374008655548096, -0.11222445964813232, 0.18042683601379395, -0.8548176288604736, 0.03535579517483711, 0.01910734921693802, -0.6905958652496338, 0.8421303629875183, 0.2386789619922638, 0.5579644441604614], [-0.3848857879638672, -0.49190402030944824, -0.7018527388572693, 0.2823062837123871, -0.6113883256912231, -0.4053287208080292, -0.6813740730285645, -0.5088742971420288, 0.8240866661071777, -0.3771870732307434, -0.4975167214870453, 0.9383594989776611, -0.4098721742630005, 0.3178732991218567, 0.30090615153312683, 0.7181511521339417, -0.47574111819267273, 0.3447936177253723, 1.2704869508743286, -0.6755080819129944, 0.20898929238319397, -0.40558508038520813, -0.23133277893066406, -0.5581302642822266, -0.38801753520965576, -0.07115177810192108, 1.3488695621490479, -0.45882123708724976, -0.739008903503418, 0.545749843120575, -0.5764291882514954, -0.7482667565345764, 1.0057387351989746, 0.3185569941997528, 0.17333710193634033, 0.5237851738929749, 0.403438538312912, 0.34717005491256714, 0.046197161078453064, 0.901955246925354, -0.8325746059417725, 0.2757217586040497, 1.320763111114502, -0.6457527279853821, 0.4392286539077759, -0.5880805253982544, 0.32763585448265076, -0.3594759702682495, -0.5107982158660889, -0.8355044722557068, -0.350107878446579, -0.8131495118141174, 0.05051986128091812, 0.6339765787124634, 1.1689338684082031, 0.3648844361305237, -0.7166597843170166, -0.3325210511684418, 0.3317852318286896, -0.5832821726799011, -0.7289713025093079, 1.3608709573745728, 0.03554236516356468, 0.9510213732719421], [0.5641511678695679, 0.021820655092597008, 0.6073815226554871, -0.5799521207809448, 0.2589307427406311, 0.6056265234947205, 0.5944199562072754, 0.45414412021636963, -0.7431178092956543, 0.35756778717041016, 0.3304053246974945, -0.828060507774353, 0.20637297630310059, -0.6662701368331909, -0.48228323459625244, -0.8397849798202515, 0.569337010383606, -0.4798891544342041, -0.7343748211860657, 0.7216743230819702, -0.3796231746673584, 0.3906060457229614, 0.17054103314876556, 0.5129613280296326, 0.24699559807777405, 0.3212655186653137, -1.2402684688568115, 0.20452822744846344, 0.3804572820663452, -0.38598981499671936, 0.3321788012981415, 0.6509031653404236, -0.3111652135848999, -0.27957361936569214, -0.23388396203517914, -0.3579568862915039, -0.5987836718559265, -0.19706600904464722, -0.07966397702693939, -0.780778706073761, 0.669331431388855, -0.18596874177455902, -0.8289610147476196, 0.5261510014533997, -0.7091841697692871, 0.5229092836380005, -0.6808034777641296, 0.3642350435256958, 0.7111826539039612, 0.49945592880249023, 0.7028224468231201, 0.7648332715034485, -0.10403826087713242, -0.07481952756643295, -1.0021859407424927, -0.31265634298324585, 0.544692873954773, 0.37024644017219543, -0.45385053753852844, 0.4497988224029541, 0.5136652588844299, -0.9572990536689758, -0.3853147625923157, -0.6200915575027466], [-0.3918962776660919, -0.3180215656757355, -0.8037412166595459, 0.0652322769165039, -0.6762216687202454, -0.5458771586418152, -0.8563770651817322, -0.873393714427948, 0.6402146220207214, -0.4813169538974762, -0.42212826013565063, 0.802501916885376, -0.46759867668151855, 0.19944462180137634, 0.18541401624679565, 0.4826987683773041, -0.6514115929603577, -0.03142421320080757, 1.2295960187911987, -0.40608546137809753, -0.0059674507938325405, -0.508925199508667, -0.28539881110191345, -0.5934880375862122, -0.6667308807373047, -0.04048209637403488, 1.0956124067306519, -0.45522522926330566, -0.5608659982681274, 0.46909740567207336, -0.6388907432556152, -0.5636700391769409, 1.2076162099838257, 0.29965096712112427, -0.07003465294837952, 0.611961305141449, 0.1101626381278038, 0.036842286586761475, -0.11722861230373383, 0.760439395904541, -0.7233671545982361, 0.03922589495778084, 1.482027530670166, -0.37845903635025024, 0.6220840215682983, -0.49119022488594055, 0.17678000032901764, -0.5511335134506226, -0.5947105288505554, -0.5722396969795227, -0.5283021330833435, -0.9394398927688599, -0.058680471032857895, 0.815318763256073, 1.2959266901016235, 0.20110227167606354, -0.8303036093711853, -0.5117120742797852, 0.12013087421655655, -0.7458059191703796, -0.9446873068809509, 1.2540409564971924, 0.06562914699316025, 0.8348891139030457], [0.5285251140594482, -0.9483217000961304, 0.3073187470436096, -0.0194654930382967, 0.28853753209114075, -0.080629862844944, 0.4208846390247345, -0.0006664508255198598, 0.4127514660358429, -0.34858444333076477, -0.3813217580318451, -0.15590941905975342, -0.6564192175865173, 0.07919470965862274, -0.10026058554649353, 0.07797800004482269, -0.41652417182922363, 0.01821199432015419, -0.21413397789001465, 0.6061517596244812, -0.05322890356183052, 0.683864414691925, 0.6904165744781494, -0.5674494504928589, -0.5256903171539307, 0.8258847594261169, -1.7213653326034546, 0.022369885817170143, 0.17946045100688934, -0.9182605743408203, 0.28081417083740234, 0.1293838918209076, -0.44718024134635925, -0.2016528993844986, -0.07579171657562256, -0.4984598755836487, -0.26949769258499146, -0.12646323442459106, -0.8519953489303589, 0.1863541156053543, -0.0009537026053294539, 0.0891212522983551, -0.5453816056251526, -0.41754651069641113, 0.1917729526758194, -0.1416560262441635, 0.03913767263293266, -0.19320420920848846, 0.5577911138534546, 0.23943650722503662, 0.6209981441497803, 0.004371088929474354, -0.06211104616522789, -0.6308382153511047, -1.1939797401428223, 0.2225458174943924, -0.20626837015151978, 0.6257646083831787, -0.0002293029538122937, -0.12650078535079956, -0.04220740497112274, -0.8213852047920227, 0.03146013244986534, 0.10890042781829834], [1.017486572265625, -0.151151642203331, 0.4330321252346039, -0.190599262714386, 0.6884428262710571, 0.5044763088226318, 0.737531840801239, 0.3575390577316284, -0.33732515573501587, 0.24795781075954437, 0.05132796987891197, -0.39022836089134216, -0.09955981373786926, -0.24492111802101135, -0.34552863240242004, -0.44493532180786133, 0.31101101636886597, -0.06979809701442719, -0.32869893312454224, 0.6898380517959595, -0.32527798414230347, 0.9007552862167358, 0.31571879982948303, 0.026814961805939674, 0.21696211397647858, 0.35834768414497375, -1.4142522811889648, 0.1457996368408203, 0.3673998713493347, -0.259944885969162, 0.7349740862846375, 0.7053326368331909, 0.0540793351829052, -0.1817896068096161, -0.444668710231781, -0.5406919121742249, -0.1933225840330124, -0.22395992279052734, -0.39209064841270447, -0.3082377016544342, 0.6559600234031677, -0.13047058880329132, -0.7610384821891785, 0.36131662130355835, -0.16650205850601196, -0.04744496941566467, -0.12329341471195221, 0.01615847460925579, 0.6464952826499939, 0.5657382011413574, 0.9126854538917542, 0.585139811038971, -0.08147182315587997, -0.05105549469590187, -0.9945830702781677, -0.11184167116880417, 0.08063698559999466, 0.8395023941993713, -0.2577537000179291, 0.2388281226158142, 0.6189934015274048, -0.8461863398551941, -0.3422796428203583, -0.16644079983234406], [-0.07015906274318695, -0.26304304599761963, -0.6660813689231873, 0.06547297537326813, -0.42517203092575073, -0.2615598738193512, -0.31018006801605225, -0.8280726075172424, 0.38021889328956604, -0.5697498917579651, -0.7028601169586182, 1.0629853010177612, -0.6040344834327698, 0.04977109283208847, -0.2273329496383667, 0.2532007694244385, -0.6983423233032227, -0.31458526849746704, 1.1998926401138306, -0.05454666540026665, 0.015293171629309654, -0.40504956245422363, 0.5124226808547974, -0.8711444735527039, -0.49288830161094666, 0.2141496241092682, 0.9208666682243347, -0.4721551835536957, -0.631712019443512, 0.13807471096515656, -0.2606300115585327, -0.699275553226471, 0.7930747270584106, 0.22744925320148468, -0.015774982050061226, 0.5709480047225952, 0.22796329855918884, 0.1688954085111618, -0.07480847090482712, 0.5431633591651917, -0.8377128839492798, 0.03949389234185219, 1.5515942573547363, -0.4844190180301666, 0.47503501176834106, -0.7488972544670105, -0.07604615390300751, -0.7523866295814514, -0.3245067596435547, -0.5909740328788757, -0.23969383537769318, -0.72064208984375, -0.2910918593406677, 0.5171223282814026, 0.842413067817688, -0.19709338247776031, -1.0625874996185303, -0.23064780235290527, 0.11120352894067764, -0.7879906296730042, -0.6219662427902222, 1.3928086757659912, -0.13826718926429749, 0.39080139994621277]], "b2": [-0.0388675257563591, 0.2448803186416626, 0.04098501801490784, -0.2984543442726135, -0.03105921298265457, -0.08762743324041367, -0.06015477329492569, 0.05606463924050331, -0.4057500660419464, -0.2253415286540985, -0.12311098724603653, 0.29800811409950256, 0.07847488671541214, -0.22634698450565338, -0.24159301817417145, -0.4137091040611267, -0.34851711988449097, -0.2098352611064911, 0.27358198165893555, -0.011327078565955162, -0.373238742351532, -0.14735940098762512, 0.4112347662448883, -0.19787763059139252, -0.27045494318008423, 0.35468944907188416, 0.30506691336631775, -0.040947556495666504, 0.07035501301288605, -0.11215033382177353, 0.002423351164907217, 0.037322062999010086, -0.6427522301673889, -0.4284605383872986, 0.1439661979675293, -0.1429283320903778, -0.40630990266799927, -0.5081612467765808, 0.1676824390888214, -0.37675249576568604, 0.11053340137004852, -0.46013718843460083, 0.2692680060863495, -0.3207702040672302, -0.3948974311351776, -0.30569693446159363, -0.1803775131702423, -0.34709274768829346, -0.09806223958730698, 0.02687441185116768, -0.20767159759998322, 0.11002540588378906, -0.21211786568164825, -0.3939434587955475, 0.23381812870502472, -0.36482498049736023, -0.00459488108754158, -0.04982645809650421, -0.4264025390148163, -0.3804672062397003, 0.0375545471906662, 0.1792178601026535, -0.2727213203907013, -0.41646382212638855], "W3": [[0.5840587019920349], [0.6981342434883118], [0.17564351856708527], [-0.591113269329071], [0.34525710344314575], [0.018530888482928276], [0.17911683022975922], [0.3679073750972748], [-0.6043601632118225], [0.20696769654750824], [0.3711649775505066], [0.5977018475532532], [0.5349698662757874], [-0.5887502431869507], [-0.6424858570098877], [-0.5469478964805603], [0.20231027901172638], [-0.6337605118751526], [0.6275943517684937], [0.4222896695137024], [-0.06533040851354599], [0.7490947842597961], [1.1000758409500122], [0.46504008769989014], [0.32214632630348206], [0.995082676410675], [0.7646820545196533], [-0.2531479597091675], [0.3765369653701782], [0.8560066819190979], [0.380394846200943], [0.13350002467632294], [0.4063595235347748], [-0.16434268653392792], [0.1726793795824051], [0.5559510588645935], [-0.14193668961524963], [-0.35705265402793884], [0.6099777817726135], [-0.6355818510055542], [0.2942125201225281], [-0.11972349137067795], [0.8348089456558228], [0.1140703409910202], [-0.44051557779312134], [0.3136894702911377], [-0.4822990596294403], [0.12773601710796356], [0.5043863654136658], [0.1537611484527588], [0.6013878583908081], [0.33268749713897705], [-0.03691219910979271], [0.5374417304992676], [0.7799872756004333], [-0.4455137848854065], [0.4189525544643402], [0.5846970677375793], [-0.19857695698738098], [0.21846221387386322], [0.39406490325927734], [0.7566599249839783], [-0.5613511800765991], [-0.6652476787567139]], "b3": [0.39324769377708435]}