{"W1": [[0.37880292534828186, 0.5908025503158569, -0.7522003054618835, -0.4726334810256958, 0.9842526912689209, 0.5667657256126404, -0.33151325583457947, 0.4960750937461853, 0.46842968463897705, -0.07907865196466446, 0.5539734363555908, -1.0308640003204346, -0.6565079689025879, -0.5876730680465698, -0.37735050916671753, -0.6074143648147583, 0.07897251844406128, -0.5044376254081726, 0.4533025920391083, -0.3549202084541321, -0.34664323925971985, 0.4642657935619354, 0.4088677763938904, -0.1680641770362854, 0.47277259826660156, -0.42866265773773193, 0.568806529045105, -0.7803767919540405, 0.09255937486886978, -1.0589735507965088, 0.44740018248558044, 0.5351429581642151, 0.5923008918762207, -0.46683070063591003, 0.6564942598342896, 0.10375312715768814, 0.4593581259250641, -0.5087308287620544, 0.705147922039032, 0.25825056433677673, 0.5237331390380859, 0.5202715396881104, 0.5220301747322083, -0.26701512932777405, 0.237340047955513, 0.8391773104667664, 0.532823920249939, -0.5730626583099365, -0.5464724898338318, -0.4187633991241455, 0.51854407787323, -0.36249446868896484, 0.431709349155426, 0.45968756079673767, -0.7074733972549438, 0.4351581335067749, 0.46772173047065735, -1.0583239793777466, -0.4666938781738281, 0.09563267976045609, 0.6650673151016235, 0.6779805421829224, -0.5446073412895203, -1.210496187210083], [0.051204927265644073, -0.6351972222328186, -1.5320990085601807, -0.03957444801926613, 0.6350637674331665, -0.5682394504547119, -1.0689350366592407, 0.05504193902015686, 0.5708804130554199, 0.8500843644142151, 0.04201517626643181, -0.6827722787857056, 0.644536554813385, 0.5110148191452026, 0.7408654689788818, 0.009452065452933311, 0.6574676036834717, 0.6084405779838562, 0.9364027380943298, 0.6703677177429199, 0.6594745516777039, 0.20438118278980255, -0.9446443319320679, 0.8349014520645142, 0.766000509262085, 0.5432081818580627, -0.7694224119186401, 0.15616996586322784, 0.4836624264717102, -0.32476115226745605, -0.013670407235622406, -0.2378091812133789, 0.4549388289451599, 0.5453549027442932, -0.6737373471260071, 0.7364805936813354, 0.5761477947235107, 0.7606933116912842, 0.33719006180763245, -1.1410143375396729, 0.008358118124306202, -0.9727221727371216, -0.525946855545044, 0.6869128942489624, -1.1169078350067139, 0.3546178638935089, -0.33119505643844604, 0.3713854253292084, -1.2630138397216797, 0.5821536183357239, -0.7465086579322815, 0.7275482416152954, -1.1457865238189697, -0.09322713315486908, 0.2343224138021469, -0.8606992363929749, 0.007581331301480532, -0.6761230230331421, 0.45151084661483765, -1.1038548946380615, -0.6219890713691711, 0.37168505787849426, -0.09487291425466537, -0.6692249178886414], [-0.13450077176094055, 0.03773507475852966, 0.269071102142334, 0.03232583403587341, 0.21068549156188965, 0.16570663452148438, -0.10539619624614716, 0.028366118669509888, 0.20761823654174805, -0.28238245844841003, 0.27884340286254883, -0.1426887959241867, 0.1370159387588501, -0.04022979736328125, -0.10823372006416321, -0.0772046446800232, -0.07537800073623657, 0.1476919949054718, 0.27366894483566284, 0.19370904564857483, -0.1545536369085312, -0.026942312717437744, -0.08929452300071716, -0.149491548538208, -0.10835705697536469, -0.12522892653942108, -0.07567912340164185, 0.21659177541732788, 0.1943257451057434, 0.02879267930984497, -0.09162688255310059, -0.2668101191520691, -0.1517964005470276, 0.1765391230583191, 0.008135735988616943, 0.19072550535202026, 9.381771087646484e-05, -0.1027299165725708, 0.22393453121185303, -0.08074226975440979, -0.04477353394031525, 0.21823382377624512, 0.06330215930938721, -0.1690024733543396, -0.2119811326265335, 0.16385716199874878, -0.28567013144493103, -0.22675935924053192, -0.03617638349533081, -0.0522775799036026, -0.271865576505661, 0.2188064455986023, 0.09382709860801697, 0.20208734273910522, -0.08730246126651764, 0.04700383543968201, 0.26225852966308594, -0.07072383165359497, 0.008497536182403564, -0.15762659907341003, -0.007847338914871216, 0.10535928606987, -0.008032023906707764, -0.07704919576644897], [0.10339164733886719, -0.109273761510849, -0.23829683661460876, 0.070159912109375, 0.06014871597290039, -0.1956307590007782, -0.2272341549396515, -0.24732136726379395, -0.008028119802474976, 0.1303216516971588, -0.20752602815628052, -0.1788625419139862, -0.264436274766922, -0.2436794638633728, 0.18252161145210266, -0.10270939767360687, 0.08769243955612183, -0.02510833740234375, -0.2355961948633194, 0.17074507474899292, -0.022555261850357056, 0.14020100235939026, -0.07232716679573059, -0.14574451744556427, -0.14988327026367188, 0.11545261740684509, 0.11927399039268494, -0.24180583655834198, -0.16783449053764343, -0.14427727460861206, 0.23046743869781494, 0.264626681804657, -0.04785996675491333, 0.1407778263092041, 0.17727887630462646, -0.18202665448188782, 0.2907025218009949, 0.013896644115447998, 0.026959896087646484, -0.10055628418922424, 0.10551953315734863, 0.05604323744773865, 0.11882361769676208, -0.08194524049758911, -0.25295352935791016, -0.11263053119182587, 0.15212363004684448, -0.08663249015808105, 0.2678511142730713, 0.06225031614303589, 0.2615097165107727, 0.25403088331222534, -0.28500765562057495, -0.17795225977897644, -0.10403646528720856, 0.2695236802101135, 0.031261712312698364, -0.08614471554756165, 0.0648813545703888, -0.2534281313419342, -0.08184374868869781, -0.011873781681060791, 0.24497520923614502, 0.0007829666137695312], [-0.23724931478500366, -0.27776432037353516, 0.10402584075927734, 0.1367095708847046, 0.02793782949447632, 0.013027817010879517, 0.046482622623443604, 0.08093458414077759, 0.22753411531448364, 0.23201829195022583, -0.23720882833003998, 0.22347712516784668, 0.2172468900680542, 0.16907310485839844, 0.24274957180023193, 0.09328320622444153, 0.12436875700950623, 0.014632761478424072, -0.06564784049987793, -0.052724942564964294, -0.2868657112121582, -0.1312059760093689, 0.022071272134780884, 0.08492717146873474, -0.05119083821773529, -0.231891468167305, 0.011921018362045288, 0.116779625415802, 0.26242339611053467, 0.023992568254470825, 0.2765476107597351, -0.2441398799419403, -0.2000652551651001, 0.2079116702079773, -0.024038970470428467, -0.2653495669364929, 0.07381123304367065, 0.04950392246246338, -0.24596714973449707, 0.06363371014595032, 0.2183127999305725, 0.25125300884246826, 0.082694411277771, -0.061076030135154724, 0.06535139679908752, -0.27081120014190674, 0.017578601837158203, -0.11207839846611023, 0.24757027626037598, -0.29167065024375916, 0.01316303014755249, -0.038189828395843506, 0.2596575617790222, -0.015600204467773438, -0.29006779193878174, -0.14955876767635345, 0.22433197498321533, -0.011490225791931152, -0.18011242151260376, -0.17481160163879395, -0.06315459311008453, -0.2626034915447235, 0.18726235628128052, -0.1604919582605362], [-0.12441720068454742, -0.1849510669708252, -0.059797123074531555, 0.22068190574645996, -0.27680662274360657, 0.15659737586975098, 0.014806568622589111, -0.017306655645370483, -0.10688270628452301, -0.23183569312095642, 0.17211082577705383, 0.05022770166397095, 0.15958461165428162, 0.2431854009628296, 0.0008599460124969482, -0.2873291075229645, -0.030152499675750732, -0.01759311556816101, 0.006720453500747681, -0.12470903992652893, 0.26769429445266724, -0.09348730742931366, -0.22234125435352325, -0.17868761718273163, -0.10488085448741913, 0.22273701429367065, 0.03941702842712402, 0.110807865858078, 0.09302285313606262, 0.2248186469078064, 0.17365950345993042, -0.25418826937675476, 0.08947211503982544, 0.1551518440246582, -0.10543584823608398, 0.2346426248550415, 0.14839357137680054, 0.13260585069656372, -0.2428291290998459, 0.0940684974193573, 0.17955994606018066, 0.0492822527885437, 0.14977353811264038, 0.012124568223953247, -0.13697662949562073, -0.018368840217590332, -0.20200610160827637, 0.28244978189468384, 0.12541374564170837, -0.07443204522132874, 0.19523364305496216, -0.2916245758533478, -0.18234111368656158, 0.26106828451156616, -0.12711168825626373, 0.10136136412620544, 0.28492987155914307, -0.20515242218971252, 0.12049651145935059, -0.17503446340560913, -0.14520013332366943, 0.21149665117263794, 0.055936723947525024, -0.015567421913146973]], "b1": [0.4030311703681946, 0.3322747051715851, 0.12201542407274246, -0.30652445554733276, 0.8524655103683472, 0.2273349165916443, 0.03267606347799301, 0.37726035714149475, -0.05374280735850334, 0.2524450123310089, 0.6538710594177246, -0.07824551314115524, -0.17013691365718842, -0.06681127846240997, 0.033922333270311356, -0.30662110447883606, 0.010563735850155354, -0.030878139659762383, 0.26516902446746826, 0.06736239045858383, 0.06054867431521416, 0.3782172203063965, 0.04610295593738556, 0.2185017317533493, 0.34787991642951965, -0.04050324484705925, 0.18862657248973846, -0.37121155858039856, -0.051986437290906906, -0.36554405093193054, 0.42420023679733276, 0.4208936095237732, -0.10974131524562836, -0.005797469522804022, 0.32267069816589355, 0.05107758939266205, 0.004914798773825169, 0.058725081384181976, 0.10671041905879974, 0.08894449472427368, 0.37492072582244873, 0.11732394993305206, 0.4143024981021881, 0.054619695991277695, 0.0030968855135142803, -0.03816992789506912, 0.35342469811439514, -0.09644298255443573, 0.14632195234298706, -0.02421962283551693, 0.14788278937339783, -0.01678377389907837, 0.2534233033657074, 0.3513948917388916, -0.2153816521167755, 0.10081828385591507, 0.3596999943256378, -0.43263718485832214, -0.08786338567733765, 0.11901853233575821, 0.5078796148300171, -0.09147754311561584, -0.35326576232910156, -0.3580620586872101], "W2": [[-0.017630567774176598, -1.5632424354553223, 0.6446452140808105, -0.6555214524269104, -0.5186856985092163, -0.7461195588111877, -0.44557005167007446, -0.7724393606185913, -0.6103054881095886, -0.7204704880714417, -0.3608980178833008, -0.49566519260406494, -0.7280310392379761, -0.13529962301254272, 0.7374069690704346, -0.5685609579086304, 0.05939594283699989, -0.6309348940849304, -0.8186377882957458, -0.12848199903964996, -0.6404052972793579, -0.6941416263580322, -0.6923978328704834, -1.2965563535690308, -0.3383775055408478, -0.32652413845062256, -0.34025123715400696, -0.6537739038467407, -0.7623404860496521, -0.4017973244190216, -0.6168550252914429, -0.6071000099182129, -0.3006364107131958, -0.5907439589500427, -0.2666587829589844, -0.660815954208374, -0.18163326382637024, -0.6781078577041626, 0.6640461683273315, 0.3560640811920166, -1.3914052248001099, 1.0045543909072876, -0.29269275069236755, 1.0548806190490723, -0.8538568019866943, 0.900676429271698, -0.6277673244476318, -0.298628032207489, -1.2105495929718018, -0.7380309700965881, -0.9506809115409851, -0.600183367729187, 0.9597452282905579, -0.33383908867836, -0.9510024785995483, 0.7496545314788818, -0.20442688465118408, -1.5503910779953003, 0.8062394857406616, -0.6442638039588928, -0.11522336304187775, -0.4952021837234497, -0.5050330758094788, 0.04277858883142471], [-0.36118873953819275, -0.5631155967712402, 0.18971644341945648, -0.01318458653986454, -0.3334318995475769, 0.10482149571180344, 0.2823656499385834, -0.4559202790260315, -0.5218973159790039, 0.11300937086343765, -0.22621290385723114, -0.19983640313148499, 0.01893424801528454, -0.31026384234428406, 1.0880030393600464, -0.44672879576683044, 0.19209830462932587, -0.018300605937838554, -0.5650157332420349, -0.2871861159801483, -0.03732562065124512, -0.3710877299308777, 0.16911938786506653, -0.604206383228302, 0.6047648191452026, -0.43287745118141174, 0.0707942470908165, 0.3006446361541748, -0.45210105180740356, -0.0017817525658756495, 0.16197411715984344, 0.3118560314178467, 0.8158763647079468, 0.047592855989933014, -0.006268294528126717, 0.15063871443271637, 0.10383496433496475, 0.14265179634094238, 1.0682417154312134, 0.3308573067188263, -0.6091470718383789, 1.3267134428024292, 0.43656066060066223, -0.021311143413186073, -0.06682130694389343, -0.37253424525260925, -0.009317428804934025, -0.37303853034973145, -0.5732983946800232, -0.4226877689361572, -0.8177645206451416, -0.13222096860408783, 0.8929703235626221, 0.05182666704058647, 0.03732062503695488, 0.7687923312187195, -0.12225457280874252, -0.6582796573638916, -0.3202751576900482, -0.06813068687915802, -0.18201008439064026, 0.26746225357055664, -0.12371771037578583, 0.46282798051834106], [-0.932568371295929, -0.061825186014175415, -0.9710665345191956, -0.06815189868211746, -0.03725920990109444, -0.061112988740205765, -0.2868184745311737, -0.10315443575382233, -0.03704681247472763, -0.557937741279602, -0.7204251885414124, -0.4301550090312958, -0.1592286080121994, -0.968001127243042, 0.7667009234428406, -0.04112358018755913, 0.655849277973175, -0.3975456953048706, 0.05282909423112869, -0.5862521529197693, -0.303214967250824, -0.15141776204109192, -0.44829991459846497, 0.4041435718536377, 0.9912099838256836, -0.14400970935821533, 0.8608397245407104, -0.24371665716171265, -0.02166888490319252, -0.3908022940158844, -0.40461990237236023, -0.1769052892923355, 0.8125501275062561, -0.15426290035247803, -0.2965286672115326, -0.18797621130943298, 0.8699508905410767, -0.23253536224365234, 0.5643686652183533, -0.046391408890485764, 0.17193125188350677, 1.1767123937606812, 0.924522340297699, -0.8011218309402466, 0.34970465302467346, -0.7443851232528687, -0.20413810014724731, -0.8025174736976624, 0.5327875018119812, -0.02986820787191391, -0.10963787883520126, 0.1408880054950714, 0.37169745564460754, -0.3956814110279083, -0.07326929271221161, 0.6099995374679565, -0.786631166934967, 0.1332249492406845, -0.7368782758712769, -0.3437531292438507, -0.44219520688056946, -0.20426128804683685, -0.36788251996040344, -0.005853922571986914], [0.2275475561618805, 1.097699761390686, -1.0138614177703857, 0.3760644495487213, 0.573716402053833, 0.1952231228351593, 0.32272401452064514, 0.8600142598152161, 0.7019677758216858, 0.20104801654815674, 0.20477670431137085, -0.004076002165675163, 0.02019084058701992, 0.0947178453207016, -0.4973253905773163, 0.5719287395477295, 0.4914841949939728, 0.059386033564805984, 0.7787638306617737, 0.30629172921180725, 0.08033113926649094, 0.605962872505188, 0.16936945915222168, 0.8081753253936768, 0.37188273668289185, 0.5485219955444336, 0.5306132435798645, 0.0728660449385643, 0.7915552258491516, 0.23422054946422577, 0.1869257241487503, -0.005039114970713854, 0.2869192957878113, 0.08957899361848831, -0.11121278256177902, 0.20356568694114685, 0.5590376853942871, -0.0035628359764814377, -0.6584159135818481, -0.6079436540603638, 0.7993907928466797, -0.8851512670516968, 0.19714030623435974, -1.091453194618225, 0.7772856950759888, -1.0149755477905273, 0.403782457113266, 0.19600166380405426, 0.7160593271255493, 0.6468871831893921, 0.7982551455497742, 0.5608415007591248, -0.7995287179946899, 0.2759862542152405, 0.3680223524570465, -0.5142682790756226, 0.2356751561164856, 0.9643171429634094, -1.0020155906677246, 0.010534664615988731, 0.13922826945781708, 0.43481752276420593, 0.21696136891841888, -0.5496118068695068], [0.6725870966911316, -0.8695200681686401, 0.7374420166015625, -0.7179339528083801, 0.19902303814888, -0.8087411522865295, -0.7075604796409607, 0.15010413527488708, -0.08656791597604752, -0.40571150183677673, 0.6788328289985657, -0.47206172347068787, -0.5998561382293701, 0.6790490746498108, 0.5592769384384155, 0.21355003118515015, -0.579148530960083, -0.546782374382019, -0.2918010652065277, 0.6247970461845398, -0.44380009174346924, 0.23350685834884644, -0.6521956920623779, -0.7295595407485962, -0.768808126449585, 0.17445847392082214, -0.5825901627540588, -0.7022756934165955, -0.4234732687473297, -0.7182455658912659, -0.6912637948989868, -0.6970909237861633, -1.1922580003738403, -0.7111588716506958, -0.8074818849563599, -0.533637523651123, -0.5722213387489319, -0.8475399017333984, 0.4938051402568817, -0.06994082033634186, -0.9128997325897217, 0.24513110518455505, -0.7146679759025574, 1.0464838743209839, -0.6121680736541748, 0.760402262210846, -0.9373669624328613, 0.5238379836082458, -1.1049631834030151, 0.25344118475914, -0.36285796761512756, -0.5456379055976868, 0.7758609652519226, -0.6091116070747375, -0.827913761138916, 0.33564111590385437, 0.5364770889282227, -0.8453536629676819, 0.6419723033905029, -0.6360828876495361, 0.44389382004737854, -0.7733814120292664, -0.510403573513031, 0.1505584418773651], [-0.2167050689458847, -0.54728102684021, 0.08239705115556717, 0.06865603476762772, -0.6974369883537292, -0.010284796357154846, 0.115663081407547, -0.7507076263427734, -0.7365685701370239, 0.17132125794887543, -0.5771782398223877, 0.2511279582977295, 0.2307463437318802, 0.010983126237988472, 1.0863374471664429, -0.7750393152236938, -0.28477683663368225, -0.06967999041080475, -0.409242182970047, -0.3345780074596405, -0.07381951808929443, -0.6442432999610901, 0.08923988044261932, -0.3989437222480774, 0.733657717704773, -0.5882952809333801, -0.10846899449825287, 0.03103429451584816, -0.4811890125274658, 0.06026134639978409, 0.17312076687812805, 0.3499186336994171, 0.9425853490829468, 0.03994351625442505, 0.043134067207574844, 0.15804436802864075, 0.10570604354143143, 0.14624732732772827, 1.0642246007919312, 0.15028859674930573, -0.7012039422988892, 1.1557284593582153, 0.7185971140861511, -0.1769716441631317, -0.32897692918777466, -0.4410286545753479, 0.2794622778892517, -0.4708573520183563, -0.6565045714378357, -0.440846711397171, -0.542756199836731, 0.08973991870880127, 0.6703867316246033, -0.0613413043320179, 0.12776176631450653, 1.196668267250061, -0.15827041864395142, -0.673370361328125, -0.4824233055114746, 0.1609555333852768, -0.35631534457206726, 0.2355169802904129, 0.19041316211223602, 0.3491021394729614], [-1.2686610221862793, 0.23018807172775269, -0.7516137361526489, -0.12067443877458572, -0.21246758103370667, -0.2028777152299881, -0.2621500492095947, -0.09607815742492676, -0.502427875995636, -0.1732224076986313, -1.101232886314392, -0.35859447717666626, 0.0019452775595709682, -1.4354578256607056, 0.9235854744911194, -0.5442207455635071, 0.9313622117042542, -0.4554721415042877, -0.1207040548324585, -1.15464186668396, -0.048366717994213104, -0.326568067073822, -0.3368508517742157, 0.1642128825187683, 1.0403120517730713, -0.4925975203514099, 0.6185744404792786, -0.00724807707592845, -0.26134854555130005, -0.31003132462501526, -0.14094389975070953, -0.3028024435043335, 1.0538018941879272, -0.029066242277622223, -0.2734720706939697, -0.33288222551345825, 0.7345378398895264, 0.038948580622673035, 0.5430819392204285, -0.027243932709097862, 0.1638488918542862, 1.0479896068572998, 0.9088338017463684, -0.7033739686012268, 0.7650933265686035, -0.5752904415130615, -0.202906534075737, -1.1742757558822632, 0.3033926486968994, -0.2629433870315552, 0.11358549445867538, -0.12305768579244614, 0.4978618621826172, -0.07359079271554947, 0.1642942875623703, 0.9842695593833923, -1.4475061893463135, 0.20625369250774384, -0.8539977073669434, -0.045837778598070145, -0.8904314041137695, -0.03634614869952202, -0.4009123146533966, -0.2447747141122818], [0.006551235448569059, -0.8722906708717346, 0.5839247107505798, -0.13979798555374146, -0.5299565196037292, -0.08829551935195923, -0.16753599047660828, -0.3667755126953125, -0.3070577085018158, -0.2629225552082062, -0.2774645984172821, -0.0017643510363996029, -0.3581489324569702, 0.028247995302081108, 1.0326863527297974, -0.36258476972579956, -0.1287870705127716, -0.18677696585655212, -0.8845929503440857, -0.07034657895565033, -0.34654924273490906, -0.42471906542778015, -0.22209163010120392, -1.1396998167037964, 0.20173528790473938, -0.39367079734802246, -0.4492739737033844, -0.28586918115615845, -1.0099254846572876, -0.27941417694091797, -0.3772028088569641, -0.114974744617939, 0.23844315111637115, 0.047193095088005066, -0.23810632526874542, -0.3601084053516388, -0.06921430677175522, -0.20596067607402802, 0.6882163286209106, 0.3118669092655182, -0.8237013816833496, 0.9245226979255676, 0.07311960309743881, 0.7371866106987, -0.7531018853187561, 0.7321701049804688, -0.4503224194049835, -0.2878309190273285, -1.01039719581604, -0.6380082368850708, -0.9866105318069458, -0.18176379799842834, 1.118324875831604, -0.23776575922966003, -0.13401880860328674, 1.1097369194030762, -0.09041576087474823, -0.9388363361358643, 0.6718924045562744, -0.15616698563098907, -0.44558557868003845, -0.40118804574012756, -0.21779102087020874, 0.4855578541755676], [0.4364965558052063, -0.23073118925094604, 0.44306281208992004, -0.15397831797599792, 0.1530693620443344, -0.23456309735774994, -0.13217639923095703, 0.0023918573278933764, 0.25765350461006165, 0.20266221463680267, 0.6596803069114685, 0.14295193552970886, -0.12802405655384064, 1.0192866325378418, -0.30377233028411865, 0.34479808807373047, -0.55246502161026, -0.03911279886960983, -0.0676088035106659, 0.27277836203575134, 0.23051288723945618, 0.13073787093162537, -0.19502589106559753, -0.16887342929840088, -0.08414360135793686, 0.01663321629166603, -0.2191280573606491, 0.08429921418428421, 0.13400378823280334, -0.13866807520389557, -0.05470365658402443, 0.06961409747600555, -0.19308707118034363, -0.16673848032951355, 0.054634466767311096, -0.18901856243610382, -0.5732499361038208, -0.17628706991672516, -0.2960677146911621, -0.09100372344255447, 0.05578872933983803, -0.6949062347412109, -0.049457088112831116, 0.3942487835884094, -0.27934563159942627, 0.2899552583694458, 0.09114830940961838, 0.6308841705322266, -0.2962387204170227, 0.318572461605072, 0.011689265258610249, -0.2959214150905609, 0.3212890625, 0.09933512657880783, -0.284984827041626, -0.24484407901763916, 0.7129101753234863, 0.08521801233291626, 0.6448872685432434, -0.10434471070766449, 0.4605211913585663, 0.12090174853801727, -0.12823374569416046, -0.32884272933006287], [0.34841543436050415, -0.04883500188589096, 0.3625877797603607, -0.7220982313156128, 0.40541279315948486, -0.5881402492523193, -0.7636845707893372, 0.2864498496055603, 0.5137056112289429, -0.4153561294078827, 0.5855089426040649, -0.5760852694511414, -0.4538947343826294, 0.4471686780452728, -0.43028348684310913, 0.5213127136230469, -0.17296050488948822, -0.2609695494174957, -0.008003916591405869, 0.3775952458381653, -0.38970041275024414, 0.45910564064979553, -0.43586239218711853, -0.0008508047321811318, -0.9414825439453125, 0.21599434316158295, -0.20898349583148956, -0.3933975100517273, 0.03664492070674896, -0.6906393766403198, -0.5078662037849426, -0.4930294454097748, -0.8774463534355164, -0.6973608136177063, -0.3846185505390167, -0.7892882227897644, 0.03112080693244934, -0.5150891542434692, -0.03841322287917137, 0.061088353395462036, -0.23931580781936646, -0.6541710495948792, -0.6348817944526672, 0.7006930112838745, -0.21263137459754944, 0.3786095976829529, -0.5428792834281921, 0.3763810396194458, -0.27454447746276855, 0.4909428060054779, 0.1497112214565277, -0.4368341863155365, 0.3440679609775543, -0.6683207154273987, -0.4311010241508484, -0.5867524743080139, 0.28440484404563904, -0.3627883195877075, 0.30300334095954895, -0.4842422604560852, 0.40759071707725525, -0.6916276812553406, -0.6600939631462097, 0.19731104373931885], [0.22169680893421173, -1.2975713014602661, 0.6230767369270325, -0.9751034379005432, -0.21055032312870026, -0.6840139031410217, -0.6973391771316528, -0.5371516346931458, -0.42628946900367737, -0.4825534224510193, 0.14245902001857758, -0.6070667505264282, -0.6059952974319458, -0.0010525034740567207, 0.9982800483703613, -0.4695727229118347, 0.11176417768001556, -0.6796016693115234, -0.6470680832862854, 0.14997072517871857, -0.5699676275253296, -0.12957856059074402, -0.8747963905334473, -1.1623095273971558, -0.003473070450127125, -0.056550588458776474, -0.369915246963501, -0.7919014096260071, -0.5192074775695801, -0.4494427740573883, -0.5256139636039734, -0.7927839159965515, -0.4350937604904175, -0.5859605073928833, -0.7275251150131226, -0.9363992214202881, -0.09663897007703781, -0.7198255062103271, 1.0102630853652954, 0.07034121453762054, -0.9370225667953491, 1.0110981464385986, -0.2875348627567291, 0.8727091550827026, -0.5488123893737793, 1.008530855178833, -0.8805456757545471, -0.026992229744791985, -1.1326284408569336, -0.30506742000579834, -0.7788606286048889, -0.9067376852035522, 0.9521311521530151, -0.8161427974700928, -0.9863190054893494, 1.1252514123916626, 0.20579278469085693, -1.00204598903656, 0.8486674427986145, -0.6958784461021423, -0.12763503193855286, -0.7507574558258057, -0.6526390910148621, 0.2616651952266693], [-1.012804388999939, 0.5550107359886169, -0.9530919194221497, 0.3836410939693451, -0.0009296814096160233, 0.3511352837085724, -0.014386093243956566, 0.2794540524482727, 0.0249754898250103, -0.11909366399049759, -0.787685215473175, -0.2804211676120758, -0.20162467658519745, -1.3782970905303955, 0.2481067031621933, 0.2329617589712143, 0.8039762377738953, -0.44606634974479675, 0.21409985423088074, -0.5489405989646912, -0.2986918091773987, 0.27669355273246765, 0.25887244939804077, 0.338136225938797, 0.647364616394043, -0.031029410660266876, 0.9536851048469543, 0.13617968559265137, 0.2767356336116791, -0.23861633241176605, 0.22381745278835297, -0.04787077382206917, 0.6014111042022705, -0.19884882867336273, -0.15455254912376404, -0.12637192010879517, 1.0988022089004517, 0.034179847687482834, -0.014537223614752293, -0.21263572573661804, 0.5990884900093079, 0.805507242679596, 0.8869960904121399, -0.7857658863067627, 0.716654360294342, -0.7002145051956177, 0.07989788055419922, -0.7289220690727234, 0.7600746750831604, 0.20591089129447937, 0.4774257242679596, 0.2657260596752167, -0.020454876124858856, -0.014942201785743237, 0.066973477602005, 0.555220365524292, -0.9123458862304688, 0.5257634520530701, -0.8354491591453552, 0.0897679328918457, -0.27153104543685913, 0.06654351204633713, -0.0961650013923645, 0.2714068591594696], [0.36120039224624634, -0.12444671243429184, -0.1881367266178131, 0.11982479691505432, 0.595935046672821, 0.1471388190984726, -0.03547782450914383, 0.5174978375434875, 0.5953072905540466, -0.06630562245845795, 0.08874388784170151, -0.24694916605949402, -0.1487201750278473, -0.1305174082517624, -1.276489019393921, 0.43691420555114746, -0.15023978054523468, -0.0010996555211022496, 0.03714687004685402, 0.15514034032821655, -0.2774246633052826, 0.4234212338924408, -0.17853713035583496, -0.10149580985307693, -0.7171061635017395, 0.46490180492401123, 0.08300818502902985, 0.03973771259188652, 0.4404509961605072, -0.034752555191516876, -0.05376611649990082, -0.13874316215515137, -0.8876627683639526, -0.05638188123703003, -0.1021217405796051, -0.32621318101882935, 0.14886420965194702, -0.10570680350065231, -1.4579395055770874, -0.4865275025367737, 0.25699910521507263, -1.2167569398880005, -1.011563777923584, 0.2195621132850647, -0.08881784975528717, 0.6587238311767578, -0.14469967782497406, 0.21914906799793243, -0.0538882315158844, 0.61837238073349, 0.2643474042415619, 0.021236496046185493, -0.7229709029197693, -0.20102615654468536, -0.031493350863456726, -1.4478040933609009, -0.0055948044173419476, 0.19762995839118958, 0.4746526777744293, -0.33091527223587036, 0.5315612554550171, 0.0044159311801195145, -0.11824838817119598, -0.18570469319820404], [0.5301977396011353, 0.3933219611644745, -0.1659487783908844, -0.2538626194000244, 0.5827990770339966, -0.1542796939611435, -0.44491446018218994, 0.5995279550552368, 0.5215257406234741, -0.463749498128891, 0.36088964343070984, -0.44899439811706543, -0.1617973893880844, 0.004539772402495146, -0.9734535813331604, 0.7161932587623596, 0.437625527381897, -0.48824983835220337, 0.48077690601348877, 0.5454995036125183, -0.3443787693977356, 0.6968040466308594, -0.3165011703968048, 0.31643953919410706, -0.6678419709205627, 0.7521748542785645, 0.25288769602775574, -0.1711394190788269, 0.5262752175331116, -0.21890240907669067, -0.4857546091079712, -0.2947404682636261, -0.7682945728302002, -0.48270153999328613, -0.21961554884910583, -0.2546355426311493, 0.3047061264514923, -0.2721916139125824, -1.0455615520477295, -0.2842399775981903, 0.22291795909404755, -0.9083876609802246, -0.5835111737251282, 0.11295735836029053, 0.2572341859340668, 0.20473897457122803, -0.16461195051670074, 0.500973641872406, 0.29150378704071045, 0.45156699419021606, 0.3008596897125244, -0.19786883890628815, -0.10998392105102539, -0.06722880154848099, -0.22361837327480316, -0.8285359740257263, 0.5226929783821106, 0.3107594847679138, 0.10818766802549362, -0.1697753220796585, 0.5022939443588257, -0.4584982395172119, -0.27331504225730896, -0.3012840151786804], [0.4093916118144989, 0.20051103830337524, 0.12153246998786926, -0.5186124444007874, 0.5139631032943726, -0.549866259098053, -0.7132302522659302, 0.6490261554718018, 0.6973925232887268, -0.10317482799291611, 0.35855692625045776, -0.5776063799858093, -0.5521225929260254, 0.274201899766922, -0.4532245099544525, 0.44822102785110474, 0.18278922140598297, -0.5032473206520081, 0.5492962598800659, 0.6412274837493896, -0.27811768651008606, 0.3821896016597748, -0.49540236592292786, 0.12295033037662506, -0.4272739589214325, 0.44955697655677795, 0.2005530297756195, -0.4395613670349121, 0.28138887882232666, -0.3807508945465088, -0.3804720640182495, -0.3855215609073639, -0.25775817036628723, -0.7231435179710388, -0.3124016523361206, -0.5885986089706421, 0.08712540566921234, -0.7284237742424011, -0.33780887722969055, -0.19792062044143677, 0.33985239267349243, -0.617087721824646, -0.4572533965110779, 0.07353449612855911, 0.21314814686775208, 0.41645219922065735, -0.6830921769142151, 0.5802627801895142, 0.16215012967586517, 0.6750864386558533, 0.5642311573028564, -0.43452176451683044, -0.17995348572731018, -0.3243699371814728, -0.2916794717311859, -0.28716349601745605, 0.3465505838394165, 0.016801634803414345, 0.3584067225456238, -0.4518600106239319, 0.4329390525817871, -0.7067615389823914, -0.6297010779380798, -0.03851182758808136], [0.18330711126327515, 0.7301464676856995, -0.5795959830284119, 0.3239496648311615, 0.792425274848938, 0.3638685941696167, 0.25789332389831543, 0.531482458114624, 0.6526557207107544, 0.15145769715309143, 0.3890222907066345, 0.3791833519935608, 0.4649527072906494, -0.2469068467617035, -1.1570192575454712, 0.46900755167007446, 0.2894742488861084, 0.17517803609371185, 0.7723944783210754, 0.34575945138931274, 0.14240992069244385, 0.6967319250106812, 0.32235589623451233, 0.7784801125526428, -0.43845805525779724, 0.4733133614063263, 0.5370069742202759, 0.3288114368915558, 0.8226309418678284, 0.29195931553840637, 0.30666783452033997, 0.3390377163887024, -0.6892914772033691, 0.35515427589416504, 0.33867791295051575, 0.5262507200241089, 0.3502219021320343, 0.11305554211139679, -1.1796410083770752, -0.4189290404319763, 0.8069755434989929, -1.4594132900238037, -0.23627254366874695, -0.42924970388412476, 0.31055840849876404, -0.06406484544277191, 0.14185090363025665, 0.32209888100624084, 0.6532455682754517, 0.4927469491958618, 0.8185367584228516, 0.3732391595840454, -1.0542428493499756, 0.4771338999271393, 0.2841719686985016, -1.1603599786758423, 0.23496006429195404, 0.47226542234420776, -0.06948064267635345, 0.28201186656951904, 0.6109626293182373, 0.45064282417297363, 0.2633874714374542, -0.38417506217956543], [0.6239017248153687, -0.1326649785041809, 0.2705719769001007, -0.14066259562969208, 0.13156716525554657, -0.3787005543708801, 0.02542986534535885, 0.1770843118429184, 0.3515892028808594, -0.061719343066215515, 0.5602644085884094, -0.09375525265932083, -0.015265349298715591, 0.7719321250915527, -0.46355846524238586, 0.3954542577266693, -0.39326944947242737, 0.16317109763622284, 0.0061567691154778, 0.33512139320373535, 0.0459139347076416, 0.12692806124687195, -0.33342573046684265, -0.1468682885169983, -0.08365292102098465, 0.3867920935153961, -0.1529538929462433, -0.16255204379558563, -0.006444837898015976, -0.05682654678821564, -0.05403156578540802, -0.15808172523975372, -0.28804346919059753, -0.04693088307976723, -0.1674712598323822, -0.056261904537677765, -0.5833680629730225, -0.06732548028230667, -0.2979680597782135, -0.08281330019235611, -0.22366036474704742, -0.7972609996795654, -0.1140846461057663, 0.2700212001800537, -0.3845904767513275, 0.352544903755188, -0.29988983273506165, 0.5627024173736572, 0.08191101998090744, 0.0644768550992012, -0.21861951053142548, -0.19351604580879211, 0.2939979135990143, -0.06968030333518982, -0.11707672476768494, -0.46159204840660095, 0.6963208317756653, -0.31582799553871155, 0.3248840272426605, 0.022750001400709152, 0.5672467350959778, -0.2601567208766937, 0.029849063605070114, -0.16419178247451782], [0.33706629276275635, 0.4976467192173004, 0.0016584997065365314, -0.32384902238845825, 0.4253239929676056, -0.2474777102470398, -0.2502114176750183, 0.5237632989883423, 0.7042507529258728, -0.36920562386512756, 0.6217762231826782, -0.4644244611263275, -0.5667358636856079, 0.306884765625, -0.7612515091896057, 0.6206527352333069, 0.07053834199905396, -0.46959906816482544, 0.2941587269306183, 0.3642989993095398, -0.20723338425159454, 0.6665195822715759, -0.45370039343833923, 0.031140536069869995, -0.28969326615333557, 0.5230650305747986, 0.3121788799762726, -0.5623695254325867, 0.5416299700737, -0.5018206834793091, -0.19949503242969513, -0.39952611923217773, -0.4756825268268585, -0.2510732412338257, -0.23911957442760468, -0.21076849102973938, 0.12463825941085815, -0.4881620705127716, -0.7160788774490356, -0.0038266428746283054, 0.24693255126476288, -0.4151829779148102, -0.44299525022506714, -0.2010875791311264, 0.3189085125923157, 0.22297967970371246, -0.5741351842880249, 0.45371514558792114, 0.06278155744075775, 0.5312398672103882, 0.38312408328056335, -0.2026243805885315, -0.1078440397977829, -0.31946733593940735, -0.409089058637619, -0.8482828736305237, 0.33461275696754456, 0.411465048789978, 0.048987340182065964, -0.33634352684020996, 0.5838137865066528, -0.6053922176361084, -0.32916709780693054, -0.05381595343351364], [0.5951336622238159, -0.38457801938056946, 0.7214193940162659, -0.2887860834598541, 0.2344074696302414, -0.4797854721546173, -0.22144415974617004, 0.34772399067878723, 0.005530395545065403, -0.10097828507423401, 0.3119489550590515, -0.15485310554504395, -0.43350404500961304, 0.4237840175628662, -0.5210895538330078, 0.2534257471561432, -0.4317115247249603, -0.33851611614227295, -0.29270073771476746, 0.5783638954162598, 0.04782821610569954, 0.26124897599220276, -0.30574315786361694, -0.6023620367050171, -0.8935897350311279, 0.4031762182712555, -0.6572558283805847, -0.22051523625850677, -0.38782116770744324, -0.21182148158550262, -0.2102881371974945, -0.29541802406311035, -0.9491928219795227, -0.09954121708869934, -0.3601325750350952, -0.47280243039131165, -0.7491762638092041, -0.39543846249580383, -0.13521447777748108, -0.09408783167600632, -0.28539741039276123, -0.44497355818748474, -0.6557201147079468, 0.6041569709777832, -0.6849663853645325, 0.816214919090271, -0.32092687487602234, 0.6759424805641174, -0.5338324904441833, 0.10344443470239639, -0.22891028225421906, -0.0049936193972826, 0.17180338501930237, -0.2980998754501343, -0.45271503925323486, -0.46737223863601685, 0.7285875082015991, -0.7318152189254761, 0.627540111541748, -0.38972723484039307, 0.6155253648757935, -0.3483220338821411, -0.38741064071655273, 0.2684616446495056], [0.7399952411651611, 0.19054953753948212, 0.05498554930090904, -0.21875016391277313, 0.5120664834976196, -0.2802179455757141, -0.7786688804626465, 0.682373583316803, 0.4766838848590851, -0.19173362851142883, 0.43168485164642334, -0.6179666519165039, -0.7441022992134094, 0.38149020075798035, -0.7615025639533997, 0.7554145455360413, -0.059143777936697006, -0.4926171600818634, 0.3940412700176239, 0.7115915417671204, -0.5642701983451843, 0.5887535214424133, -0.7533769011497498, 0.12815552949905396, -0.42595404386520386, 0.4271649122238159, 0.2470124512910843, -0.6281396746635437, 0.20571208000183105, -0.4560491144657135, -0.6475817561149597, -0.7030491828918457, -0.5907867550849915, -0.3921186327934265, -0.6615306735038757, -0.36062633991241455, -0.012663326226174831, -0.6336636543273926, -0.43995094299316406, -0.07725334167480469, 0.13007129728794098, -0.5290657877922058, -0.37025344371795654, 0.03989183530211449, 0.040314432233572006, 0.37474048137664795, -0.5908536911010742, 0.5632497668266296, 0.3397476077079773, 0.47040438652038574, 0.34801194071769714, -0.5561257600784302, 0.17851799726486206, -0.42560163140296936, -0.4522058963775635, -0.532503068447113, 0.7343679070472717, 0.00549853453412652, 0.5523396730422974, -0.4614686369895935, 0.4521196186542511, -0.7587396502494812, -0.32728689908981323, 0.006306601222604513], [0.5151605606079102, 0.29797714948654175, 0.0006138385506346822, -0.4013494551181793, 0.6138207316398621, -0.5276540517807007, -0.55911785364151, 0.6756935119628906, 0.5501135587692261, -0.21912649273872375, 0.5149967074394226, -0.24156153202056885, -0.7174623012542725, 0.2027338743209839, -0.44804227352142334, 0.6530328392982483, 0.25446617603302, -0.5633320212364197, 0.3145454227924347, 0.6234939098358154, -0.33331823348999023, 0.5862844586372375, -0.42483487725257874, -0.01181069202721119, -0.5168895721435547, 0.5454856753349304, 0.32836875319480896, -0.6008778214454651, 0.4515452980995178, -0.5524722337722778, -0.6743413209915161, -0.43748730421066284, -0.3559000492095947, -0.47512224316596985, -0.5908607244491577, -0.7189126014709473, 0.3407769501209259, -0.4561220109462738, -0.4329454302787781, 0.1064671203494072, 0.30346357822418213, -0.6566762924194336, -0.13455308973789215, 0.07533200085163116, 0.23940150439739227, 0.26998141407966614, -0.7463834881782532, 0.6228868365287781, 0.2049141824245453, 0.5690596103668213, 0.19717064499855042, -0.530499279499054, 0.06483423709869385, -0.5122760534286499, -0.2425248622894287, -0.41836607456207275, 0.6707231402397156, 0.23493629693984985, 0.14379708468914032, -0.4269600808620453, 0.40435025095939636, -0.45871061086654663, -0.33931711316108704, -0.16779489815235138], [-0.017656253650784492, -1.2159546613693237, 1.000482439994812, -0.6179977655410767, -0.482188880443573, -0.8708823323249817, -0.5476220846176147, -0.8020696043968201, -0.49457910656929016, -0.547315776348114, -0.2581368386745453, -0.3022017180919647, -0.6822440028190613, -0.24128003418445587, 1.131925344467163, -0.3584597110748291, -0.5247467756271362, -0.26194509863853455, -0.8102467060089111, -0.32773229479789734, -0.6862236261367798, -0.5701035261154175, -0.605026364326477, -1.1559308767318726, -0.14307500422000885, -0.42368263006210327, -0.6207176446914673, -0.6389819979667664, -0.9682239890098572, -0.5233940482139587, -0.6518223285675049, -0.733823299407959, -0.5302139520645142, -0.37638425827026367, -0.551102340221405, -0.5959343910217285, -0.6019564867019653, -0.48033273220062256, 0.691490888595581, 0.2889854609966278, -1.1706948280334473, 1.1969919204711914, -0.22321490943431854, 0.9064808487892151, -0.7281877994537354, 0.9490091800689697, -0.6709238886833191, -0.31258484721183777, -1.3030074834823608, -0.5803210735321045, -0.8201444149017334, -0.655977725982666, 1.0730103254318237, -0.5724781155586243, -0.8487138748168945, 1.0816024541854858, 0.030830414965748787, -1.138089656829834, 0.6395536661148071, -0.4035997986793518, -0.1141190156340599, -0.6157436370849609, -0.5190603137016296, 0.03797346353530884], [-0.41639024019241333, -0.2188471555709839, -0.27976423501968384, 0.3951932191848755, -0.7347621917724609, 0.2911626994609833, 0.5352407097816467, -0.6880378723144531, -0.7246683239936829, 0.17223504185676575, -0.7470995783805847, 0.2203865349292755, 0.37598296999931335, -0.5367216467857361, 0.8082119226455688, -0.7798662781715393, 0.17240063846111298, 0.3817589581012726, -0.32693836092948914, -0.4935169517993927, 0.3393669128417969, -0.49510467052459717, 0.5339629054069519, -0.3860434293746948, 0.929203450679779, -0.5709779262542725, 0.10606828331947327, 0.3799755871295929, -0.460458904504776, 0.5336800217628479, 0.3014069199562073, 0.3047119677066803, 0.7361063361167908, 0.3525932729244232, 0.5545886754989624, 0.5067211389541626, -0.12581036984920502, 0.6589683890342712, 0.6497187614440918, 0.31257402896881104, -0.522564172744751, 1.1771488189697266, 0.9862892627716064, -0.29553139209747314, 0.043305978178977966, -0.5156084895133972, 0.35195568203926086, -0.8235890865325928, -0.13083691895008087, -0.7977700233459473, -0.5206387042999268, 0.30436235666275024, 0.4329381287097931, 0.49534323811531067, 0.38127678632736206, 0.8517720699310303, -0.40711843967437744, -0.3381930887699127, -0.45878565311431885, 0.5840722322463989, -0.7897939085960388, 0.4924059808254242, 0.3357791602611542, 0.02447628043591976], [0.5539656281471252, -0.0471741184592247, 0.23106616735458374, -0.8048927783966064, 0.32835230231285095, -0.6935373544692993, -0.8150230050086975, 0.29621270298957825, 0.4306414723396301, -0.5506096482276917, 0.5588576197624207, -0.5096472501754761, -0.44414064288139343, 0.29823845624923706, -0.39780277013778687, 0.4972972869873047, -0.018521511927247047, -0.5470405220985413, 0.21019351482391357, 0.40867605805397034, -0.44662344455718994, 0.288768470287323, -0.8385745882987976, -0.1152217835187912, -0.7377131581306458, 0.27668559551239014, -0.1927158385515213, -0.46305590867996216, 0.11859624087810516, -0.6357883214950562, -0.6215961575508118, -0.8051522374153137, -0.8139145970344543, -0.6994305849075317, -0.35510262846946716, -0.527218759059906, -0.17756839096546173, -0.6641891002655029, -0.26533573865890503, 0.012971103191375732, -0.15222987532615662, -0.6769829392433167, -0.8275662660598755, 0.3645782172679901, 0.07186617702245712, 0.6191350221633911, -0.45451658964157104, 0.7225466370582581, -0.07735477387905121, 0.516180694103241, 0.02401026524603367, -0.42486146092414856, 0.2293727993965149, -0.688242495059967, -0.747914731502533, -0.48531779646873474, 0.47082000970840454, -0.08083449304103851, 0.42809534072875977, -0.6997750997543335, 0.30204424262046814, -0.6273619532585144, -0.46343332529067993, 0.1718778759241104], [0.27247756719589233, -0.8685038089752197, 0.5575692653656006, -0.5170986652374268, -0.24396692216396332, -0.2336069494485855, -0.17856447398662567, -0.10571645945310593, -0.12283999472856522, -0.09907560050487518, 0.24588266015052795, -0.02311759628355503, -0.3340267539024353, -0.0954650416970253, -0.3967781662940979, -0.1691075563430786, -0.8636569976806641, 0.059429317712783813, -0.4845156967639923, -0.02998066321015358, -0.35851845145225525, -0.06743059307336807, -0.28872716426849365, -0.7142070531845093, -1.015625238418579, -0.059859417378902435, -0.5813828110694885, -0.4035007059574127, -0.3816869556903839, -0.4071768522262573, -0.28537517786026, -0.055171649903059006, -1.3558783531188965, -0.364791601896286, -0.231159508228302, -0.343394011259079, -0.7508386969566345, -0.10090935230255127, 0.05946307256817818, 0.441062331199646, -0.7539975047111511, 0.30716726183891296, -1.2686126232147217, 0.6940415501594543, -0.8380711078643799, 0.8552145957946777, -0.32372304797172546, 0.27713480591773987, -0.9428257346153259, -0.11359681189060211, -0.6513217091560364, -0.3890557587146759, 0.5350852012634277, -0.1846056878566742, -0.11427487432956696, -0.10474351793527603, 0.18704108893871307, -0.602394163608551, 0.786431074142456, -0.3233191668987274, 0.013190693221986294, -0.21941377222537994, -0.2402525395154953, 0.331409752368927], [0.5186825394630432, 0.4007929563522339, -0.3374484181404114, -0.3853130340576172, 0.284829705953598, -0.16046957671642303, -0.27483177185058594, 0.46243852376937866, 0.47294220328330994, -0.3622651696205139, 0.3081528842449188, -0.2592530846595764, -0.3117680549621582, 0.4959014356136322, -0.6751901507377625, 0.5139409303665161, 0.1153884157538414, -0.13968020677566528, 0.3559732139110565, 0.2978687584400177, -0.4808896780014038, 0.41778308153152466, -0.5475115180015564, 0.059538424015045166, -0.06658833473920822, 0.47149693965911865, 0.13473570346832275, -0.6024829745292664, 0.22941084206104279, -0.5004889369010925, -0.3964320421218872, -0.4020726680755615, -0.08665315061807632, -0.23004792630672455, -0.4163423776626587, -0.4526975154876709, 0.11893713474273682, -0.3759182095527649, -0.6035782098770142, -0.17826037108898163, 0.09506265074014664, -0.410656601190567, -0.2878952622413635, -0.20576171576976776, 0.2634880840778351, 0.28512924909591675, -0.28288397192955017, 0.5273330807685852, 0.26465708017349243, 0.44430357217788696, 0.3572500944137573, -0.3874116539955139, -0.3751334249973297, -0.49438777565956116, -0.0867801383137703, -0.530859649181366, 0.4491426944732666, 0.2827637493610382, 0.14138010144233704, -0.5696457028388977, 0.5039228200912476, -0.4630385935306549, -0.46509262919425964, -0.2121340036392212], [-0.5318766832351685, -0.6590994000434875, -0.015450664795935154, 0.2348276674747467, -0.6659731864929199, 0.33332037925720215, 0.4941273033618927, -0.7112513780593872, -0.6611510515213013, 0.23611730337142944, -0.3548807203769684, 0.15446336567401886, 0.4200679659843445, -0.06737180799245834, 0.826524555683136, -0.754462718963623, -0.011296335607767105, 0.1761983186006546, -0.8079163432121277, -0.3881587088108063, 0.12049410492181778, -0.40962809324264526, 0.18450161814689636, -0.6092705726623535, 0.7766731381416321, -0.47216129302978516, -0.14801843464374542, 0.34933874011039734, -0.7330223917961121, 0.4202890694141388, 0.21652425825595856, 0.21167300641536713, 0.5295842885971069, 0.10593453794717789, 0.15793046355247498, 0.4586165249347687, 0.1066678836941719, 0.2975565195083618, 1.0139391422271729, 0.39304718375205994, -0.36410969495773315, 0.8542990684509277, 0.6426143050193787, -0.22170965373516083, -0.31910255551338196, -0.44363275170326233, 0.4966040849685669, -0.3181022107601166, -0.477875292301178, -0.47421708703041077, -0.5646682381629944, 0.005270017310976982, 0.6624000072479248, 0.4186082184314728, 0.12956246733665466, 0.8323136568069458, -0.2352713644504547, -0.3452489972114563, -0.400448203086853, 0.4676157236099243, -0.4364246129989624, 0.4729395806789398, 0.14849792420864105, 0.015575733035802841], [-0.1783933937549591, 0.6592719554901123, -0.690941333770752, 0.4310609996318817, 0.5422255992889404, 0.14412257075309753, 0.023080872371792793, 0.4041789770126343, 0.5998551845550537, -0.015928413718938828, 0.09259338676929474, 0.1363186240196228, -0.07797666639089584, -0.1080765575170517, -1.1315569877624512, 0.6480991840362549, 0.10392593592405319, 0.172366663813591, 0.31919199228286743, 0.13158750534057617, -0.030637206509709358, 0.6583324074745178, 0.21467414498329163, 0.28806254267692566, -0.46226420998573303, 0.27922916412353516, 0.2866452932357788, 0.2000565528869629, 0.5368668437004089, 0.21153385937213898, 0.031084278598427773, 0.13637018203735352, -0.5165057182312012, 0.1537482887506485, 0.08672414720058441, 0.1307324767112732, 0.25267109274864197, 0.261035680770874, -0.9868569374084473, -0.4299851357936859, 0.5454635620117188, -0.7063671946525574, -0.22402791678905487, -0.5639267563819885, 0.15753495693206787, -0.2650142014026642, 0.16881069540977478, 0.28025513887405396, 0.27402931451797485, 0.5131279230117798, 0.5969579815864563, 0.4477801024913788, -1.1855413913726807, 0.0809134989976883, 0.17168523371219635, -0.9985319375991821, -0.23736606538295746, 0.48448285460472107, -0.1218818798661232, 0.05232876166701317, 0.3504274785518646, 0.18259088695049286, -0.0768815204501152, -0.530529797077179], [1.019179344177246, 0.18072469532489777, 0.3777315616607666, -0.262937992811203, 0.41490501165390015, -0.0876661092042923, -0.09392378479242325, 0.18121296167373657, 0.18995940685272217, 0.04411093518137932, 0.7534801959991455, 0.09090068936347961, -0.07712636888027191, 1.4386470317840576, -0.7384849786758423, 0.1782124936580658, -0.20903444290161133, 0.012597966939210892, 0.33240973949432373, 0.60062575340271, 0.21150575578212738, 0.5107775926589966, 0.22464025020599365, 0.054469283670186996, -0.25381138920783997, 0.2292632907629013, -0.24956008791923523, -0.021178120747208595, 0.007228713016957045, -0.01750442199409008, 0.10182204097509384, 0.053246356546878815, -0.16821753978729248, -0.06350431591272354, 0.13784632086753845, -0.06484857201576233, -0.44913581013679504, 0.07334774732589722, -0.21503715217113495, -0.19572576880455017, -0.044793400913476944, -0.9949998259544373, -0.07776468992233276, 0.3433939516544342, -0.21430984139442444, 0.4321697950363159, 0.026017747819423676, 1.0026679039001465, 0.036336157470941544, 0.3018089532852173, 0.15352025628089905, -0.32497456669807434, 0.16019488871097565, 0.20940080285072327, -0.2799140214920044, -0.7085521817207336, 1.2735862731933594, 0.08734962344169617, 0.3216564953327179, 0.02775086835026741, 0.5197094678878784, -0.16001339256763458, 0.25160956382751465, -0.1971319168806076], [-0.5393242239952087, 0.9507881999015808, -1.3833550214767456, 0.05906238406896591, 0.29377222061157227, 0.19836987555027008, -0.18463493883609772, 0.33865660429000854, 0.3623448610305786, -0.21970319747924805, -0.11210522800683975, -0.4338558614253998, -0.13593122363090515, -0.6425948143005371, 0.2951566278934479, 0.5121628642082214, 1.1824232339859009, -0.17889440059661865, 0.9607658982276917, -0.16116343438625336, -0.1939222663640976, 0.4478786885738373, 0.12177436798810959, 0.9003872275352478, 0.8887292146682739, 0.5087564587593079, 1.0963163375854492, 0.035511404275894165, 0.8601965308189392, -0.044821858406066895, -0.11966917663812637, -0.34027597308158875, 1.0919456481933594, -0.050929613411426544, -0.19304697215557098, -0.19812072813510895, 1.1960710287094116, -0.12370412051677704, 0.06063682585954666, -0.5219062566757202, 0.96872878074646, 0.25759726762771606, 1.2136026620864868, -1.2543227672576904, 1.2581148147583008, -1.2126705646514893, -0.17094482481479645, -0.3351363241672516, 1.2759193181991577, 0.6424196362495422, 0.5982031226158142, 0.10193532705307007, -0.44636186957359314, 0.06963846832513809, 0.1834694892168045, 0.2653605341911316, -0.2801021635532379, 1.2317572832107544, -0.9718475937843323, -0.3570192754268646, 0.18195682764053345, -0.18036431074142456, -0.32343462109565735, -0.3618631362915039], [-0.13855716586112976, -1.3236815929412842, 0.5005443096160889, -0.5062909126281738, -0.39435940980911255, -0.4391917884349823, -0.4153405427932739, -0.7544472217559814, -0.5283553004264832, -0.25891613960266113, -0.29199692606925964, -0.33233144879341125, -0.26730549335479736, -0.008671735413372517, 0.8890106678009033, -0.47112467885017395, 0.21760913729667664, -0.473065584897995, -0.9261049628257751, -0.17067237198352814, -0.5443186163902283, -0.4690530002117157, -0.4868127405643463, -0.897972822189331, 0.06196289137005806, -0.29581552743911743, 0.0017870675073936582, -0.29810917377471924, -0.9620362520217896, -0.32715725898742676, -0.164271280169487, -0.17583805322647095, 0.13126908242702484, -0.20313924551010132, -0.4698828160762787, -0.3631365895271301, 0.12046188861131668, -0.5208166241645813, 0.9027618169784546, 0.5817605257034302, -1.3146172761917114, 1.5058801174163818, 0.182376891374588, 0.5965006351470947, -0.4210909307003021, 0.5145966410636902, -0.5043455958366394, -0.14672236144542694, -0.7883169054985046, -0.4567162096500397, -0.949533998966217, -0.42228323221206665, 0.8673101663589478, -0.3658243417739868, -0.5161900520324707, 0.9245221614837646, -0.02444390207529068, -1.1388766765594482, 0.5539568662643433, -0.5234302878379822, -0.1453210711479187, -0.43626153469085693, -0.44291388988494873, 0.183366596698761], [-0.1837194859981537, -1.0223644971847534, 0.2664681673049927, -0.31278812885284424, -0.5862101316452026, -0.33644571900367737, -0.5728927850723267, -0.2913976311683655, -0.4888550937175751, -0.4499158561229706, -0.11185900121927261, -0.34722211956977844, -0.2828710973262787, 0.020493218675255775, 1.3015390634536743, -0.3369545638561249, -0.005616770591586828, -0.44590145349502563, -0.6046381592750549, -0.3002593219280243, -0.40410393476486206, -0.2832573652267456, -0.5346044898033142, -0.8225741386413574, 0.3391796052455902, -0.4665917754173279, 0.16788987815380096, -0.48088303208351135, -0.7368397116661072, -0.44936633110046387, -0.14907856285572052, -0.23324237763881683, 0.4284669756889343, -0.2826584279537201, -0.47976940870285034, -0.37962526082992554, 0.0927085131406784, -0.4526795744895935, 1.1037044525146484, 0.25011247396469116, -0.7951748371124268, 1.4980510473251343, 0.5266909003257751, 0.15707413852214813, -0.18152499198913574, 0.0647297352552414, -0.2420630156993866, -0.15805445611476898, -0.881998598575592, -0.3904676139354706, -0.9304919242858887, -0.40041565895080566, 1.1391855478286743, -0.24029158055782318, -0.3608820140361786, 0.9780553579330444, -0.28651779890060425, -0.846354067325592, 0.05862854793667793, -0.3754294216632843, -0.37933722138404846, -0.5144412517547607, -0.5216059684753418, 0.35292309522628784], [0.8086743950843811, 0.3056391179561615, 0.7421799898147583, -0.32708191871643066, 0.04249832406640053, -0.10536850988864899, 0.08199649304151535, 0.16426384449005127, 0.22720098495483398, -0.08783910423517227, 0.6244365572929382, -0.05019120126962662, -0.13754795491695404, 1.0405826568603516, -0.3069111108779907, -0.011140041053295135, -0.4506157636642456, -0.03091384284198284, 0.27889060974121094, 0.4646376371383667, -0.06845490634441376, 0.11515723168849945, 0.1222805455327034, 0.11651080846786499, 0.09158360958099365, 0.22724975645542145, -0.20939289033412933, -0.2787788510322571, 0.05221571400761604, -0.007852883078157902, -0.09493537992238998, -0.04129136726260185, -0.00900585763156414, -0.04843464493751526, 0.0019428692758083344, -0.011200479231774807, -0.23730458319187164, -0.01543800812214613, -0.22287653386592865, -0.14853663742542267, 0.3254550099372864, -1.0746718645095825, 0.08424418419599533, 0.3517858386039734, -0.04328157752752304, 0.11179136484861374, -0.11874771863222122, 0.5775591731071472, 0.1678324192762375, 0.34827032685279846, -0.06252876669168472, -0.189663827419281, 0.042386457324028015, 0.08528082072734833, -0.27380016446113586, -0.36697104573249817, 0.7690303325653076, 0.17200316488742828, 0.2818429172039032, -0.06881453841924667, 0.22239580750465393, 0.007603292819112539, 0.10910924524068832, -0.06411443650722504], [0.6463161110877991, 0.05747685208916664, 0.05309088155627251, -0.049558524042367935, 0.5548401474952698, -0.06146576255559921, -0.3978063464164734, 0.46985116600990295, 0.44518181681632996, -0.026247335597872734, 0.7073075771331787, -0.18693089485168457, -0.42387691140174866, 0.38295871019363403, -0.6773462295532227, 0.4214197099208832, 0.1990339756011963, -0.295129656791687, 0.4161832332611084, 0.677022397518158, -0.028216497972607613, 0.6149123907089233, -0.09695518761873245, 0.10424105823040009, -0.3530697226524353, 0.5736068487167358, 0.1742822825908661, -0.3346536159515381, 0.43663015961647034, -0.14222444593906403, -0.15863244235515594, -0.4102603495121002, -0.4026060700416565, -0.3458419442176819, -0.18039166927337646, -0.2292734533548355, 0.26133179664611816, -0.4296002686023712, -0.5064095854759216, -0.07489100843667984, 0.0037701865658164024, -0.6023739576339722, -0.5905612111091614, 0.26134514808654785, 0.04552162066102028, 0.337715744972229, -0.04095566272735596, 0.5910257697105408, 0.26951122283935547, 0.6110050678253174, 0.46668654680252075, -0.18588659167289734, 0.0446857288479805, -0.29011988639831543, -0.09252405166625977, -0.9262802600860596, 0.5111284255981445, 0.23607903718948364, 0.3734055757522583, -0.03765863552689552, 0.5479406714439392, -0.21117708086967468, -0.1235390156507492, 0.12747465074062347], [-0.3527824580669403, -0.6093947887420654, 0.10154826194047928, -0.06022216007113457, -0.6456579566001892, -0.04718171805143356, 0.11037200689315796, -0.6024191975593567, -0.502988338470459, -0.04673747345805168, -0.40350571274757385, 0.06889348477125168, 0.0027079491410404444, -0.19413194060325623, 1.1410022974014282, -0.44580140709877014, 0.048005517572164536, -0.08841288089752197, -0.6577686071395874, -0.2853268086910248, 0.08761674165725708, -0.6069303750991821, 0.26378607749938965, -0.5736566781997681, 0.5656566619873047, -0.32572776079177856, 0.012139610014855862, -0.009802471846342087, -0.8007211685180664, 0.034610386937856674, -0.028512457385659218, -0.051063355058431625, 0.5746873617172241, -0.006620246451348066, 0.03723078593611717, 0.18994614481925964, -0.00767948804423213, 0.14118604362010956, 1.087046504020691, 0.13486652076244354, -0.6143748760223389, 0.9669871926307678, 0.7168648838996887, 0.049506183713674545, -0.45790791511535645, -0.183487668633461, 0.3028844892978668, -0.3479490578174591, -0.5522520542144775, -0.44664520025253296, -0.6765353083610535, -0.08971817046403885, 0.8584907054901123, 0.18080170452594757, -0.1878020465373993, 0.9477823972702026, -0.11007437109947205, -0.575105607509613, -0.12099651247262955, -0.03143049031496048, -0.24301421642303467, -0.04145133122801781, -0.15369008481502533, 0.45677945017814636], [0.6441892385482788, -0.2785051763057709, 0.39069899916648865, -0.08447563648223877, 0.1463051438331604, -0.27005961537361145, -0.3270537257194519, 0.3015109598636627, 0.14923067390918732, -0.1309710294008255, 0.7240471243858337, -0.1271723359823227, -0.2514384984970093, 0.7288065552711487, -0.5679410099983215, 0.12321184575557709, -0.5014994740486145, -0.03089674934744835, -0.10298409312963486, 0.5837802886962891, -0.30655062198638916, 0.2971360981464386, -0.06544952094554901, -0.20532208681106567, -0.4378055930137634, 0.3827655613422394, -0.32682642340660095, 0.005354531574994326, -0.05359116941690445, -0.2681247293949127, -0.07170821726322174, 0.029651211574673653, -0.26010945439338684, -0.33684617280960083, -0.3372982442378998, -0.12349633127450943, -0.5882729291915894, -0.010789013467729092, -0.009060975164175034, 0.14023709297180176, -0.0033154210541397333, -1.04343843460083, -0.36893022060394287, 0.32282957434654236, -0.4063758850097656, 0.6020291447639465, -0.210480734705925, 0.5673004984855652, -0.3255404531955719, 0.08119484782218933, -0.13622432947158813, -0.20215004682540894, 0.196851447224617, -0.3415575623512268, -0.13559198379516602, -0.6153656840324402, 0.7322417497634888, -0.2643156051635742, 0.29759833216667175, -0.32602325081825256, 0.6315478086471558, -0.31461963057518005, -0.21086300909519196, -0.2170639932155609], [0.49529239535331726, -0.19399747252464294, 0.5511011481285095, -0.21967129409313202, 0.1963450163602829, -0.3495625853538513, 0.0600227527320385, 0.31002673506736755, 0.10671917349100113, -0.0735907107591629, 0.32720908522605896, 0.058423761278390884, 0.022565137594938278, 0.9646548628807068, -0.5205241441726685, 0.13445258140563965, -0.2979629933834076, -0.11124639213085175, -0.070412278175354, 0.687749981880188, 0.13074325025081635, 0.36163216829299927, 0.07970777899026871, -0.1464260071516037, -0.1830586940050125, 0.3103715181350708, -0.3019970655441284, -0.14367470145225525, -0.16647839546203613, -0.24072320759296417, -0.17797431349754333, -0.18362011015415192, -0.15254929661750793, -0.2318846881389618, 0.1826404184103012, 0.021960940212011337, -0.23936216533184052, 0.01897825114428997, 0.09864579886198044, -0.22409221529960632, -0.14232484996318817, -0.7181387543678284, -0.2565222978591919, 0.6516565680503845, -0.08725889772176743, 0.5234192609786987, -0.021478721871972084, 0.6544533371925354, -0.3315708637237549, 0.30280470848083496, -0.12953728437423706, -0.05656718835234642, 0.5151960849761963, -0.25502994656562805, -0.12222379446029663, -0.32474619150161743, 0.769250214099884, -0.21418625116348267, 0.6238661408424377, -0.1638469099998474, 0.2983516454696655, -0.09521950036287308, 0.09492014348506927, -0.00752646941691637], [0.5223867893218994, 0.20279426872730255, -0.13588568568229675, -0.18586672842502594, 0.4200688898563385, -0.32895898818969727, -0.2644575834274292, 0.7095901966094971, 0.30605974793434143, -0.4337407946586609, 0.43052417039871216, -0.27409493923187256, -0.31952887773513794, 0.1513054370880127, -0.5714620351791382, 0.4418763518333435, 0.22705839574337006, -0.2501978874206543, 0.1785188466310501, 0.46085959672927856, -0.3307400941848755, 0.5820327401161194, -0.5339966416358948, 0.20009072124958038, -0.5530096888542175, 0.3163420855998993, 0.043560825288295746, -0.5738439559936523, 0.39281603693962097, -0.4748661518096924, -0.2870897352695465, -0.5036954283714294, -0.840503454208374, -0.31331366300582886, -0.3519805073738098, -0.45814529061317444, 0.24074046313762665, -0.24636289477348328, -0.5325438380241394, 0.06963787972927094, 0.2878584563732147, -0.4432729482650757, -0.42919546365737915, 0.3263503909111023, 0.2606485188007355, 0.4140527546405792, -0.5712032318115234, 0.32990339398384094, 0.08885292708873749, 0.3462769687175751, 0.4393966794013977, -0.5230340957641602, -0.011170030571520329, -0.25962379574775696, -0.42028504610061646, -0.8132739663124084, 0.24411530792713165, -0.08343391865491867, 0.30736905336380005, -0.5632352828979492, 0.6298933029174805, -0.4884028136730194, -0.45114800333976746, -0.09627959877252579], [1.1692895889282227, -0.19673274457454681, 0.6556565165519714, -0.36720970273017883, 0.1794617772102356, -0.3670497536659241, -0.17776046693325043, 0.0320272222161293, 0.12737306952476501, -0.1319911926984787, 0.8729496598243713, -0.15628445148468018, -0.15986308455467224, 1.3684260845184326, 0.021370841190218925, 0.35873302817344666, -0.8080076575279236, -0.15847110748291016, -0.36071187257766724, 0.6810179352760315, -0.2895808815956116, 0.2893570065498352, -0.21510739624500275, -0.27466240525245667, -0.4018465280532837, 0.35896623134613037, -0.7180122137069702, -0.34433630108833313, -0.214717835187912, -0.17099227011203766, -0.48581579327583313, -0.3724493384361267, -0.5867798924446106, -0.04712677374482155, -0.1351541429758072, -0.4092765748500824, -0.5289309620857239, -0.303429514169693, 0.186116024851799, -0.026742320507764816, -0.34018394351005554, -0.2070615142583847, -0.585204005241394, 0.7325233221054077, -0.4433527886867523, 0.7417154908180237, -0.3893730640411377, 0.6155425310134888, -0.3168701231479645, 0.18194381892681122, -0.06318257004022598, -0.05339915305376053, 0.317649245262146, -0.257752388715744, -0.3037757873535156, -0.24329185485839844, 1.0217519998550415, -0.5494624972343445, 0.6589756011962891, -0.3210712671279907, 0.35961246490478516, -0.18872356414794922, -0.32912543416023254, -0.12571173906326294], [-1.0337737798690796, -0.46590524911880493, -0.14368683099746704, -0.18938013911247253, -0.5851969718933105, 0.1683219075202942, 0.07492268830537796, -0.6636226773262024, -0.5230830311775208, -0.1011500358581543, -0.7846124768257141, -0.086605966091156, -0.058215394616127014, -0.9967725872993469, 0.8893799185752869, -0.41255083680152893, 0.49787431955337524, -0.029571523889899254, -0.5701209902763367, -0.6688647270202637, 0.0509180873632431, -0.659720242023468, 0.18676486611366272, -0.35281902551651, 0.5577870607376099, -0.6747398972511292, 0.28152671456336975, -0.17258746922016144, -0.5843986868858337, -0.060437723994255066, 0.18144036829471588, -0.09087667614221573, 0.42920607328414917, 0.20889295637607574, 0.025978142395615578, 0.03995766490697861, 0.2989521622657776, -0.028216300532221794, 0.46568161249160767, -0.1364682912826538, -0.24081678688526154, 0.7914779186248779, 0.7234414219856262, -0.4602181017398834, -0.006486520636826754, -0.645362377166748, 0.06062237173318863, -0.9895390272140503, -0.00963034201413393, -0.6408872008323669, -0.6473305821418762, 0.05969459190964699, 0.15880291163921356, 0.16283801198005676, 0.12481332570314407, 0.5487805008888245, -0.7077953815460205, -0.08554735034704208, -0.4628726840019226, -0.14490118622779846, -0.580959677696228, -0.08674208074808121, -0.0011188136413693428, -0.1943156123161316], [-0.14689378440380096, -0.8754917979240417, 0.795388400554657, -0.23928110301494598, -0.4377664625644684, -0.4620392620563507, -0.31142446398735046, -0.5450797080993652, -0.3581482470035553, 0.005785655230283737, -0.11908943206071854, -0.3281925916671753, -0.3149125277996063, -0.27270880341529846, 1.001022219657898, -0.2923494279384613, -0.2060704231262207, -0.28237220644950867, -0.6071763634681702, -0.2052265703678131, -0.10737539827823639, -0.5768939256668091, -0.5181661248207092, -0.7030283808708191, 0.1279757022857666, -0.45833635330200195, 0.013657836243510246, -0.16902776062488556, -1.0398205518722534, -0.2823023796081543, -0.20716775953769684, -0.2913842499256134, 0.3186441659927368, -0.3677995204925537, -0.19832998514175415, -0.4556460678577423, -0.0453556552529335, -0.1182708814740181, 0.7890182733535767, 0.3643818497657776, -0.8954080939292908, 1.2431025505065918, 0.2739219665527344, 0.6377869844436646, -0.2951188385486603, 0.45096948742866516, -0.15032987296581268, -0.14448614418506622, -0.5198777914047241, -0.5890440940856934, -0.9505648016929626, -0.20531412959098816, 0.8416826128959656, -0.30439653992652893, -0.407522052526474, 0.9176253080368042, -0.1973629593849182, -0.9635227918624878, 0.41934964060783386, -0.2920199930667877, -0.44895198941230774, -0.19812285900115967, 0.007138030603528023, 0.2319633960723877], [-0.3666764199733734, -0.3466741144657135, 0.13606445491313934, 0.36834853887557983, -0.565223753452301, 0.4079369306564331, 0.21586082875728607, -0.8773417472839355, -0.47972527146339417, -0.0028778216801583767, -0.4855206310749054, 0.03304846212267876, 0.3851149082183838, -0.10936710983514786, 0.6855435967445374, -0.5057446956634521, 0.03274574503302574, 0.25511839985847473, -0.7012948393821716, -0.46000343561172485, 0.19138048589229584, -0.8031424283981323, 0.5327401757240295, -0.6669071912765503, 0.816489577293396, -0.7338350415229797, -0.06080842763185501, 0.41705045104026794, -0.3843965530395508, 0.5597043037414551, 0.5695455074310303, 0.48176100850105286, 0.7618032693862915, 0.42362353205680847, 0.2682707607746124, 0.574874997138977, 0.1732487827539444, 0.5048369765281677, 0.7692492008209229, 0.14759515225887299, -0.3636568784713745, 0.958456814289093, 0.7261436581611633, -0.04215371236205101, -0.10501917451620102, -0.4553432762622833, 0.50995934009552, -0.4770215153694153, -0.268706351518631, -0.7660932540893555, -0.5275774598121643, 0.25555312633514404, 0.4687959551811218, 0.4161031246185303, 0.4079964756965637, 0.7777041792869568, -0.4942755401134491, -0.432888001203537, -0.5787984132766724, 0.192152202129364, -0.7790111303329468, 0.3272194564342499, 0.2797982692718506, 0.0351877324283123], [-0.10620182752609253, -0.722119927406311, 0.0024691028520464897, -0.18857963383197784, -0.29791733622550964, -0.31266212463378906, -0.319580614566803, -0.24282607436180115, -0.5103924870491028, -0.3929176926612854, -0.0929964929819107, -0.2158653736114502, -0.2557581663131714, -0.1565481424331665, 1.2446823120117188, -0.3967960774898529, 0.2849821150302887, -0.41102495789527893, -0.6861008405685425, -0.08998683840036392, -0.2255799025297165, -0.4494786262512207, -0.05103543773293495, -0.9339544177055359, 0.6841381788253784, -0.25339585542678833, 0.32816416025161743, -0.15228669345378876, -0.7768972516059875, -0.03827613219618797, -0.31874552369117737, -0.3749656677246094, 0.7891700267791748, -0.17794528603553772, -0.15039150416851044, -0.029491744935512543, 0.30243247747421265, -0.31227728724479675, 1.0531878471374512, 0.44234973192214966, -0.7793315052986145, 1.3013324737548828, 0.4444543421268463, 0.3306320309638977, 0.07719208300113678, -0.07621421664953232, -0.25780338048934937, -0.29689398407936096, -0.4507477581501007, -0.31475502252578735, -0.5725964307785034, -0.20179565250873566, 0.9618247747421265, -0.29757922887802124, -0.37271231412887573, 1.1857517957687378, -0.21946315467357635, -0.7917309999465942, -0.06482377648353577, -0.32472726702690125, -0.4589928388595581, 0.023095445707440376, -0.12503132224082947, 0.4507305920124054], [0.7024431824684143, -0.1805412918329239, 0.16729003190994263, -0.38206106424331665, 0.40787628293037415, -0.4680277705192566, -0.2757236361503601, 0.5367398262023926, 0.4228649139404297, -0.25492429733276367, 0.5522075295448303, -0.2389468550682068, -0.19593724608421326, 0.5902354121208191, -0.6001463532447815, 0.22851157188415527, 0.05706089735031128, -0.15310628712177277, 0.09712280333042145, 0.5103960633277893, -0.47651422023773193, 0.4851682484149933, -0.3588869869709015, -0.22906996309757233, -0.42822349071502686, 0.2798178791999817, 0.05742836371064186, -0.2936594784259796, 0.33671194314956665, -0.19822002947330475, -0.4470585286617279, -0.41755038499832153, -0.3061065673828125, -0.555060625076294, -0.369642436504364, -0.3557915985584259, 0.06677354127168655, -0.29915517568588257, -0.4459804594516754, 0.24328482151031494, 0.1728711873292923, -1.009934425354004, -0.692814290523529, 0.204326793551445, 0.010784839279949665, 0.30785253643989563, -0.346499502658844, 0.5940649509429932, -0.09354381263256073, 0.1640460044145584, 0.2563060522079468, -0.300576388835907, 0.20197729766368866, -0.4023708701133728, -0.2045288234949112, -0.7165671586990356, 0.7120595574378967, 0.0671156793832779, 0.4562765657901764, -0.5158976912498474, 0.6756179928779602, -0.4525721073150635, -0.3829515874385834, 0.14408650994300842], [-0.8562393188476562, -0.15840831398963928, -0.19751301407814026, 0.24405471980571747, -0.7182775139808655, 0.07173760235309601, 0.3468610942363739, -0.7298394441604614, -0.6676414608955383, 0.1594264954328537, -0.8708093762397766, 0.01865861751139164, 0.3450826108455658, -0.6994871497154236, 0.7451605200767517, -0.6806524395942688, 0.28759703040122986, 0.15013150870800018, -0.49361690878868103, -0.7689138650894165, 0.011341433972120285, -0.4512718915939331, 0.2556743323802948, -0.08927705883979797, 0.965743899345398, -0.4540947675704956, 0.10671819746494293, 0.05295112356543541, -0.40253767371177673, 0.12398914247751236, 0.34647136926651, 0.09182461351156235, 1.0022741556167603, 0.38175061345100403, 0.35853689908981323, 0.17431072890758514, 0.36002251505851746, 0.39280134439468384, 0.39242175221443176, -0.25951772928237915, -0.2889145314693451, 0.973655104637146, 0.9988324046134949, -0.4242558777332306, 0.19705753028392792, -0.5727620124816895, 0.292216956615448, -0.8741985559463501, -0.25426673889160156, -0.4106796681880951, -0.42329221963882446, 0.2126101404428482, 0.18621990084648132, 0.4303087592124939, 0.3444717824459076, 0.6184359192848206, -0.7368013262748718, -0.24499405920505524, -0.8665961623191833, 0.3241872191429138, -0.5147560238838196, 0.35778120160102844, 0.18170444667339325, -0.2368769347667694], [0.6570226550102234, -0.0012705579865723848, 0.9253064393997192, -0.2823532223701477, 0.272013396024704, -0.34719905257225037, -0.3237123489379883, 0.17633044719696045, 0.24728213250637054, -0.14397665858268738, 0.7954533696174622, -0.15096205472946167, -0.219297856092453, 1.1498690843582153, -0.41809991002082825, 0.29516735672950745, -0.23997405171394348, -0.12044553458690643, 0.08978329598903656, 0.5129647254943848, -0.06595638394355774, 0.19920164346694946, -0.2960349917411804, 0.05939967930316925, -0.1930011659860611, 0.1814432293176651, -0.425672709941864, -0.05141952633857727, 0.20997273921966553, -0.12736296653747559, -0.1454407274723053, -0.2374037504196167, -0.179190993309021, 0.008782695047557354, -0.1955460160970688, -0.13265365362167358, -0.5130439400672913, -0.18812888860702515, 0.10761751979589462, -0.4379830062389374, 0.17808286845684052, -0.9117677807807922, 0.12323591858148575, 0.7118149995803833, -0.09189476072788239, 0.4174995422363281, -0.19321949779987335, 0.6402683854103088, -0.0004597812658175826, 0.23248648643493652, 0.3833453059196472, -0.34868401288986206, 0.5079832077026367, -0.05610615015029907, -0.1216796413064003, -0.07996272295713425, 0.9553582072257996, -0.05113887041807175, 0.5179256796836853, -0.0850217267870903, 0.6009201407432556, -0.26551491022109985, 0.04712069779634476, -0.4052208662033081], [-0.2700013816356659, -0.9074405431747437, 0.37805962562561035, -0.2927657663822174, -0.3728417754173279, -0.1976480782032013, -0.03363799303770065, -0.5560972690582275, -0.31014302372932434, -0.321615070104599, -0.2657088339328766, -0.21827158331871033, -0.022142348811030388, -0.1165444478392601, 0.6823247671127319, -0.3930921256542206, 0.09668359160423279, -0.3171079754829407, -0.7685933709144592, -0.25091850757598877, -0.06983782351016998, -0.2759716808795929, -0.2568272650241852, -0.7199203968048096, 0.14104093611240387, -0.42863765358924866, -0.15857020020484924, 0.10253056138753891, -0.6597746014595032, -0.04302620887756348, -0.19967995584011078, 0.026290349662303925, 0.6006169319152832, -0.2087426632642746, -0.2596321403980255, 0.09709250926971436, 0.20554357767105103, -0.21133245527744293, 0.9517815709114075, 0.35760101675987244, -0.6458430290222168, 1.182296633720398, 0.3860209286212921, 0.1276121735572815, -0.2003486454486847, 0.039099521934986115, -0.12516874074935913, -0.3341215252876282, -0.8686457276344299, -0.6646056175231934, -0.8915902972221375, -0.03663887083530426, 1.0764548778533936, 0.06545129418373108, -0.15400585532188416, 0.6513310670852661, -0.04034043475985527, -0.7878144383430481, -0.10689583420753479, -0.011379054747521877, -0.23695646226406097, -0.03900482878088951, -0.0744975283741951, 0.15976108610630035], [0.6032674312591553, 0.5248781442642212, -0.17260760068893433, 0.1139495000243187, 0.5500146150588989, 0.1309424489736557, -0.18424206972122192, 0.8140718340873718, 0.6151965260505676, 0.04233860969543457, 0.5965229868888855, -0.2709422707557678, 0.024108974263072014, 0.026621190831065178, -1.0034468173980713, 0.5646089315414429, 0.28886762261390686, -0.32780876755714417, 0.4061589241027832, 0.5061533451080322, -0.1814146786928177, 0.7212529182434082, -0.05321366339921951, 0.23035773634910583, -0.4241527020931244, 0.5498356819152832, 0.029411355033516884, -0.003659493289887905, 0.24511241912841797, -0.19540996849536896, -0.2617143392562866, 0.09413458406925201, -0.40750575065612793, -0.10704410821199417, -0.16420501470565796, -0.102605901658535, 0.2968624234199524, 0.0859353095293045, -0.9776744246482849, -0.0009012096561491489, 0.26828181743621826, -0.6921007633209229, -0.3756076395511627, -0.14179259538650513, 0.3963744640350342, 0.4326050579547882, -0.2441232055425644, 0.6053869128227234, 0.17576241493225098, 0.7085522413253784, 0.3997741937637329, -0.008284392766654491, -0.29558587074279785, 0.14970119297504425, -0.13904279470443726, -0.8089735507965088, 0.2628367841243744, 0.22606074810028076, 0.16549941897392273, 0.05978967621922493, 0.6662797927856445, 0.05962253361940384, -0.1476038545370102, -0.02868247963488102], [-1.1146684885025024, -0.01881100982427597, -0.8081038594245911, 0.11163270473480225, -0.2305516004562378, 0.11866985261440277, -0.2040952891111374, -0.368708997964859, -0.06280170381069183, -0.4588801860809326, -0.8286907076835632, -0.22883565723896027, -0.4490586519241333, -1.2866621017456055, 0.8131558299064636, -0.2812845706939697, 0.8336970210075378, -0.3430538773536682, -0.160973459482193, -0.8671994209289551, -0.36025169491767883, 0.0281026903539896, -0.12020690739154816, 0.3003300428390503, 0.6892164349555969, -0.31648680567741394, 0.5852009654045105, -0.1626482456922531, -0.20456506311893463, -0.27492162585258484, -0.3814871609210968, -0.2945466637611389, 0.9613662958145142, -0.37068554759025574, -0.3809991478919983, -0.34649354219436646, 0.7172056436538696, -0.24037064611911774, 0.6150029301643372, -0.17024177312850952, 0.19687111675739288, 1.557512879371643, 1.0030865669250488, -0.8778336048126221, 0.6746605038642883, -0.7003813982009888, -0.433403342962265, -0.6103719472885132, 0.23767676949501038, -0.3066999018192291, 0.14988389611244202, -0.18205659091472626, 0.342502236366272, -0.220179945230484, -0.09043236821889877, 0.5796241164207458, -1.1586356163024902, 0.009727983735501766, -0.7240840196609497, -0.10316969454288483, -0.29007020592689514, -0.38751649856567383, -0.49120593070983887, -0.29024598002433777], [0.626905620098114, 0.20223672688007355, -0.14970722794532776, -0.299086332321167, 0.6562548279762268, -0.21103358268737793, -0.5404342412948608, 0.7484898567199707, 0.3709591329097748, -0.17725560069084167, 0.6160654425621033, -0.19181402027606964, -0.2133195400238037, 0.10286295413970947, -0.6381582021713257, 0.621881365776062, 0.2964164614677429, -0.4508849084377289, 0.690588653087616, 0.6453086733818054, -0.3594810664653778, 0.46943628787994385, -0.5370567440986633, 0.4905408024787903, -0.3333100974559784, 0.4417002499103546, 0.07901384681463242, -0.3189353346824646, 0.33566537499427795, -0.21003495156764984, -0.5407834649085999, -0.5628195405006409, -0.3016466200351715, -0.30501264333724976, -0.25821712613105774, -0.3441867530345917, 0.3143896758556366, -0.3394811451435089, -0.4006969630718231, -0.37128153443336487, 0.11956700682640076, -0.34750568866729736, -0.1869649589061737, -0.1499047577381134, 0.4360043704509735, 0.2502472400665283, -0.5179243683815002, 0.4119971692562103, 0.24648919701576233, 0.5813655257225037, 0.5426408052444458, -0.31303733587265015, -0.16118969023227692, -0.4401102066040039, -0.3037397265434265, -0.5696731209754944, 0.24281680583953857, 0.34996020793914795, 0.2951391935348511, -0.4475136399269104, 0.3101504147052765, -0.4617854952812195, -0.23077261447906494, -0.18069185316562653], [-0.6611892580986023, -0.5712841153144836, -0.11737186461687088, 0.2151322215795517, -0.7952558398246765, 0.3037484884262085, 0.36958837509155273, -0.8735133409500122, -0.7917900085449219, 0.045403968542814255, -0.3288612365722656, 0.1872902810573578, 0.31093108654022217, -0.2867272198200226, 1.0165767669677734, -0.69215327501297, -0.11527924984693527, 0.22857969999313354, -0.5117056369781494, -0.7367465496063232, 0.05866260826587677, -0.7243018746376038, 0.3002527952194214, -0.46666449308395386, 0.7426682114601135, -0.3944137692451477, -0.05321445316076279, 0.42309319972991943, -0.6055686473846436, 0.3606792390346527, 0.21605899930000305, 0.4628337025642395, 0.829113781452179, 0.24557973444461823, 0.3647584021091461, 0.26764219999313354, -0.08177082985639572, 0.3150794208049774, 0.9885655045509338, 0.031581491231918335, -0.29556185007095337, 1.1513593196868896, 0.7860194444656372, -0.3579927086830139, -0.19281473755836487, -0.23382548987865448, 0.540759265422821, -0.4104926884174347, -0.35738325119018555, -0.6066981554031372, -0.809843122959137, 0.43079015612602234, 0.6897554397583008, 0.3413311541080475, 0.05702735856175423, 0.8374447822570801, -0.315523236989975, -0.6263943314552307, -0.26666927337646484, 0.2632122337818146, -0.5635385513305664, 0.24813207983970642, 0.31804752349853516, 0.1440209001302719], [0.3471524715423584, 0.3255305588245392, -0.004209688398987055, -0.15112298727035522, 0.4306963086128235, -0.2289140671491623, -0.6339131593704224, 0.4754300117492676, 0.3340446650981903, -0.15638233721256256, 0.6414847373962402, -0.24158571660518646, -0.5588601231575012, 0.5174999237060547, -0.6238295435905457, 0.45879676938056946, -0.04947341978549957, -0.126522496342659, 0.5589163899421692, 0.5331146121025085, -0.2331715077161789, 0.4502507448196411, -0.5377317070960999, 0.41657325625419617, -0.13985785841941833, 0.2708304822444916, 0.04596438258886337, -0.6802669167518616, 0.20260676741600037, -0.6114540100097656, -0.36905279755592346, -0.5327386856079102, -0.24949422478675842, -0.3805773854255676, -0.40038639307022095, -0.59126877784729, 0.07571978121995926, -0.4725041687488556, -0.44013652205467224, -0.035555481910705566, 0.10924872756004333, -0.2846442461013794, -0.5336484313011169, -0.10232038050889969, 0.07014510780572891, 0.21803173422813416, -0.6417192220687866, 0.658755362033844, 0.3162418305873871, 0.6892304420471191, 0.3743009865283966, -0.33598190546035767, -0.3624434769153595, -0.5578438639640808, -0.5147696733474731, -0.48068079352378845, 0.3177904486656189, 0.27485448122024536, 0.20453302562236786, -0.6106825470924377, 0.5154401659965515, -0.3340470492839813, -0.5548155903816223, -0.12121550738811493], [-0.2353864312171936, -0.4538002908229828, -0.30772021412849426, -0.10941699892282486, -0.2829493284225464, -0.09405042976140976, 0.19202913343906403, -0.4708562195301056, -0.2078678011894226, 0.045984331518411636, -0.36770200729370117, -0.08072330802679062, 0.28263479471206665, 0.09965185821056366, 1.1645840406417847, -0.4220759868621826, 0.3700284957885742, -0.12375417351722717, -0.27677711844444275, -0.2869826853275299, -0.05442362278699875, -0.47185707092285156, 0.20025362074375153, -0.12842726707458496, 0.8544236421585083, -0.3413049578666687, 0.16018623113632202, -0.0077673401683568954, -0.35975614190101624, 0.07559844106435776, 0.2652546465396881, -0.05564437806606293, 1.1616237163543701, 0.055327158421278, 0.054187268018722534, 0.26619595289230347, 0.299857497215271, -0.06888563930988312, 0.8920984268188477, 0.10590025037527084, -0.5169757604598999, 0.9856449365615845, 1.0622378587722778, -0.21062412858009338, 0.07602465152740479, -0.3965963125228882, 0.07015873491764069, -0.3950181305408478, -0.16992181539535522, -0.2703899145126343, -0.3940121829509735, 0.12422290444374084, 1.0408557653427124, 0.15042567253112793, 0.10527674853801727, 1.2115199565887451, -0.3082185983657837, -0.3199231028556824, -0.4908304810523987, 0.29488492012023926, -0.18962672352790833, 0.011607322841882706, 0.20658621191978455, 0.2416156530380249], [-0.15456558763980865, -1.0257478952407837, 0.5639647841453552, -0.21273963153362274, -0.6010352373123169, -0.45736873149871826, -0.3744620084762573, -0.49888479709625244, -0.3819683790206909, -0.3653583526611328, -0.16944733262062073, -0.3525986671447754, -0.12772086262702942, -0.32644492387771606, 0.9178484678268433, -0.4718959927558899, 0.2120928019285202, -0.28863415122032166, -0.916905403137207, -0.3174259662628174, -0.32829681038856506, -0.45516276359558105, -0.23100577294826508, -0.9425548315048218, 0.41810768842697144, -0.6165426969528198, -0.039326321333646774, -0.10773319005966187, -0.7603933811187744, -0.2837328314781189, -0.06843896210193634, -0.15328079462051392, 0.42943134903907776, 0.026896318420767784, -0.2860887348651886, -0.13539890944957733, 0.20687983930110931, -0.07005331665277481, 0.9220808148384094, 0.3178461194038391, -0.9327243566513062, 1.0141620635986328, 0.18080943822860718, 0.4286101758480072, -0.2697664797306061, 0.15651407837867737, -0.3915543854236603, -0.3110831379890442, -0.7028241753578186, -0.7152025699615479, -1.0658928155899048, -0.17883986234664917, 0.7743454575538635, -0.30193212628364563, -0.47342246770858765, 0.6816236972808838, -0.3241046667098999, -0.8993117809295654, 0.44733747839927673, -0.12291062623262405, -0.14553748071193695, -0.3496842682361603, -0.35518190264701843, 0.5762683153152466], [0.27770695090293884, 0.38527947664260864, -0.6278203725814819, -0.10234997421503067, 0.5290495157241821, -0.0610603392124176, -0.1874064952135086, 0.45465153455734253, 0.7238636612892151, -0.21958865225315094, 0.44169479608535767, -0.11384080350399017, -0.09294242411851883, -0.0854988545179367, -1.0111393928527832, 0.7438056468963623, 0.4047468304634094, -0.1809757798910141, 0.5412896275520325, 0.13687710464000702, -0.06986214965581894, 0.46897149085998535, -0.20532013475894928, 0.5044674873352051, -0.4469652771949768, 0.49425584077835083, 0.5437819361686707, 0.01973406784236431, 0.4808630645275116, -0.357623815536499, -0.22652482986450195, -0.30782315135002136, -0.61197829246521, -0.2974886894226074, -0.1897307187318802, -0.040187302976846695, 0.5713865756988525, -0.19018782675266266, -0.8493050336837769, -0.6603144407272339, 0.3785216808319092, -0.6900212168693542, -0.5168570280075073, -0.5180853009223938, 0.24151811003684998, -0.04885368421673775, 0.044014882296323776, 0.10198953002691269, 0.5633429288864136, 0.5548888444900513, 0.5336076617240906, 0.19610494375228882, -1.1410679817199707, 0.09317474067211151, -0.08190128952264786, -0.842060923576355, 0.27358800172805786, 0.2986399233341217, 0.07982702553272247, -0.004346954170614481, 0.5239865779876709, -0.24310925602912903, 0.035092685371637344, -0.5892525315284729], [-0.38873136043548584, -0.3906557857990265, -0.07036520540714264, 0.30145907402038574, -0.7877157926559448, 0.20906966924667358, 0.16388437151908875, -0.486968994140625, -0.8077972531318665, -0.03614054620265961, -0.7139937281608582, 0.3542921841144562, 0.45093289017677307, -0.4725417196750641, 0.9074434638023376, -0.4719482362270355, 0.11513887345790863, 0.3370143473148346, -0.703599750995636, -0.7587152123451233, 0.17608819901943207, -0.7781226634979248, 0.43172311782836914, -0.5516154170036316, 0.8824220299720764, -0.5557451844215393, 0.04902445897459984, 0.3195483982563019, -0.32669082283973694, 0.4178088307380676, 0.15910965204238892, 0.18916751444339752, 1.0626575946807861, 0.27036577463150024, 0.09269020706415176, 0.34115737676620483, 0.10669189691543579, 0.2620769441127777, 0.5161170363426208, 0.18728198111057281, -0.3846283257007599, 0.9506126642227173, 0.9317323565483093, -0.28323689103126526, -0.19342702627182007, -0.28774121403694153, 0.45739680528640747, -0.6724853515625, -0.3360319435596466, -0.5166352987289429, -0.6507211327552795, 0.30826839804649353, 0.4672826826572418, 0.4850315451622009, 0.21701520681381226, 0.792468786239624, -0.6583816409111023, -0.4460640549659729, -0.42320141196250916, 0.16718998551368713, -0.5951783061027527, 0.4557080566883087, 0.19359397888183594, -0.05074238404631615], [-0.22077445685863495, -1.1683557033538818, 0.695504903793335, -0.5034194588661194, -0.5925993919372559, -0.545202910900116, -0.34257546067237854, -0.7436301708221436, -0.7317221760749817, -0.30588769912719727, -0.18531487882137299, -0.3301650881767273, -0.15195706486701965, 0.03167397901415825, 0.9339179992675781, -0.5909590721130371, -0.06614086776971817, -0.16262556612491608, -0.8988637924194336, -0.4583742618560791, -0.12835602462291718, -0.7928633689880371, -0.19339831173419952, -0.9465360045433044, 0.21841450035572052, -0.7336527705192566, -0.36859697103500366, -0.22518585622310638, -1.0244849920272827, -0.1014876738190651, -0.38717329502105713, -0.4149741530418396, 0.00680879270657897, -0.22499413788318634, -0.26400554180145264, -0.4545140862464905, 0.038380276411771774, -0.4544478952884674, 0.7618680596351624, 0.42192527651786804, -1.038818120956421, 1.2932747602462769, 0.21959778666496277, 0.6886886358261108, -0.39392316341400146, 0.7123832702636719, -0.2537418007850647, -0.12792623043060303, -0.7576273083686829, -0.6829478144645691, -0.8740819692611694, -0.5893529057502747, 0.9377388954162598, -0.2983446419239044, -0.5765395760536194, 1.071728229522705, -0.015280121006071568, -1.2146556377410889, 0.7339991331100464, -0.24188357591629028, -0.47343873977661133, -0.40284550189971924, -0.41725966334342957, 0.42471790313720703], [-0.7867367267608643, 0.9640619158744812, -1.2190589904785156, 0.23880186676979065, 0.09137419611215591, 0.422503799200058, 0.1038983017206192, 0.02458120509982109, 0.20817503333091736, 0.04663170501589775, -0.549979567527771, 0.1530940979719162, 0.2537422180175781, -0.800557017326355, 0.18792609870433807, 0.2404516339302063, 1.2925397157669067, -0.19211603701114655, 0.5100974440574646, -0.3558530807495117, -0.22716549038887024, 0.3221025764942169, 0.21351923048496246, 1.1703213453292847, 1.0905120372772217, 0.07066764682531357, 1.4409825801849365, -0.10388052463531494, 0.6513843536376953, 0.20878829061985016, 0.2801600694656372, 0.11141715943813324, 1.175748586654663, 0.23232968151569366, -0.2791845500469208, 0.31597885489463806, 1.1520905494689941, -0.05922805517911911, -0.08192015439271927, -0.3077273666858673, 0.7776079773902893, 0.2873958349227905, 1.2158128023147583, -1.3380488157272339, 1.0518921613693237, -1.3326125144958496, 0.0573895163834095, -0.4594818651676178, 1.0509753227233887, 0.48998141288757324, 0.6352208256721497, 0.42323020100593567, -0.6409063935279846, 0.1170114055275917, 0.3759385347366333, -0.03332933411002159, -0.4286833703517914, 1.05262291431427, -1.081181526184082, 0.09010151028633118, -0.30022716522216797, 0.07600085437297821, -0.11023048311471939, -0.31279391050338745], [0.5120187401771545, 0.24182458221912384, -0.23317815363407135, -0.12243084609508514, 0.5599238872528076, -0.3572257161140442, -0.08114201575517654, 0.5815575122833252, 0.5032045841217041, -0.015480459667742252, 0.6066599488258362, -0.06499940901994705, -0.0921446681022644, 0.2934860587120056, -0.5581161379814148, 0.6177974343299866, 0.1332564651966095, -0.08458449691534042, 0.27489566802978516, 0.23896454274654388, -0.0943996012210846, 0.5381289124488831, -0.44452807307243347, 0.2754354476928711, -0.18048220872879028, 0.6132542490959167, 0.004241356160491705, -0.47479668259620667, 0.30945080518722534, -0.17757944762706757, -0.42196160554885864, -0.4276603162288666, -0.15238870680332184, -0.43553486466407776, -0.2920377254486084, -0.24228036403656006, -0.03131584823131561, -0.22662943601608276, -0.8299880623817444, -0.12702906131744385, 0.2312115877866745, -0.7218884229660034, -0.14918434619903564, -0.12657737731933594, 0.16087336838245392, 0.10358993709087372, -0.2341400384902954, 0.3124105930328369, 0.4632253646850586, 0.6346750855445862, 0.5950169563293457, -0.29515284299850464, -0.27993646264076233, -0.2668890953063965, -0.3418639600276947, -0.5559000372886658, 0.6006616950035095, 0.03637039288878441, 0.4683011472225189, -0.44193220138549805, 0.6496353149414062, -0.08081839233636856, -0.11495568603277206, -0.2596970498561859], [-1.2880463600158691, -0.0989745557308197, -0.22359411418437958, 0.0810113176703453, -0.4453454315662384, -0.014521356672048569, 0.13925090432167053, -0.48663240671157837, -0.6071168184280396, -0.02927635796368122, -0.9569653272628784, -0.14780084788799286, -0.172506183385849, -1.1058776378631592, 0.8528347611427307, -0.6418083310127258, 0.6091817617416382, -0.3801538646221161, -0.3340597450733185, -0.7746407389640808, -0.13670112192630768, -0.49201008677482605, -0.04045438766479492, -0.084248848259449, 0.4976394772529602, -0.5082229971885681, 0.425263375043869, -0.10404951870441437, -0.400678813457489, 0.07696795463562012, -0.04527026042342186, -0.21314935386180878, 0.28367382287979126, -0.033253263682127, 0.044305622577667236, -0.2287261039018631, 0.3878321647644043, 0.15535244345664978, 0.328911691904068, -0.0947151854634285, -0.34655410051345825, 0.7980390787124634, 0.5184616446495056, -0.5204749703407288, 0.22284337878227234, -0.6122825741767883, -0.21735654771327972, -1.1198028326034546, -0.2825590968132019, -0.6451013684272766, -0.5592746734619141, 0.11649471521377563, 0.3910084068775177, 0.0642300397157669, 0.20635324716567993, 0.8367332816123962, -1.2127807140350342, -0.22657251358032227, -0.6443692445755005, -0.09495370090007782, -0.6408806443214417, -0.276531457901001, 0.09692841023206711, 0.2109183669090271], [-0.21305721998214722, -0.7272707223892212, 0.15915291011333466, -0.19794175028800964, -0.20216374099254608, -0.4691590964794159, -0.38104552030563354, -0.27483728528022766, -0.12180160731077194, -0.34369194507598877, 0.1287151277065277, -0.12843051552772522, -0.2991863489151001, 0.03900556266307831, 1.1362115144729614, -0.3446744978427887, 0.3012131452560425, -0.29285383224487305, -0.4690242111682892, -0.26196759939193726, -0.3373752236366272, -0.23560911417007446, -0.20082178711891174, -0.4540242552757263, 0.9858357906341553, -0.17157335579395294, 0.5062720775604248, -0.14862199127674103, -0.725169837474823, -0.1801246553659439, -0.08182685077190399, -0.17258921265602112, 1.0589869022369385, -0.33473485708236694, -0.3172686994075775, -0.28574466705322266, 0.3626723885536194, -0.19735071063041687, 1.3796701431274414, 0.5687417984008789, -0.7850572466850281, 1.340325951576233, 0.8128616213798523, 0.31981366872787476, -0.0121726393699646, 0.2188267856836319, -0.3740285634994507, -0.08582974970340729, -0.6221175789833069, -0.2901318669319153, -0.5065400004386902, -0.5613368153572083, 0.9606320858001709, -0.07398656010627747, -0.38708874583244324, 1.1832839250564575, 0.11164622753858566, -0.4752802550792694, -0.08364015072584152, -0.3049107789993286, 0.012316952459514141, -0.007371742278337479, -0.29132938385009766, 0.38404497504234314], [0.9972065091133118, 0.12965603172779083, 0.6922397613525391, -0.08205001056194305, 0.5298369526863098, 0.04084210470318794, -0.015323009341955185, 0.5225282907485962, 0.39141160249710083, 0.16933919489383698, 0.7687236666679382, 0.03548072278499603, -0.04718707501888275, 1.7625693082809448, -0.6073514819145203, 0.23020043969154358, -0.5753375291824341, 0.19933195412158966, 0.3044937551021576, 0.9737818837165833, 0.00264680664986372, 0.43660968542099, -0.06949080526828766, 0.2007373571395874, -0.2017725259065628, 0.4183661639690399, -0.3372184634208679, -0.07964084297418594, 0.3355117738246918, -0.15899643301963806, 0.10715991258621216, -0.15903733670711517, -0.007219270337373018, -0.04699593409895897, 0.2859557867050171, -0.18717391788959503, -0.17715133726596832, -0.1958613246679306, -0.21184702217578888, -0.33168116211891174, 0.10428258776664734, -0.859038233757019, -0.1924089640378952, 0.7071623206138611, -0.20406799018383026, 0.58913254737854, -0.1691301017999649, 1.113163709640503, -0.008600966073572636, 0.32052212953567505, 0.5615741610527039, 0.01640252396464348, -0.04917890205979347, 0.22180573642253876, -0.24567878246307373, -0.7166815996170044, 1.4979301691055298, 0.23294660449028015, 0.3676410913467407, -0.06528420001268387, 0.782926619052887, -0.11251182109117508, 0.05483192950487137, 0.008024283684790134], [0.33081716299057007, 0.80889493227005, -0.5848571062088013, 0.6080807447433472, 0.38267332315444946, 0.7204716205596924, 0.6252538561820984, 0.8227291703224182, 0.6523053050041199, 0.495042622089386, 0.36352431774139404, 0.11360736191272736, 0.28881585597991943, -0.08525093644857407, -0.9677399396896362, 0.6164640188217163, 0.2414548397064209, 0.44502270221710205, 0.5767566561698914, 0.31556257605552673, 0.11712031066417694, 0.742503821849823, 0.5487626194953918, 0.9544129371643066, -0.43132567405700684, 0.42424842715263367, 0.43281808495521545, 0.24256283044815063, 0.6202235221862793, 0.36318889260292053, 0.3685505986213684, 0.3982284963130951, -0.19110852479934692, 0.3081480860710144, 0.21146036684513092, 0.42650920152664185, 0.1565490961074829, 0.48864853382110596, -1.2031536102294922, -0.6942514181137085, 0.9515901207923889, -1.2582281827926636, -0.28223660588264465, -0.4351997673511505, 0.4334108531475067, -0.3962550759315491, 0.4903836250305176, 0.2955092787742615, 0.8596808314323425, 0.748326301574707, 0.6770820021629333, 0.5160946846008301, -1.3479301929473877, 0.5032746195793152, 0.6038055419921875, -1.0512688159942627, -0.10462933778762817, 0.9324683547019958, -0.4110206067562103, 0.17184580862522125, 0.446036696434021, 0.5531054735183716, 0.2249453067779541, -0.29306653141975403], [-0.22869038581848145, 0.6771158576011658, -0.7566035389900208, -0.023206723853945732, 0.42389652132987976, -0.1327582746744156, 0.021367225795984268, 0.5424423217773438, 0.3335982859134674, -0.4811123013496399, -0.13616253435611725, -0.14090615510940552, -0.14639729261398315, -0.4330666661262512, 0.29903411865234375, 0.19714297354221344, 1.2209444046020508, -0.28550955653190613, 0.7265996932983398, -0.2012559175491333, -0.3704899847507477, 0.42756861448287964, -0.24421897530555725, 0.8141540288925171, 1.2107715606689453, 0.25150027871131897, 1.110235333442688, -0.04295093193650246, 0.42908281087875366, -0.2043648213148117, -0.1652473360300064, -0.38385674357414246, 0.9629085063934326, -0.0416836142539978, -0.5786264538764954, -0.21769091486930847, 1.1850587129592896, -0.21435026824474335, 0.09730250388383865, -0.284699410200119, 0.9034643173217773, 0.43522965908050537, 1.1720004081726074, -0.824800431728363, 1.1879470348358154, -0.8565224409103394, -0.26016122102737427, 0.03514915704727173, 0.7640393376350403, 0.29449740052223206, 0.4311525225639343, 0.2493928074836731, -0.33279427886009216, -0.2988775372505188, -0.021662184968590736, 0.3128305673599243, -0.3136245310306549, 0.7247822880744934, -0.8799472451210022, -0.3629003167152405, -0.1686355322599411, -0.28022998571395874, -0.42963552474975586, -0.5011177062988281]], "b2": [0.036570221185684204, -0.49547186493873596, 0.2694195508956909, -0.3464314639568329, 0.2941596508026123, -0.3151536285877228, -0.4144039452075958, 0.20688767731189728, 0.23379753530025482, -0.5287765860557556, 0.12427005916833878, -0.5341235399246216, -0.43237021565437317, -0.19898906350135803, -0.2374780923128128, 0.2777564227581024, 0.15846934914588928, -0.5476817488670349, -0.2531980276107788, 0.21869826316833496, -0.5338184237480164, 0.2642367482185364, -0.393992155790329, -0.48208150267601013, -0.2444859743118286, 0.3282133936882019, 0.029650254175066948, -0.4218667447566986, -0.20382240414619446, -0.4616210460662842, -0.4143334627151489, -0.4679427146911621, -0.29405727982521057, -0.42880991101264954, -0.48195990920066833, -0.4200921952724457, 0.1526637226343155, -0.36532843112945557, -0.13519808650016785, 0.08860911428928375, -0.4781891405582428, 0.10910063236951828, -0.2355174869298935, 0.4066968262195587, -0.15036079287528992, 0.46626168489456177, -0.381570428609848, 0.18059711158275604, -0.39362961053848267, 0.16663804650306702, -0.2476884424686432, -0.3089836537837982, 0.10019893944263458, -0.4024032652378082, -0.24341270327568054, -0.22592386603355408, -0.04783990979194641, -0.49738389253616333, 0.4253205955028534, -0.4166606366634369, 0.29720360040664673, -0.40742847323417664, -0.5044642686843872, 0.05366722494363785], "W3": [[0.4050505459308624], [0.2644062936306], [1.028412103652954], [-0.3719204366207123], [0.2817098796367645], [-0.382510781288147], [-0.5634346604347229], [0.4777878224849701], [0.3009802997112274], [-0.21194899082183838], [0.31349119544029236], [-0.21032579243183136], [-0.43619436025619507], [0.5420025587081909], [0.6356238722801208], [0.24738040566444397], [0.54823237657547], [-0.22496047616004944], [0.25263938307762146], [0.5092867016792297], [-0.25537216663360596], [0.27237045764923096], [-0.566282331943512], [0.42068153619766235], [0.9565513730049133], [0.40351858735084534], [0.6115068197250366], [-0.34738799929618835], [0.21504482626914978], [-0.3767118752002716], [-0.33287057280540466], [-0.3535299003124237], [0.8820589780807495], [-0.388286292552948], [-0.3192561864852905], [-0.5376854538917542], [0.7632617950439453], [-0.328460693359375], [0.5303087830543518], [0.23984409868717194], [0.34734803438186646], [0.9510844349861145], [1.026596188545227], [1.1630488634109497], [0.4669693112373352], [1.1077368259429932], [-0.7116937041282654], [0.45462289452552795], [0.47931477427482605], [0.40233245491981506], [0.22508201003074646], [-0.3212130069732666], [0.6682109832763672], [-0.4105631113052368], [-0.38538411259651184], [0.6823053956031799], [0.4778277277946472], [0.4771285951137543], [0.9651626348495483], [-0.30009135603904724], [0.41165071725845337], [-0.5363308191299438], [-0.33202996850013733], [0.22145342826843262]], "b3": [0.42643579840660095]}