{"W1": [[-0.12874901294708252, -0.5904775857925415, 0.7731307744979858, -0.690128743648529, 0.7935445308685303, -0.5591683983802795, 0.6068171858787537, -0.015689846128225327, -0.4592644274234772, 0.8864848017692566, 0.5298476219177246, -0.1767737865447998, 0.038828473538160324, 0.8489532470703125, -0.6172990202903748, -0.7283279895782471, -0.33295655250549316, -0.4650914669036865, -0.3164690434932709, -0.748025119304657, 0.8450683355331421, 0.578135073184967, 0.8107335567474365, -0.0033344589173793793, 0.5358532071113586, -0.5719015598297119, 0.739782452583313, 0.828084409236908, -0.6655743718147278, 0.769125759601593, 0.07848013937473297, -0.15897271037101746, -0.5368519425392151, -0.5030547380447388, -0.022303180769085884, 0.08638764917850494, 0.6946164965629578, 0.3929862082004547, 0.027084873989224434, 0.8972738981246948, -0.8546958565711975, -0.44639602303504944, 0.30799898505210876, -0.691142737865448, -0.44733303785324097, -0.6950281858444214, 1.006928563117981, 0.32836735248565674, 0.648507297039032, 0.48248186707496643, 0.45758044719696045, -0.48560482263565063, -0.26499098539352417, 0.43221941590309143, 1.3238327503204346, 0.4182814955711365, -0.7411590814590454, 0.2744227647781372, -0.8420122861862183, 0.31602758169174194, -0.24884922802448273, -0.36823925375938416, 0.680178701877594, -0.8571025729179382], [0.7283533811569214, -1.2535347938537598, -0.6703298091888428, 0.41594740748405457, -0.2823728024959564, 0.5933900475502014, -0.6258063912391663, 0.598038375377655, -0.44947612285614014, 0.024681435897946358, 0.41292843222618103, 0.7238389849662781, -0.9847701787948608, -0.26737213134765625, -0.7957053780555725, -0.44720566272735596, 0.9556754231452942, 0.6437919735908508, 1.015068769454956, 0.3234000504016876, -0.25104567408561707, 0.3902438282966614, -0.3362659215927124, 1.092143177986145, 0.5040245652198792, 0.7425950169563293, -0.7046960592269897, -0.19093036651611328, -0.4163057208061218, -0.2169378399848938, 0.8717413544654846, 0.826077401638031, -0.744225025177002, -0.7511163353919983, 0.6500141620635986, 0.7331108450889587, 0.29673251509666443, -1.3168545961380005, 0.7175849676132202, 0.12334634363651276, 0.2625998556613922, -0.7952630519866943, 0.6288785338401794, 0.6555014252662659, -0.5452243685722351, -0.5993331670761108, -0.4458570182323456, 1.290844440460205, 0.41762691736221313, 0.5561853647232056, 0.9110625982284546, -0.49509474635124207, -0.7446255087852478, -0.9311056733131409, 0.34612956643104553, 0.6549102067947388, -0.6117393970489502, -1.4459311962127686, -0.3528250455856323, -1.4124343395233154, 0.8146525025367737, 0.7384243607521057, 0.40665414929389954, -0.17089492082595825], [-0.10617777705192566, -0.05120570957660675, -0.13443410396575928, -0.0450630784034729, -0.050266385078430176, 0.0538821816444397, -0.014278322458267212, 0.049479782581329346, -0.09199124574661255, -0.14633183181285858, -0.06542704999446869, 0.28973621129989624, -0.10328517854213715, 0.13815349340438843, -0.1933269500732422, -0.24959509074687958, 0.15826863050460815, -0.16761928796768188, 0.28206920623779297, -0.0671376883983612, -0.08783853054046631, -0.28563329577445984, 0.1710900366306305, -0.05028851330280304, 0.2417505979537964, -0.13212820887565613, 0.023836076259613037, 0.04083985090255737, 0.05215367674827576, -0.041360169649124146, -0.2380729764699936, 0.03866502642631531, 0.2137833833694458, 0.22593849897384644, 0.008600085973739624, -0.22081775963306427, -0.12140154838562012, 0.2335767149925232, -0.2567809224128723, 0.054686009883880615, -0.14384953677654266, 0.19674131274223328, -0.02863451838493347, -0.13199634850025177, -0.11787796020507812, -0.00981295108795166, -0.20879223942756653, -0.13974036276340485, 0.15562587976455688, 0.024921000003814697, 0.02593165636062622, -0.2810346782207489, -0.2581371068954468, 0.21768206357955933, 0.25316327810287476, -0.15252883732318878, 0.051432013511657715, 0.1320425570011139, -0.21591997146606445, -0.15261761844158173, 0.22069472074508667, -0.1297048181295395, -0.2562859356403351, -0.08142668008804321], [-0.25817596912384033, -0.2729204297065735, 0.1126156747341156, -0.24482175707817078, 0.03846141695976257, 0.25917381048202515, 0.04202216863632202, 0.04984009265899658, 0.16240942478179932, 0.19568681716918945, -0.2474800944328308, 0.023839473724365234, -0.16656289994716644, 0.1287718415260315, -0.25654658675193787, 0.15860781073570251, 0.12548711895942688, -0.07168744504451752, -0.26644062995910645, 0.15857785940170288, -0.017303526401519775, 0.007217913866043091, 0.11298316717147827, -0.13426260650157928, -0.05784735083580017, 0.047327518463134766, -0.11745613813400269, 0.1618075966835022, 0.15808936953544617, 0.014153987169265747, 0.25482630729675293, 0.15304988622665405, 0.15617221593856812, 0.06190630793571472, 0.20550435781478882, 0.008914530277252197, 0.24489200115203857, 0.07327437400817871, -0.26080524921417236, -0.22799736261367798, 0.20580241084098816, 0.23032617568969727, 0.24473094940185547, 0.1401628851890564, 0.22796577215194702, 0.03332611918449402, -0.1309530884027481, 0.13841629028320312, -0.2605587840080261, -0.15529242157936096, 0.005460381507873535, 0.06794452667236328, 0.24357986450195312, -0.08711796998977661, -0.21495923399925232, 0.16599765419960022, 0.2802932858467102, -0.29256272315979004, 0.16378793120384216, -0.12630324065685272, -0.1408027559518814, -0.13371752202510834, -0.24181413650512695, -0.03580904006958008], [0.035526812076568604, 0.19124948978424072, 0.2330927848815918, 0.13780993223190308, -0.2555088996887207, 0.09118357300758362, -0.18613393604755402, -0.18533268570899963, -0.06412281095981598, -0.21721041202545166, -0.022162437438964844, -0.10335442423820496, 0.028574973344802856, 0.21929365396499634, 0.27654409408569336, 0.09161907434463501, 0.14646020531654358, 0.14525136351585388, -0.2391815036535263, -0.023733317852020264, -0.16745057702064514, -0.19920110702514648, -0.26723337173461914, -0.2773856520652771, 0.287988543510437, 0.24330377578735352, -0.0835600346326828, -0.2721250355243683, -0.2020052671432495, -0.08671319484710693, 0.07534226775169373, -0.1621999442577362, 0.13036835193634033, 0.15418103337287903, 0.2648863196372986, -0.027746498584747314, 0.05103686451911926, 0.2705135941505432, 0.14921066164970398, 0.00887000560760498, 0.22138816118240356, 0.09855332970619202, -0.01581752300262451, -0.05098925530910492, -0.08344842493534088, 0.11217367649078369, -0.08061815798282623, -0.14496628940105438, -0.14093615114688873, 0.2662074565887451, -0.08406707644462585, 0.081927090883255, -0.20539839565753937, 0.14806360006332397, 0.13613447546958923, 0.17110267281532288, 0.0527043342590332, 0.27593326568603516, -0.18981757760047913, -0.25040870904922485, 0.16424903273582458, 0.06263798475265503, -0.12644779682159424, 0.2616320252418518], [0.026205122470855713, -0.17129456996917725, 0.19657880067825317, -0.21088607609272003, 0.22535240650177002, -0.08915960788726807, -0.24623805284500122, -0.18993136286735535, -0.15651611983776093, 0.04726824164390564, -0.09111650288105011, -0.18267658352851868, -0.25583168864250183, -0.18118268251419067, -0.23435771465301514, -0.13733422756195068, -0.1855861246585846, 0.0937357246875763, 0.1754014790058136, -0.06373707950115204, -0.28349223732948303, 0.2538493871688843, -0.2302481234073639, 0.0765136182308197, 0.2807411551475525, 0.043698787689208984, -0.15336114168167114, 0.15620633959770203, 0.06201380491256714, -0.2441881000995636, 0.1469733715057373, 0.04592213034629822, 0.11449220776557922, -0.13953787088394165, 0.23445862531661987, -0.11296306550502777, -0.2880561053752899, -0.10440488159656525, -0.2742958068847656, 0.03305688500404358, 0.23889487981796265, 0.17140883207321167, -0.24911750853061676, 0.08028513193130493, -0.28253644704818726, -0.1265178769826889, -0.15322113037109375, -0.05093088746070862, 0.2696914076805115, -0.2704358994960785, 0.04047703742980957, 0.27648723125457764, 0.056756407022476196, 0.01044994592666626, -0.16483865678310394, 0.1606789529323578, -0.06184399127960205, 0.13661018013954163, -0.26899364590644836, 0.1349632740020752, 0.26798731088638306, 0.035068511962890625, -0.19413769245147705, -0.10281318426132202]], "b1": [-0.189097598195076, -0.3047143518924713, 0.36224862933158875, -0.11126629263162613, 0.2747270166873932, -0.11917848885059357, 0.30581769347190857, -0.2740491032600403, 0.034334488213062286, 0.2913052439689636, 0.1450120210647583, -0.23388729989528656, 0.3761390447616577, 0.1909596025943756, -0.2513352930545807, 0.07005957514047623, -0.13965435326099396, -0.15190324187278748, -0.131677508354187, 0.0778510570526123, 0.2621890604496002, 0.09553492069244385, 0.3070559799671173, -0.1628282368183136, -0.23395301401615143, -0.1271943897008896, 0.32554033398628235, 0.2580763101577759, 0.015046359971165657, 0.2396010309457779, 0.8465549945831299, -0.2559688091278076, -0.40509548783302307, 0.03118326887488365, 0.5939112901687622, 0.720963716506958, 0.18485800921916962, 0.3313802182674408, 0.6429043412208557, 0.192047581076622, 0.07310264557600021, -0.12663637101650238, -0.22254836559295654, -0.03250221163034439, -0.12268369644880295, -0.14943450689315796, 0.5166892409324646, -0.2366846799850464, -0.21042722463607788, -0.21488913893699646, -0.27933719754219055, -0.07811225205659866, -0.49902284145355225, 0.30672162771224976, 0.5565067529678345, 0.22588858008384705, 0.01241545844823122, 0.2945612072944641, 0.06801389157772064, 0.30802085995674133, 0.5652511119842529, -0.16150762140750885, 0.3361830711364746, -0.06416427344083786], "W2": [[-0.16034765541553497, -0.3398776054382324, -0.06411872059106827, -0.034317485988140106, 0.21241070330142975, 0.08512124419212341, -0.24390825629234314, 0.7898115515708923, 0.0780818834900856, -0.5897156596183777, -0.4119463860988617, 0.13574104011058807, -0.018519017845392227, -0.5032868981361389, -0.13287761807441711, -0.05659393221139908, 0.3403420150279999, -0.4732744097709656, -0.16250604391098022, -0.4095306992530823, 0.2976560890674591, -0.059943851083517075, 0.20808656513690948, 0.5414521098136902, -0.1686522662639618, 0.41937240958213806, -0.12832050025463104, 0.12828442454338074, -1.1392258405685425, 0.7876512408256531, 0.538049042224884, 0.27109357714653015, 0.05226993188261986, 0.8385522365570068, 0.23137933015823364, -0.2555200755596161, 0.855820894241333, -0.005070772022008896, -0.19299829006195068, 0.22011061012744904, 0.6225351095199585, -0.1249971017241478, 0.4501975476741791, -0.34832391142845154, -0.0686245709657669, 0.9438965320587158, 0.38004982471466064, 0.6098768711090088, -0.2609812319278717, 0.4822816252708435, 0.022973554208874702, 1.0418673753738403, 0.279314786195755, -0.8888807892799377, 0.10500786453485489, -0.04558038339018822, -0.4922136068344116, -0.7948755621910095, 0.3569129407405853, 0.05845079571008682, 0.4733524024486542, -0.5513530969619751, -0.4095820188522339, -1.1694176197052002], [-0.3112248182296753, 0.5349065065383911, 0.3574889004230499, -0.2967197895050049, 1.0211209058761597, -0.5889244079589844, -0.10628633201122284, 0.02295595407485962, -0.497597336769104, -0.2335076481103897, 0.5507774353027344, -0.30465489625930786, 0.38768163323402405, -0.25153812766075134, -0.13232699036598206, -0.3356688916683197, -0.4177626073360443, -0.4031383693218231, -0.29458409547805786, 1.1260013580322266, 0.4003204107284546, 0.3031219244003296, 0.9234902858734131, 0.06206754595041275, -0.6611330509185791, -0.05888001248240471, -0.4931269884109497, 0.5663860440254211, 0.4953650236129761, -0.3306860327720642, 0.859367847442627, 0.3125579059123993, -0.207627072930336, -0.7266865968704224, -0.5154216289520264, -0.25831136107444763, -0.9100914001464844, 0.3140045404434204, -0.18306933343410492, -0.3006384074687958, -0.03223534673452377, -0.23996961116790771, 0.4409860372543335, 0.6281617879867554, -0.37916603684425354, -0.1718677282333374, -0.20753075182437897, -0.28166481852531433, -0.3701724410057068, -0.06159546226263046, -0.21142412722110748, -0.17255732417106628, -0.5707067847251892, -0.06852880120277405, 0.17185483872890472, -0.24069103598594666, -0.3422083556652069, -0.1443333625793457, -0.2688198983669281, -0.40982845425605774, -0.16555644571781158, -0.028338368982076645, 0.5502579212188721, 0.2417985498905182], [-0.25060880184173584, 0.7728922963142395, 0.006587935611605644, -0.08820129930973053, 0.7375207543373108, -0.11864523589611053, -0.12815050780773163, -0.5354455709457397, 0.02893957868218422, 0.3619528114795685, 0.138467937707901, 0.1846008002758026, -0.10540231317281723, 0.12939785420894623, 0.08894328773021698, -0.06759646534919739, -0.14643169939517975, 0.8680062294006348, 1.1588702201843262, 0.9865620732307434, -0.14871849119663239, 0.13900244235992432, 0.8291934728622437, -0.5973895192146301, -0.0831359401345253, -0.11300061643123627, 0.1838916540145874, -0.07694762200117111, 1.130519986152649, -0.44026830792427063, 0.902309775352478, 0.15040206909179688, 0.24650628864765167, -0.44828587770462036, 0.19671504199504852, -0.20147714018821716, -0.27425917983055115, -0.22869622707366943, 0.16779837012290955, -0.07569912075996399, -0.30397823452949524, -0.030600151047110558, -0.17419622838497162, 0.6434104442596436, 0.20877966284751892, -0.7597930431365967, 0.1119089275598526, -0.5404289960861206, 1.0254676342010498, -0.08522042632102966, 0.26394450664520264, -0.22756338119506836, -0.5425016283988953, 1.1769027709960938, -0.04186564311385155, 0.29675647616386414, 0.2172582745552063, 0.9672581553459167, -0.5867270827293396, 0.33171671628952026, 0.2879911959171295, 0.24301917850971222, 0.482756108045578, 1.4125940799713135], [0.3677857220172882, -0.9511556625366211, 0.06607899069786072, 0.2897197902202606, -0.5043511390686035, 0.1711609810590744, 0.34681734442710876, 0.7966512441635132, -0.2961394488811493, -0.9655641913414001, -0.308196485042572, -0.07645870000123978, -0.018963586539030075, -0.9443122744560242, -0.704953670501709, 0.3963923156261444, 0.12288716435432434, -0.30115142464637756, -0.023625459522008896, -0.7871490716934204, -0.15345719456672668, -0.23467575013637543, -0.3804594576358795, 0.6678619980812073, 0.08736393600702286, 0.4635367691516876, -0.3309253752231598, 0.19129455089569092, -1.0792334079742432, 0.9730965495109558, -0.11777327209711075, 0.04306527227163315, -0.7417461276054382, 0.35926589369773865, -0.19566717743873596, 0.4115843176841736, 0.33381402492523193, -0.2587176263332367, -0.7890476584434509, 0.12880265712738037, 0.9188158512115479, 0.4704073965549469, 0.15084898471832275, -1.12601900100708, -0.5612955093383789, 0.9756502509117126, -0.27334699034690857, 1.0248695611953735, 0.05069471150636673, 0.364152193069458, -0.8466307520866394, 1.02554452419281, 0.4287388324737549, -0.47984111309051514, 0.25428858399391174, -0.1441669762134552, -1.0629326105117798, -0.5320684909820557, 0.14734339714050293, -0.40022099018096924, -0.9895728826522827, -0.8669559359550476, -0.40843698382377625, -0.8893975019454956], [-0.29273325204849243, 0.35474973917007446, -0.20265576243400574, -0.28861525654792786, 0.9833753705024719, 0.16081315279006958, -0.16889595985412598, -0.7635962963104248, 0.6128872632980347, 0.4990403950214386, 0.14894302189350128, 0.3572876751422882, -0.40600597858428955, 0.7101953625679016, 0.504016101360321, -0.2455807626247406, 0.1543348878622055, 0.9922916293144226, 0.8644587993621826, 0.8061437010765076, -0.5325161814689636, -0.13584396243095398, 1.141990065574646, -0.7224027514457703, -0.1920885592699051, -0.12634222209453583, 0.6132618188858032, -0.19054146111011505, 1.055179476737976, -0.9764406681060791, 1.260993242263794, -0.44859281182289124, 0.5997697114944458, -0.3720036745071411, 0.2538398504257202, -0.13226166367530823, -0.5666537880897522, -0.3722861111164093, 0.3213422894477844, -0.25139349699020386, -0.7702932357788086, 0.1302754282951355, -0.2056625336408615, 0.41347941756248474, 0.39711904525756836, -0.8394997715950012, 0.6266167163848877, -0.6462745666503906, 0.7883461713790894, -0.5460246801376343, 0.546678900718689, -0.5409180521965027, -0.5760951042175293, 1.1582558155059814, -0.41504546999931335, 0.5641893148422241, 0.5262848138809204, 0.8651882410049438, -0.1651201844215393, 0.3528801202774048, 0.5483411550521851, 0.4258306324481964, -0.1616877168416977, 0.9185318946838379], [-0.012659271247684956, -0.6112226247787476, 0.25175389647483826, 0.053825829178094864, -0.25082865357398987, 0.1887277215719223, -0.34425297379493713, 0.6845273375511169, -0.4417561888694763, -0.860405445098877, -0.03994862362742424, 0.11352340131998062, -0.13274183869361877, -0.7363154888153076, -0.24430404603481293, 0.3007095754146576, 0.061961933970451355, -0.6073057055473328, -0.1710839420557022, -0.7015340924263, 0.08493368327617645, 0.1598944067955017, -0.09343912452459335, 0.7315866351127625, -0.1658513993024826, 0.39880090951919556, -0.6229633688926697, 0.27450430393218994, -1.3389872312545776, 0.8353256583213806, 0.23816312849521637, 0.41073524951934814, -0.2962809205055237, 0.516361653804779, -0.38853719830513, -0.374172180891037, 0.509753406047821, 0.06211559474468231, -0.4651722311973572, 0.1469118744134903, 0.8234045505523682, 0.18106742203235626, 0.004247421398758888, -0.6731206178665161, -0.47269317507743835, 0.8138999342918396, 0.08733682334423065, 0.5356021523475647, 0.06620248407125473, 0.533761203289032, -0.5505053997039795, 0.7303721308708191, 0.4796622693538666, -0.8830952644348145, 0.38064736127853394, -0.8397660851478577, -0.8762882947921753, -0.4837367534637451, 0.04780489578843117, -0.2523888647556305, -0.2929362654685974, -0.7927354574203491, -0.2651776671409607, -0.9348361492156982], [-0.4646401107311249, 0.7618222832679749, -0.0464087575674057, -0.4376412332057953, 0.23951035737991333, -0.294196754693985, -0.2609451711177826, -0.7627682089805603, -0.09700725972652435, 0.33791089057922363, 0.6552655100822449, -0.22528325021266937, 0.011901911348104477, 0.4061771333217621, 0.04752188175916672, -0.21868111193180084, -0.36753684282302856, 1.0134856700897217, 0.7702152729034424, 1.1079527139663696, -0.2535416781902313, -0.14205434918403625, 0.36731186509132385, -0.9918023347854614, -0.1818666309118271, -0.11185640096664429, 0.06036956235766411, -0.11226123571395874, 1.0323632955551147, -1.1815863847732544, 0.4164162874221802, -0.3961334526538849, 0.2592109739780426, -0.7354142069816589, -0.0018882944714277983, -0.033732954412698746, -0.8796484470367432, -0.12096242606639862, 0.33208388090133667, -0.37337806820869446, -1.0012487173080444, -0.138987734913826, -0.3952104449272156, 0.7634046673774719, -0.006986294407397509, -1.4251333475112915, 0.32178622484207153, -1.2077528238296509, 0.3888181149959564, -0.6600205898284912, 0.26606154441833496, -0.9888314604759216, -0.7485431432723999, 0.9889299869537354, -0.13862890005111694, 0.23999537527561188, 0.4840354025363922, 0.8298035264015198, -0.3114688992500305, 0.20899121463298798, 0.5369589924812317, 0.5205609202384949, 0.44795891642570496, 1.0060538053512573], [-0.18359899520874023, -0.39091283082962036, 0.33656927943229675, -0.13640131056308746, 0.2937374711036682, 0.35286688804626465, -0.08189592510461807, 0.62563157081604, 0.1451871246099472, -0.4636170566082001, -0.33406174182891846, 0.3572635054588318, -0.03985818475484848, -0.21105757355690002, 0.01295558549463749, -0.0505656898021698, 0.06787748634815216, -0.8428194522857666, -0.529524564743042, -0.27742913365364075, 0.2826756536960602, 0.35369378328323364, 0.47961172461509705, 0.8295084834098816, -0.32176852226257324, 0.18034903705120087, -0.06435448676347733, 0.40503478050231934, -1.2035750150680542, 0.6296102404594421, 0.5106595754623413, 0.4737463891506195, 0.18387962877750397, 0.7939778566360474, -0.12021388858556747, -0.21501454710960388, 0.5823826193809509, 0.06591727584600449, -0.221439391374588, 0.3511175811290741, 0.6786326169967651, -0.3654409646987915, 0.38480284810066223, -0.22860153019428253, 0.07074707001447678, 0.9192574620246887, 0.1357472687959671, 0.7254127860069275, -0.31819605827331543, 0.5144816637039185, 0.0995018258690834, 0.7223758697509766, 0.1302161067724228, -0.9292442798614502, 0.4637196362018585, -0.12236522138118744, -0.18936721980571747, -0.8419617414474487, 0.09290683269500732, 0.053569942712783813, 0.2829526364803314, -0.4836764931678772, -0.16290782392024994, -1.1271588802337646], [-0.04391245171427727, 0.2412647306919098, 0.5506875514984131, -0.7104252576828003, -0.7932711839675903, -0.2615721821784973, 0.1616983264684677, 0.47309786081314087, -0.5519770383834839, -0.4529087245464325, 0.6305957436561584, -0.5263262391090393, 0.8329395651817322, -0.5506455898284912, -0.8152862191200256, -0.49847885966300964, -0.2981097102165222, -0.5130555033683777, -0.5728280544281006, 0.5273813605308533, 0.7623175978660583, 0.5956486463546753, -0.8000685572624207, 0.30976226925849915, -0.2854209542274475, 0.24299074709415436, -0.6648321151733398, 0.7687436938285828, -0.18451325595378876, 0.2507173418998718, -0.8017776608467102, 0.7284000515937805, -0.4493499994277954, -0.7229156494140625, -0.6610453128814697, 0.08592341840267181, -0.4922620952129364, 0.6361883282661438, -0.4108363389968872, -0.39767661690711975, 0.6839993596076965, -0.5914031267166138, 0.7484043836593628, 0.3465419411659241, -0.6140915751457214, 0.3521260917186737, -0.5646719336509705, 0.41324999928474426, -0.8759192228317261, 0.650465726852417, -0.48905497789382935, 0.21542207896709442, -0.26435309648513794, -0.6371062397956848, 0.8485039472579956, -0.01692243665456772, -0.6327763199806213, -0.5935356020927429, -0.22867392003536224, -0.7661380171775818, -0.267697811126709, -0.71124666929245, 0.5937096476554871, -0.17951397597789764], [-0.10447429120540619, 0.32410377264022827, -0.3626209795475006, 0.0763588547706604, 1.1100648641586304, 0.0969223752617836, -0.4014831781387329, -0.244009330868721, 0.2891370356082916, 0.5222944021224976, -0.34985002875328064, 0.514577329158783, -0.6196730732917786, 0.18878379464149475, 0.4957202970981598, 0.4863578677177429, 0.16013780236244202, 1.4185317754745483, 1.0415774583816528, 0.48377278447151184, -0.5020031929016113, -0.34631940722465515, 0.8348534107208252, -0.1973879188299179, -0.0012991372495889664, 0.29152706265449524, 0.4538048207759857, -0.5102952718734741, 0.9344407916069031, -0.250304251909256, 0.8978927731513977, -0.2490742802619934, 0.4495881497859955, 0.2731512486934662, 0.36789602041244507, -0.021465416997671127, 0.35523056983947754, -0.7249107956886292, 0.30104491114616394, -0.07104691118001938, -0.4828122854232788, 0.3618292212486267, -0.20768319070339203, 0.04870257154107094, 0.4227043390274048, -0.46939387917518616, 0.40585583448410034, -0.28205111622810364, 1.0886751413345337, -0.5137174725532532, 0.23480872809886932, -0.31408005952835083, 0.3387226462364197, 1.0955835580825806, -0.40540841221809387, 0.10842280834913254, 0.3003648817539215, 1.43411386013031, -0.12329187989234924, 0.2743045687675476, 0.592075526714325, 0.3246806561946869, -0.26335081458091736, 1.2210500240325928], [-0.023612525314092636, -0.2283855378627777, -0.7844039797782898, 0.3433785140514374, 0.5577434301376343, 0.04348606616258621, -0.15768690407276154, -0.6149119138717651, 0.15350736677646637, 0.38438066840171814, -0.725852370262146, 0.10571205615997314, -0.9720008969306946, 0.16136665642261505, 0.14156509935855865, 0.4276561141014099, 0.26669004559516907, 1.0951391458511353, 0.9507533311843872, -0.13905096054077148, -0.9373580813407898, -0.8754743337631226, 0.5351893901824951, -0.5265882015228271, -0.014459292404353619, 0.2186182141304016, 0.38805779814720154, -0.7384585738182068, 0.8110789060592651, -0.526820182800293, 0.65128093957901, -0.7418671250343323, 0.4558563828468323, 0.684173583984375, 0.3901762366294861, -0.20870341360569, 0.946130096912384, -0.6590758562088013, 0.28283825516700745, 0.1049976721405983, -0.6121512651443481, 0.11354684084653854, -0.5976533889770508, -0.13080069422721863, 0.19553987681865692, -0.6051636338233948, 0.43932825326919556, -0.6377351880073547, 0.7695950865745544, -0.5791295766830444, 0.2524174451828003, -0.09645110368728638, 0.2799697816371918, 1.0179201364517212, -0.8950308561325073, -0.17347662150859833, 0.2583704888820648, 0.9751217365264893, 0.0011378828203305602, 0.2547343373298645, 0.23395591974258423, 0.10555572807788849, -0.6142061948776245, 0.953924834728241], [-0.008579960092902184, -0.06354192644357681, 0.30810633301734924, 0.13666066527366638, 0.46128156781196594, 0.4233516454696655, -0.2198844701051712, 0.7660990953445435, -0.03471222147345543, -0.4479469060897827, -0.35586851835250854, 0.29112422466278076, 0.1426004320383072, -0.19556373357772827, -0.11486998200416565, -0.06155820190906525, 0.34385940432548523, -0.7748416066169739, -0.5779182314872742, -0.4923035800457001, 0.27307233214378357, 0.05123026669025421, 0.4355219006538391, 1.000500202178955, -0.5171370506286621, 0.27136439085006714, -0.15085646510124207, 0.3398764729499817, -0.8854665160179138, 0.714282751083374, 0.3125983774662018, 0.5815899968147278, -0.2124725580215454, 0.587799608707428, -0.05260932072997093, -0.40002238750457764, 0.40082648396492004, 0.07828650623559952, -0.3630485236644745, 0.13343743979930878, 0.8049297332763672, -0.3531690239906311, 0.3318173587322235, -0.3766831159591675, -0.07379835098981857, 0.7531681060791016, 0.305674284696579, 0.8499137163162231, -0.2435101717710495, 0.7886808514595032, -0.031132306903600693, 0.973565399646759, 0.4330483675003052, -0.8203015923500061, 0.2725476026535034, -0.2431662678718567, -0.4566924273967743, -0.8589844107627869, 0.4603404700756073, 0.020743247121572495, 0.21364089846611023, -0.23939844965934753, -0.34963950514793396, -0.9124169945716858], [0.06358273327350616, 0.9594568610191345, 0.09763956069946289, -0.28369832038879395, -0.6081085205078125, -0.1530933529138565, -0.08228923380374908, -0.612764835357666, -0.06220308691263199, 0.144764244556427, 0.8106206655502319, -0.37996533513069153, 0.7362538576126099, -0.028597069904208183, -0.051915667951107025, 0.17274515330791473, -0.47721534967422485, 0.5805656313896179, 0.4634036421775818, 0.7204751372337341, 0.02340979129076004, 0.3775028586387634, -0.3842073082923889, -0.4925157427787781, 0.0328434593975544, -0.3310432434082031, -0.3489234149456024, 0.07303314656019211, 0.5080790519714355, -1.1532707214355469, -0.7059191465377808, -0.1560361236333847, -0.1863863170146942, -1.2000428438186646, -0.13388577103614807, 0.10954046994447708, -0.6944525241851807, 0.5109493136405945, 0.006041205953806639, -0.5363898277282715, -0.6602228879928589, 0.21057479083538055, 0.09468062967061996, 0.7930089831352234, -0.2798040807247162, -1.320688247680664, -0.08321426808834076, -0.8452638983726501, 0.28025344014167786, -0.2697727382183075, -0.34813424944877625, -1.287257432937622, -0.7484111189842224, 0.5556867718696594, -0.13741324841976166, 0.03323904052376747, 0.31894031167030334, 0.5058903098106384, -0.5015522837638855, -0.0420350581407547, -0.052737586200237274, -0.06224282085895538, 0.9799836874008179, 0.8617684841156006], [-0.16861771047115326, 0.4779207408428192, -0.4391089379787445, 0.10627429187297821, 0.8328349590301514, 0.3635939061641693, -0.0744408443570137, -0.6378719210624695, 0.4755578339099884, 0.9141786694526672, -0.04243173077702522, 0.5860570669174194, -0.28473418951034546, 0.9568836092948914, 0.8307181596755981, 0.07023060321807861, 0.10742907226085663, 0.737252414226532, 0.6078669428825378, 0.5030258893966675, -0.43315431475639343, -0.22001522779464722, 1.0401958227157593, -0.6767618656158447, 0.13616551458835602, -0.3485214412212372, 0.6726808547973633, -0.2462000846862793, 1.0889642238616943, -0.9738246202468872, 0.985974907875061, -0.6925448179244995, 0.4672967493534088, -0.15441212058067322, 0.348328560590744, -0.22800657153129578, -0.30331000685691833, -0.4583306610584259, 0.7372446656227112, 0.27818813920021057, -0.7428247928619385, -0.1755172163248062, -0.5195883512496948, 0.7952777147293091, 0.7974004149436951, -1.009347915649414, 0.7379315495491028, -0.7636098861694336, 0.27611130475997925, -0.7481046319007874, 0.585932731628418, -0.899226188659668, -0.21377266943454742, 1.0326473712921143, -0.44329631328582764, 0.45036065578460693, 0.7374448180198669, 0.9742235541343689, 0.19948364794254303, 0.8088635206222534, 0.44550642371177673, 0.8669235110282898, -0.2636837661266327, 0.9962354898452759], [-0.2269718497991562, 0.6025925278663635, 0.6384249925613403, -0.5445991158485413, 0.7528289556503296, -0.6867099404335022, -0.16144874691963196, -0.07788722217082977, -0.18305519223213196, -0.39601874351501465, 0.37055474519729614, -0.5790403485298157, 0.6901647448539734, -0.42093661427497864, -0.37146756052970886, -0.34946364164352417, -0.5798290967941284, -0.13636067509651184, -0.27662673592567444, 1.0739600658416748, 0.6572152376174927, 0.46923986077308655, 0.8801006078720093, 0.08498863130807877, -0.5741947889328003, -0.019023826345801353, -0.3425264358520508, 0.39636150002479553, 0.22075678408145905, -0.24091549217700958, 0.9841930866241455, 0.6186084747314453, -0.26985418796539307, -0.4505957067012787, -0.5716181397438049, -0.23196204006671906, -0.8083454370498657, 0.6781315803527832, -0.30423080921173096, -0.20378245413303375, -0.019855506718158722, -0.26077646017074585, 0.5400955677032471, 0.693305492401123, -0.3236583173274994, -0.14567571878433228, -0.349168986082077, -0.06733648478984833, -0.08065304905176163, 0.4072936475276947, -0.3000476658344269, 0.008393209427595139, -0.22394128143787384, -0.33534833788871765, 0.5941596627235413, -0.1157056912779808, -0.5334111452102661, -0.1315721571445465, -0.2880401313304901, -0.2809097170829773, -0.14438501000404358, -0.5028309226036072, 0.5396066308021545, 0.2139628529548645], [-0.03081444464623928, 0.18274405598640442, 0.6587331891059875, -0.48981112241744995, -1.0997288227081299, -0.6437376141548157, 0.19985178112983704, 0.711815595626831, -0.41346606612205505, -0.3843334913253784, 0.7899425625801086, -0.4258722960948944, 0.5204563736915588, -0.3280295133590698, -0.5158818960189819, -0.37834998965263367, -0.3336142897605896, -0.6488414406776428, -0.919903576374054, 0.20109187066555023, 0.5186905264854431, 0.3824867308139801, -1.0970797538757324, 0.2539404630661011, 0.13848890364170074, 0.3013841211795807, -0.4015374183654785, 0.503466010093689, -0.2557622194290161, 0.25174078345298767, -1.3605177402496338, 0.6356818079948425, -0.7746211290359497, -0.8160534501075745, -0.536486029624939, -0.0768895298242569, -0.6131892800331116, 0.6296674013137817, -0.6948887705802917, -0.15217283368110657, 0.41981106996536255, -0.5569872260093689, 0.5189177393913269, 0.11300589144229889, -0.4863133728504181, 0.46255242824554443, -0.4310174286365509, 0.3576343357563019, -0.8251814842224121, 0.3375195562839508, -0.6280127763748169, 0.1731819361448288, -0.09216510504484177, -0.262940913438797, 0.6389839053153992, -0.3379441201686859, -0.6438090205192566, -0.5809903740882874, -0.35087987780570984, -0.47773170471191406, -0.45205679535865784, -0.4622269868850708, 0.6917924284934998, -0.3066232204437256], [0.0869860127568245, -0.5358574390411377, -0.26677751541137695, 0.1573500633239746, 0.001602167496457696, -0.031126849353313446, -0.25747963786125183, 0.4671967029571533, 0.08770041167736053, -0.5007147789001465, -0.45311108231544495, 0.047614745795726776, -0.4080968499183655, -0.673049807548523, -0.2902888357639313, 0.14251120388507843, 0.21946877241134644, -0.5474005937576294, -0.2591739892959595, -0.43043556809425354, -0.09723614156246185, -0.07420459389686584, 0.24207906424999237, 0.5721161961555481, -0.1974867582321167, 0.5142470002174377, -0.11577888578176498, -0.33562204241752625, -1.116420030593872, 0.6575369238853455, 0.016377633437514305, -0.09277540445327759, -0.07334977388381958, 0.6485543251037598, 0.0976545587182045, 0.035575639456510544, 0.8879815936088562, -0.09636116772890091, -0.23767030239105225, 0.10548684000968933, 0.601324737071991, 0.049136683344841, -0.2073676437139511, -0.48405155539512634, -0.055441949516534805, 0.5203783512115479, 0.23260964453220367, 0.49380457401275635, 0.05582437664270401, 0.23010756075382233, -0.14643289148807526, 0.4303951561450958, 0.29836583137512207, -0.8495412468910217, -0.1902599036693573, -0.331959068775177, -0.6539651155471802, -0.5765119194984436, 0.21087245643138885, -0.16495150327682495, -0.00912652537226677, -0.5222610831260681, -0.4553242325782776, -0.9744046926498413], [-0.11183663457632065, -0.6125707626342773, 0.11016448587179184, 0.1771981120109558, -0.01261348370462656, 0.1746886968612671, -0.23390822112560272, 0.7746626138687134, 0.04736512526869774, -0.6028681397438049, -0.48432037234306335, 0.2068391889333725, -0.05342905595898628, -0.6049785614013672, 0.08579456061124802, 0.09284920990467072, 0.17823460698127747, -0.5463686585426331, -0.2377060055732727, -0.41966724395751953, 0.0485101118683815, -0.24356338381767273, 0.1397341936826706, 0.8581501245498657, 0.08005572110414505, 0.43225136399269104, -0.1657165139913559, 0.23510470986366272, -1.1838653087615967, 0.967084527015686, 0.0505790077149868, 0.08627066761255264, -0.18621447682380676, 0.4536667466163635, 0.05952736735343933, -0.3768753409385681, 0.7710545063018799, -0.026017526164650917, -0.030387725681066513, 0.37120237946510315, 0.6102156639099121, -0.03155387565493584, 0.19893169403076172, -0.5307556390762329, -0.13060356676578522, 0.9139280319213867, -0.012822084128856659, 0.8270358443260193, -0.17576169967651367, 0.7078211307525635, -0.10469325631856918, 0.9373722672462463, 0.17550750076770782, -0.9512670040130615, 0.16177132725715637, -0.47717779874801636, -0.6647761464118958, -0.7445253729820251, 0.26266634464263916, -0.245963916182518, -0.12317163497209549, -0.6344408392906189, -0.54541015625, -0.8172401189804077], [-0.21103371679782867, -0.7479990124702454, -0.029535312205553055, 0.13867130875587463, -0.11947838962078094, 0.1562507152557373, -0.13599731028079987, 0.6052494645118713, -0.28540903329849243, -0.48690807819366455, -0.7221193909645081, 0.23514540493488312, -0.22450657188892365, -0.502196192741394, -0.050633255392313004, 0.13989105820655823, 0.3293907940387726, -0.599327027797699, -0.15832769870758057, -0.5945852398872375, -0.09776723384857178, -0.09640411287546158, 0.14540912210941315, 0.26567956805229187, -0.06406795233488083, 0.23942787945270538, 0.023039139807224274, -0.1681523323059082, -0.9226474761962891, 0.38863906264305115, 0.1804458498954773, -0.1038036048412323, -0.11727152019739151, 0.4874553382396698, 0.12752605974674225, -0.13958199322223663, 0.9113094210624695, -0.44641098380088806, -0.16079562902450562, 0.023523524403572083, 0.4116656482219696, 0.04779193177819252, -0.03808548301458359, -0.6433840990066528, -0.08180250972509384, 0.7082179188728333, -0.06921417266130447, 0.47674089670181274, -0.06344697624444962, 0.10436122119426727, -0.0016384434420615435, 0.744062602519989, 0.3001357614994049, -0.7149677872657776, -0.18147321045398712, -0.33806923031806946, -0.6208311915397644, -0.3916095495223999, 0.020288674160838127, 0.046748675405979156, 0.08863243460655212, -0.3976120054721832, -0.4420861005783081, -0.6460316777229309], [0.08457176387310028, -0.09894248843193054, 0.1671113818883896, 0.174846813082695, -1.4438905715942383, 0.0649779736995697, -0.0055968002416193485, 0.6375260949134827, -0.7163352966308594, -1.2613080739974976, 0.38694655895233154, -0.32238051295280457, 0.40386277437210083, -0.8646748661994934, -0.9923138618469238, 0.09024287760257721, -0.16703075170516968, -0.48219364881515503, -0.1907610446214676, -0.28302404284477234, 0.2108711302280426, 0.4391133189201355, -1.31850266456604, 0.8229703903198242, 0.35320594906806946, 0.422111451625824, -0.9881296753883362, 0.1438637375831604, -0.813864529132843, 0.9790588617324829, -1.4463552236557007, 0.5200560092926025, -1.024463415145874, 0.16037613153457642, -0.7616156935691833, -0.025249525904655457, 0.6384460926055908, 0.14947940409183502, -1.0018894672393799, -0.09928297996520996, 0.7309163212776184, 0.3349296450614929, 0.6267430782318115, -0.07252158969640732, -0.6619741320610046, 0.6346762180328369, -0.3194689154624939, 0.9533926248550415, -0.1452234536409378, 0.8299093246459961, -0.8848816752433777, 0.6665835380554199, 0.24998247623443604, -0.8286786079406738, 0.2710144519805908, -0.2490861415863037, -1.1031959056854248, -0.9023165106773376, -0.09150193631649017, -0.6017256379127502, -0.7520828247070312, -0.9292541146278381, 0.2939285933971405, -0.5228545665740967], [-0.2090696543455124, 0.6909403800964355, -0.4558408856391907, 0.12797388434410095, 0.7316983342170715, -0.015760362148284912, -0.046833936125040054, -0.859297513961792, 0.5277130603790283, 0.5993496179580688, -0.05381399765610695, 0.4801061451435089, -0.14610697329044342, 0.7445919513702393, 0.7516554594039917, 0.0008052479824982584, 0.12312200665473938, 0.5424840450286865, 0.575699508190155, 0.6467639803886414, -0.6744914054870605, -0.3122996687889099, 0.931831955909729, -0.5752206444740295, 0.07260922342538834, -0.25098249316215515, 0.6023920774459839, -0.5263016223907471, 1.0515785217285156, -0.9476646184921265, 0.7372522950172424, -0.4219632148742676, 0.35826608538627625, -0.15087153017520905, 0.41197454929351807, 0.09916841238737106, -0.3905296325683594, -0.5357077121734619, 0.7971807718276978, 0.05703553184866905, -0.7123708128929138, 0.1166079118847847, -0.6127969622612, 0.571067214012146, 0.5693973302841187, -0.6938596963882446, 0.44735226035118103, -0.8532728552818298, 0.4017322063446045, -0.455970823764801, 0.6094198226928711, -0.6811044812202454, -0.13657556474208832, 0.9898676872253418, -0.5221855044364929, 0.30417177081108093, 0.7451522946357727, 0.8720632791519165, -0.0978393629193306, 0.38427647948265076, 0.18937832117080688, 0.8680635690689087, 0.020441457629203796, 1.0771242380142212], [0.019843941554427147, -0.3914942145347595, -0.8766751289367676, 0.16368290781974792, 0.6073800921440125, 0.027929946780204773, -0.24854397773742676, -0.8019136190414429, 0.5381196737289429, 0.45491236448287964, -0.8959900140762329, 0.18774208426475525, -0.8123332262039185, 0.33011069893836975, 0.3628629446029663, 0.4680369794368744, 0.36622726917266846, 0.9901831746101379, 0.8687617778778076, -0.02360287867486477, -0.869667649269104, -0.6834236979484558, 0.7097849249839783, -0.6818127632141113, -0.13472656905651093, 0.005363223608583212, 0.3440040647983551, -0.6554611921310425, 0.7730732560157776, -0.2750571072101593, 0.5966688990592957, -0.5680457949638367, 0.5254831314086914, 0.702067494392395, 0.5158224701881409, 0.024237515404820442, 1.0038188695907593, -0.562969982624054, 0.32771575450897217, -0.1754893809556961, -0.6144997477531433, 0.24028758704662323, -0.6047431826591492, -0.20816588401794434, 0.3349417448043823, -0.3867138624191284, 0.3111664056777954, -0.2956463694572449, 0.642551839351654, -0.860418975353241, 0.5208647847175598, -0.15926314890384674, 0.5341314077377319, 1.212684154510498, -0.9593611359596252, -0.09248252958059311, 0.5762792229652405, 1.0105596780776978, -0.20526115596294403, 0.16557730734348297, 0.02228470891714096, 0.1556628942489624, -0.6501908898353577, 0.5912623405456543], [-0.3965623378753662, 0.6948420405387878, -0.33512866497039795, 0.03914380073547363, 0.5262836217880249, 0.01886153593659401, -0.014380957931280136, -0.8687017560005188, 0.4249038100242615, 0.7223117351531982, 0.06589333713054657, 0.28059643507003784, -0.05058266222476959, 0.6079334020614624, 0.6155951023101807, 0.21949417889118195, 0.21514765918254852, 0.6408737897872925, 0.7649885416030884, 0.5496340990066528, -0.20243436098098755, -0.3742084801197052, 0.788910984992981, -0.9224963784217834, 0.21157070994377136, -0.4738427400588989, 0.3415226340293884, -0.5690516829490662, 1.2870664596557617, -0.9977129697799683, 0.4592897593975067, -0.4951322376728058, 0.6730816960334778, -0.20653484761714935, 0.5302231311798096, 0.18727409839630127, -0.33868369460105896, -0.2612680494785309, 0.5773972272872925, -0.0017150248168036342, -0.9214781522750854, 0.03842909634113312, -0.4509088397026062, 0.661562442779541, 0.6960921883583069, -0.8878639936447144, 0.3992408215999603, -0.8555777668952942, 0.6988695859909058, -0.49452438950538635, 0.5787398219108582, -0.691230297088623, -0.23431599140167236, 0.919726550579071, -0.21487389504909515, 0.5359014868736267, 0.7737674713134766, 1.0519382953643799, -0.046708058565855026, 0.4717605710029602, 0.37795767188072205, 0.6016678214073181, -0.015351641923189163, 0.9645346999168396], [0.011807359755039215, -0.5788527727127075, -0.32529816031455994, 0.35063645243644714, -0.036242514848709106, 0.33244073390960693, -0.3426540791988373, 0.274092435836792, -0.17563839256763458, -0.1891065388917923, -0.641209065914154, 0.1299028992652893, -0.2742498815059662, -0.2525935769081116, 0.16026876866817474, 0.042051348835229874, 0.11782363802194595, -0.4927007853984833, -0.0542183443903923, -0.7877786159515381, -0.28669387102127075, -0.19528484344482422, 0.20496387779712677, 0.5860316753387451, -0.31258371472358704, 0.35547369718551636, 0.14355099201202393, 0.03124808706343174, -0.8900560140609741, 0.6566561460494995, 0.3172074854373932, -0.13749553263187408, 0.21611396968364716, 0.9232038855552673, -0.17280639708042145, 0.11650004982948303, 0.873319685459137, -0.18916986882686615, -0.27236074209213257, 0.047037288546562195, 0.37246930599212646, 0.22829599678516388, 0.08394642919301987, -0.4257560968399048, -0.052042026072740555, 0.32708609104156494, 0.1888519525527954, 0.4431998133659363, -0.11806979775428772, 0.055668264627456665, 0.010318025015294552, 0.5600157380104065, 0.589224100112915, -0.7240860462188721, -0.08836601674556732, -0.05317820608615875, -0.5369970202445984, -0.4117553234100342, 0.018420692533254623, 0.16817401349544525, 0.002943257801234722, -0.5190181732177734, -0.6319876313209534, -0.9854609966278076], [-0.3893073797225952, -0.15897567570209503, 0.30709680914878845, -0.29781270027160645, 0.5980578660964966, 0.07832007855176926, -0.6618446111679077, 1.018430233001709, -0.01160306204110384, -0.4334510862827301, -0.14733001589775085, -0.15823017060756683, 0.05229904502630234, -0.30757975578308105, 0.1782328486442566, -0.29052385687828064, -0.3110722005367279, -0.46363747119903564, 0.13752779364585876, -0.38544487953186035, 0.4371975362300873, 0.23311764001846313, 0.8115921020507812, 0.9920144081115723, -0.3555888235569, 0.5326842069625854, 0.0154751967638731, 0.6786070466041565, -0.9803680777549744, 1.1746141910552979, 0.8692857623100281, 0.7753777503967285, 0.10278578847646713, 0.7736392617225647, -0.023411758244037628, -0.3780505061149597, 0.685989499092102, 0.3826799690723419, -0.28315383195877075, -0.08165011554956436, 1.0661242008209229, -0.43031570315361023, 0.6252498030662537, 0.1270792931318283, -0.06502924859523773, 0.9385582804679871, -0.10009599477052689, 0.9984402060508728, -0.08009538054466248, 0.8332151174545288, 0.21674729883670807, 1.1954114437103271, 0.6730281710624695, -0.7714864015579224, 0.39379870891571045, -0.38240328431129456, -0.42418617010116577, -0.5722978115081787, 0.002832907484844327, -0.0880415290594101, 0.5389226078987122, -0.09718877822160721, -0.061010897159576416, -0.8780384659767151], [0.019928468391299248, -0.7699906229972839, 0.04403398558497429, 0.05546334758400917, 0.11675681173801422, 0.14061833918094635, -0.21392607688903809, 0.5631041526794434, -0.37037867307662964, -0.7862734198570251, -0.17201361060142517, 0.06283056735992432, -0.13477997481822968, -0.5477720499038696, -0.11283503472805023, 0.032099079340696335, 0.32487982511520386, -0.5210912227630615, -0.34748518466949463, -0.7340815663337708, 0.1370367556810379, -0.04598069190979004, -0.16728439927101135, 0.6819874048233032, 0.08026067912578583, 0.36715710163116455, -0.40847453474998474, 0.10093577951192856, -1.2135037183761597, 0.93149334192276, -0.18672063946723938, 0.3031226694583893, -0.5049021244049072, 0.5649495124816895, -0.4763142466545105, -0.3910965919494629, 0.7892007827758789, 0.18794119358062744, -0.4608645737171173, 0.23165197670459747, 0.7982742190361023, -0.10340198874473572, 0.23912455141544342, -0.8078132271766663, -0.5178341865539551, 0.7043598890304565, -0.05063579976558685, 0.6180744767189026, -0.060182128101587296, 0.636258602142334, -0.4084237217903137, 0.8282415270805359, 0.4551973342895508, -0.5619131922721863, 0.3727948069572449, -0.5461086630821228, -0.8437307476997375, -0.614564836025238, -0.04859313741326332, -0.09557110071182251, -0.03915395960211754, -0.5469827651977539, -0.45875483751296997, -0.882404625415802], [-0.22598987817764282, 0.6707884669303894, 0.014110477641224861, -0.31255945563316345, 0.6725168228149414, -0.029878363013267517, 0.06340928375720978, -0.29719045758247375, 0.43206167221069336, 0.618986189365387, 0.2694995701313019, -0.1848694086074829, 0.17074072360992432, 0.46374577283859253, 0.4586993455886841, -0.22143344581127167, 0.06310361623764038, 0.752348005771637, 0.6583413481712341, 0.9648723006248474, -0.2662833034992218, -0.08584235608577728, 1.0016002655029297, -0.3445360064506531, -0.050164639949798584, -0.39381131529808044, 0.15742330253124237, -0.1494501382112503, 1.3833527565002441, -0.8653541803359985, 0.5946753025054932, -0.10274582356214523, 0.052769701927900314, -0.29958486557006836, -0.0015822539571672678, 0.1934986412525177, -0.6972552537918091, 0.17987863719463348, 0.42600002884864807, -0.3242735266685486, -0.6187476515769958, -0.15134119987487793, -0.0035349701065570116, 1.1029733419418335, 0.18222969770431519, -0.6019772887229919, 0.06832469999790192, -0.6682426333427429, 0.7627201676368713, -0.3305615484714508, 0.23392705619335175, -0.3485255837440491, -0.5119271874427795, 1.0897393226623535, -0.08477571606636047, 0.22542785108089447, 0.6789653301239014, 0.8894921541213989, -0.28642919659614563, 0.1292162984609604, 0.4559483528137207, 0.3870159089565277, 0.2963649332523346, 1.1655104160308838], [-0.20895735919475555, 0.6141524314880371, -0.3966754376888275, 0.01275115367025137, 1.0913147926330566, 0.3208463788032532, 0.05748535692691803, -0.6127781271934509, 0.8039163947105408, 0.6671215295791626, -0.014326886273920536, 0.5753416419029236, -0.1979360729455948, 0.9002173542976379, 0.5033722519874573, -0.004750800784677267, 0.46615785360336304, 1.0303823947906494, 0.544127881526947, 0.504636287689209, -0.27118629217147827, -0.38706332445144653, 0.9289129972457886, -0.7484992742538452, 0.19028912484645844, -0.39278700947761536, 0.6136056184768677, -0.19833685457706451, 1.1785205602645874, -0.8502247929573059, 1.258280873298645, -0.4102734923362732, 0.6824503540992737, -0.24619019031524658, 0.6381538510322571, 0.040000978857278824, -0.36429113149642944, -0.3536587357521057, 0.6636154055595398, 0.006222001276910305, -0.5960058569908142, -0.10420810431241989, -0.39323121309280396, 0.7579666972160339, 0.6430956125259399, -0.877220630645752, 0.3717152774333954, -0.5816555023193359, 0.4832119643688202, -0.8741388320922852, 0.8289675116539001, -0.48928022384643555, -0.13620007038116455, 1.0787436962127686, -0.5583633184432983, 0.5458730459213257, 0.9810014963150024, 0.9289076924324036, 0.18079951405525208, 0.4232337772846222, 0.6157338619232178, 0.6577410697937012, -0.07522114366292953, 1.1654950380325317], [-0.027344388887286186, 0.09616773575544357, 0.5874742865562439, -0.5241204500198364, -1.2128812074661255, -0.6309499740600586, 0.3235296607017517, 0.7458889484405518, -0.4192102253437042, -0.5845121145248413, 0.43718382716178894, -0.5602506399154663, 0.6355981826782227, -0.8224493861198425, -0.5407983064651489, -0.722779393196106, -0.4398793876171112, -0.9151649475097656, -1.069777250289917, -0.02507052570581436, 0.4946559965610504, 0.5209597945213318, -1.221053957939148, 0.8036808967590332, 0.09443432092666626, 0.397919237613678, -0.6172559857368469, 0.289162814617157, -0.27170541882514954, 0.5316660404205322, -1.3480302095413208, 0.5894644260406494, -0.6941870450973511, -0.41245853900909424, -0.5094314217567444, 0.31903886795043945, -0.25537586212158203, 0.4855271279811859, -0.6777473092079163, -0.1499558538198471, 0.4768042266368866, -0.218624547123909, 0.6175198554992676, 0.32680773735046387, -0.46454015374183655, 0.4813712537288666, -0.7207606434822083, 0.49066537618637085, -0.9565803408622742, 0.6136113405227661, -0.6827415823936462, 0.46263760328292847, 0.05371610075235367, -0.7988926768302917, 0.5020931363105774, -0.33476516604423523, -0.6052039265632629, -0.5812525749206543, -0.26902273297309875, -0.5595495104789734, -0.4861987829208374, -0.6855690479278564, 0.6773256063461304, -0.26597049832344055], [-0.5791851878166199, 0.559049665927887, -0.2899117171764374, 0.21903860569000244, 1.2217297554016113, -0.06314250826835632, -0.4188408851623535, -0.3076670169830322, 0.4222773015499115, 0.619951069355011, -0.21540245413780212, 0.3750441074371338, -0.4625731110572815, 0.5360278487205505, 0.25312334299087524, 0.32115843892097473, 6.545885116793215e-05, 1.3935894966125488, 1.2205450534820557, 0.6144855618476868, -0.21683339774608612, -0.46952900290489197, 1.355560064315796, -0.3400300145149231, -0.12064425647258759, -0.12504439055919647, 0.44964709877967834, -0.5386876463890076, 1.2838579416275024, -0.3902410864830017, 1.1433852910995483, -0.4360494315624237, 0.1922200620174408, 0.20173436403274536, 0.24355117976665497, -0.009208300150930882, -0.09543286263942719, -0.4707241952419281, 0.3294714391231537, 0.10829470306634903, -0.4849352240562439, 0.24179548025131226, -0.32646870613098145, 0.32751256227493286, 0.42802175879478455, -0.5343196392059326, 0.4487474858760834, -0.47336646914482117, 1.143128514289856, -0.5366493463516235, 0.5440312027931213, -0.1826055347919464, -0.26926472783088684, 1.4890286922454834, -0.225518137216568, 0.2019570916891098, 0.3930164575576782, 1.2901314496994019, -0.15472909808158875, 0.5890675783157349, 0.6495813131332397, 0.5646718144416809, -0.2238689661026001, 1.0756994485855103], [-0.20687228441238403, -0.7510122656822205, -0.635634183883667, -0.09804412722587585, -1.493581771850586, -0.15849915146827698, -0.5691817998886108, 0.16031882166862488, -0.5959623456001282, -0.8642237782478333, -0.2605867385864258, -0.23639214038848877, -0.5291454195976257, -1.0002126693725586, -0.9135096073150635, 0.2161853164434433, -0.35785242915153503, 1.243881106376648, 0.8277954459190369, -0.5801668763160706, -0.36389777064323425, -0.3766401708126068, -1.51453697681427, -0.18003712594509125, 0.0712251365184784, 0.4344850778579712, -0.5277267098426819, -0.28794366121292114, 1.1113876104354858, 0.053607676178216934, -1.9456708431243896, -0.3818318843841553, -0.7119519710540771, 0.6264033317565918, -0.43926331400871277, -0.3104548156261444, 1.3335515260696411, -0.6671364903450012, -0.7695842385292053, -0.44031453132629395, -0.19047991931438446, -0.04752242937684059, -0.4309479892253876, -0.7609602808952332, -0.5321601629257202, 0.027706684544682503, -0.40748587250709534, 0.270235151052475, 0.6246396899223328, 0.028778929263353348, -0.6876116394996643, 0.1959078460931778, 0.12187229096889496, 1.3021541833877563, -0.5838168859481812, -0.7758291363716125, -0.9334452152252197, 1.285260796546936, -0.5104286670684814, -0.668104350566864, -0.4512999653816223, -1.0351219177246094, -0.22949208319187164, 0.9548473358154297], [0.22453483939170837, -0.6343721151351929, -0.2611113488674164, 0.36101311445236206, 0.32254597544670105, 0.2008701115846634, -0.14857709407806396, 0.5395627021789551, 0.29454419016838074, -0.048599205911159515, -0.3857318162918091, 0.1861754059791565, -0.28350555896759033, -0.3960897624492645, 0.12663637101650238, 0.22322224080562592, 0.3021799921989441, -0.8521395921707153, -0.22155436873435974, -0.7208354473114014, 0.051511459052562714, -0.15505622327327728, 0.1485326886177063, 0.46829551458358765, -0.07610059529542923, 0.3555743992328644, 0.07567135989665985, -0.10235267132520676, -0.977715253829956, 0.7262418866157532, 0.40442290902137756, 0.26147133111953735, 0.13858649134635925, 0.8592885136604309, -0.004003213252872229, -0.18226014077663422, 0.8902568221092224, -0.1729622781276703, -0.10706639289855957, 0.4870035648345947, 0.3637637794017792, 0.09414590150117874, 0.016909167170524597, -0.5381167531013489, 0.3318805694580078, 0.7767267823219299, 0.4661535620689392, 0.6482681035995483, -0.3085708022117615, 0.15178711712360382, 0.09579739719629288, 0.4107459783554077, 0.4397734999656677, -0.7301363945007324, 0.06923020631074905, -0.09815981984138489, -0.4142388701438904, -0.8316513299942017, 0.1341027319431305, 0.003245606319978833, 0.24758882820606232, -0.4313327968120575, -0.4367738664150238, -1.0856351852416992], [0.12660011649131775, 0.6746394038200378, 0.7317593693733215, 0.02484600991010666, 1.054646372795105, -0.08271989971399307, 0.3508475720882416, 0.26570671796798706, -0.14871935546398163, 0.008161313831806183, 0.71048903465271, -0.21617530286312103, 0.47023969888687134, -0.17032687366008759, -0.080961674451828, -0.12804299592971802, -0.24104449152946472, -0.6335164308547974, -0.6661432385444641, 0.8838236927986145, 0.7079598307609558, 0.7968669533729553, 0.6481418013572693, 0.29050880670547485, -0.1659945547580719, -0.06973985582590103, 0.12532728910446167, 0.6814684867858887, -0.34139615297317505, -0.10779187828302383, 1.0114811658859253, 0.7991983294487, -0.16188937425613403, -0.8823549151420593, -0.20026373863220215, 0.13201162219047546, -1.3125083446502686, 0.8964755535125732, 0.053020913153886795, 0.43229708075523376, -0.032919079065322876, -0.18905067443847656, 0.5324387550354004, 0.5710043907165527, 0.1276157647371292, 0.1735425591468811, -0.38869932293891907, -0.06810291856527328, -0.5802198052406311, 0.4872467517852783, 0.10045890510082245, -0.4539383351802826, -0.10615360736846924, -0.6711029410362244, 0.7070597410202026, 0.461174875497818, -0.1698017418384552, -0.9450185298919678, 0.47172293066978455, -0.1145765632390976, -0.26148778200149536, 0.1973688304424286, 0.8142606019973755, -0.6884089112281799], [0.01804962009191513, 0.8190223574638367, 0.6528083682060242, -0.5085756778717041, -0.5210623145103455, -0.35749351978302, 0.37365537881851196, 0.6452889442443848, -0.4060390889644623, -0.0026380575727671385, 0.8617224097251892, -0.13038425147533417, 0.9017274975776672, -0.16618886590003967, -0.2698650062084198, -0.4828401803970337, -0.4590643346309662, -1.0652457475662231, -0.6013078093528748, 0.8311789035797119, 0.6189396381378174, 0.6907536387443542, -0.7340851426124573, 0.5754550695419312, -0.16980278491973877, -0.17536185681819916, -0.07980260998010635, 0.9548517465591431, -0.4244275689125061, 0.08595037460327148, -0.9448970556259155, 0.6408079862594604, -0.030887745320796967, -1.2560895681381226, -0.2257867306470871, 0.0819273367524147, -1.036690592765808, 0.7962275743484497, -0.14147305488586426, -0.18696291744709015, 0.28965890407562256, -0.20966848731040955, 0.7977073192596436, 0.5639253258705139, -0.34998589754104614, 0.1428774744272232, -0.3993292450904846, 0.2851128876209259, -0.8841109871864319, 0.7742400169372559, -0.3806602358818054, 0.07230471074581146, -0.5183276534080505, -0.8516432046890259, 0.5596705079078674, 0.01966734044253826, -0.21264323592185974, -0.6296461224555969, -0.02260514907538891, -0.09855160117149353, -0.15105895698070526, -0.31921079754829407, 1.0056653022766113, -0.5230966210365295], [0.032203130424022675, -0.80722576379776, -0.7268432378768921, 0.08870284259319305, -1.5551724433898926, -0.1636359691619873, -0.3434450924396515, 0.03675157204270363, -0.5204421877861023, -0.8682497143745422, -0.2594180107116699, -0.3909679353237152, -0.23618382215499878, -0.40185683965682983, -0.6062608361244202, 0.05524735152721405, -0.2180532068014145, 0.4351702928543091, 0.39068642258644104, -0.513709306716919, -0.7054929137229919, -0.6747380495071411, -1.420437216758728, 0.054427191615104675, -0.07130000740289688, 0.34320059418678284, -0.5162463188171387, -0.6040035486221313, 0.23020130395889282, -0.013430517166852951, -1.463746190071106, -0.2969719171524048, -0.37162813544273376, 0.743871808052063, -0.3638934791088104, 0.11011975258588791, 1.0029702186584473, -0.5751343369483948, -0.74846351146698, -0.25466829538345337, 0.024951141327619553, 0.340559184551239, -0.34428250789642334, -0.8161819577217102, -0.3961833417415619, 0.2214672565460205, -0.34253165125846863, -0.0038724513724446297, 0.5622919201850891, -0.25869718194007874, -0.4423454999923706, 0.25691860914230347, 0.5102611780166626, 0.5472116470336914, -0.5122717022895813, -0.45047420263290405, -0.9024209976196289, 0.4805905520915985, -0.17536026239395142, -0.48504891991615295, -0.7820498943328857, -0.614926815032959, -0.41756919026374817, 0.3958488702774048], [-0.2852005362510681, -0.840608537197113, -0.588086724281311, 0.15481030941009521, -1.4283995628356934, -0.3127477169036865, -0.642625093460083, -0.07594455033540726, -0.4369770586490631, -0.645317554473877, -0.4659295678138733, -0.31390202045440674, -0.5565796494483948, -0.6203863024711609, -0.7831619381904602, 0.039879072457551956, -0.32965806126594543, 1.0299391746520996, 0.9424872398376465, -0.5849856734275818, -0.5254632830619812, -0.6211469769477844, -1.3056082725524902, -0.019706731662154198, -0.05894391983747482, 0.4874814748764038, -0.5744003057479858, -0.763269305229187, 0.8537442684173584, 0.05023518577218056, -1.5881606340408325, -0.5524442791938782, -0.7291648983955383, 0.5218298435211182, -0.57721346616745, -0.019150370731949806, 1.4608138799667358, -0.606399655342102, -0.7820686101913452, -0.6850727796554565, -0.2074032425880432, 0.09089811891317368, -0.36333587765693665, -0.7097218036651611, -0.6234332919120789, 0.1554798185825348, -0.4936979115009308, -0.160897895693779, 0.7959468960762024, -0.3196139335632324, -0.8162089586257935, 0.1356068253517151, 0.20539554953575134, 1.2435272932052612, -0.5666452646255493, -0.5017385482788086, -0.9953644275665283, 1.3960424661636353, -0.5193644165992737, -0.4451340138912201, -0.3662266731262207, -0.6218149065971375, -0.29016828536987305, 1.4144630432128906], [-0.25790199637413025, -0.24766790866851807, -0.8530944585800171, 0.2829414904117584, 0.7274935245513916, 0.2862337529659271, -0.13909003138542175, -0.3457114100456238, 0.3994475305080414, 0.22318831086158752, -0.524501383304596, 0.46511372923851013, -0.44873756170272827, 0.4548373520374298, 0.4673137366771698, 0.22721348702907562, 0.30834800004959106, 1.0732030868530273, 0.7780206799507141, -0.0044948020949959755, -0.7322725057601929, -0.8083639144897461, 0.5953397154808044, -0.58601313829422, 0.08528660237789154, 0.17199161648750305, 0.43883636593818665, -0.7283115386962891, 0.8436081409454346, -0.36102432012557983, 0.8276447057723999, -0.5306352972984314, 0.21082334220409393, 0.5074834227561951, 0.20731240510940552, 0.13346530497074127, 0.7883312106132507, -0.763671338558197, 0.22107075154781342, 0.24874533712863922, -0.24836252629756927, 0.4093506932258606, -0.7021218538284302, 0.024935126304626465, 0.2728753089904785, -0.4241947829723358, 0.1961209923028946, -0.5202882289886475, 1.058304786682129, -0.3209034204483032, 0.2194700986146927, 0.010517540387809277, 0.4303089678287506, 1.1923551559448242, -0.7504581809043884, -0.07698281109333038, 0.42033129930496216, 0.9699130058288574, 0.04059246554970741, 0.5015758872032166, 0.07854379713535309, 0.41974443197250366, -0.6964101195335388, 1.029807686805725], [-0.47796568274497986, 0.7035695910453796, -0.15700465440750122, -0.3546474575996399, 0.2473267763853073, -0.21377508342266083, -0.2656044065952301, -0.3570147454738617, -0.13186779618263245, 0.21513406932353973, 0.6206563115119934, -0.09973879158496857, 0.21666990220546722, 0.04277900978922844, -0.027291351929306984, -0.387949675321579, -0.25180861353874207, 0.80007404088974, 0.30998384952545166, 0.9486377835273743, -0.1435958445072174, 0.2199912816286087, 0.38426291942596436, -0.7866547107696533, -0.19563718140125275, -0.17116080224514008, 0.051203422248363495, 0.12279362231492996, 1.0353366136550903, -0.713861882686615, 0.2680622935295105, -0.011066894046962261, -0.27398407459259033, -1.1228026151657104, -0.08145558834075928, -0.1437922716140747, -1.0036101341247559, 0.10945284366607666, 0.2046918421983719, -0.43856263160705566, -0.6025546193122864, -0.25708457827568054, -0.010005608201026917, 0.7340313792228699, -0.3291173279285431, -0.8137688636779785, -0.003149332944303751, -0.7473368644714355, 0.40775150060653687, -0.43905311822891235, -0.016141368076205254, -0.8432613611221313, -0.9015583992004395, 0.8858138918876648, 0.01748691499233246, -0.13768528401851654, 0.3295167088508606, 0.9178955554962158, -0.658374547958374, -0.2889091968536377, 0.12421325594186783, 0.26875612139701843, 0.5871894955635071, 1.052608847618103], [-0.2113630622625351, -0.846595048904419, -0.9084165096282959, -0.11313895136117935, -1.6463900804519653, -0.22123302519321442, -0.6688011288642883, -0.1292904168367386, -0.6758919358253479, -0.9125012159347534, -0.37960323691368103, -0.5889466404914856, -0.7934755682945251, -0.9026452898979187, -0.9737358689308167, 0.025737984105944633, -0.31741756200790405, 0.7448156476020813, 0.7399081587791443, -0.8748235106468201, -0.8113386034965515, -0.8212040066719055, -1.5082772970199585, 0.04869898781180382, 0.013014067895710468, 0.6652921438217163, -0.8173081874847412, -0.558760404586792, 0.7354069352149963, 0.2517222762107849, -1.8116620779037476, -0.4759483337402344, -0.851550281047821, 0.675510585308075, -0.5803419947624207, -0.14733032882213593, 1.4245587587356567, -0.9944368600845337, -0.8674967288970947, -0.5144495964050293, -0.33744552731513977, 0.06706451624631882, -0.43388161063194275, -1.052164077758789, -0.6403988003730774, 0.05930497497320175, -0.4888184070587158, 0.04258795455098152, 0.563482403755188, -0.46516653895378113, -0.9061418175697327, 0.12985901534557343, 0.39048275351524353, 0.7517780661582947, -0.6463059186935425, -0.7026466131210327, -1.0823853015899658, 0.7563181519508362, -0.4874444901943207, -0.5032826066017151, -0.8240817189216614, -0.9318820834159851, -0.7241318225860596, 0.859769344329834], [-0.34798508882522583, 0.3884025514125824, -0.7416034936904907, 0.39600369334220886, 1.2323020696640015, 0.23893359303474426, -0.1241721659898758, -0.7715147137641907, 0.614005982875824, 0.5997136831283569, -0.12406643480062485, 0.4935254752635956, -0.3206924498081207, 0.6163799166679382, 0.7277914881706238, 0.47745800018310547, 0.4905933737754822, 0.9180439114570618, 0.7636750936508179, 0.1745930165052414, -0.6065474152565002, -0.43077966570854187, 0.7780824899673462, -0.7780358195304871, -0.05754140019416809, -0.34631186723709106, 0.735786497592926, -0.7051652073860168, 0.8512876033782959, -0.7849929928779602, 0.8368035554885864, -0.6265000104904175, 0.6852065324783325, 0.38357290625572205, 0.41936421394348145, -0.18350473046302795, -0.1130760982632637, -0.6716061234474182, 0.6689502596855164, 0.2893620729446411, -0.6048389673233032, 0.23990389704704285, -0.5162411332130432, 0.35248032212257385, 0.7986584901809692, -0.5760732293128967, 0.4304668605327606, -0.7253443598747253, 0.634343147277832, -0.7434207797050476, 0.37944144010543823, -0.4023439288139343, -0.16606846451759338, 0.8495166897773743, -0.3790279030799866, 0.10994274169206619, 0.5898312330245972, 0.7834619879722595, 0.14379416406154633, 0.5553819537162781, 0.6291982531547546, 0.5135678052902222, -0.2768477499485016, 0.8929505348205566], [0.1388101577758789, -0.11940071731805801, 0.43877312541007996, 0.1930428445339203, -1.8012272119522095, -0.11480658501386642, 0.09892694652080536, 0.6251847147941589, -0.7084857821464539, -0.941993772983551, 0.37875381112098694, -0.19799970090389252, 0.16243189573287964, -0.9076347351074219, -0.5962271690368652, 0.372193306684494, 0.17129555344581604, -0.8829603791236877, -0.13618402183055878, -0.29513323307037354, 0.02218404784798622, 0.32298269867897034, -1.5599000453948975, 0.6956172585487366, 0.4380177855491638, 0.46293124556541443, -0.5999504327774048, 0.2530597150325775, -0.8239354491233826, 0.6619276404380798, -2.023404598236084, 0.3594141900539398, -0.7987305521965027, 0.10790126025676727, -0.45132479071617126, 0.005645312834531069, 0.8317102193832397, 0.2814962565898895, -0.8230559825897217, -0.26948481798171997, 0.7766363024711609, 0.05607585236430168, 0.3071343004703522, -0.37397781014442444, -0.7307314276695251, 0.7036672234535217, -0.39179670810699463, 0.6245284080505371, -0.26320239901542664, 0.3767372965812683, -0.680336594581604, 0.9078390002250671, 0.20367109775543213, -1.0287703275680542, 0.25971466302871704, -0.06830088049173355, -0.8833173513412476, -0.9382369518280029, 0.13044527173042297, -0.8835346102714539, -0.8449103236198425, -0.7041546106338501, 0.37196990847587585, -0.686610221862793], [-0.2110310047864914, 0.697128176689148, 0.6725064516067505, -0.1448483020067215, -0.11309920251369476, -0.3309064209461212, 0.12422116845846176, 0.3930456042289734, -0.062253884971141815, 0.10550305992364883, 1.0179637670516968, -0.16719967126846313, 0.8349563479423523, 0.08641047030687332, 0.013687030412256718, -0.1881663203239441, -0.2006094753742218, -0.99303138256073, -0.7327265739440918, 0.8228716850280762, 0.6366780400276184, 0.6209600567817688, -0.18082670867443085, 0.4853562116622925, 0.04646971821784973, -0.15471576154232025, -0.13124121725559235, 0.6639016270637512, -0.5894961357116699, -0.03590745851397514, -0.21857666969299316, 0.6733595132827759, 0.019845303148031235, -0.9565616846084595, 0.12285074591636658, -0.15241728723049164, -1.13779616355896, 0.9633527994155884, -0.21416731178760529, 0.09776297956705093, 0.1069723516702652, -0.26754966378211975, 0.822124719619751, 0.5339339971542358, 0.08661027997732162, 0.32897520065307617, -0.2684231400489807, 0.15175218880176544, -0.5709199905395508, 0.30774691700935364, -0.16524195671081543, -0.22703592479228973, -0.17683681845664978, -0.911943793296814, 0.9432092308998108, 0.3000946342945099, -0.18692713975906372, -1.2599276304244995, 0.23084883391857147, -0.336938738822937, -0.3450869917869568, -0.01699209399521351, 1.0773953199386597, -0.6257283091545105], [-0.228651762008667, -0.04172598943114281, 0.2549079954624176, -0.01952597126364708, 0.5992293357849121, -0.05266537889838219, -0.4081464111804962, 0.7152089476585388, -0.0006474072579294443, -0.394538551568985, -0.2539592385292053, 0.061180200427770615, -0.14194045960903168, -0.305643230676651, 0.12119929492473602, -0.05880594998598099, -0.08388353139162064, -0.7262833118438721, -0.21640266478061676, -0.20521172881126404, 0.19362199306488037, 0.3453061580657959, 0.4429554343223572, 0.8218680024147034, -0.2530304491519928, 0.5508525967597961, -0.11340519785881042, 0.16388677060604095, -0.8214213848114014, 0.921848475933075, 0.77346271276474, 0.6028974652290344, -0.001603505457751453, 0.992978036403656, 0.2641809582710266, 0.03153294697403908, 0.9583247900009155, 0.3078896403312683, -0.24420882761478424, 0.1483227163553238, 0.8687427043914795, -0.06745156645774841, 0.5926038026809692, -0.42516979575157166, 0.09185360372066498, 0.8492523431777954, 0.252362459897995, 0.6496387124061584, -0.13439251482486725, 0.4201629161834717, 0.23156464099884033, 1.069079041481018, 0.4268808364868164, -0.8557918667793274, 0.46491360664367676, -0.32986515760421753, -0.35771292448043823, -0.5529733300209045, -0.11846190690994263, 0.17812420427799225, 0.47037073969841003, -0.07727138698101044, -0.4081425368785858, -1.1225004196166992], [0.21880361437797546, -0.38029584288597107, 0.10628111660480499, 0.10919703543186188, -0.3639488220214844, -0.10932232439517975, -0.1209743469953537, 0.4870438277721405, -0.7734664678573608, -0.9377741813659668, -0.17499563097953796, -0.10922639816999435, -0.0740908682346344, -1.0511651039123535, -0.5637274384498596, 0.22357669472694397, -0.16689996421337128, -0.3114941418170929, -0.2644350230693817, -0.6703380346298218, 0.24084337055683136, 0.22123229503631592, -0.35706767439842224, 0.5878685712814331, -0.13050232827663422, 0.457507848739624, -0.7814198136329651, 0.3274783492088318, -0.9156275987625122, 0.8119644522666931, -0.43680933117866516, 0.28828275203704834, -0.626421332359314, 0.37897175550460815, -0.6544968485832214, -0.2831322252750397, 0.7314962148666382, 0.2396274209022522, -0.9475395083427429, 0.01979038678109646, 0.6568318605422974, 0.2760894298553467, 0.18277029693126678, -0.597288966178894, -0.7332597374916077, 0.49501439929008484, -0.4212382137775421, 0.7812820672988892, -0.15925399959087372, 0.662214994430542, -0.5279353260993958, 0.7325581312179565, 0.20679526031017303, -0.5192472338676453, 0.3676004707813263, -0.7391104102134705, -1.1301190853118896, -0.42768144607543945, -0.07276491075754166, -0.49086424708366394, -0.5357878804206848, -1.1956346035003662, -0.00789005495607853, -0.6459481120109558], [0.0796576514840126, 0.606303334236145, 0.9003493189811707, -0.4138401746749878, -0.22808776795864105, -0.33864423632621765, 0.33235013484954834, 0.6578664779663086, -0.21652989089488983, -0.05216629430651665, 0.926633358001709, -0.44442078471183777, 1.0562855005264282, -0.07795116305351257, -0.2005753219127655, -0.25091230869293213, -0.0547407902777195, -0.7255141139030457, -0.7497227787971497, 0.5639512538909912, 0.7933885455131531, 0.9827058911323547, 0.04889849200844765, 0.43470460176467896, -0.25500011444091797, -0.20358829200267792, -0.049601927399635315, 0.9286723136901855, -0.20619869232177734, 0.33226659893989563, -0.14809434115886688, 0.954212486743927, -0.11967410892248154, -0.899182915687561, -0.3482644855976105, -0.19794566929340363, -1.300067663192749, 0.9088192582130432, -0.32820144295692444, 0.11684729903936386, 0.5987443923950195, -0.5310813188552856, 0.7767235040664673, 0.4362536370754242, -0.0502084456384182, 0.03561002388596535, -0.20096154510974884, 0.22251147031784058, -0.8355955481529236, 0.4792981445789337, -0.3228656053543091, 0.08107943087816238, -0.21909022331237793, -0.7390459179878235, 1.0371885299682617, 0.010756878182291985, -0.3728969693183899, -0.6400913000106812, 0.22392377257347107, -0.46649032831192017, -0.08730237185955048, -0.2137034684419632, 0.9571407437324524, -0.23727335035800934], [-0.24762916564941406, 0.8307321667671204, 1.0021370649337769, -0.3141527473926544, 0.6523957252502441, -0.44235819578170776, -0.03567543253302574, 0.2997083365917206, -0.32801809906959534, -0.24136635661125183, 1.2137651443481445, -0.4733763635158539, 1.1536976099014282, -0.24341797828674316, -0.37201380729675293, -0.3003038465976715, -0.43965592980384827, -0.4594666361808777, -0.19653211534023285, 1.2834969758987427, 1.1661680936813354, 0.934054970741272, 0.6300420165061951, 0.1492357850074768, -0.1860499531030655, -0.11413285881280899, -0.101044200360775, 0.7565329074859619, 0.20466534793376923, -0.010126044973731041, 0.25583046674728394, 0.7353359460830688, -0.3384619951248169, -0.9547178745269775, -0.35831427574157715, -0.016566453501582146, -1.4971410036087036, 0.8105132579803467, -0.08635269105434418, -0.17505903542041779, 0.11522217094898224, -0.3158130943775177, 0.9664838314056396, 1.1045324802398682, -0.4119146466255188, 0.07601616531610489, -0.29364481568336487, 0.17580373585224152, -0.6103492975234985, 0.6028757691383362, -0.137641042470932, -0.14216408133506775, -0.44589290022850037, -0.2595835030078888, 1.0388346910476685, -0.017892740666866302, -0.23096346855163574, -0.37263280153274536, 0.04962039366364479, -0.12493938207626343, -0.30671897530555725, -0.4450034201145172, 1.2715212106704712, 0.05321395769715309], [-0.5485474467277527, 0.8436208963394165, -0.4742445945739746, 0.1278267204761505, 0.7453596591949463, -0.01291644386947155, -0.34838470816612244, -0.5544076561927795, 0.09597780555486679, 0.18094998598098755, 0.18098336458206177, 0.032745953649282455, 0.15803058445453644, 0.13958612084388733, 0.08222011476755142, 0.2911813259124756, 0.2122269719839096, 1.088928461074829, 1.1939486265182495, 1.0390708446502686, -0.4622459411621094, -0.24094320833683014, 0.5092706084251404, -0.3024226129055023, 0.08833058178424835, -0.11771268397569656, 0.053052667528390884, -0.24003250896930695, 1.0596859455108643, -0.4015991985797882, 0.5137383341789246, -0.1978723406791687, 0.02421930991113186, 0.16032655537128448, 0.2948005795478821, 0.1673898547887802, -0.024747736752033234, -0.31477946043014526, 0.02953493781387806, -0.2718099355697632, -0.4071595072746277, 0.3384177088737488, -0.1418473720550537, 0.8457738161087036, 0.27071139216423035, -0.36384350061416626, 0.015409894287586212, -0.14243876934051514, 0.9508211016654968, -0.4644584059715271, -0.029444903135299683, 0.06787174195051193, -0.1559629589319229, 1.4301589727401733, -0.10826235264539719, 0.23811158537864685, 0.13610638678073883, 1.0660412311553955, -0.3381364643573761, 0.1956760734319687, 0.4207862615585327, 0.12335704267024994, 0.215773344039917, 1.137086272239685], [0.170369490981102, -0.43515944480895996, -0.11731719225645065, 0.13417783379554749, 0.21220244467258453, 0.21011507511138916, 0.03445396199822426, 0.15658904612064362, 0.25931692123413086, -0.2661363482475281, -0.6716736555099487, 0.2337145060300827, -0.3688422441482544, -0.2297017127275467, 0.1835378110408783, 0.24671773612499237, 0.1939360499382019, -0.5349796414375305, -0.22893106937408447, -0.546591579914093, -0.36200791597366333, -0.4827233850955963, 0.2390662580728531, 0.30236902832984924, -0.048834457993507385, 0.09258615970611572, 0.21421028673648834, -0.18555791676044464, -0.9838359355926514, 0.5410079956054688, 0.19270582497119904, 0.13095839321613312, 0.0786246582865715, 1.025934100151062, 0.21029271185398102, 0.07755574584007263, 1.1808937788009644, -0.20927226543426514, 0.09713367372751236, 0.1752106249332428, 0.33135995268821716, 0.4443665146827698, -0.11524669080972672, -0.43411457538604736, 0.14552001655101776, 0.31736254692077637, 0.08030722290277481, 0.43198493123054504, -0.17267823219299316, 0.18252845108509064, 0.13873879611492157, 0.5486815571784973, 0.4706405997276306, -0.846615731716156, -0.10830346494913101, -0.04690445214509964, -0.21500973403453827, -0.6922912001609802, 0.1612078696489334, 0.10319872945547104, 0.2769744098186493, -0.30579933524131775, -0.5508783459663391, -0.8926995992660522], [-0.20305135846138, -0.25059208273887634, 0.290926992893219, 0.17963604629039764, 0.6751186847686768, 0.060911696404218674, -0.4787960648536682, 0.6121145486831665, 0.10750284045934677, -0.3571612238883972, -0.08692847192287445, 0.025911694392561913, -0.06612864136695862, -0.12652146816253662, -0.03951262682676315, -0.25768202543258667, 0.13957558572292328, -0.42919957637786865, -0.07845377922058105, -0.15677814185619354, 0.0947006568312645, 0.4530365467071533, 0.7376269698143005, 0.7880828380584717, -0.5859154462814331, 0.4786527752876282, 0.046267446130514145, 0.3288944363594055, -0.9800320267677307, 1.0432859659194946, 0.6115602254867554, 0.4894271194934845, -0.014177752658724785, 1.0257619619369507, -0.03818929195404053, -0.36693713068962097, 1.039760947227478, 0.26010075211524963, -0.17342637479305267, 0.03524957224726677, 0.7490850687026978, -0.04238137602806091, 0.624301016330719, -0.13817748427391052, -0.05177336558699608, 0.8207569718360901, 0.28310146927833557, 0.8489082455635071, -0.06637649238109589, 0.5538572669029236, 0.18126580119132996, 1.2145005464553833, 0.6589086651802063, -0.5565928220748901, 0.20288662612438202, -0.023892134428024292, -0.348197877407074, -0.6029902100563049, -0.20063373446464539, 0.08968838304281235, 0.029752755537629128, -0.30611127614974976, -0.07792608439922333, -0.9007480144500732], [-0.1325986087322235, -0.14036551117897034, 0.17450174689292908, 0.25454574823379517, 0.42306891083717346, 0.17441271245479584, -0.38033097982406616, 0.838787317276001, 0.15116223692893982, -0.038155216723680496, -0.33725106716156006, 0.12572674453258514, -0.2374633252620697, -0.28528785705566406, 0.035081665962934494, -0.006081816274672747, 0.05605523660778999, -0.3880034387111664, -0.1826566606760025, -0.5040362477302551, 0.2781481444835663, 0.2937758266925812, 0.2826403081417084, 0.590632975101471, -0.4931259751319885, 0.38213419914245605, 0.0967954620718956, 0.45642176270484924, -0.8796031475067139, 0.6596860885620117, 0.5950334072113037, 0.5891873836517334, 0.12938135862350464, 1.190222144126892, 0.0641348734498024, -0.011357835493981838, 1.203009843826294, -0.08031374216079712, -0.10281316190958023, -0.1441856473684311, 0.8002243041992188, -0.30617672204971313, 0.5126543641090393, -0.41160136461257935, 0.12557384371757507, 0.8182491660118103, 0.2081054002046585, 0.953396201133728, -0.15394474565982819, 0.5256046056747437, 0.15064701437950134, 1.0173676013946533, 0.5419951677322388, -0.6718226671218872, 0.3409149646759033, -0.26265332102775574, -0.1676989495754242, -0.634257972240448, -0.05742587521672249, 0.038777705281972885, 0.08163578808307648, -0.3130795955657959, -0.401372492313385, -0.897819459438324], [0.06503826379776001, -0.2377103716135025, -0.02242264710366726, 0.12276763468980789, 0.30630388855934143, 0.1862492859363556, -0.02043057046830654, 0.5674810409545898, 0.14990906417369843, -0.2741542160511017, -0.4477763772010803, 0.09221238642930984, -0.4188062250614166, -0.13754846155643463, 0.2653403580188751, 0.13458704948425293, 0.09321767091751099, -0.6800482273101807, -0.28859251737594604, -0.7010847926139832, -0.14575938880443573, -0.1477515548467636, 0.1420346200466156, 0.684516966342926, -0.25974759459495544, 0.39109018445014954, 0.29271864891052246, -0.09662598371505737, -1.155784249305725, 0.6388100981712341, 0.2728762924671173, 0.05281085893511772, 0.1801891326904297, 0.786563515663147, 0.01999184675514698, 0.15664520859718323, 1.0040534734725952, -0.2729946970939636, 0.24194133281707764, 0.019359569996595383, 0.31420034170150757, 0.25381389260292053, 0.359032541513443, -0.5348230600357056, 0.2736625075340271, 0.522887110710144, 0.474753737449646, 0.7103776335716248, -0.2673492133617401, 0.41929057240486145, 0.030838482081890106, 0.8738348484039307, 0.581906259059906, -0.7153511047363281, 0.20586220920085907, 0.11837942153215408, -0.2968413829803467, -0.7370561361312866, 0.03384886309504509, 0.06723126769065857, 0.22129938006401062, 0.010468785651028156, -0.5648554563522339, -1.0485897064208984], [0.11576322466135025, 0.7409377098083496, 1.0327754020690918, -0.4798615574836731, -0.021210959181189537, -0.38695189356803894, 0.31678465008735657, 0.6083922982215881, -0.38536718487739563, -0.1612427532672882, 1.0714095830917358, -0.39632248878479004, 0.8528424501419067, -0.42052218317985535, -0.08775538206100464, -0.5796715021133423, -0.4413485825061798, -0.8064042329788208, -0.5619000196456909, 0.8986878991127014, 1.184095025062561, 1.0452367067337036, 0.1487620621919632, 0.35294467210769653, -0.27408987283706665, 0.07890777289867401, -0.49145200848579407, 0.8054199814796448, -0.16852447390556335, 0.01273034792393446, -0.3298318088054657, 0.8105043768882751, -0.41309675574302673, -0.9305899143218994, -0.17760002613067627, -0.1107754185795784, -1.292991042137146, 0.8700233101844788, -0.23787003755569458, 0.10221924632787704, 0.4397745728492737, -0.5601858496665955, 1.0145683288574219, 0.8959171175956726, -0.43576401472091675, 0.07202987372875214, -0.2512204051017761, 0.3016645014286041, -0.5195187926292419, 0.6834374666213989, -0.4069673717021942, -0.0016905111260712147, -0.19423937797546387, -0.4111017882823944, 0.8976381421089172, 0.10853663831949234, -0.09257715195417404, -0.4910813868045807, 0.1892433613538742, -0.2627342939376831, -0.2891601026058197, -0.17775240540504456, 1.1005934476852417, -0.1474957913160324], [-0.03375216946005821, 0.22851912677288055, 0.5536739230155945, -0.30397990345954895, 0.42703723907470703, -0.1029263362288475, 0.30138489603996277, 0.3017908036708832, -0.11193106323480606, -0.055194124579429626, 0.043947733938694, -0.33657974004745483, 0.4942763149738312, 0.12998805940151215, -0.11589153856039047, -0.3665614128112793, -0.10537111759185791, -0.9541286826133728, -0.48315301537513733, 0.143107071518898, 0.5293245315551758, 0.43369367718696594, 0.3606815040111542, 0.2431199997663498, -0.3262688219547272, -0.22515109181404114, -0.06844082474708557, 0.5301579236984253, -0.7987475991249084, -0.02315123751759529, 0.39143839478492737, 0.6071707010269165, -0.1104830801486969, -0.8119478821754456, 0.09213758260011673, -0.3618256449699402, -1.0743927955627441, 0.47620028257369995, 0.1644631028175354, 0.2884749174118042, 0.03383695334196091, -0.5123159289360046, 0.4839605987071991, 0.1425495594739914, 0.11612673848867416, -0.03922399878501892, -0.1518782079219818, -0.08499779552221298, -0.6892085075378418, 0.2255653738975525, -0.18206505477428436, -0.3582150638103485, -0.2277444750070572, -0.948045015335083, 0.42969000339508057, 0.5065075755119324, 0.15362460911273956, -0.9355266094207764, 0.06430128961801529, -0.01932554319500923, 0.061615344136953354, 0.06552621722221375, 0.07564736902713776, -0.831123948097229], [-0.31464076042175293, 0.80007004737854, -0.2253044843673706, -0.3815709948539734, 0.19228509068489075, -0.3415509760379791, 0.11250704526901245, -0.9454302787780762, -0.07507012039422989, 0.3361334502696991, 0.5955972671508789, -0.14443889260292053, 0.2928367853164673, 0.1009291484951973, 0.1226532906293869, -0.1628951132297516, -0.2535913288593292, 0.8426335453987122, 0.5111516714096069, 0.8631839156150818, 0.11188989877700806, -0.09138727933168411, 0.2517659664154053, -0.8635808229446411, 0.026706736534833908, -0.339722603559494, -0.11114655435085297, 0.013482604175806046, 1.076720952987671, -0.8509148955345154, 0.15605054795742035, -0.17593668401241302, -0.10213052481412888, -1.042421817779541, -0.24355848133563995, 0.18394003808498383, -1.322623372077942, 0.08146511763334274, -0.06974204629659653, -0.3582613170146942, -1.086658000946045, -0.16995671391487122, 0.033518269658088684, 0.8404600620269775, -0.2006237506866455, -1.1481133699417114, -0.01616143062710762, -1.2093250751495361, 0.3062632083892822, -0.36616724729537964, 0.08111534267663956, -0.957671582698822, -0.6050720810890198, 0.9111203551292419, 0.025100944563746452, -1.601751137059182e-05, 0.20535951852798462, 0.7846212983131409, -0.5682098269462585, -0.24197281897068024, 0.3443225622177124, 0.3968251645565033, 0.7805572748184204, 1.1409560441970825], [-0.4626306891441345, -0.03975013643503189, -0.5432771444320679, 0.12877152860164642, 0.008394304662942886, -0.056060586124658585, -0.18801842629909515, -0.0024261954240500927, -0.10827642679214478, -0.1025509163737297, -0.3625539541244507, 0.005992602091282606, -0.7544798254966736, -0.17905756831169128, -0.32205721735954285, 0.14244838058948517, -0.17877183854579926, 1.5899693965911865, 1.0881233215332031, -0.5144173502922058, -0.5188395977020264, -0.8006772398948669, 0.0808836817741394, 0.04161848500370979, -0.25265148282051086, 0.1625927835702896, -0.18833796679973602, -0.5859500765800476, 1.284166932106018, 0.3637310564517975, -0.2888128459453583, -0.40728434920310974, -0.24415116012096405, 0.7661958336830139, -0.061517685651779175, -0.013099242933094501, 1.393136978149414, -0.834169864654541, -0.32324400544166565, -0.47249510884284973, 0.06844250112771988, 0.03279094398021698, -0.4760577082633972, -0.04952825978398323, -0.28694432973861694, 0.07810842990875244, -0.1518925428390503, 0.15500926971435547, 1.1765810251235962, -0.0023228051140904427, -0.20864294469356537, 0.2150014042854309, 0.4570290148258209, 1.4644545316696167, -0.7689114212989807, -0.263731449842453, -0.09079772979021072, 1.474144697189331, -0.28022506833076477, -0.11603107303380966, 0.17112761735916138, -0.03830176591873169, -0.2275177389383316, 1.2185230255126953], [-0.1149323508143425, -0.6554070115089417, -1.137094259262085, 0.1946672946214676, -0.025702014565467834, -0.06660278141498566, -0.2475738525390625, -0.2714586853981018, -0.0943705290555954, -0.3232143819332123, -1.1283200979232788, 0.062384746968746185, -0.8573982119560242, -0.19483010470867157, 0.011163382790982723, 0.4205867350101471, 0.14358793199062347, 0.9928449392318726, 0.7859317660331726, -0.6840397119522095, -0.9353556632995605, -1.0636656284332275, -0.03672249987721443, -0.41750654578208923, 0.14893630146980286, 0.30541616678237915, -0.15811480581760406, -0.9249748587608337, 0.6705250144004822, -0.02927216701209545, 0.11159120500087738, -0.9996390342712402, -0.12818829715251923, 0.7797099947929382, 0.04871430993080139, 0.14004109799861908, 1.4554351568222046, -1.2671387195587158, -0.24715635180473328, -0.20397426187992096, -0.1864769607782364, 0.0011671031825244427, -0.6915646195411682, -0.44222164154052734, -0.11343977600336075, -0.12927745282649994, 0.0009412480285391212, -0.11938328295946121, 0.9912160038948059, -0.7221453785896301, -0.16020721197128296, -0.17983762919902802, 0.48102542757987976, 1.1496495008468628, -0.8853012323379517, -0.23357196152210236, -0.25973600149154663, 1.2697405815124512, -0.1612672209739685, -0.06247774884104729, -0.1811053305864334, -0.0293284822255373, -0.9848577380180359, 0.7478513717651367], [0.06732174754142761, 0.37388715147972107, 0.40822499990463257, -0.35929426550865173, -1.0573406219482422, -0.16790935397148132, 0.007567335851490498, 0.4345625042915344, -0.5719499588012695, -0.21366915106773376, 0.7413378357887268, -0.5436575412750244, 0.6323868036270142, -0.3407253623008728, -0.3582303822040558, -0.5230591893196106, -0.32818418741226196, -0.6334484219551086, -0.4692312777042389, 0.14935217797756195, 0.42612341046333313, 0.6312262415885925, -0.7645148038864136, 0.22382484376430511, -0.024035930633544922, -0.028518570587038994, -0.5106140375137329, 0.7039502263069153, -0.5504502654075623, 0.36390870809555054, -0.726652979850769, 0.708051860332489, -0.45893725752830505, -0.9818997979164124, -0.36811649799346924, -0.08538541197776794, -0.7084197998046875, 0.6822691559791565, -0.5728116035461426, 0.0257614403963089, 0.2151118516921997, -0.3012585937976837, 0.30124548077583313, 0.15873299539089203, -0.28488439321517944, 0.12367244064807892, -0.43505096435546875, 0.283035010099411, -0.6334710121154785, 0.5013784170150757, -0.4485267996788025, -0.045352477580308914, -0.3460785448551178, -0.8841786980628967, 0.4874579608440399, -0.020054854452610016, -0.21004770696163177, -0.8033279776573181, -0.24695952236652374, -0.439315527677536, -0.5119544267654419, -0.19829432666301727, 0.8454083204269409, -0.38193365931510925], [-0.3540412187576294, 0.7451134324073792, -0.16568432748317719, -0.3566272258758545, 0.4063521921634674, -0.1660556197166443, -0.3343164622783661, -0.6546860337257385, -0.20588955283164978, 0.031881172209978104, 0.594534695148468, -0.2315252423286438, 0.3459954559803009, 0.055143557488918304, -0.03703226521611214, -0.0799710750579834, -0.0869051069021225, 0.859321653842926, 0.3253951668739319, 1.165262222290039, 0.017162073403596878, 0.041583504527807236, 0.3779999017715454, -0.7279660105705261, -0.37452825903892517, -0.3842219114303589, -0.22506682574748993, -0.20543576776981354, 1.0072640180587769, -0.43552085757255554, 0.36394768953323364, -0.035581983625888824, 0.023648183792829514, -1.081730842590332, -0.25215160846710205, -0.19568884372711182, -1.0804815292358398, -0.059182219207286835, -0.04879552870988846, -0.17763406038284302, -0.6037195920944214, -0.3200584053993225, -0.1238780990242958, 0.6872898936271667, -0.2627457082271576, -0.6361603140830994, 0.04078837111592293, -0.6301347613334656, 0.2573297917842865, -0.443047434091568, -0.1281924545764923, -0.7616152763366699, -0.781477153301239, 0.7751681208610535, 0.044939301908016205, 0.034660108387470245, 0.35096755623817444, 0.8571910858154297, -0.44183456897735596, -0.15579627454280853, 0.011614902876317501, 0.4106033742427826, 0.6765660047531128, 1.1632322072982788], [-0.009537210687994957, -0.020436571910977364, 0.5137225389480591, -0.3434385061264038, -1.3092646598815918, -0.30939990282058716, 0.15389852225780487, 0.5671928524971008, -0.8178098797798157, -0.7451209425926208, 0.5309522151947021, -0.646181046962738, 0.2959083914756775, -0.5317487120628357, -0.8691055178642273, -0.4271537959575653, -0.39498770236968994, -0.7239662408828735, -0.7454649806022644, 0.03775366023182869, 0.24780742824077606, 0.1933077871799469, -1.2267937660217285, 0.668997049331665, 0.20647060871124268, 0.5324285626411438, -0.7369281649589539, 0.4711117148399353, -0.6160474419593811, 0.4508512616157532, -1.6036511659622192, 0.3855891525745392, -0.8386666774749756, -0.5605873465538025, -0.623785674571991, 0.01384906005114317, 0.19398610293865204, 0.28381332755088806, -0.5396141409873962, -0.356825590133667, 0.43775102496147156, -0.24732522666454315, 0.5073339343070984, 0.1964515745639801, -0.7047497630119324, 0.6278632283210754, -0.588401734828949, 0.49555230140686035, -0.7410522699356079, 0.7020007967948914, -0.793289840221405, 0.47053855657577515, 0.24280042946338654, -0.625227689743042, 0.3508986532688141, -0.3030970096588135, -0.5692925453186035, -0.9810828566551208, -0.14723815023899078, -0.7233721613883972, -0.6104889512062073, -0.8299810886383057, 0.48187264800071716, -0.4210261106491089], [-0.2690095603466034, 0.5708538293838501, -0.047340914607048035, -0.674909770488739, 0.2948123514652252, -0.19277803599834442, -0.3921653926372528, -0.3982223570346832, 0.0011363880475983024, 0.29828783869743347, 0.7685608267784119, -0.24668291211128235, 0.3360576927661896, 0.3437032401561737, -0.30140331387519836, -0.10883139818906784, -0.447162389755249, 0.6404844522476196, 0.2680074870586395, 1.1862053871154785, -0.07457754760980606, -0.1767236292362213, 0.29061359167099, -0.5642129182815552, -0.425047904253006, -0.041377805173397064, -0.06531167775392532, -0.029030662029981613, 1.3113378286361694, -0.8594753742218018, 0.503579318523407, -0.1204097792506218, -0.25275713205337524, -1.0126127004623413, -0.1639145165681839, -0.2992005944252014, -0.9733021259307861, -0.07249468564987183, -0.13497674465179443, -0.3071983754634857, -0.7147080898284912, -0.34063515067100525, -0.26937320828437805, 0.753672182559967, -0.08057612180709839, -0.7052035927772522, 0.13200333714485168, -0.48233935236930847, 0.39952361583709717, -0.17913123965263367, -0.228597491979599, -0.7473598122596741, -0.6912917494773865, 0.7945351004600525, -0.2545313537120819, 0.05311685428023338, 0.11838538944721222, 0.8102074265480042, -0.4594365358352661, -0.10683739185333252, 0.3445892632007599, 0.21222089231014252, 0.7638806700706482, 1.0790210962295532], [0.04309158772230148, -0.8271443843841553, -0.5141763687133789, 0.40474218130111694, -1.362165927886963, -0.05954326316714287, -0.45669952034950256, -0.02622515708208084, -0.5283982157707214, -1.0210199356079102, -0.2092539370059967, -0.4087761640548706, -0.497670978307724, -0.9087810516357422, -0.6346234679222107, 0.22515594959259033, -0.0612674206495285, 0.26396340131759644, 0.18022732436656952, -0.8123600482940674, -0.5687192678451538, -0.7300746440887451, -1.4471712112426758, -0.1795443445444107, 0.2502068281173706, 0.6145393252372742, -0.7407432198524475, -0.6009411215782166, 0.31505146622657776, 0.31441301107406616, -1.7996636629104614, -0.1992376446723938, -0.5401511788368225, 0.4530937373638153, -0.6948120594024658, 0.034837957471609116, 1.1740940809249878, -0.7054607272148132, -0.5793595314025879, -0.29374656081199646, -0.19363440573215485, 0.267666757106781, -0.11410250514745712, -0.8669175505638123, -0.41635528206825256, 0.19752639532089233, -0.25341668725013733, -0.18715032935142517, 0.45706626772880554, 0.06623639911413193, -0.6693155765533447, 0.25038862228393555, 0.6124194860458374, 0.3061870336532593, -0.45333221554756165, -0.3285267949104309, -0.8289198875427246, 0.31712186336517334, -0.5465086102485657, -0.515030026435852, -0.6137948036193848, -0.7187743782997131, -0.06241508573293686, 0.224279522895813], [-0.012553245760500431, -0.6892604231834412, 0.09182439744472504, 0.4591577351093292, 0.18724951148033142, 0.3049177825450897, 0.14706729352474213, 0.6769396066665649, -0.02235904335975647, -0.5532347559928894, -0.6190775632858276, 0.2678939998149872, -0.5478640198707581, -0.3750622570514679, 0.09223572909832001, 0.12156739085912704, 0.44680553674697876, -0.535237193107605, -0.14600902795791626, -0.676048994064331, -0.2966051399707794, -0.29034727811813354, -0.06227365508675575, 0.9082021117210388, -0.002824109047651291, 0.22814156115055084, 0.059181567281484604, 0.014064152725040913, -0.8443347811698914, 0.7677596211433411, 0.13480991125106812, -0.06303315609693527, 0.22707834839820862, 0.7611150741577148, 0.19725550711154938, -0.10477788746356964, 0.8678457140922546, -0.23768435418605804, -0.025946496054530144, 0.1915149688720703, 0.8817871809005737, -0.019221194088459015, 0.027996860444545746, -0.5114229917526245, -0.09713675826787949, 1.0484858751296997, 0.22243709862232208, 0.6849417686462402, -0.21685905754566193, 0.49573132395744324, 0.09307335317134857, 1.0238232612609863, 0.5954424738883972, -0.8382464051246643, 0.015064401552081108, -0.2316441386938095, -0.5630945563316345, -0.44511228799819946, 0.5535582900047302, 0.1051124781370163, 0.04907184839248657, -0.5088958740234375, -0.517366349697113, -0.869789183139801], [-0.23143962025642395, 0.05417577549815178, -0.9303398728370667, 0.11284524947404861, 0.6015238165855408, -0.051369618624448776, -0.48433342576026917, -0.3460812270641327, -0.11549855768680573, -0.02255854196846485, -0.7987320423126221, 0.1802569329738617, -0.6467993855476379, -0.13017162680625916, -0.0467412956058979, 0.02764124609529972, 0.28497785329818726, 1.3329484462738037, 0.926977813243866, 0.26229825615882874, -0.9783735871315002, -0.774170994758606, 0.5684788227081299, -0.23898479342460632, -0.13599185645580292, 0.18840287625789642, 0.19941391050815582, -0.9739295244216919, 1.1676329374313354, -0.368064284324646, 0.1691565364599228, -0.5147879719734192, -0.057043448090553284, 0.5841673612594604, -0.00804117601364851, -0.022389495745301247, 0.8232285380363464, -1.124329924583435, -0.1704648733139038, -0.05881281569600105, -0.08381815254688263, 0.26549041271209717, -0.7721243500709534, 0.28132304549217224, 0.18831822276115417, -0.2870001196861267, 0.1986982822418213, -0.2684425711631775, 1.0184459686279297, -0.3432193696498871, -0.057812679558992386, -0.13032682240009308, 0.4503529369831085, 1.6105296611785889, -0.8948809504508972, -0.11865724623203278, -0.04968860745429993, 1.448047161102295, -0.3100912272930145, -0.042944300919771194, 0.2474348396062851, -0.11124179512262344, -0.770130455493927, 1.0761436223983765], [0.07894066721200943, 0.05990571901202202, 0.33708545565605164, -0.17077136039733887, -1.5485249757766724, -0.17427150905132294, 0.15252667665481567, 0.5033202767372131, -0.5817813873291016, -0.7129175662994385, 0.15620042383670807, -0.4688824415206909, 0.24174422025680542, -0.5090075731277466, -0.7793042659759521, -0.055772777646780014, -0.32962509989738464, -1.0312116146087646, -0.8295923471450806, -0.30483129620552063, 0.3693796396255493, 0.35669130086898804, -1.2716889381408691, 0.8020909428596497, 0.09875686466693878, 0.33010274171829224, -0.7688758969306946, 0.4315839111804962, -0.8278746604919434, 0.4836544692516327, -1.3800404071807861, 0.5573208332061768, -0.6391130089759827, -0.29769569635391235, -0.7237507700920105, 0.16443733870983124, 0.10552295297384262, 0.3941252529621124, -0.5926283597946167, -0.10591129213571548, 0.5768728256225586, -0.28868940472602844, 0.41913652420043945, -0.2706167995929718, -0.4798852503299713, 0.5349120497703552, -0.757105827331543, 0.7028448581695557, -0.5186798572540283, 0.5631745457649231, -0.8760610222816467, 0.6295456290245056, 0.04480789229273796, -0.8964797258377075, 0.3275871276855469, -0.26702508330345154, -0.8086158037185669, -0.9598870873451233, -0.28229713439941406, -0.6677390933036804, -0.4672222137451172, -0.5821999907493591, 0.08327297121286392, -0.5995492339134216]], "b2": [-0.13203534483909607, 0.20524555444717407, -0.2482149749994278, 0.1220782995223999, -0.9618226885795593, -0.017188044264912605, -0.07235269248485565, 0.00015446802717633545, -0.26057833433151245, -0.26147863268852234, 0.2428671270608902, -0.09750736504793167, 0.03938078507781029, -0.23225931823253632, -0.2984999418258667, 0.17212210595607758, -0.08034604787826538, 0.0524149164557457, 0.016145240515470505, 0.20880164206027985, -0.23141929507255554, -0.25755104422569275, -0.8680381178855896, -0.03160453960299492, 0.12400376796722412, 0.1491338163614273, -0.2643478810787201, -0.3109949827194214, 0.18248721957206726, -0.061651479452848434, -1.142891526222229, -0.08115297555923462, -0.28097185492515564, -0.01413885597139597, -0.2209642380475998, 0.03416194021701813, 0.2929361164569855, -0.23888976871967316, -0.24613985419273376, -0.3818396329879761, -0.03596288710832596, 0.14296172559261322, -0.1602754294872284, 0.23757395148277283, -0.27480894327163696, -0.08228709548711777, -0.31405824422836304, -0.06068751588463783, 0.010944083333015442, 0.1034991592168808, -0.25605836510658264, 0.05640678107738495, 0.11115283519029617, 0.21083253622055054, -0.21709656715393066, -0.1494026929140091, -0.21620436012744904, 0.11352615803480148, -0.3525923788547516, -0.2844950556755066, -0.36657100915908813, -0.26575174927711487, 0.27289506793022156, 0.2054540365934372], "W3": [[0.02445279061794281], [0.47323116660118103], [0.24496330320835114], [0.2314092218875885], [0.5389461517333984], [-0.10472317039966583], [-0.35037001967430115], [0.35601621866226196], [-0.2812071144580841], [-0.5767168998718262], [0.6530451774597168], [-0.15846703946590424], [0.5189605951309204], [-0.44297200441360474], [-0.332454115152359], [0.24540606141090393], [-0.11020556092262268], [0.608487069606781], [0.656327486038208], [0.7222203016281128], [0.47300419211387634], [0.24406099319458008], [0.4511200785636902], [0.5490921139717102], [0.15222811698913574], [0.3168126344680786], [-0.29073581099510193], [0.3202785849571228], [0.8386583924293518], [0.7436413168907166], [0.5471104383468628], [0.4441371560096741], [-0.33191558718681335], [0.8913003206253052], [-0.31503456830978394], [0.011004368774592876], [1.4036180973052979], [0.3345700204372406], [-0.2369566708803177], [-0.1774471253156662], [0.5440596342086792], [0.20908498764038086], [0.2717706859111786], [0.6320289373397827], [-0.3436644673347473], [0.5085099935531616], [-0.23238329589366913], [0.6225679516792297], [0.6415020823478699], [0.4717511832714081], [-0.30954253673553467], [0.7830514907836914], [0.38934963941574097], [0.6280666589736938], [0.5296832323074341], [-0.24743446707725525], [-0.6216482520103455], [0.5842515826225281], [-0.22216548025608063], [-0.2734534740447998], [-0.45500579476356506], [-0.48343193531036377], [0.7203539609909058], [0.7404980659484863]], "b3": [0.2712792456150055]}