{"W1": [[-0.02043999917805195, -0.26451319456100464, 0.025680670514702797, -0.03936978057026863, 0.43713483214378357, 0.06604460626840591, -0.46074625849723816, -0.3615349233150482, -0.3174293637275696, 0.30177345871925354, 0.24393093585968018, -0.0532551109790802], [-0.08827236294746399, 0.8248568773269653, -0.5282324552536011, -0.6690458059310913, 0.3797629773616791, -0.6752589344978333, -0.2882783114910126, -0.5966314077377319, 0.10949831455945969, 0.7679310441017151, -0.8363397717475891, 0.4393197000026703], [0.5672851800918579, -0.3308611810207367, -0.11862105131149292, 0.451934814453125, 0.16659575700759888, -0.5359313488006592, -0.1031792163848877, 0.48677754402160645, -0.20698240399360657, -0.18526768684387207, 0.36661064624786377, 0.5181922912597656], [0.2039729356765747, -0.2754208445549011, -0.5700392127037048, 0.5237510204315186, -0.48273181915283203, 0.08578646183013916, -0.07877933979034424, 0.212113618850708, -0.1730157732963562, -0.22207900881767273, 0.3285071849822998, -0.20642244815826416], [0.18607401847839355, 0.28304558992385864, -0.5546185970306396, -0.49035000801086426, 0.5261538028717041, -0.3875764310359955, -0.4183444678783417, -0.22868874669075012, -0.02868551015853882, 0.4367241859436035, 0.12253463268280029, -0.4778028130531311], [0.2654860019683838, 0.4369746446609497, 0.20506316423416138, 0.5618773698806763, -0.3575122058391571, -0.17434850335121155, -0.11665195226669312, 0.40918129682540894, -0.4366230070590973, 0.07716012001037598, -0.5422711372375488, 0.2069944143295288]], "b1": [0.08608885854482651, 0.013912430964410305, -0.027093181386590004, -0.041147686541080475, 0.07099393755197525, 0.029400570318102837, 0.05131538584828377, -0.07011391222476959, -0.0011585615575313568, 0.07967249304056168, 0.011923869140446186, -0.020838160067796707], "W2": [[-0.48999330401420593, 0.31145235896110535, 0.0714687705039978, 0.3608028292655945, 0.09012190252542496, 0.5452475547790527, 0.1573576033115387, -0.3236106336116791, -0.16355052590370178, -0.237568661570549, -0.14602650701999664, 0.2553744316101074], [0.09092753380537033, -0.1124311313033104, -0.2567945122718811, -0.08435548096895218, -0.5016278624534607, -0.07939956337213516, -0.12624244391918182, -0.5556379556655884, -0.20604604482650757, -0.2692606449127197, -0.4014468193054199, 0.5778689980506897], [-0.18943245708942413, -0.535057544708252, -0.6463381052017212, -0.09992848336696625, 0.18870505690574646, 0.3199935853481293, -0.4662903845310211, 0.5137593746185303, 0.5251686573028564, 0.16337676346302032, 0.3409750461578369, -0.1694095879793167], [-0.3076152801513672, -0.2849530279636383, -0.49578145146369934, -0.1852969378232956, 0.423379123210907, 0.3283785283565521, -0.5639404058456421, 0.2716964781284332, -0.027279939502477646, 0.344710111618042, -0.1855834573507309, -0.4766508638858795], [-0.42225468158721924, 0.17583024501800537, -0.22330878674983978, 0.012240780517458916, -0.19401030242443085, -0.2565648853778839, 0.28937843441963196, -0.038875795900821686, 0.28866705298423767, -0.4167812764644623, -0.19512511789798737, 0.1514846831560135], [-0.39319226145744324, -0.46368053555488586, -0.4822502136230469, 0.38235801458358765, -0.06969611346721649, 0.5521572232246399, -0.19736921787261963, -0.09964510798454285, 0.7133124470710754, 0.1740313172340393, 0.07754974067211151, -0.3127335011959076], [0.3312186002731323, -0.4927627444267273, -0.335395485162735, 0.40944066643714905, 0.36085036396980286, -0.06614218652248383, 0.13338160514831543, -0.030522702261805534, 0.21855220198631287, -0.4065522849559784, 0.42046159505844116, 0.289939820766449], [-0.11503960937261581, -0.22599877417087555, -0.09032881259918213, 0.44220584630966187, -0.14974117279052734, 0.6166571378707886, -0.5806188583374023, 0.5359704494476318, 0.11594172567129135, -0.26877981424331665, 0.6199097633361816, -0.2029142826795578], [-0.4120210111141205, 0.40486565232276917, 0.3076026141643524, -0.015148893930017948, -0.13736875355243683, -0.43684837222099304, -0.06567099690437317, 0.4374443292617798, 0.3082069158554077, -0.14723390340805054, 0.41620776057243347, 0.16930130124092102], [-0.15655408799648285, 0.5555277466773987, 0.40983378887176514, -0.12094032019376755, -0.44828909635543823, 0.04415735602378845, 0.09896650910377502, -0.31973522901535034, -0.5995286703109741, -0.5974212884902954, -0.20047222077846527, 0.3904421925544739], [-0.5026570558547974, -0.34183433651924133, 0.21587514877319336, 0.6286367177963257, 0.4956497251987457, 0.21695558726787567, -0.32248687744140625, 0.34082135558128357, 0.6282781362533569, 0.48933443427085876, 0.2617534399032593, -0.13299758732318878], [0.03916909545660019, -0.03017050214111805, 0.32865262031555176, 0.05389053747057915, 0.18643754720687866, -0.7878056168556213, 0.24907130002975464, -0.19670313596725464, -0.34572190046310425, -0.1807209849357605, -0.13352330029010773, 0.27312833070755005]], "b2": [-0.0019510893616825342, 0.024633539840579033, 0.04855882748961449, -0.04689102619886398, -0.025533616542816162, -0.020174475386738777, 0.08320792019367218, -0.011230154894292355, -0.005076454486697912, -0.021367181092500687, -0.06224683299660683, 0.07882753759622574], "W3": [[-0.1846570074558258, 0.6508201956748962, 0.37642425298690796], [-0.398712158203125, 0.29563286900520325, 0.0022975746542215347], [-0.13169297575950623, -0.29936641454696655, -0.7546682953834534], [-0.3457590341567993, -0.2989838421344757, 0.38359305262565613], [-0.21269086003303528, -0.20462650060653687, 0.8315579891204834], [0.5473576188087463, 0.04598529636859894, 0.6786235570907593], [0.48633742332458496, 0.7355420589447021, -0.5055399537086487], [0.023627256974577904, -0.7402107119560242, -0.2232147455215454], [0.5383030772209167, 0.20954559743404388, 0.7272587418556213], [-0.10466621071100235, -0.6236092448234558, -0.09489759057760239], [0.4528188705444336, 0.13596832752227783, 0.7335246205329895], [-0.40050849318504333, 0.4616244435310364, -0.6645675897598267]], "b3": [-0.009150245226919651, 0.07318055629730225, -0.06746659427881241]}