{"W1": [[0.4518853724002838, -0.05890733003616333, 0.3934802711009979, 0.4987933039665222, -0.5642485618591309, -0.46193480491638184, -0.4324837327003479, -0.1796073168516159, -0.3031277358531952, 0.24651513993740082, 0.2259841114282608, 0.34415745735168457], [0.46955862641334534, -0.7097816467285156, -0.656704306602478, -0.37101513147354126, -0.10308487713336945, 0.7752701640129089, -0.18095822632312775, -0.7882224321365356, -0.7903792858123779, 0.7281606793403625, 0.8229723572731018, -0.10099809616804123], [0.1328803300857544, 0.15934360027313232, 0.5688267946243286, 0.5427162647247314, 0.24191975593566895, 0.5311874151229858, 0.06799012422561646, -0.32834601402282715, 0.4528590440750122, 0.42522871494293213, -0.4832521677017212, 0.5509518384933472], [-0.10949218273162842, 0.014274299144744873, 0.4386085271835327, 0.2472381591796875, -0.22747370600700378, 0.048280417919158936, 0.5640039443969727, 0.262714684009552, 0.5464305877685547, 0.21791976690292358, 0.4149550795555115, 0.040714263916015625], [0.4052400588989258, 0.35504263639450073, -0.3293612003326416, -0.15506911277770996, 0.35670435428619385, 0.5054318904876709, 0.3259555697441101, 0.09671896696090698, -0.4414738416671753, 0.15149211883544922, -0.4050214886665344, 0.39715927839279175], [0.42321789264678955, -0.5314967632293701, 0.48298585414886475, -0.2824915647506714, 0.07739841938018799, -0.29176318645477295, -0.3395572900772095, 0.4970974922180176, 0.17394161224365234, 0.08998948335647583, -0.4568221867084503, -0.1179589331150055]], "b1": [0.04721111059188843, -0.02856520749628544, 0.021570200100541115, -0.012369019910693169, 0.05221666395664215, 0.05483649671077728, -0.015579055063426495, 0.009217473678290844, 0.061208318918943405, 0.08775842934846878, 0.12119465321302414, -0.08042500168085098], "W2": [[0.5018540024757385, -0.17419658601284027, -0.3721356689929962, -0.49789631366729736, 0.4582973122596741, 0.13163328170776367, 0.271930068731308, -0.6349945068359375, -0.029285700991749763, -0.31384292244911194, 0.3977576196193695, 0.2949284017086029], [-0.18857528269290924, 0.003009808249771595, 0.20672456920146942, 0.2263706624507904, -0.5311444997787476, -0.5573439002037048, -0.10560313612222672, 0.3931366503238678, -0.433722585439682, -0.30808764696121216, -0.7216276526451111, 0.09401480853557587], [-0.00406836299225688, 0.6263746023178101, -0.2987535297870636, -0.042551439255476, -0.3555428087711334, 0.11355562508106232, -0.4356679916381836, 0.6141313314437866, 0.2699781358242035, 0.28766074776649475, -0.08118364214897156, 0.19618947803974152], [-0.41201332211494446, -0.24553994834423065, -0.5453710556030273, 0.33128422498703003, -0.5695650577545166, 0.22813265025615692, 0.15846823155879974, -0.0403636172413826, -0.016912901774048805, -0.03376069664955139, -0.22877080738544464, -0.21358220279216766], [-0.09639925509691238, 0.10369079560041428, -0.2727258503437042, 0.39539796113967896, 0.2039724737405777, -0.10109556466341019, -0.4875563085079193, -0.32520079612731934, 0.1984998732805252, -0.045262377709150314, -0.004703926853835583, -0.39852920174598694], [-0.3205679953098297, 0.06281092017889023, 0.5691092610359192, -0.6955099105834961, 0.46195074915885925, 0.106974758207798, 0.35234335064888, -0.4632326066493988, 0.540507435798645, -0.1644483208656311, 0.5735304355621338, -0.4158295691013336], [-0.3104991614818573, 0.4761151075363159, 0.3802572786808014, -0.01829725317656994, -0.4768815040588379, 0.20927511155605316, 0.15450794994831085, 0.31856217980384827, -0.007748663425445557, 0.39141711592674255, -0.16531088948249817, -0.16548828780651093], [-0.32191210985183716, 0.40680745244026184, -0.3860228955745697, 0.6195048689842224, -0.462952196598053, -0.2811712622642517, -0.1474207490682602, -0.23973706364631653, -0.5514921545982361, -0.16709426045417786, -0.10508061945438385, -0.23212279379367828], [-0.18982981145381927, -0.10792411118745804, 0.07586633414030075, 0.0498708076775074, -0.7053640484809875, -0.3795997202396393, 0.24290907382965088, 0.711076557636261, 0.1208069771528244, -0.3779730796813965, -0.5454918146133423, -0.3006356358528137], [0.44176530838012695, -0.43061235547065735, -0.27453964948654175, -0.12572726607322693, 0.4724728465080261, 0.46288588643074036, 0.3261263370513916, -0.32478517293930054, 0.6452306509017944, 0.5986449718475342, 0.34026214480400085, 0.19009728729724884], [0.24405300617218018, -0.33263516426086426, 0.5458029508590698, 0.07578922808170319, -0.14880003035068512, 0.26818957924842834, 0.3720818758010864, 0.04453225061297417, 0.21410603821277618, 0.6129035353660583, 0.6018077731132507, -0.33933940529823303], [0.15644021332263947, -0.14561887085437775, 0.11972860991954803, 0.22416505217552185, -0.4565545618534088, -0.2858174443244934, -0.041848454624414444, -0.1615270972251892, -0.02808065339922905, 0.14036424458026886, -0.4453444480895996, 0.04704004526138306]], "b2": [0.012951209209859371, -0.02796372026205063, 0.06892815977334976, -0.0051536099053919315, 0.08041612803936005, 0.059635765850543976, 0.06480792909860611, 3.481701060081832e-05, 0.06468907743692398, 0.04433540999889374, 0.08434336632490158, -0.07827073335647583], "W3": [[0.5115113258361816, -0.36071184277534485, -0.7326326370239258], [0.30853092670440674, -0.4476986825466156, 0.09655018150806427], [0.2640577554702759, 0.0905931368470192, -0.5374649167060852], [0.2036837935447693, -0.18226167559623718, 0.7114526033401489], [-0.2706063687801361, 0.3344305455684662, -0.7809609770774841], [-0.21463210880756378, 0.5609519481658936, 0.019370879977941513], [0.00520006287842989, 0.06635420024394989, -0.743329644203186], [0.26602989435195923, -0.36571168899536133, 0.8634828925132751], [0.18342144787311554, 0.5522614121437073, -0.43717437982559204], [0.3113834857940674, 0.23038218915462494, -0.24249625205993652], [-0.4757268726825714, 0.31805872917175293, -0.5948024988174438], [0.17052531242370605, -0.4772009551525116, -0.1505194902420044]], "b3": [-0.009304524399340153, 0.05836557224392891, -0.057486146688461304]}