{"W1": [[-0.22031767666339874, 0.3161104619503021, -0.5753780007362366, 0.13582207262516022, 0.427385538816452, -0.3492167294025421, 0.07950745522975922, 0.019277891144156456, -0.27132362127304077, -0.27311941981315613, 0.38303571939468384, -0.4262332320213318], [0.6421913504600525, -0.3349113464355469, 0.533358097076416, 0.3893691897392273, -0.6140933632850647, 0.613983154296875, 0.47270137071609497, -0.26704004406929016, 0.2835935950279236, -0.37886807322502136, 0.11783327162265778, 0.4054255783557892], [-0.5649809241294861, -0.338409960269928, -0.2291625440120697, -0.018259525299072266, -0.4886855185031891, -0.09581366181373596, 0.40330564975738525, -0.1909744143486023, 0.5149539709091187, -0.12927812337875366, -0.29028648138046265, -0.22317719459533691], [0.1514642834663391, 0.4787862300872803, 0.3246561288833618, 0.04192990064620972, -0.015499651432037354, 0.25326013565063477, -0.006938159465789795, 0.3208845257759094, 0.46219027042388916, 0.10221922397613525, 0.4790952205657959, -0.5671173930168152], [0.2724252939224243, 0.05545163154602051, -0.271151602268219, -0.5137971639633179, 0.32676565647125244, 0.026074528694152832, 0.002283632755279541, -0.3596802055835724, 0.5433744192123413, -0.13350099325180054, -0.34713125228881836, -0.03491628170013428], [0.5146019458770752, -0.32328692078590393, -0.016662538051605225, 0.08567535877227783, 0.3445209860801697, 0.26243001222610474, -0.5099753141403198, -0.02532285451889038, -0.417948842048645, 0.11061125993728638, 0.19916462898254395, 0.18832796812057495]], "b1": [0.007738099899142981, 0.025377126410603523, 0.0638720914721489, -0.04068894311785698, 0.01721353828907013, -0.00033701330539770424, -0.006747958716005087, 0.002435470698401332, -0.06887181848287582, 0.011044984683394432, 0.0342818908393383, -0.09263116121292114], "W2": [[-0.1784944385290146, 0.23633211851119995, 0.31135427951812744, 0.7362834215164185, -0.47651320695877075, 0.3944374620914459, -0.6812581419944763, -0.33416417241096497, -0.6344647407531738, 0.3020787835121155, 0.26556241512298584, 0.3011530637741089], [0.4122972786426544, 0.2914702296257019, -0.2025502324104309, 0.27770087122917175, 0.45153555274009705, -0.4155879318714142, -0.36038681864738464, -0.2144402712583542, 0.2819487452507019, 0.35345977544784546, 0.2724549472332001, -0.04211664944887161], [-0.16276195645332336, -0.06406256556510925, 0.2705785930156708, 0.5361135005950928, 0.06719668209552765, 0.07916437834501266, -0.44428306818008423, -0.11413103342056274, 0.33395397663116455, 0.21712447702884674, 0.17685143649578094, 0.5477880239486694], [-0.19484668970108032, -0.033723242580890656, -0.3757772743701935, -0.12515611946582794, -0.13149307668209076, 0.6251702904701233, 0.11759012937545776, 0.03754562884569168, -0.0021170240361243486, 0.022518161684274673, -0.006489231251180172, 0.07043562829494476], [-0.17340408265590668, 0.18559013307094574, 0.16469509899616241, -0.6473897695541382, -0.1851634383201599, -0.590472400188446, 0.5636110305786133, -0.05274506285786629, 0.6130504012107849, -0.38920655846595764, -0.06660012155771255, -0.015852009877562523], [-0.23309673368930817, -0.041636139154434204, -0.2688497006893158, 0.43009451031684875, -0.3620817959308624, 0.5006514191627502, -0.169694721698761, 0.16279615461826324, -0.06335056573152542, 0.09611990302801132, -0.2712453305721283, 0.5427744388580322], [-0.40985816717147827, 0.3623432517051697, -0.18538153171539307, -0.23763583600521088, -0.3498493731021881, 0.43832501769065857, 0.0036515630781650543, -0.02328992821276188, -0.46900802850723267, -0.018882712349295616, -0.46410202980041504, 0.2407326102256775], [0.07632933557033539, 0.050228990614414215, 0.2219623476266861, -0.677436113357544, -0.013663701713085175, -0.13382479548454285, 0.3234427869319916, 0.0842219889163971, 0.6611874103546143, -0.5419285297393799, 0.10477551817893982, -0.40812358260154724], [0.0019842691253870726, -0.34027671813964844, -0.26293694972991943, 0.12297959625720978, 0.1395149827003479, -0.2590123116970062, 0.08444839715957642, 0.15641850233078003, -0.526723325252533, -0.12354354560375214, -0.32105693221092224, 0.43874266743659973], [0.2153809517621994, -0.0008443149854429066, 0.1194174513220787, 0.11591283231973648, 0.2822346091270447, -0.26993462443351746, 0.35692861676216125, 0.5820057392120361, 0.24789245426654816, 0.06978781521320343, 0.3344792425632477, 0.24096517264842987], [-0.40343230962753296, 0.2770429253578186, 0.35336053371429443, 0.09524865448474884, 0.41163796186447144, 0.35501614212989807, -0.06454776972532272, 0.4223457872867584, -0.3727511465549469, 0.12557080388069153, 0.11004194617271423, 0.009920270182192326], [0.20304913818836212, -0.04484443739056587, -0.3775264620780945, 0.4200921952724457, -0.44359663128852844, -0.25554415583610535, 0.2549106478691101, -0.4541058838367462, 0.14840537309646606, -0.10507909953594208, -0.40825068950653076, -0.2091590166091919]], "b2": [0.00011958960385527462, -0.00101407989859581, 0.02788366749882698, 0.02613251842558384, 0.015644710510969162, 0.025762461125850677, 0.020636441186070442, -0.02378620207309723, 0.025153784081339836, 0.006496777292340994, 0.02434401772916317, 0.011233136057853699], "W3": [[0.7145593166351318, 0.3275770843029022, 0.5897065997123718], [-0.47575703263282776, -0.16492845118045807, 0.4744188189506531], [0.2565608620643616, -0.022364582866430283, -0.34715285897254944], [0.014775807969272137, 0.6237809062004089, 0.5393869876861572], [0.2638869881629944, -0.8080236315727234, -0.15327627956867218], [-0.5475450158119202, 0.7419916987419128, -0.03828684613108635], [-0.1972825974225998, -0.6552189588546753, -0.5567197799682617], [0.3618625998497009, -0.31892263889312744, -0.5712822675704956], [0.43385377526283264, -0.6295561790466309, 0.24661505222320557], [-0.5054117441177368, 0.009129654616117477, 0.4801289141178131], [0.20895442366600037, -0.20301023125648499, 0.5892603993415833], [0.020158465951681137, 0.651473879814148, -0.1514710634946823]], "b3": [-0.0186631977558136, 0.01339759398251772, -0.006997065152972937]}